{"acc_weights":[-101,117,4,118,-13,-71,-26,65,87,-117,-49,-86,-33,-103,5,106,-51,-93,78,-103,-84,-67,112,-90,-37,-77,-8,-22,124,74,-127,37,-74,119,100,34,-4,10,27,2,62,89,103,2,119,-99,-98,-123,38,-117,-56,-48,32,-1,0,24,-122,-80,103,-120,-118,-15,-52,-1,117,7,-96,29,-56,-2,74,42,43,-43,20,59,-54,42,-97,47,98,6,11,-48,-75,115,-58,126,49,72,-73,-85,-67,29,43,-81,97,-8,13,-24,-18,112,-14,35,-4,-9,37,53,25,-102,77,106,2,-88,80,-43,-44,-116,116,22,29,-93,-49,-47,-112,63,17,-5,-79,-6,4,103,-46,72,-52,119,-97,-68,123,-31,63,5,-105,61,-108,122,-16,0,8,-52,60,10,50,-66,-111,12,51,-28,11,-16,21,-1,113,-69,-54,45,123,-107,92,117,-101,69,56,-69,-39,-51,22,-109,-2,111,126,-41,-121,-34,-86,-49,-47,-32,70,86,-110,-20,-89,26,50,-84,-112,-9,14,-48,68,26,35,-44,95,79,21,-22,-81,-51,-86,58,17,-110,-100,81,16,-14,-78,63,-10,60,-24,9,13,-72,117,-96,109,-48,-116,45,57,-109,2,-67,-102,-2,22,94,45,-61,69,31,124,-73,118,77,54,98,-122,-112,-39,-63,-102,-113,-93,-18,-103,115,-59,-106,-57,10,39,100,-2,-13,0,74,-122,3,-101,81,-41,99,49,9,80,118,74,-107,56,-34,16,-122,12,-124,53,-24,-76,-1,-15,-52,70,-117,-74,-5,-79,103,-19,42,72,-59,2,10,-48,54,-102,5,-32,120,-91,75,57,105,-10,-69,106,80,112,-23,-10,12,-46,-109,112,44,68,-87,-119,-116,-101,27,73,111,28,-107,-12,-6,-41,-13,50,-77,57,83,-6,-9,69,25,-1,-127,-58,123,-94,34,-15,71,31,66,-21,-54,50,-58,79,54,-78,-36,-63,119,33,-124,-59,-78,109,20,-41,-75,-23,36,-26,-25,69,57,102,98,62,84,13,110,-64,-98,-108,1,-15,-31,83,-18,114,26,-16,67,64,49,-78,-75,24,-58,89,-20,99,87,9,54,82,101,106,-60,-69,-25,-105,116,-65,-62,95,1,101,34,-49,-48,118,40,-26,-96,-60,125,-31,77,29,58,103,61,59,110,-68,-83,-106,-32,-17,-8,116,-35,-106,-90,41,-118,-23,-120,41,-23,-19,21,-82,87,-18,-104,6,-125,-91,-114,-48,123,45,-104,-78,111,-54,49,-32,51,-89,-29,40,111,-1,67,-55,-44,-89,-93,39,122,-86,-107,63,-13,-40,76,44,-117,7,107,-123,119,64,45,34,-41,-96,-125,73,55,41,51,-99,110,72,125,-20,23,28,-3,17,-104,67,-94,-71,-121,-55,30,13,74,-50,-78,-92,-80,-50,14,89,31,22,11,-19,-50,103,71,-127,-40,16,81,-29,-20,28,-21,10,72,-26,55,-47,90,121,-3,-128,-108,-121,-31,28,63,-82,21,33,48,31,-72,28,-113,-95,-47,76,-111,36,-86,-112,13,-86,-100,-67,-96,24,73,-118,75,-96,-113,54,53,-111,65,99,26,56,-37,52,110,-78,10,82,-43,12,-35,-90,35,126,-71,-18,-6,64,-55,36,3,21,-21,-85,-75,39,56,75,78,-45,-100,-75,-58,86,-119,-3,-71,-47,-112,-6,86,55,11,-64,98,-118,-74,15,67,-71,-21,55,42,-43,122,76,0,100,-11,53,12,-85,-85,-5,-83,28,-117,83,-1,32,-113,90,-81,92,-116,-77,40,-71,17,-76,-52,-93,20,64,99,82,-21,-87,72,-128,67,-22,-80,79,100,10,-48,67,-40,29,117,-52,-2,-76,24,8,87,-82,31,26,55,68,92,9,27,-52,-80,105,117,-19,-13,-121,20,-76,-124,62,62,-91,-94,-17,-38,-109,-56,-122,-44,-20,2,7,102,86,17,-105,84,37,-108,16,-33,77,-36,104,-56,-15,2,-90,42,-117,-99,76,126,-107,-61,91,94,-98,-21,-105,21,-6,-91,-76,-116,103,-27,49,-74,56,38,63,-121,85,-48,-104,-57,-1,-22,31,48,88,54,70,29,-90,110,90,-59,-62,-29,36,56,12,-53,-50,-4,36,-55,-14,-47,21,-120,71,-80,100,114,-83,-4,72,8,118,83,-13,8,-37,-104,115,-48,35,-107,11,-102,-4,72,-19,-80,10,-87,89,82,47,-37,7,110,-2,110,-28,-124,-91,127,-47,-105,-94,29,-97,42,97,36,-94,-31,-11,74,79,-93,31,-9,-90,-85,-105,96,120,38,100,-18,-66,29,25,-113,68,13,-6,-5,-1,-28,-54,59,-5,-3,-34,104,-77,-50,96,2,47,-67,-11,-30,1,-26,-127,-14,71,-61,10,22,11,-14,81,0,77,-83,-124,96,-109,-123,67,-49,-73,19,-14,-83,49,124,14,-119,-85,-15,-57,-71,57,50,113,18,-10,73,11,111,-7,62,-63,-12,-67,47,27,-16,-19,37,26,-27,82,-70,2,-56,-96,-21,-69,-24,77,66,59,-103,46,78,14,29,35,-75,66,-120,42,-2,85,-30,12,-86,-2,-79,-125,-46,5,74,-11,84,104,-26,49,-63,-65,65,56,38,-74,-92,79,-30,-75,1,38,-6,-18,-82,52,-91,-20,-28,-4,-13,31,-72,-97,-8,7,78,119,24,-38,-119,127,28,-10,-7,114,-9,27,-10,31,110,-1805,-675,-2803852,-676,-3942,-967,555,1609,-37,-125914,-114,-13685,-1161,-2588340,906,-169229,-13469,33,-45086,-689,-3681,-13320009,-130,9546,19353,-8309,-226986,5903,-1755,-1049,-167639,2283,-32,-2430,15993,-2264,195128,-1944,-7229,-32388,119374,-4459,261,5232,-136104,-202,-102730,-134,-10174,-143787,41040572,-495,-6591,-5166,409,-125531,-10322,-14187,-24617440,45070128,-3514640,-1580,-733,-6830,-6401,-181,-105366,-1669,-7595,5685,-661102,-158421,-93409,5886,-61431,-1306,-1101,-294040,1289101,-1482,2743,1909955,-56282,-140837,-5047,-180156,52977,-2364,-863,-830,2594,-139496,-253,-16419,-9390,6102,-3718,-3417,-3855,-25174433,-184,-466,-118600,-2307,-9311,1206020,26113,-23881,-8388,-12145,-1922,7923,415,-162646,-435,7245,-614,17,-6727,-135111,-3493,-75,-9227,-9180,-138153,1638,357,-866794,-1445,-1505,-3108156,-4727,1887,6247,-1142,165,-103,-160070,2810,-13747,-891,-2928795,-856,-181223,-10972,-358,-53649,16661,-4636,-20532878,660,-3713,-23572,-4779,-184610,5008,-1534,-345,-198830,-4369,-431,-1385,-61767,-6784,129014,-4201,-10817,-14406,22409,-2542,209,-19591,-158586,2738,-103577,-364,-5909,-160907,23495515,-759,-7117,-5488,574,-155862,1805,-5751,-27808406,47746555,-8035691,-2908,-1214,-8257,-12864,-108,-84858,-949,-17089,-3284,-478888,-182401,-69931,-2244,-53570,-1413,-475,-417125,483776,-1408,-10889,1978560,-67877,-147596,4434,-206684,36765,-32653,-407,-1633,721,-146905,-48270,-21400,-7736,1829,15303,-7062,-5467,-26982102,-420,-2144,-124178,-1444,-9212,335727,5451,-21955,-6603,-1802,-594,-1516,1568,-172451,-1884,5017,-969,-13,-3850,-158854,-2281,-226,-5237,-1951,-167425,2203,822,-825600,-240,-2817,-2039261,-5206,-5615,-1382,-487,-2050,-87,-67486,-24802,-10351,-1140,-1184345,-5367,-104423,-6577,11,-18956,2018,-9736,-4298900,-1496,3328,4495,-13301,-123661,-443,-247,-430,-107569,3269,27,-56,-65142,-9932,76355,-1572,-3883,1679,-39028,-3328,-673,-54385,-71601,-1873,-58734,-229,-2134,-91749,12464288,-488,-4974,-3322,-4591,-107337,-1024,-4408,-12071042,-98710094,-1967964,-1700,-1959,-3113,-2348,-59,-31214,-911,-4901,-2343,-155612,-110373,-34554,787,-27709,-1346,-629,-239560,720406,-709,-5715,1210705,-25409,-98493,764,-105748,18161,-11266,-1397,-609,-1477,-92403,-72553,-10828,-5393,-8227,2032,182,-1488,-15096298,-23,1017,-77579,-612,-5269,141980,1450,-11856,-2661,6894,-1443,-622,-1048,-111116,-1859,-7685,-467,-316,-10220,-107078,-1663,-236,-11866,-10274,-109519,269,-1807,-483766,4004,-946,-185632,-10823,-12467,-16302,-135,-2562,-102,-24781,-23675,-5041,-179,-349337,-13329,-14836,-10448,-45,1315,-14317,-1689,3565164,-962,-188,22868,1273,-19533,-324,-158,-281,-6698,1453,31,85,32593,-6162,55692,-241,-547,-8914,47949,-824,-209,-5511,-23292,253,-10956,102,-12826,-11531,-2880690,221,-1355,-3402,722,-7774,-1975,-4254,-4131533,-27549424,523874,76,-1161,-672,-449,231,228,407,-110,-2773,33794,-5903,-15157,1934,-7784,76,-219,-19295,-39688,-165,-336,725196,-2659,-9294,-4340,-29074,4100,9554,1032,443,-1000,-10150,31547,-877,-2208,-1337,-18446,-4142,-1276,-5645550,11,-148,-7504,-443,-967,536379,6677,-2282,-9662,-14512,-988,-104,304,-3482,1469,1098,-112,-123,4386,525,374,-121,-2633,1542,-7638,-2918,-16,-150927,4050,226,-740837,-2803,-12068,-6042,-240,942,-117,-34502,-143,-8164,-952,-64656,-6195,-33122,2174,-206,4997,-5988,1399,-5166049,-1642,3289,-97,-6085,-48408,2262,-793,-755,-28600,-1765,-121,-940,50910,-8231,76590,-2619,1431,822,110656,435,-785,-25744,-40546,1189,-8727,46,5014,-28180,-4547215,-224,1085,-3444,1644,-28328,-2625,-3904,-3883157,-4999843,-644485,-1264,-1071,-1831,-3741,-1,-50865,-56,8333,1922,5051,-30803,-45473,1800,-10541,-115,-44,-83528,-200363,-1138,-283,650542,-28693,-38455,-4436,-40670,8499,-4869,-1333,-113,329,-29422,51780,-2707,-5023,4194,-5586,-2027,1114,-5125503,-542,-461,-26876,-821,-2973,550743,-5542,-6165,-7334,2049,-1430,4060,1632,-45528,-3438,5234,-20,102,5208,-26018,-585,207,176,-2381,-27151,-955,-263,-336706,-14447,-2424,-2484110,-15935,-13916,-8368,-1560,3434,-186,-106363,1696,-8348,-1549,-4105035,-16303,-134756,-37750,-285,-69045,15926,-10079,-29378861,-2175,-5793,-26476,-9554,-351761,5270,-2585,-2454,-112988,-2405,-334,-2515,45023,-25379,129103,-3802,-10029,-48128,213147,-5440,-298,-44251,-167985,1640,-112227,-291,-23511,-118959,132595342,-1531,2461,-19628,-548,-97805,2558,-14927,-43967971,73313147,-4616147,-4655,-580,-12856,-22782,-260,-100557,-1346,-18325,-688,-376591,-110143,-90305,-2108,-70273,-1276,-1333,-587267,2030889,-2544,-10278,4639945,-84880,-126434,-5466,-306170,93515,-26964,-2336,-2381,-1008,-119468,43441,-27633,-3296,15475,12887,-12470,-9351,-44861203,-623,241,-114417,-3780,-12838,2231307,-2447,-45986,-21536,9009,-3074,3959,796,-163405,-6178,14355,-717,-423,8032,-100695,-2593,-461,-8640,-1077,-99188,-2435,-2286,-1458856,-2879,-1528,-2234378,-3141,2479,1950,-2589,-226,-177,-103883,-7592,-6659,-2495,-2226997,-4997,-99287,-3936,-342,-65014,37655,-7904,-52055532,-2493,-888,1160,8909,-265832,7939,-1213,-640,-109802,3704,-147,-393,356,13043,-15835,-1234,-7673,-45675,81577,-5367,-1529,35902,-122031,2114,-92892,-215,-3479,-95020,134583153,-374,12079,-13306,-2735,-89880,-2473,-9325,-35220552,105803267,-4642678,-3371,-235,-8045,-8355,-116,-124555,-521,-3518,6597,-650944,-96936,-81465,5782,-52897,-1620,-2120,-343956,2251540,-1030,-7529,2553378,-74341,-104004,-5262,-166767,68586,6205,1057,-51,-4753,-97582,-454,-23526,-14000,6773,33548,-5015,-5758,-38604594,-813,984,-88034,-1237,-5533,1784513,28137,-34420,4078,28120,-2106,8234,2079,-139135,763,7208,-226,0,18327,-76184,-833,-384,-14817,852,-91495,6640,-4466,-1141079,-15586,-2319,-2710886,-856,-34280,-27647,-554,-1596,-214,-112782,-19831,-20826,-442,-2603970,-1469,-168520,-5391,-62,-52039,-3799,-19747,-21814606,-983,-5981,-6135,-9375,-304912,-6421,-613,-1110,-150299,-2551,-265,-1299,-9820,-43511,-41132,-922,-9622,-19879,103278,-1428,-310,-59912,-149559,-4572,-106678,-115,-2747,-144101,84593181,-1130,-7776,-6739,-3775,-128503,-4869,-18276,-27192289,18541176,-6582847,-717,-59,-11582,1406,-188,-110473,-1348,-13549,-10040,-496442,-148127,-37481,-894,-82063,-2163,-2410,-403229,2769750,-2583,-4843,3027351,-56697,-156202,-501,-253896,63213,-18443,-3180,-1841,-974,-150638,-21900,-20210,5486,-3773,-10937,-5379,-2148,-28683004,244,346,-134955,-909,-10954,2705408,6380,-22938,-22598,-5620,-4112,-5875,-6213,-181460,1364,-291,-981,117,-1676,-142164,-2620,-554,4711,-8661,-136814,-1142,-216,-753670,-3306,401,1181148,137,-11962,-9753,-260,-5995,-133,-30934,-1758,-1821,-1153,331734,-7411,-7741,8379,-272,-49448,12895,-8866,-40863130,-978,-14963,-47968,-5638,-59570,-3888,-781,-105,-8105,-2819,-447,-890,-28921,-20084,-14153,116,-6357,-44021,11566,1238,-1145,-44334,-46735,-67,-16451,-164,-2569,-7698,86860627,-994,-9382,-7602,-1193,3636,4085,-7739,-19288768,89401271,1652554,-508,-1598,-7840,-20753,-65,-35616,-271,-1786,-4011,-84131,-31260,-17797,-3129,-21160,-2012,-393,-227170,1555476,-1242,-10045,2079616,-34330,-11934,2391,-93304,-10,-35805,-1172,-2379,-1688,-2296,-12375,-10388,-1108,3949,6067,-3677,-6392,-18096050,-87,-1208,-6118,-262,-2887,1079236,-19614,-19482,-9004,8157,-2408,-6444,-901,40320,-3458,554,-318,-139,5189,1629,-601,12,-10525,2643,4275,-6718,-626,-747844,9554,5707,121842,-5915,-5381,-5126,278,-1678,-30,-21227,-27630,-3347,37,-1161705,-33,-10379,-5700,-251,-20440,5072,-3629,-47614683,-941,4986,15418,891,-58772,1314,-1278,-826,6625,1523,-48,-280,28822,10086,20846,-1890,-1609,-23537,57952,-363,236,31608,-11,-409,-18616,-287,-7264,-6609,109282623,-1575,6971,-6012,1040,10713,2912,-1321,-14041271,63363011,1972329,-1275,407,885,-2115,-212,-34023,-525,-1384,-985,236501,-2052,-48566,3744,-9207,-263,-669,-185895,2566272,-2074,-3520,1063186,-21913,-8571,-102,-71899,26615,10908,-1595,-1475,-766,-5085,20146,-5316,-7818,533,3464,-6203,-7039,-11493056,-203,577,-7440,-2891,-2529,975747,13697,-19646,612,12693,-217,8447,-1114,-57519,-1493,-70,-485,123,1170,12353,-1112,-480,-286,1313,2346,4180,715,-718994,-369,-2154,-990002,-27674,-21609,-24714,-211,3027,-167,-15492,-12378,-11526,-841,-1590236,-32912,-35109,-40515,9,-21753,-29166,-2210,-41715126,-248,2654,-778,-11091,-69296,1551,-825,-1640,-25422,-674,32,-1168,49460,-24841,-34394,-1873,-3423,-26326,82009,-2112,-295,-43336,-40604,-335,-20083,86,-22637,-23075,71117593,63,1424,-9230,-1938,-20638,4570,-16649,-12152255,121833856,184516,872,-1315,-1856,-13354,-57,-31946,-34,-3850,7514,-274315,-29978,-49546,2288,-31517,-2269,-416,-147529,1096571,161,1069,1045874,-21811,-29113,-11648,-55701,8361,20420,-2152,-1477,-617,-30098,37383,-7904,-8082,8149,-30954,-3940,-4682,-10439190,-753,3284,-23976,-755,-3352,1012560,17721,-12178,-15102,-34476,-234,-10794,-128,-49173,-1300,11556,104,15,4789,-19566,-244,152,-13754,-3221,-26492,-4434,53,-404832,-3698,-1717,-544852,-6668,-7444,-8275,489,2304,-232,8200,-7827,-1004,-482,-1441066,-7018,-6209,-11526,-270,-22591,-14211,-7354,-13294649,-1268,531,-4007,-7513,-101626,-1345,-566,-1304,4453,-2817,-131,-1036,38046,-23469,-91465,-1302,-2737,-2685,44019,495,-415,-19678,-48905,-399,-26962,118,-7735,814,18019823,-488,-888,-7483,-1434,12968,3504,-11583,-11800468,-2749067,-2382037,814,-527,-2585,-1713,-52,-57530,-145,-6456,-4956,-75049,4797,-41902,-2031,-24892,-748,-792,-179062,767663,-1937,-4822,1215611,-18541,-3483,-5316,-70843,3632,909,-3105,-1131,869,1528,32391,-5156,-3138,1424,-13514,-2320,-316,-8915962,-415,-3113,-308,-798,-3085,267948,-4638,-4590,-9711,-12244,-952,-6919,-2308,53556,-1898,-1860,-339,26,-11265,13721,-869,-192,2774,-7948,6222,-7622,771,-401340,-3998,-1295,-1648473,-31253,-20893,-20679,-893,-1858,-71,-41566,-40680,-6764,-302,-1094050,-27130,-48248,-35194,-92,-24285,2186,-6837,-33125223,-969,2932,3127,-12080,-80712,-494,-473,-566,-35370,-532,-169,1021,-102176,-9806,18691,-2331,-9656,-41066,-74028,-3277,-50,-17058,-54755,59,-56449,91,-39816,-40807,44439905,-116,2580,-12194,-1616,-68575,8436,-17094,-19345507,43869763,-249350,-1335,-1733,-2496,-22919,-93,-10160,-223,-13099,-6190,38531,-50397,-50728,2226,-21051,-1613,-464,-201202,958854,-438,-7538,974907,-26962,-43670,-11780,-69078,21959,306,-1533,398,-3081,-41920,-86447,-7430,-11842,-3382,2721,-10415,-4764,-18971306,194,2890,-35694,-1676,-2800,923383,18980,-13528,-15465,-8952,-3100,-4600,-1432,-58360,1724,-4954,-32,-98,4391,-51290,683,119,-842,-2735,-59229,932,-171,-705794,-6859,-1321,-208542,-11254,-12498,-12811,-287,0,-64,23141,-1610,-6797,-250,-1935347,-12375,13618,-28822,-367,-15045,-19186,-914,-34643828,151,1678,-6342,-6830,-25132,1527,-583,-1081,-3627,1068,-104,-211,-24396,-12259,120076,912,-1490,-30335,2915,-2324,244,-9331,-13143,27,-2944,-176,-10788,-10203,63455729,178,-4522,-2224,484,13014,6839,-6476,-15911856,75149030,-670206,251,-557,-252,-18179,-186,19881,126,-3522,-4242,-115281,-28086,38845,-1930,-18498,-306,-1304,-155690,1030220,-423,4560,-91713,7993,-8087,-1583,-81821,23502,5152,-4720,-948,-546,2506,-19407,-3342,-1450,4238,-21618,-7749,-9899,-16448160,143,2448,-929,-2822,62,1420896,-6109,-10675,-12977,-25115,-1813,-8715,550,-53714,1905,-1079,-27,-115,-899,1240,-365,-261,-7630,2122,-1100,-3495,-557,-719384,9882,-2539,-700906,-9283,-20314,-19252,-615,-4347,-25,9688,4884,-2651,-753,-4207942,-13307,-14258,-4831,286,-43121,-27793,-5657,-67958157,-1456,-1126,9599,-13534,-115409,-306,-1107,-1462,-15136,-3555,-302,-1732,2424,-26950,-128165,1350,-5819,-44547,66011,2256,-549,-77083,-58695,-972,-36053,-315,-5772,-16160,162823470,-314,-5806,-9140,-1966,4319,7132,-12983,-33899254,132356391,-1712791,-929,-2178,-2625,-16372,-54,-90471,-110,-8879,-6795,352811,-30474,-58261,-4985,-34335,-35,-1456,-424485,2783183,-2170,-4508,2380725,-55574,-15175,-5143,-74057,278,-16273,-4565,-1839,-1663,-12832,-1485,-8095,-10113,7118,-25864,-1734,-13169,-35679649,-252,-41,-29555,-3657,-10319,562592,-1602,-31819,-23338,-36152,-1928,244,338,37785,-2479,9016,-455,-181,-3113,-18737,-117,-736,2101,-5690,-177,-6094,-542,-1235721,-4159,-4839,-1149936,1008,35403,30983,385,1537,-174,33072,2868,2887,-455,-2367765,-2127,4862,21774,-77,-58982,41506,4048,-50958642,-1637,12212,30785,4388,-89950,10294,-832,-1289,-1187,-2551,-33,-1298,-5934,52595,-2326,2997,-2801,-46007,16429,-2477,-242,-30499,-15245,4792,-19452,-181,3525,-3763,238584230,-428,17116,-1720,1038,22543,-978,14479,-33050936,204788966,-709831,-2122,-1350,-5994,-21202,-430,-56486,295,-10175,9896,-420211,-4573,-57718,2620,-33992,-2383,-879,-304585,2081894,-805,-9038,2248570,-78342,-5429,946,-76457,25271,20161,-3251,-1577,836,576,1712,-10095,3825,15145,49166,-6650,-7847,-30902519,-633,-314,-5343,-2610,-3703,1328136,19275,-26045,25738,36859,-2998,7687,7020,50469,-1297,11759,-21,-172,18411,7958,-204,-271,-9261,1895,8181,8413,898,-760023,4357,-864,-704841,-5442,2854,6249,-862,-896,-155,-13983,-6704,3672,-1223,-1564219,-765,-26840,-9203,-324,-4771,2803,-3517,-28886223,-885,4341,2509,2197,-44504,1166,-393,-1323,-20172,155,-117,-810,2752,-224,-100499,-2465,-2965,-47777,8279,1205,-273,-38364,-5838,-349,-13812,-6,-5197,-16523,141278387,-155,7020,-5327,-890,-20209,8104,-2655,-20407637,104633565,449068,529,703,-279,-18577,-393,-35429,106,-4027,-2045,294930,-27039,-27161,-3315,-11654,-959,-774,-167991,2337225,-74,-3669,861876,-9411,-19634,-4319,-50563,15962,1489,-2178,-446,-971,-14426,6959,-5321,2796,4681,8141,-3947,-9897,-19165587,-412,1583,-15022,-2519,-2233,648975,2807,-14367,7428,7567,-1978,1105,-4,-120767,726,-723,-99,93,5478,-10835,399,-422,-16082,-5068,-17708,226,-1145,-751781,-4965,-1666,-378747,-6485,-9210,-9069,-247,-2408,7,-25631,876,2927,-491,-730835,-13419,6959,-16895,-153,-18870,-9261,-392,-21991750,-869,3487,18794,-6121,-33527,-1995,-635,416,16560,-102,-153,-460,-17481,-10971,84857,2696,-287,5466,-3243,-1916,78,78277,-13578,-963,-949,-321,-71,12840,135916375,-333,-2887,-3658,-1328,12545,4367,-8219,-17770227,167545326,479389,-1228,139,-6601,-14031,-161,6107,-124,-1816,-3051,-181218,3748,5415,-289,-1197,-203,-501,-202092,1615909,107,-3199,355924,-31020,8015,-2347,-11225,12442,18471,-4149,1114,-613,9363,-20366,-1587,1668,-1327,-9300,-7112,-4036,-19988756,64,-747,3880,-98,742,651392,6491,-13116,-10717,-11093,-1643,-1181,-395,-6579,-606,733,-125,72,-1118,5760,674,-40,9965,-1325,4667,-1864,-408,-313483,2996,-208,1217321,-24848,-16609,-16842,-1870,-8031,-116,-51428,-37889,-5162,-1865,-1280979,-25011,-24616,-23208,-201,-38120,-29140,1385,-28896900,-2238,-6495,-25956,8482,-84662,3481,-396,198,-33072,-3330,-29,-273,43805,-25505,24889,1450,-3873,-32332,58810,-2497,-2077,-57902,-44446,2422,-23779,77,-23763,-12035,63886370,-941,-3463,-15129,143,-5795,-7591,-19284,-13028552,58535531,949872,-582,-977,-4343,-8033,-350,-75668,-194,-8152,-2895,-90552,-37020,-68195,-3303,-19694,163,-923,-291516,1005869,-132,2211,1079327,-40365,-11753,-10490,-137992,21935,-9739,-776,-110,-2578,-8928,51632,-2699,-8524,-5741,-31678,-6332,-6677,-8451746,100,240,-10428,-3239,-3056,555654,2852,-19685,-25666,-42693,-1813,525,3689,-73769,278,-5735,-76,101,2892,4195,66,487,-12657,8886,-10457,-3118,-2327,-634315,-5196,-614,-871456,32649,35015,40631,-304,2432,196,-43419,18406,858,689,-2078266,44925,-78976,13046,-556,-14798,57166,-3083,-38114894,555,4518,-2182,-4334,-91800,1893,-786,-785,-79366,4053,-236,-697,-83038,41220,-149566,-2352,-4581,-32480,-79403,-145,-284,3961,-60009,1177,-53486,-140,33844,-61698,-29809679,103,13487,1790,1196,-85256,-2842,25247,-14236740,95629795,197012,665,10,-4073,-16651,-118,-132428,-179,2815,2370,-188341,-71611,-137230,1317,-30791,-672,-354,-251337,1103721,-261,-3720,1448471,-32190,-61226,14577,-168655,26275,-11178,-690,-859,1018,-63631,-81742,-11138,-14378,1775,59483,-7108,-4541,-10148378,27,-5806,-54837,-744,-3112,-123314,7512,-14185,29184,57541,-1263,369,-986,-96485,1113,210,28,273,6130,-70398,-705,163,-4634,-1301,-77671,8485,1239,-628926,-6996,-3809,-534682,-32140,-39592,-43002,86,-197,139,-49406,-6986,-2732,-368,-1661520,-38973,-8389,-33516,-39,-26638,-46127,-5025,-15783982,-1144,-4178,-10580,-3471,-74301,-708,-888,-1008,-46194,1207,-286,2167,-17661,-52557,2688,-698,-4740,-24161,338,322,-61,82929,-39098,617,-17210,-262,-31130,-16084,106908787,-968,-1060,-10635,-999,-22293,-40,-30416,-18074747,50274112,-519333,1739,-493,-2848,-10120,32,-14487,264,330,-5772,-7144,-31263,-49412,-2875,-31245,-690,-39,-287436,1462536,453,-2915,1914206,-51531,-23902,-16958,-102383,25058,-21226,-356,27,-76,-22575,-12737,-5770,-3281,6049,-33466,1506,-2536,-18202942,-380,-1746,-20271,-2222,-3594,397293,400,-9928,-34376,-45402,155,-4746,-568,-36492,4829,1638,-490,96,6727,-31540,634,-155,-990,1491,-22188,-9220,497,-715123,14477,-2396,-504654,-2828,7231,5122,-218,-2450,25,5540,-1298,-562,338,-1859582,2004,-4821,-17256,-117,-45393,7443,-624,-30973334,-168,59,8706,-2886,-38320,425,-32,-1666,-36917,-2219,-159,275,-4185,20759,43564,497,-4092,-31642,-7696,444,-572,-3447,-15856,-457,-17828,-154,-4524,319,121367036,-902,2508,-1144,-1440,-3153,-4041,-2064,-21877245,132972507,965355,1506,-1684,-3114,-3450,-196,31852,-428,-10041,-1648,126239,-26458,-47049,1268,-24950,-879,-515,-289283,1066288,-1035,-8453,786234,-33848,8286,-3000,-105016,-12642,-1695,-822,534,795,6926,-6179,-2004,-16113,1311,8873,-7695,3436,-16806080,-360,-3473,501,-3035,-2339,524244,4555,-15771,6642,10967,979,9487,2084,-22464,-683,1267,-223,-51,1295,11596,-355,-92,-9949,-524,-919,3107,139,-506331,-5573,-606,-621104,-2821,6212,6020,160,-2219,-231,66817,6263,4614,-288,-2612198,4989,-10418,16708,-376,-5912,12203,1291,-14364700,357,6741,-1612,-3622,-8016,1238,-985,-994,-7078,2300,-203,-167,-5289,8720,-20676,-655,-978,-17944,2150,656,-131,11664,-3155,1573,-5355,-230,471,-3222,154673797,-13,1900,-5498,2354,-14744,-1563,2360,-25173300,99758048,1067225,-535,-614,2030,-11575,-321,-19811,-259,998,-770,-254118,-14811,-107400,4551,-2757,-1102,-707,-297495,1595710,-698,10284,335235,-41524,-1239,-1344,-57217,-14681,-5749,-845,-1696,6,2673,9261,-3496,-16517,251,15862,-10769,-8686,-25893152,357,1525,3616,-1309,-1169,689126,1112,-19340,1944,20155,-1867,1320,868,-63901,1740,-930,-330,61,4655,9306,-518,-41,-8082,1674,5272,-1625,592,-937168,3676,-827,136567,-17671,-17202,-17446,-1182,-2271,-55,20126,-1043,1832,-560,-1971349,-20630,4683,-35085,-186,-34825,-20759,163,-47680498,-1521,-4835,-21734,2331,-32870,1678,-884,-820,209,575,-232,-844,-17102,-22521,116485,-1994,-4248,-14233,-2867,-1200,-1047,7119,-24279,165,-9515,-414,-12803,3202,173156279,-143,-2668,-6696,-1266,8900,5375,-13561,-26255871,152885076,3405477,-603,-1535,-92,-7873,-251,15850,-523,-6073,-3185,411338,-29364,35138,-881,-2313,-1285,-1284,-220278,2007160,-444,660,360662,633,15006,-6923,-18056,-2951,-10330,-352,-208,-1617,13872,-11790,-5776,-10601,7708,-22946,-4855,-11850,-23965438,-334,84,6934,-4028,-520,627634,-9969,-39546,-16672,-30609,-1411,-743,-287,44177,602,2285,-146,-146,-100,16378,-226,-411,1180,-1239,28021,-2660,-1740,-912862,-1642,-2463,-1088493,-2678,-1316,-1896,-530,-1792,136,25208,-8058,-2157,-612,-1177347,-3409,11137,-10709,-267,-22253,1409,1266,-5028955,-875,577,-436,-3145,-20953,393,-486,-640,9185,-848,243,-11,4438,-923,85108,-1004,-92,-11429,17567,-1286,61,-11828,-7990,330,-7576,-130,-1873,20805,27680516,-317,4758,-1838,335,21696,7672,-528,-14483345,81652985,-490629,104,-507,-493,-13283,-67,52238,36,422,842,17179,-3354,13134,494,3970,-288,100,-65805,299309,-644,-4562,300367,-4534,7674,-1630,-2305,4082,8535,-2516,-326,-277,10621,823,-833,-6503,-94,1765,5387,-6523,-14803630,-269,2710,5758,-1161,-200,179365,579,-2521,-1762,-1167,-1422,136,-260,-10138,-1228,539,-145,-102,2188,8947,531,-269,-4819,1488,16791,1420,34,-364988,-3436,-1183,-516831,-4015,321,-2574,-705,-2186,-191,-21979,-6172,1181,-860,-296756,-3001,2580,-13110,-9,3700,-116,-110,11129043,-1625,428,8453,-6759,-14034,640,-4,-556,-8871,220,41,-9,23562,369,-7279,-657,-1080,-8887,29797,-2537,-671,-29110,-14269,-183,-4802,-64,-5166,-1098,101880983,-496,1234,-2261,-355,8675,-1779,1572,-13794525,-47832555,-448945,-691,358,-2238,-14730,-117,-18092,-161,-6212,-646,-25031,-12548,-39009,315,-2605,-864,-728,-108081,99057,1639,-3827,667075,4204,4062,-1990,-63642,-588,5670,-2361,-267,-323,6454,24377,-1751,-749,-907,-811,-9112,-5357,-12955845,-108,0,4475,-771,-436,372769,-2023,-11669,-4305,-3224,-1056,-1296,1245,15611,-728,-2750,-201,-114,6649,7205,-672,-273,-3307,-1517,4785,-2257,-952,-291662,-3608,2856,-388539,-2897,-4317,-795,230,-1281,75,-2446,4295,-658,867,-1634948,1281,2286,-9414,-183,-21423,3945,506,-15125146,287,361,-4376,-1709,-12131,-338,-71,-354,8912,1226,-275,-347,-4545,-5591,-48490,-74,-794,-14172,6885,5062,56,-47732,-2242,74,-2665,-251,-7900,414,73878479,-208,-2660,40,1836,19408,4515,-4385,-9707022,54988618,319655,-1106,961,-697,-18795,-83,-40290,-159,-5669,200,70872,-14099,-38365,306,-5917,-487,177,-129053,-49875,-882,-4415,104843,-17340,14862,-2400,-50404,12124,-3178,745,-1677,1761,12643,-1905,574,-8779,4107,-4420,-6297,-1355,-8077802,-99,-1520,8944,-1095,-256,551820,-1771,-12085,-4247,5861,2286,-246,-1467,-12816,-1197,2563,-47,124,3469,13378,-226,-52,-10082,-93,13354,1811,1429,-552497,-584,-1843,-80047,-16144,-15768,-19581,-92,-1948,-53,-10603,-9971,-3662,-1090,-470018,-13863,-879,-4478,-114,-22603,-21134,-1218,-20119200,-2005,-3275,-15039,-7813,-19336,652,271,-516,-24540,-709,-158,-253,-35227,-19456,63869,1950,-2839,-18783,-44626,811,-909,3421,-8957,441,-8603,133,-12824,-5298,53738966,189,2801,-4421,530,-9410,-3170,-11541,-9216642,119926321,2256085,-265,-623,-3161,-1477,-324,-44390,-287,-5442,-2753,-214909,-24019,-64126,-1914,-13110,-70,341,-116961,904753,-658,-987,664315,-636,-3191,-8402,-72366,8227,-5649,-2241,-2090,-1329,1468,-27621,-3112,-3491,-1731,-20996,-1753,-1574,-7510856,-348,221,405,-783,-1662,618169,-2076,-11149,-13605,-22122,-1315,-3300,837,-69030,657,1148,-117,-74,-1993,-1571,-850,235,479,2245,-1763,-4665,-1023,-343398,-4574,-907,-94529,847,9725,6832,-476,-2961,-87,-3854,20117,1447,-1512,-871932,2451,-3628,161,-72,-10702,1930,-1754,-23460558,434,1613,-18757,-1435,-53751,1869,-361,-648,-11337,-2335,144,954,10800,14763,32418,-602,-3921,-31180,13089,-540,-743,-30909,-15552,1951,-15244,817,11438,-7805,70711504,-294,-4889,-2159,1976,-15,-4580,8176,-10471536,64085231,124804,-997,-1608,-1535,-12540,111,10821,-270,-7725,-663,94655,-17490,14554,-2162,-29028,-1356,-417,12113,348320,-734,-8678,639670,-33414,-3804,1838,-36130,-4022,-9481,-4235,-540,-445,-7134,4076,-7160,-6638,1963,1797,-10777,-7248,-9899907,-176,-3758,-2047,-3488,-642,73268,-3047,-6170,6758,-2899,-2611,-95,2110,-2497,-1340,2173,-417,-471,8831,897,-222,-88,-7911,1635,-14642,380,-286,-361346,-2257,-1054,252851,251,-1789,-1318,445,878,-23,10202,4988,386,-354,-1266036,1381,10027,-491,-146,-3218,-919,-1449,-4360002,40,-404,-4831,-5294,-1457,-1755,-535,158,-1437,-1246,-73,-1078,-140,-578,-1464,-1735,-2426,-33527,15532,-344,-966,10621,-4229,-575,3837,29,320,-1295,31928901,-77,-386,-401,254,-424,2170,-931,-8187265,20697137,-138445,827,169,411,3642,-66,-17620,98,-1698,-433,-114908,-2380,-48897,-594,5608,-609,-413,-93874,755432,-642,-2826,121138,-13883,-1192,591,-96752,1410,-6508,-1468,364,175,-5580,410,-900,-3322,-110,384,-6028,-2954,-9122665,-173,2208,-4396,-812,-1026,197969,-2150,-18044,-1806,-714,-2171,-4361,-984,-32261,905,874,151,193,-303,-5318,270,-154,6549,-1482,551,-722,-449,-625190,3198,-2642,-231739,-5235,-4635,-5003,45,1764,-120,15066,1313,-3625,-638,-1380572,-6187,22545,-14034,-175,-5196,-6109,-491,-10732257,-1224,-373,-1636,-2077,3925,-5,-282,-1298,3764,-461,-20,-843,-3664,-5549,71341,-980,1331,-19077,7849,-731,-434,-8277,-2763,-52,1193,77,-7735,957,67100886,-169,1493,-798,-990,2119,-562,-2502,-16031111,32548877,-1155583,-264,1000,-589,3675,-239,8410,-38,-579,-1059,-54985,-31767,-7574,13,-11003,-571,-694,-177936,58681,1683,-1132,254230,-6807,6135,-1005,-3599,3133,2938,-572,-110,1032,5712,-5157,-846,621,1718,-6314,-6064,-6449,-13405533,248,-778,337,-2529,403,1069613,3345,-7792,-2625,-6418,-980,-1357,309,10183,-196,712,-3,64,1541,-703,-370,-118,-2275,699,-6119,-527,-105,-406971,10073,-1157,-1265512,3525,2535,534,-339,4188,22,-21395,2092,-583,-550,-1660367,4213,-10188,-2758,-78,3033,3426,1010,-7449879,-542,4,1815,-1468,-561,-946,192,111,-9182,1493,-233,1101,-5235,1839,37149,-34,550,-33118,-9722,-2070,-136,5354,-434,-538,-2405,6,4711,-9892,62092579,-196,-7,-3348,-110,-12150,-2899,-882,-14791825,-24512725,846761,154,877,-3362,-11848,-93,-22167,-21,-9117,2622,-142414,4440,-31760,131,-683,-88,-85,-207970,-243060,386,2731,54283,-10528,-5738,-1721,-43111,-4678,1357,-2129,-307,-803,-6055,-4707,-319,-2711,366,2756,-465,-6184,-15085022,24,975,-5416,-2136,-1388,263419,-661,-12659,1428,6788,-381,1630,558,-12958,-110,2891,-47,-204,2870,-2113,186,-31,-6448,-587,-10707,-1534,-293,-641493,-744,-1067,75195,-4819,466,-120,-231,2038,-34,1732,130,522,-695,-596402,-6007,-6412,-12844,-278,-2863,1274,2374,1178325,41,379,-3121,-2324,-299,1203,-248,1259,-12414,-314,70,-53,-8394,2366,22747,-758,194,-4983,-24354,-414,-226,42640,-951,536,-3982,27,-5631,-2830,-1079776,-331,583,-1289,600,-9427,-1671,-165,-5592643,-5095706,-55080,1362,-97,-399,24324,4,19566,-53,-4501,444,-33565,8712,-17782,658,-4410,-179,-97,-93627,273273,-241,1900,84527,-15723,-664,-3013,-10935,3952,-2710,-1425,673,328,-405,-10217,-528,-2373,-118,1463,-5329,-3317,-7743112,-69,-35,-160,-287,328,135481,415,-4098,-1057,1994,-1153,544,1693,-2166,314,1548,-106,-74,5897,-980,576,87,-774,1304,-7750,-1204,50,-225902,243,-437,-61742,798,-265,734,-166,817,202,6030,226,-777,-405,-347286,-653,-10499,-4738,161,-11573,-1859,-1064,-1396036,410,341,1077,331,2352,-316,320,-1190,-20108,-684,-128,106,7051,-297,47648,-1164,-15,557,7107,-23,315,29809,-2188,66,-985,-178,413,-7283,32946170,-214,-360,1069,-806,-4214,-19,409,-3386530,-31222963,151647,-758,403,-1049,-3653,243,32080,-114,48,-1778,-43275,-16858,-2129,-450,-2437,-310,-102,-61714,136630,-741,1009,43700,-7939,-720,-38,2267,684,1003,-286,-994,-272,-15,4315,-452,-4755,142,781,-3579,-1717,-2328014,-91,672,354,-373,-397,332706,-706,-4005,539,-1836,274,-1483,-236,-22063,674,-707,81,-20,-2845,-2299,-329,-7,-1505,-337,-1766,264,-9,-265511,148,-946,-389581,-1480,-508,-2299,515,119,16,7516,162,-835,232,-85311,-1168,5414,1886,1,-10400,-2250,129,-1949071,-400,-1288,3854,-537,965,225,-47,-230,-5654,-828,1,-272,14565,-531,-22299,254,-416,19485,21792,-1095,-92,-26846,-2550,272,1473,-131,1982,-2117,12155782,134,259,682,-113,7948,1223,-1345,-3215620,2723447,121148,45,-323,251,-2046,25,18082,2,677,-497,-33700,7757,18585,251,2015,-93,-500,-61774,-239526,105,124,173963,16753,3517,-1108,19719,201,12342,-171,-42,232,771,12766,16,2982,-524,-2865,-2153,-992,-4922201,127,739,791,-254,381,349647,-1337,-1368,-1119,-2609,-450,1638,405,57126,-258,258,-89,134,-1060,2720,-169,-32,2699,-70,6007,224,812,-136068,23,335,-207783,-3825,-1620,-3144,-29,255,-59,11848,-1564,-2860,1054,265576,-5304,-730,-1716,93,-1336,-4603,351,-7473239,-68,418,1956,1375,-4028,140,-1,63,12169,-662,31,-393,-3392,-3403,50242,280,-110,15964,-8446,237,322,49623,-3434,-278,-2124,-68,-6454,212,12673933,-284,1194,-2316,406,3064,-536,-2799,-2530633,-3266759,187523,-300,631,-1781,-5836,-52,-6015,-32,-1260,-770,107351,-9929,17653,-359,4776,-8,-53,-11974,-145647,70,-606,44458,-2186,-1806,-1595,-20742,3667,1534,-248,-333,-235,3483,-4129,-43,-850,2135,-723,-2141,497,-3205144,-53,-1388,1968,-454,-195,-271368,1142,-4559,-1900,-1536,-227,-4440,-77,-22470,-53,787,-127,69,1086,3171,396,172,2406,-441,608,122,-47,13997,-3371,45,-433658,-24,-675,-747,-50,-250,81,12808,-295,-226,-125,-785179,-348,-13245,2909,151,379,-874,-89,2340222,2486,320,-3426,-954,1042,25,311,-357,-12463,-554,218,-215,-5215,-657,21564,793,-236,-11071,-8354,213,180,17357,-908,-39,-6177,90,-928,-10565,10097577,-165,93,-678,440,-10406,-570,-190,-4234217,-34212987,-150705,-771,264,-63,-907,-127,5412,34,6912,-230,106538,-1934,-8921,-290,735,31,-55,-45279,-119373,-246,1318,78401,13785,-9379,275,9396,-1431,-963,-582,160,-1,-9387,-4939,-419,-7076,-670,-896,-1030,320,-7643878,-120,-176,-2533,637,10,-86203,-173,-2935,-195,-1002,-824,-2203,169,-34116,-163,252,-122,113,-1407,-3147,-24,-120,1224,-129,-6934,-262,115,34261,2536,920,-65356,979,417,597,18,136,-123,12933,-4605,1289,68,164551,1049,1868,4253,-83,-6213,1239,163,-3482508,-526,52,-1823,2957,-3311,-78,-134,-410,5732,-124,24,148,-573,-383,11474,-901,-588,-25479,3576,82,-246,5725,-3107,98,1274,260,-901,11750,12605325,34,-40,367,-9,-902,628,-444,-2444521,-47142412,512059,62,-608,317,-10270,-286,8735,18,-5133,1129,3356,15195,-17150,-67,3569,-742,-295,24698,-35387,80,-1473,19722,-770,5344,327,-3303,892,11144,438,-488,220,-594,308,-373,639,917,1201,-1886,-999,-5317115,3,1235,-95,1198,2,463560,-381,-3102,1182,2653,-908,1613,-169,-22973,-38,1291,31,7,1635,680,-57,-151,-2500,-23,-1795,-758,148,-17274,-3337,-689,-384932,-971,1370,867,22,-218,70,10626,1197,838,-353,-229769,321,3058,2587,-104,-10962,1333,-774,818060,-421,728,1356,-2276,1339,25,-25,-950,-6054,-170,-163,865,3141,1197,88112,-602,-108,-9625,7104,159,22,-3445,-1030,5,-779,-17,1682,3101,31315587,-202,-136,220,-136,3921,1091,214,-2962241,-61112251,1064242,-274,197,602,32,-148,306,-40,-2991,-1370,10071,6204,-6557,423,5924,-153,-731,-91046,26940,-363,221,-38095,-5294,2433,-49,-26215,-4042,3817,-794,-881,-149,2993,1465,-370,-532,-103,3859,-5833,447,-4246176,66,1245,1651,-121,-166,115705,682,-3245,959,2330,294,490,82,27029,82,-477,-101,-124,-1502,1932,-136,105,-1360,-161,1544,85,172,-151369,708,438,-330334,1417,1603,1732,-194,-787,-37,-10495,-199,-1902,-383,-810232,1687,-5964,-1077,-372,-9101,514,28,7360975,-1071,104,1142,-916,2567,103,8,-601,-10037,826,203,-473,-92,-2070,13113,-211,-772,-15863,-8358,-407,-354,55603,297,-33,-4576,130,-741,128,38399447,-172,424,-268,-187,-13655,-2243,229,-6728729,16956361,357781,382,-625,775,-7926,-129,17542,16,4723,-397,-111289,-7014,-11219,-141,-789,-698,-156,61840,-58566,431,-392,-34426,-2366,-2027,-108,-3876,2218,430,341,163,-521,-2770,-627,-159,-9989,45,-496,-9498,-4186,-9097184,-118,614,-3302,-948,-89,353259,-57,-7087,1624,2180,320,-1603,493,-21724,237,-20,62,0,-581,-4814,-84,24,-5896,394,-12036,-333,-172,-336799,784,1368,-29393,341,-342,136,62,55,34,605,138,367,-146,-583608,1173,-6220,-487,106,-3333,-208,-187,-3490772,486,122,-1555,640,468,-97,-307,480,-10225,-262,222,65,239,-110,40031,-515,782,-18,2109,-584,141,3777,386,-35,169,-89,-64,1540,24810254,-284,66,-608,68,652,1333,-16,-4128715,8373921,-346587,304,-68,-1266,-3599,-23,6562,-15,126,-267,-72139,11413,25933,-22,-1589,393,-549,7401,-116992,-183,-54,-43235,6475,-723,30,24517,-146,-20,1424,288,60,1393,308,-143,2494,189,124,3502,1153,-3841719,63,1516,1473,-535,-64,92607,123,-7845,-89,-396,258,1282,-142,-3071,14,-185,-4,-35,-221,1917,144,326,-4465,-229,2482,-69,-143,23347,648,217,194930,-2032,-810,-862,182,77,34,-367,-18,724,-267,-14258,-2017,-3398,-6392,-195,2021,199,125,-1582921,-912,53,647,1308,567,75,-141,93,-7394,-442,1,178,-45,-573,41477,-701,-111,407,-5804,-368,-409,17189,48,-28,-270,-101,61,-4013,589552,-70,175,-666,6,-3247,-1007,-746,-2186245,14926913,279384,349,-183,-5,5247,153,8939,141,-979,-194,27680,-1322,-3462,74,472,394,118,-34386,17605,12,149,-68471,-1753,-2005,-1386,5792,412,882,-534,-14,40,-3021,387,-116,-801,150,38,-1838,-1075,-3094557,3,-1219,-2463,-862,-35,19002,102,-2603,-786,197,187,-525,368,7251,102,2,-199,-85,620,-1948,57,-71,712,-121,-5015,-339,225,24966,842,-143,107741,919,296,86,-20,213,-94,-1142,-13,-83,-38,-63918,265,-3517,-3234,-79,-185,199,-94,-276213,-550,-208,1202,-1464,90,16,-303,267,3571,-156,-88,137,-709,106,-19672,1363,-72,-5027,-1657,247,-130,-9432,-421,3,-508,-105,-2094,1250,19371648,98,704,-294,-18,1315,-1448,-414,-2900203,19860686,195393,67,-35,-162,990,-125,-14348,-119,-1785,124,-7079,-12838,-7526,80,-596,142,-203,10800,19644,25,-481,427,3538,-441,-27,-14904,-104,1834,-728,-188,-136,52,-1786,-72,-1976,190,98,3648,-1315,-4111998,-158,-1048,524,-732,-183,60149,917,454,348,534,-498,1298,195,12439,298,-2,131,154,299,111,-97,175,1157,241,1611,216,67,-97264,-2597,1076,158146,-760,73,17,-57,543,-114,-14831,-90,-549,9,8204,-238,1704,2439,-70,-1015,-129,49,-567221,57,85,2439,863,-346,-90,-66,-365,8383,-448,-204,-314,-5894,98,-8264,77,-240,588,-4522,-183,-23,-14625,32,83,-250,108,175,865,10210555,-198,5,-354,108,2624,836,-95,-1163679,27776344,214222,-66,250,1559,3653,65,984,82,379,68,-75766,-9387,5857,28,1997,-476,571,27212,-9961,-23,-1823,48111,-8872,-393,78,3337,496,-1909,-995,-416,-2,19,-5234,-651,36,-30,-94,3417,649,-2070281,-51,-97,515,-141,72,-86645,-41,-2601,-533,-24,205,-797,-109,-6445,122,-119,70,27,-8,-5674,34,-55,430,19,-414,104,12,56411,-1450,729,10374,-997,-603,-684,45,27,-105,3110,-1074,-251,-17,-114642,-615,-1822,2973,-82,-4364,-783,-4,-882776,-169,-140,-999,1171,197,88,-45,-195,-4805,5,-36,278,-186,-788,20642,53,5,-9153,2923,-35,-90,14795,103,40,1405,9,703,-1072,1800600,70,-83,398,-122,-2148,847,-442,-1507414,29079487,-346208,215,478,43,2334,-86,-6622,91,-197,615,2933,1042,-10941,209,-12544,-102,405,-18994,-128338,-20,227,-41961,-2395,324,-20,513,136,-1345,-579,-55,-35,311,-539,-479,-3162,33,-857,-1678,-1177,-802394,-86,252,-957,-70,-57,61426,-279,-1420,-209,448,-22,-1853,88,-5780,110,-97,-62,44,78,489,-91,-71,2238,-73,-369,-1,60,47144,-1127,-765,-319724,1240,-85,563,113,-1454,11,2247,-288,35,315,-273128,117,-432,-1668,-95,-1854,249,-338,-79093,-20,-1094,-5320,2255,393,212,6,-450,-4508,-337,31,-54,88,-258,-4511,-77,162,-1716,1351,122,105,-18905,-383,-239,1917,-145,1578,2368,20286002,-107,-1469,-601,-128,597,202,-22,-3500033,5084892,-335613,91,-179,-48,-1519,-40,-3263,-68,-329,-353,58948,-7478,6306,17,99,-352,167,45582,-21879,-411,-434,39875,-6878,440,56,-13788,-298,-5162,1293,322,27,856,-48,-163,558,27,238,577,-1040,-3510952,-63,-311,430,-174,-79,-74791,-1637,-1554,-116,684,119,1501,-84,9177,166,-111,-30,-83,324,974,-124,-125,-388,-33,3095,33,-111,-79829,54,-594,60048,397,-385,87,246,-452,-54,-14139,-144,979,1023,245338,487,3888,-45,-29,1822,13,-25,2454529,70,328,-3667,-536,195,-94,49,-110,7842,-126,-79,-50,1370,-526,4294,-49,99,4732,6353,-104,250,13988,6,78,980,-102,-51,1649,9813300,-208,-102,6,-448,7254,1325,-142,-2504743,-16496660,601515,-15,164,1246,10554,101,11987,-137,1040,332,-25853,281,9999,42,545,68,497,-64738,-16020,-106,1281,32471,1067,1224,-136,-9652,1498,-2089,639,420,125,4156,-130,71,1526,-48,-374,285,-172,-3254819,133,723,1987,442,-261,84680,270,-374,-496,-901,-394,348,-240,-341,-35,223,102,21,-211,-70,-212,-52,-189,163,8012,-286,298,-37332,-1329,161,-3319,-977,-84,-81,-100,-250,26,494,-201,-964,-349,-209671,-912,3741,-68,52,-4487,-182,-240,261932,13,-202,-1681,-1022,-361,-124,-395,304,-2233,417,30,282,322,-495,7784,416,-123,-14230,1670,271,-40,-22125,-86,-2,-736,-2,-301,2698,12214014,-206,63,592,-61,4088,41,-598,-1303727,-28136782,676641,193,-776,1664,-11764,105,-6928,-58,1539,7,-43341,11619,-19888,25,-1259,-606,8,-10479,-7296,-528,36,-8228,3842,3345,-440,-21907,-200,119,-975,38,-222,3000,714,-16,-5972,-24,-740,17,354,-1522338,-235,252,2626,63,-407,-115767,40,-1934,142,-360,269,-237,-439,5743,74,-93,114,-28,-479,-978,-63,20,-42,-18,5053,-28,67,-154978,57,-110,24,-105,105,24,104,71,-102,-127,106,-64,-45,126,3,-53,-11,8,79,-65,-1,121,20,-22,113,124,91,-88,-98,-22,-6,-58,25,115,-99,-59,16,69,103,-25,-121,-5,-25,111,-93,77,-113,33,28,-99,-46,19,5,-66,116,-2,-67,-108,101,102,-118,93,-125,126,53,17,-126,65,29,2,110,11,56,-16,-55,-105,123,-97,83,76,97,-108,-55,-78,35,85,16,93,101,28,118,-46,86,78,111,60,101,-42,55,33,13,48,-96,-77,-89,-52,-34,31,121,35,-34,38,-108,31,125,-36,-93,-119,-65,25,105,-40,0,21,62,-61,56,-17,18,-84,-98,13,-59,31,-32,-114,-34,-128,66,37,-103,-126,-85,12,58,-62,89,-105,-124,-127,-42,20,-72,-77,30,-87,103,56,-126,118,-113,84,-12,-61,-73,62,-58,27,-95,74,-105,48,6,64,9,105,-31,-75,109,103,94,100,-104,-101,120,-77,71,101,59,-8,81,67,-44,-84,70,-32,57,-10,-78,39,-121,98,-77,-9,86,18,65,-47,-45,-106,-127,80,84,35,52,13,-2,-16,100,19,-16,19,-44,108,12,-23,-2,85,78,-69,110,10,-80,-83,99,-110,-72,-87,-60,-36,-63,27,103,-60,-123,14,-14,-80,-29,23,62,72,-44,-25,123,82,-27,46,-3,-116,116,111,-12,9,-90,125,-60,-3,0,32,-46,-33,9,-119,-30,10,-11,60,51,-16,-122,67,70,-123,-11,-18,5,-35,33,45,90,-20,65,19,-35,5,120,3,127,-83,-91,-12,-43,-75,9,-74,17,-122,-73,78,-117,71,-92,-32,-42,47,122,109,-114,-118,93,112,118,84,-84,-88,-91,-94,-56,-95,86,-37,14,-118,70,58,105,60,109,-61,-101,-9,-39,90,-8,-107,20,17,74,21,-102,14,17,-113,27,112,-17,66,-9,-98,-127,36,-18,-106,-50,-91,17,-65,-91,-7,-83,-82,-42,-48,-50,114,-115,-87,13,-63,49,-14,-16,116,17,-121,-11,-6,105,34,-71,-35,52,-42,93,10,-74,-15,-98,37,-58,72,-70,-20,-121,95,125,-104,74,-51,-10,-95,-57,-113,-99,107,-118,57,-44,61,26,-31,-34,-79,41,122,-33,48,-22,62,-124,-28,28,80,111,114,-60,-19,-13,-72,22,46,-89,-51,-124,46,-79,47,-68,20,106,78,-14,113,-76,-83,-7,44,55,-7,22,-76,-106,60,100,-10,94,-121,68,100,119,-96,81,-34,10,55,20,6,-45,-80,82,92,-13,-57,86,101,4,61,-109,51,82,-28,45,-60,-92,12,68,58,-76,-84,-46,51,-107,-119,96,-101,-34,123,50,-56,-39,-89,103,19,-28,30,55,120,-25,33,23,-46,-123,29,30,-48,-62,-84,-5,24,65,-88,18,-72,-14,71,56,64,114,-38,120,-111,106,87,15,111,-87,74,34,-58,-110,-18,-63,-106,-93,-70,-119,126,-104,29,63,106,-7,-124,-16,43,56,53,-119,-53,86,-43,-116,-91,-82,64,71,35,8,-91,-9,1,74,-2,-59,-28,81,88,114,84,64,-80,29,36,22,-117,-118,111,31,116,-82,-88,-14,-51,-56,-109,-54,107,-117,84,22,79,59,-46,-74,78,-25,-94,79,-93,-64,61,-32,124,-72,-103,28,98,29,-32,-102,-17,-40,127,-22,67,67,39,31,37,99,113,-94,-67,-72,-85,-90,-111,-35,113,18,83,123,106,40,78,118,-87,96,-18,-8,101,-37,55,-40,108,-1,-7,46,29,-67,101,-29,73,74,-21,44,-69,124,-74,68,107,-25,-114,-35,-87,-53,63,114,18,-120,114,-14,87,-65,67,-15,114,68,108,16,-125,101,76,-82,101,57,-75,119,-26,87,118,-60,75,-25,-31,16,78,84,-114,81,26,69,32,-118,6,-22,12,-37,-11,-116,-26,-117,29,90,39,64,-58,74,-58,-78,-73,40,72,-65,-6,-60,48,58,83,-10,-41,19,-120,68,-42,29,-122,-73,-30,67,-128,66,-115,114,-30,-52,35,54,30,-47,-20,-8,-8,-70,22,14,23,-58,-39,-127,-9,11,108,-2,-76,65,40,62,-69,-42,-107,-95,-111,35,-21,-31,-103,-127,-119,-43,-16,127,40,-27,-93,-27,-101,106,-71,-4,4,-75,20,-101,-60,-115,-121,-94,76,43,-75,-82,-108,-115,112,65,111,-85,-11,-97,47,-66,40,-108,-75,-26,94,88,87,115,-100,-53,-24,-33,70,20,16,28,68,-70,-35,25,-120,53,-93,9,-80,78,-88,7,46,-24,96,-52,-81,-95,18,82,-118,105,-49,-79,-109,-24,-50,-60,74,95,98,94,114,-51,-8,-71,87,106,60,-2,-21,-79,38,10,35,-53,116,-64,-113,-7,-74,113,-80,-98,-89,81,101,-109,-77,119,-28,-116,52,28,-42,119,-110,102,17,62,-41,89,11,-51,70,19,-118,-21,-54,-23,-42,66,15,-118,34,75,47,109,114,-58,13,52,105,72,113,-39,-14,-37,-90,52,-108,0,-87,40,10,117,46,-84,-75,10,-104,-34,66,-98,-104,32,-82,28,47,-106,-40,35,-38,63,-74,54,-17,-66,41,54,50,-117,-67,-62,-22,-60,-106,-61,1,-115,-101,-77,-2,-28,-53,114,111,-60,-100,-39,27,-53,116,-91,20,71,16,96,-78,-53,54,67,5,-40,101,-57,46,-52,116,-43,-88,1,51,65,-23,-101,-54,-24708,97,-69,-25,15,-127,-112,125,116,69,-30,215452,-69,1365,-630,-30,0,99,98,302597,178,-55,91,37,116,-56,-105,-101,1590,29,-83,64,3916,-89,3696,-45,82,2174,8198,-118,-54,-2113,49,125,770,-109,-119,157,2787907,113,95,-122,-64,1124,331,-20,384629,1276624,232031,65,-117,35,96,47,1660,118,-964,123,16808,2198,3814,-109,-958,-25,127,-13053,26895,-35,-89,-7335,939,2,89,-2139,98,-54,51,14,99,75,3789,84,-418,70,65,-73,187,189761,37,186,-120,-177,-19,-82488,89,-71,-117,120,59,265,-99,1386,72,58,-105,-21,87,-22,-83,70,-509,-35,864,15,-110,-791,3692,45,-831157,5673,91,-1257,1408,1172,51,-59777,-4155,-8852,1559,-929549,7188,-44984,8684,-413,-3909,-55,-5232,7808915,-33,6154,-17468,-597,-34213,2630,-96,-339,-40993,-1181,-1,-702,-14867,3298,57027,-193,-2085,-5902,-21,614,649,-8243,-29108,555,-34209,-102,6227,-39242,-50977946,-280,8641,728,283,-47879,-189,1490,-3791462,-70781058,-1502475,-63,-216,-2036,-4769,164,-6169,-321,-5745,-1370,-135619,-47979,-1090,1980,-14376,252,36,-63262,1348236,-606,-5405,394734,-13545,-37955,2560,-33496,12369,-9198,-1007,827,2558,-38984,-19539,-3567,-494,-5726,-2492,-2362,460,-4141479,-17,282,-30855,-354,-1134,444611,4134,-570,-1522,-5045,136,1939,762,-34799,-1856,-3498,-253,71,-1356,-49731,-1175,-55,410,-121,-52000,4857,2910,-85697,-622,-1038,40876,-1527,-1190,-834,17,-161,107,34,289,-148,112,204868,-1538,338,-1491,95,-4593,-633,138,-241436,129,431,-922,-334,-639,387,58,3,2950,521,91,-36,7385,-711,930,21,-57,3501,10278,-120,-80,1637,-314,293,-753,-7,-2732,1394,12073563,12,695,-22,-75,3065,376,-583,-998833,-1683276,138297,-209,178,-115,809,114,-6615,40,1387,399,28488,486,-1393,-199,-63,44,161,-35997,-60965,-178,151,35307,2371,1513,-585,-7565,10,-155,12,-150,98,1351,8112,-94,-877,304,-485,32,-2296,-1107607,108,-512,934,-37,-95,-32296,153,39,-358,-1695,100,982,201,7993,17,311,106,-30,1362,2274,93,-115,-113,5,2357,-592,-117,41918,76,543,-266168,-4171,-911,-656,48,514,-63,-2905,3089,818,-45,71542,-4782,3640,-4784,-15,-3743,-3467,592,587586,-30,1409,2378,-2307,-2228,375,-23,50,4142,1350,91,2,2976,-1012,-26773,8,200,-1513,2366,-386,284,2594,-648,150,-554,-114,-4259,1076,8841329,54,691,-2513,-217,2187,938,-1309,-2127824,1218139,195569,-166,21,-792,-2388,-25,-525,-13,211,306,-22611,3002,5985,115,-1518,347,249,15836,179971,-232,1018,-31156,-5423,811,-2034,7168,1049,53,-202,286,-201,1047,3808,-110,1028,383,-809,594,45,-2286623,-23,1215,500,-93,-57,43218,2479,23,-2702,-4941,-342,250,337,2761,-423,-7,-18,116,1536,1422,-87,71,-312,173,2940,-682,4,-26270,-647,-677,269530,-305,-543,-486,380,76,-24,-367,553,-808,-111,152343,-1376,3494,-1614,84,-2313,-1485,-35,-1166489,74,-546,-2071,1304,-2748,79,-61,392,-565,332,92,0,-1902,-997,19987,-274,-98,1525,-3718,242,18,13251,-433,-9,-192,21,-2312,1156,-7146416,-85,778,853,330,6324,594,-935,-53870,-5012908,208355,-66,-50,197,473,-74,3513,-59,-1511,-88,-3254,-2273,-9248,-697,-98,54,137,25607,-8307,102,-298,-10040,342,-296,458,12564,367,3850,-98,-117,542,-268,-3036,-521,-1122,-41,281,-226,-466,-338775,10,23,-225,62,200,-33026,3060,735,-435,-1261,-78,-933,-246,34578,9,-115,-6,-23,-1559,862,36,-121,4659,3,3842,721,332,13162,-33,28,-17475,512,1030,1174,310,-22,-137,-10494,-28,63,234,111306,904,-4342,1593,38,171,1659,401,-1070918,476,-621,-276,499,786,302,-38,-31,-4739,572,-86,-262,-11075,979,5539,64,-148,-638,-19225,374,129,-4062,-1390,281,-4197,107,384,-4571,2517324,-32,315,258,420,-2588,102,566,-468158,-1575618,43091,-180,258,116,-3274,17,1487,19,926,1117,-5143,-3888,-2709,1121,-14,-84,-73,18539,88714,-112,-263,55364,2855,-1617,406,9058,-1386,-906,263,-294,461,-2388,-10670,-520,-963,742,1612,-1661,-266,-567938,13,-180,-1639,85,19,191634,-1315,-376,183,2345,-63,-233,-49,-14984,67,790,-26,-54,861,-3167,-137,-73,-1776,731,-1909,448,301,-27256,-1214,-102,-688588,14556,17313,18339,-914,-350,-112,-15202,10565,2493,-506,-459017,18012,-23380,14293,149,-563,17939,-429,3157486,-511,2036,-3772,6541,-32950,120,-833,23,-23671,3015,-68,126,30817,12102,2791,-225,-2926,-7789,53473,-1532,-566,-2386,-17307,-512,-12581,54,11308,-20555,8955214,-79,3224,2959,-854,-20024,-223,6945,-1907438,27681898,-359312,255,164,-543,-950,-1,-15977,14,-2177,-1591,-35797,-18325,-1880,273,-7069,-353,272,-25403,-302587,529,-995,240404,242,-21514,4533,-7175,10302,1949,-266,-244,-1497,-19766,28470,-4449,177,320,26022,-1106,-703,-1457260,-117,-490,-18235,124,-42,-242372,3596,1047,13406,26885,-293,-2665,-157,-24492,2654,1024,34,-174,7517,-14770,263,5,33,6350,-16496,351,-1209,-33092,-985,-117,-14500,118,-65,-5,-81,74,27,20,-53,-5,-34,14465,-78,-304,-309,106,-390,-70,-7,-1142001,12,69,-1685,-483,105,-15,96,94,-233,-23,74,-116,-60,80,3377,122,38,648,-57,-25,-69,-3568,35,57,18,-84,-243,20,-2222856,47,1,-118,115,-363,-65,101,364673,5316607,174723,112,-16,559,2679,-117,-1165,5,-893,-45,-1335,383,-4289,-97,-358,23,-73,7359,-7515,111,-68,832,94,85,-39,-8104,1689,-1308,123,148,9,-67,-65,11,-383,-539,-46,968,-145,349918,-95,-126,-68,-282,35,30920,-27,574,1,77,-9,-332,59,783,12,28,-7,95,62,-109,91,-23,216,122,-368,-56,76,-1497,326,-94,191260,43,82,-3,48,-41,41,-31,-52,966,-25,42203,45,-147,-134,-8,187,1764,34,-465032,-21,-905,-3577,41,-1571,109,26,-35,1087,-73,120,-146,4653,-20,-11179,30,-105,1586,4687,145,115,500,572,-128,1136,86,122,63,1094189,18,68,-87,31,-1087,-124,-49,815539,2911856,321628,76,-3,-7,11,-56,-415,107,-762,516,21159,-3745,647,-109,-72,123,-55,12609,98425,-41,-83,-48182,2431,-277,-72,1889,284,-1654,21,-332,-31,-350,5005,-316,2640,20,2036,1826,421,1015884,108,17,-395,-130,80,89156,59,25,-141,2070,98,525,47,6560,-38,-31,106,61,-69,-2119,-16,96,511,-92,-1726,33,-59,40727,-612,102,117497,660,-858,-567,-3,-876,-45,-26,-116,1354,105,79166,703,141,23,28,-64,664,-461,-530093,498,51,-1428,2026,-3090,-340,16,16,919,-858,-77,50,1835,-944,23280,-57,32,-5064,3038,236,-107,762,-954,-107,1663,-91,19,51,2617478,217,-68,675,105,599,768,-385,-106288,93857,25002,-39,-102,-37,2680,89,4096,98,-250,-498,6421,-235,-762,-129,3654,110,-31,-23535,88872,106,-116,44012,-5375,94,48,8976,-42,-2301,622,-254,25,147,451,-220,-607,375,865,2148,416,437802,-10,261,-29,-113,-51,50665,-647,27,-782,801,941,108,-329,-8854,49,-263,-78,-23,-1149,286,23,-7,1132,-153,747,-362,-93,-48628,672,29,252123,-2832,-3737,-3479,-222,-56,-12,-12658,-2830,-678,-273,25241,-3954,-1417,633,-77,-4454,-2823,424,-3175928,-168,-579,-2185,-132,-17,345,-140,-31,-653,2,7,-210,6405,-3838,10328,-180,-234,2466,8622,-516,-5,1749,1665,167,33,187,-2858,503,-5446194,-4,363,-1189,201,1332,-134,-2317,-400413,-4364801,102327,-181,-54,-746,-4123,-25,3498,-79,-237,1634,-41955,7609,10540,361,-299,-2,-283,-12072,81990,-4,83,54116,-998,84,-759,601,-341,-1921,159,-118,-293,-498,6025,-397,-725,-85,-4217,-1061,-494,-598688,-190,197,88,-1065,-198,89125,726,855,-2886,-4647,92,397,331,14103,-262,41,-14,49,160,836,-291,60,-367,-129,2170,-911,-179,90898,4170,1664,-444300,2712,1829,4496,434,-83,-14,-27289,10623,1621,-138,-280259,10577,3417,-711,-129,-1430,670,-2180,-9229017,-334,-3159,-10023,-5302,-9557,-2180,129,-655,-5913,-1014,0,-1472,24264,10114,73297,-451,-2140,-8645,49089,956,1,1510,-12064,-1245,-9192,101,10261,2542,50639637,-60,-3925,870,-180,6985,-988,4578,-5363058,47290310,-1634549,-903,-602,-972,9471,-156,9138,-363,2568,-4656,-67301,5409,1335,-677,-7179,1085,94,14661,226331,-769,1760,739437,7440,1251,908,13989,14428,-14121,-1699,-239,888,1988,19923,-2197,-5316,-1057,6260,-1403,-600,-4396822,-122,-809,1939,-849,-864,-351705,-2286,-4360,2571,1632,-561,-4514,-1070,14759,-2495,2874,-103,274,-1639,7750,-1069,-106,-2952,-7195,1843,-998,-155,-17133,1926,-977,-403845,-2644,1813,-388,765,-544,-14,-14682,5453,-1017,431,-308777,-1620,-285,-2556,63,-3129,162,-1661,-942848,-394,-624,-4664,-1465,-12432,-1057,-31,-75,1576,-1813,77,517,-1248,-2997,13715,-41,778,-5951,9940,246,-306,-6259,-366,-404,-2145,-122,-4714,-299,-10632844,-169,-1218,335,-421,-5220,-1958,-1322,-3032832,-21610622,-203093,-71,-500,-217,5095,-99,-1811,212,897,-1499,-41132,1173,-11064,580,-6436,-114,79,-41417,156113,107,331,251465,-2715,-5135,464,-25939,4132,-18012,1638,-180,1125,-6604,-7102,214,-492,758,1246,-641,753,-3303907,13,963,-3927,526,-2176,295431,-504,-4113,-873,4937,-322,813,-1282,1325,570,1760,-234,57,-3338,-4155,660,-137,1492,1540,-3997,1165,745,86860,468,-32,95656,-2265,-2290,-3031,63,-236,22,3005,355,-2722,-431,-154112,-3045,2043,-6078,-101,979,-2977,866,1759802,-363,199,-1090,562,-357,549,19,-272,850,-62,119,184,-1653,-2604,-16884,-37,7,-3852,-1059,51,-154,-10479,243,-61,-463,-84,-2618,974,-5548996,83,423,-612,332,2679,-256,-2103,-1297578,2467740,678501,-17,-144,148,-3638,27,-6454,-131,-4045,480,-45949,2918,-3098,314,-4259,26,105,26823,95550,123,678,27933,20,2763,-859,419,-218,-4142,-511,65,48,2225,-2044,-125,-336,396,-3984,-133,-540,-1524179,-50,266,2016,372,31,-10797,253,316,-1552,-3758,-282,859,402,12420,-369,141,-99,142,1515,2225,-137,50,-310,788,1697,337,157,17470,-103,-73,-38409,518,-78,95,-108,21,41,35,90,93,16,-232815,936,-3570,-1709,125,-1795,85,-86,4010502,28,-30,-2531,314,1675,31,96,80,-3870,31,-121,66,-2903,-23,11602,-37,-251,-266,-3621,235,-89,8325,-449,34,-1412,-127,-709,-2407,-1922271,-124,121,421,-91,-2699,976,-8,-1323179,7231665,-487575,37,-118,-139,-306,95,4507,-3,-722,-570,-11990,1537,-2227,-364,-3931,105,414,-5096,18236,57,1003,28098,132,-2780,-195,529,1713,-1363,-284,84,-50,-2790,-2950,-75,1440,44,-16,962,205,-1822736,-70,43,-2313,-78,67,-81373,-195,-89,7,57,-118,-803,48,15,99,-721,96,35,-9,-3215,-116,17,1348,109,-2917,-83,-34,-53593,-116,-461,-24819,-1465,-566,773,-398,95,31,1015,-107,1029,-50,166447,254,-2172,-3588,91,1629,860,271,-2307366,84,1610,3199,-446,2416,165,-101,-53,-93,-742,-10,99,-4336,365,-1993,-299,90,-1686,-7221,126,305,-2642,-574,191,-2546,-28,-2047,908,7269206,63,694,-843,-184,-1369,973,-651,123379,-10374026,-113895,116,195,-169,-2204,70,-4912,-88,-1102,505,18301,-1225,-3343,-402,-438,-225,30,7342,43600,68,476,9821,-2737,-10,-619,-9012,4848,8111,-180,70,4,-105,-4169,-745,870,-216,832,49,-351,374203,-4,-42,-108,-50,22,226477,606,-1404,397,1425,125,-59,166,-2251,-232,173,75,-120,-11,-596,-8,-24,-1396,-223,-1334,-449,144,-60048,-890,-311,305311,-3288,-5282,-4541,387,-102,-94,-6996,-1126,219,-111,-189425,-2525,-3396,-447,-118,-1180,-2406,-629,220027,-207,3051,5195,-2763,-5697,-648,-10,36,864,-576,-5,224,12696,-8032,35917,279,-488,-3624,21009,733,-100,-162,-2922,-92,1259,35,-1606,-105,8022085,67,654,310,-457,-1712,924,-3777,17048,-5180166,-380023,373,-196,554,1926,14,-4226,47,-1784,-1102,19099,2164,-12333,-476,-2577,-64,-46,4073,118441,27,-1371,35074,-32,-617,-1926,-4088,-5319,5236,-145,-356,224,-62,13058,9,3116,1190,-2713,-1240,-957,-327646,30,-15,-142,158,175,-47620,5210,-176,-1938,-4630,-98,-1942,-438,1837,-195,1160,41,112,-1678,-929,381,-315,1172,-1257,-2941,-1797,-178,-6286,484,-726,183232,-2044,-3924,-3777,-298,3768,-62,-18491,-4721,-1662,-34,-350142,-4330,1295,375,-37,862,-1941,-145,-1501089,-85,796,-4211,1762,-2835,-198,-25,-62,565,-399,-70,573,7669,-1457,-22379,69,988,-7332,23984,-465,100,-3127,-1912,114,-1055,-110,1220,435,9214297,-59,1218,-296,-219,-21,-99,-340,-158327,5683172,-208527,-101,131,-1001,-746,121,-7004,151,2600,2850,68383,-1111,-2391,223,-5349,485,-142,7572,494915,260,1940,-26800,-5372,-1290,-77,-4852,5267,-452,38,-101,-684,-1113,8272,665,-32,-1978,66,-1454,-482,245868,45,910,-1235,401,-122,222390,798,-822,482,1862,-770,-640,-115,-5318,311,-820,-84,83,2249,3162,609,-73,42,913,1906,2449,-422,-104398,-1088,-980,-1812066,-15848,-6853,-7162,-1178,-2850,9,-42890,-22566,-8340,-974,-1083277,-17994,-55072,-11140,-111,-10486,-16564,-1945,-7205985,-1530,-3849,-7986,-5385,-76688,226,-1022,-607,-67761,3586,-163,1231,-14157,-15447,59869,-1132,-1828,-11925,5440,-2813,-1043,-12342,-58331,2152,-39446,30,-17711,-46001,-42332181,-460,-3266,-4485,-780,-50979,-3214,-10300,-7751374,-54072888,-4349830,1572,-743,-2462,-5828,-282,20750,-250,1639,-728,-211623,-63939,-19936,-2726,-17735,-581,-192,-90514,134648,112,-1520,675338,-28594,-50679,-364,-91388,26421,-9893,-1353,-377,-1403,-44004,-17728,-6596,-6413,4275,-16930,-6564,-455,-8960115,-374,-3372,-38490,-94,-3578,474760,-2401,-6455,-12978,-14339,-1153,-5772,1788,-79303,7909,-594,-199,13,-1311,-44787,-592,6,-568,-4562,-51223,-3087,-1009,-210666,-814,-575,47875,1893,2105,1996,413,-26,-105,4066,-1950,466,124,-821413,2052,-208,1746,-118,4561,3765,6,-8447577,-191,290,2693,800,-9335,3,234,-91,8571,537,-81,398,-3802,3990,-342,754,1107,-3070,-4082,913,382,-1774,598,129,535,-17,804,-152,5723626,-66,64,1379,186,441,-2058,2034,-378076,15439146,-1057678,336,308,-926,4212,-5,-16956,184,3403,-888,84844,407,-2078,546,2574,705,260,-12852,91330,52,2260,61661,152,1576,875,-3384,4890,2993,39,-695,-44,748,-2538,-74,1425,-1526,2319,-831,1860,9604,-31,-672,328,462,93,114700,676,219,2171,3539,115,572,130,1135,-8,-682,-38,-37,932,1715,203,-66,-2914,10,2506,2118,545,-129414,-712,712,-92389,-44,-1877,-1395,-257,542,-3,2364,1473,176,395,41513,-267,5817,-4199,-352,1113,-2351,2,-1097646,-60,-1372,-3847,-1487,-867,190,-259,25,2316,-179,-55,-367,-3033,-1839,2044,-356,140,16501,-2288,645,-117,2767,2037,12,195,18,-80,1007,7276274,-67,88,-1036,-142,2545,715,-1137,-1618858,8961213,-178535,-193,58,-522,11239,-110,-5710,89,500,570,-73374,4692,-7406,714,-7898,3,46,-20154,103259,-191,800,93802,13,1234,-481,-18543,660,-2010,1051,21,-26,2269,-2911,262,-638,308,-2881,430,1868,-615951,41,346,1024,687,-375,140524,-983,-763,-1229,-2541,254,403,131,7150,-242,990,-143,-128,456,1476,-154,39,2039,189,6176,105,148,81951,2343,-339,-1711145,5515,-6194,1600,-509,1235,-162,-96909,-33798,-4917,-2756,-1125853,2200,-99278,9336,-422,-16850,17243,-8842,33301095,-2060,885,-20511,-2415,-133020,885,-1143,-1126,-72127,-4293,94,-1846,34727,-5740,80303,-1663,-6838,-13741,109304,-3870,-1727,-18333,-61712,581,-59972,61,10744,-75185,-19655698,-310,7460,-3308,-2480,-84389,462,-4564,-10339225,-68350418,-3070213,-3096,-1441,-4295,-4285,-162,-50047,-595,-3410,5995,-257517,-65495,-50299,9296,-32739,19,-544,-64688,-80164,-345,-4259,960690,-38514,-82494,861,-101289,11288,-13989,-1211,-1795,-2456,-79818,33557,-8113,-3636,10126,8226,-724,-646,-11806712,-804,1761,-67582,-1043,-3468,419546,-314,-9618,-717,7237,-1720,6402,-140,-101918,61,2172,114,-149,8099,-74746,-1190,-198,-534,-6939,-82681,5162,-3347,-265394,1533,135,55490,3867,628,1431,-533,-133,-75,2675,-4560,-517,-309,-123470,2665,-3823,2829,36,1964,2309,400,-4191886,-348,466,2575,-1489,-11185,129,-377,370,-1413,398,85,434,9798,3936,9689,141,762,-267,18242,-565,-345,-10134,2069,-34,1470,-84,486,-1676,9097164,30,705,408,-171,-3690,-356,1294,-285578,40023970,-307902,376,-361,-256,959,-75,-2286,-61,2910,-480,-14873,5244,-7623,974,-391,24,-187,-13524,77586,194,1567,139732,-1777,-2757,1271,-5790,4502,-538,737,-207,-1625,-1163,10840,-814,-2558,-850,2796,-2850,580,-146033,-207,121,-1888,-395,-932,-365809,1670,-1063,661,4404,-255,438,216,8397,163,621,140,-116,-692,-2164,-76,-32,1206,-241,-2828,912,-991,39753,792,210,-35831,-1794,-2267,-1827,76,-740,-90,-3475,-5157,-106,314,214041,-2119,2572,-3037,-22,499,-2410,-167,1776706,25,-1641,-2051,-282,-2845,412,-59,-39,4590,-456,-9,-61,-1395,-2342,16463,593,1150,4872,-437,66,155,4289,196,341,-1425,78,-2924,940,1389382,178,-300,-697,236,3375,1717,-2098,935768,-345232,254866,-146,26,404,-956,-14,12758,-142,-2241,552,-11194,1044,10104,-289,-77,-104,7,-252,180285,115,-614,-17408,-681,2124,-1203,11817,2485,-1257,-113,71,421,1261,-318,-643,-395,-1439,-2941,-420,270,465268,-88,435,958,548,-402,60647,-2394,-544,-2126,-5552,-24,-76,370,1940,-86,-949,-33,59,-2162,2656,-181,133,436,-736,2078,-735,187,35583,1038,695,-33471,-5731,-5824,-4683,209,-1623,-131,3231,-6388,-293,491,-131982,-8166,-3295,-3264,76,2529,-8135,2316,-6839697,233,-760,5811,1167,-2478,-650,267,332,-12726,-89,99,-300,-8893,-5929,4494,-108,198,-8233,-14889,1262,212,-2254,-692,505,-3037,121,-5072,-3836,-666764,-328,665,-1848,649,-5145,-1146,-2663,701339,-7215319,-329066,700,49,401,-905,20,-9223,-60,926,-758,-30109,-5336,-9108,629,-4266,113,188,24448,-8469,21,318,-55162,5484,-3640,-3014,-6293,1504,3575,-152,18,745,-3188,-9918,-1192,-3898,234,-8593,-152,537,571787,-144,17,-2478,-62,-461,-63555,2655,-163,-3922,-9253,-504,2432,357,-1213,810,-454,-125,-20,-1880,-3930,-378,-55,-1360,321,-4635,-2147,-59,26817,-683,74,219984,59,2416,2254,42,103,-118,-9448,-121,-478,-292,-414439,2200,4906,347,35,-3601,3844,94,-2161194,-29,-869,3844,338,-3316,-62,-102,-87,755,-490,-144,94,-722,1795,-18320,-189,-275,-5660,-491,-88,-7,3203,166,83,-1169,-62,90,1422,-4969014,-92,-156,-8,39,2296,487,-282,-433818,-1687954,-190741,179,104,-36,-4534,-76,-13857,-23,-531,-120,55770,-1403,-10091,53,-248,-112,291,21087,21337,-63,-165,20031,-4656,1282,-60,-3934,147,3703,-720,32,119,949,803,39,2131,-63,1738,-38,697,-197350,-70,-55,783,141,32,97732,777,-809,1865,3359,-431,-608,-78,-5164,17,-37,92,29,-347,1224,118,21,-840,78,460,37,40,-130395,-1654,1222,245401,-962,22,1656,-178,-874,-24,-1745,329,3390,-192,-510367,2627,-5975,-1498,-133,1045,3518,-337,-4022186,-289,65,5667,-208,-3273,2,-68,119,-185,-632,-84,-304,728,-1039,7684,526,-2097,1100,4932,-1109,114,371,-8223,-74,-4897,-223,-2235,1062,14562898,-60,-1782,-116,-18,2468,407,-1170,-832638,-18886688,-317210,-112,95,-369,-2265,105,4025,-148,-3029,1918,-128618,5011,4888,-728,-847,150,-121,-16595,346125,-620,-3047,-20246,-7020,-5246,-1016,-7574,3744,1654,-1492,-148,316,-6104,395,-947,3410,-1472,3590,-811,-1301,-1154623,195,160,-4585,-338,-77,-306708,-1158,-3451,-263,2303,-1138,444,155,-3146,708,-1849,5,86,-4853,-3004,-240,-211,-585,478,-2951,-2275,580,-147134,-775,80,-14043,-1479,-8515,-2996,-813,162,-54,-12691,11989,3022,-778,-445951,-957,-7206,-1218,-87,-14966,3032,-1139,-906532,-532,5890,7239,-159,-4887,43,26,-81,-821,-1044,71,-256,3754,-3844,33306,-356,-577,-10636,15480,-206,-381,-9943,-8725,-720,-10686,-139,-2213,-3767,-2141850,-161,-242,-2330,-141,2976,2832,-3722,-1888072,-25279003,-495132,-426,-687,-258,-2840,-6,7147,-114,-3145,-2521,-81758,1796,14212,-1377,-7154,-280,-157,-65751,-310356,101,-1118,81386,-7699,-7292,-891,-13156,2000,4032,-993,-720,-1548,-6387,611,-886,976,-3331,3564,1692,-902,-269338,-233,1926,-6494,-404,-107,429549,5975,-4158,-3210,2142,-327,-656,-960,15128,-703,1186,-122,-6,-3217,1896,-395,27,-2620,1300,4766,-981,-904,-128371,-1886,-158,128717,-1083,4711,3717,-1008,242,-24,-2460,7427,911,-442,-68750,-2525,999,-3557,-213,-2172,6072,534,-8352959,342,1776,6810,180,-17689,1813,-34,-395,12354,-1235,22,-88,11908,9596,-12429,69,183,-3849,27471,-1606,36,5339,-9127,360,226,-153,-266,2010,-3541332,-46,2991,-2334,-1063,3399,-592,1066,-1260142,-36578127,369151,166,-19,-646,-2074,-39,-20488,-265,-1679,854,-32039,6707,-25268,1018,-4767,-407,-17,-73619,-117464,-212,-149,52504,-1888,2593,1021,-25036,-7863,2516,-1140,-466,-2255,3026,16282,-913,-3497,5672,10238,-2398,-1921,-1453606,-77,-103,294,-509,-1307,115083,2777,-1562,2562,6254,-1203,-1030,453,-17179,-1596,3560,-70,98,8731,3324,-57,-275,-131,2086,-435,2625,-1818,-123530,1679,-97,76079,191,-404,-624,-204,1031,138,8827,1588,-1563,-51,213308,780,-7436,-493,7,-3601,-1300,174,-1953394,78,528,3851,-953,-3335,402,-101,-327,-4889,-930,122,-116,-2178,-1037,-22181,-341,395,-5126,-5496,-275,39,11182,-3009,-71,-5307,-14,-87,-3236,-13820559,20,86,-8,-179,-2187,689,1108,-1170308,-4890511,245671,104,274,798,-4749,-20,-13719,-35,1629,228,-29415,1032,-21727,350,1694,-193,-314,-5348,356652,-117,1312,30467,-8065,-4185,250,-15526,1711,1105,94,388,-442,-4489,-2848,-1039,-4170,1922,-1889,-2175,-1205,-2784376,-130,372,-3821,-953,2,-74620,-924,-844,145,-1563,-710,-474,170,-1765,624,1245,35,23,-693,-2494,-37,39,1711,-545,-5976,964,-372,-119789,-662,223,-330767,659,2232,2058,-41,21,37,-1624,-1153,-1278,-320,85889,921,236,-2358,-53,1359,66,438,340030,-493,-696,-1438,-823,-667,305,-106,-82,-7213,71,35,-99,-218,2749,25373,352,-61,-3446,-3384,-330,-114,8628,464,-63,-1497,-85,1042,1277,5438141,124,-329,629,-134,955,-2701,1193,-683814,3387422,312406,92,-199,259,-215,-67,7658,-109,-1860,-438,-53985,-6360,2,-182,-577,-718,-131,-40800,34800,108,-265,11452,-1557,981,902,13030,240,-3030,-274,-13,-300,1917,-1614,-99,-3717,326,1594,-1453,-429,-1030553,-90,-1523,1484,42,46,-137083,-724,-1419,1738,736,-344,-1808,380,4148,50,-73,-68,120,806,2243,-2,99,618,376,2014,138,-83,-39801,-1925,-396,71982,1024,3179,2248,66,-588,-40,-10738,5085,388,73,-28618,1814,7004,3987,-30,-11367,7109,86,-5414657,204,-755,-12786,-399,-6459,527,5,45,16718,1126,76,132,6942,920,-16412,448,-1379,-2398,14639,-1094,280,2319,759,-138,5153,146,4076,7919,3314552,108,-1417,-409,-290,10354,-757,-247,-1000106,-12455518,434386,426,20,719,-5574,-84,-11540,-75,-2658,828,-17988,-3905,-10075,-1311,3068,-691,-184,-13704,213578,-146,-1875,134277,-800,6916,1277,-16917,-4263,-3604,113,41,-973,8082,7495,-598,-792,-2018,4820,20,-929,-315311,74,253,4259,494,-816,-130414,-1786,-1475,2256,4698,-653,-1435,484,-5426,221,-1207,-30,74,-1082,11546,-190,-148,-1546,627,7755,-585,-23,-71515,1305,-375,-162595,-2223,-1263,-1266,-43,879,-151,5958,20,604,105,-210853,-3472,1372,-4927,55,-381,-195,2,-141530,466,-1,4333,760,-1728,6,3,69,387,686,-122,-62,-949,-57,11972,-390,-91,715,-390,161,29,-3250,652,-60,1203,210,-1388,-951,-3189388,-84,901,-893,-10,805,383,-1767,-914290,-313204,-387185,-692,603,131,-2387,-109,9828,-57,348,929,-26093,2569,-6303,471,-524,-88,-195,25837,75360,-212,-63,-11662,-1018,-15,-1448,4491,5,-1064,155,-139,-2,568,-1207,-1470,1889,-65,-331,2802,340,-798452,-148,376,-100,-69,-447,59137,687,-3085,-1991,-502,109,1084,38,5670,-20,58,-67,-76,1926,-265,47,40,-1695,-63,1227,-218,-34,-32392,-1295,-294,-470805,-940,-1543,-1833,-113,3192,90,907,7501,-2953,-47,550511,-566,-8288,-10617,78,-1139,-1212,-319,-2768200,-146,2178,-3766,1710,240,-173,-60,-138,-5178,-251,19,-553,-8386,1366,21420,108,7,1907,285,300,-19,-14761,-8478,-199,-6975,27,248,-5665,1970497,-12,662,-1393,650,-4725,-812,-1541,-2600431,5961206,-701985,-522,-214,-447,2406,41,16733,-27,-3182,-1006,105802,-17066,14742,-320,-1917,240,116,-52660,233554,80,-792,97607,-3756,-8362,-1789,2501,4490,1093,-342,-249,67,-7935,-6122,-1017,220,1233,-2650,-1670,-810,-931521,258,1810,-6933,144,-458,-189353,-1201,-753,-1948,-2010,52,-1672,-138,3895,-1820,1145,-66,213,858,-6866,-398,-57,-1791,1481,-4985,1340,303,-50470,81,594,561482,1703,1098,1563,-28,90,57,-1946,-114,-490,155,392797,1731,2066,762,-79,1723,2971,-271,2956635,341,227,912,-285,-4324,269,5,-41,-7316,-342,-93,-72,3366,750,20333,-476,-586,-13203,11101,-313,-20,34683,-3162,45,2129,-110,1156,-410,7927614,-116,-1026,1502,66,-2422,916,1465,-1905953,-6155704,555445,-386,-82,-1573,-2893,-40,-4926,-56,2133,-220,-47914,-1593,-17002,732,1172,-732,-419,-20293,3445,55,2062,-10190,299,-1534,921,-29971,-1479,998,-164,96,162,-1036,595,-268,-210,-1660,685,-954,-674,-1138462,-73,299,-1257,1449,-468,85902,-685,-1038,2367,3284,-493,-2979,-153,-8411,75,-674,-7,-99,-1753,-2725,28,-82,-251,131,-1333,306,174,-82895,-1516,317,-1972,-2757,-5177,-2662,227,1171,-87,-11035,9134,3332,-556,-207372,-2371,7019,-7688,28,2,543,-610,-1668120,-179,-625,3017,388,-12176,312,-152,325,11898,624,35,-409,14138,-533,-24493,125,-169,8656,24084,217,-407,43484,-5623,-704,3027,-58,-3045,1363,17873661,48,1032,-2265,-552,8770,2902,-2389,-588598,13618418,514835,-661,-632,-746,-1497,22,-2561,-290,-1305,190,28974,6478,7679,109,-6342,-325,130,-102037,86975,256,31,156169,2597,4601,-3075,-9138,5042,592,-1085,-224,-179,5185,14259,299,-3755,2801,554,-2998,938,-487436,-206,-548,4271,-106,-371,29727,693,-3848,-2455,-1848,-394,-448,72,16670,-677,2056,-54,-115,2159,9988,-446,112,119,-550,6210,-1485,-1011,40576,234,-602,85414,-1559,3157,3347,-320,-2525,-81,-121,-8824,-1822,-97,-9083,-1116,1300,6655,-90,-8915,4358,1872,1768659,-663,4837,-1115,-1862,-10279,1158,-86,-116,-1714,-715,-110,-21,2281,1590,36324,13,-2422,-5467,5594,-101,201,29740,-4382,811,-5499,10,-3539,-715,-1150564,-127,-402,-1836,535,8583,-43,-2894,-2576430,2878232,-471067,1254,168,-148,-4127,-21,19956,-134,-2330,334,-12147,2969,9472,-1256,183,-736,47,44827,569662,-367,-714,-991,-1375,-2840,-77,-5134,2239,4601,-712,465,105,-1010,4698,-198,6065,51,6424,804,-1028,-3477279,-123,-196,-1429,-275,-81,30329,5759,-2759,1886,1803,-463,85,1058,-17376,-1289,-1134,-59,153,-5086,2148,-202,178,2307,2117,3924,1623,-6,-169935,644,-442,-84297,-1031,-899,-419,110,23,-67,12051,-2536,-139,83,114672,-1401,-2394,-2824,-79,-636,-1721,-289,2784214,18,-494,-1798,981,-1600,67,102,112,-7533,-376,37,5,-4208,-2429,40504,306,149,12218,-5563,380,150,11818,-1720,137,-2032,-54,-1749,-2346,-4055188,144,-115,-900,-77,-298,983,-559,-1307923,33690434,151302,121,37,198,11317,222,17821,133,-1351,750,29585,-2227,31813,-257,-5405,-330,-197,16777,-30152,-72,-578,-32152,819,-1611,-1332,9214,2706,-3561,685,440,121,-2455,-3828,480,-654,-898,-1734,2519,1667,-2227767,32,-13,-1738,284,-72,89323,1156,549,-524,-2503,571,807,267,-908,118,-835,61,-84,-969,-2637,-142,38,1092,16,-1635,111,-83,16436,-58,587,195325,4166,1857,3914,155,-1331,-78,-9566,7355,2286,-594,-286788,4318,1167,3080,23,1249,6897,-307,8645851,-902,-2452,-4532,303,-13735,1037,-409,-178,-2259,166,-108,19,17346,2960,50712,701,916,-6426,29685,-166,-521,-3271,-921,-155,1926,-41,3293,195,12204056,-199,-3004,-504,-721,862,1496,394,-2273825,32877452,112821,74,-24,-584,2288,1,28646,13,-1484,14,-28345,5316,21339,160,1951,350,-436,788,-28871,212,1517,295592,-4038,-2042,-764,15819,6222,-5693,859,262,104,-10,16022,-2320,-497,-323,5657,-515,-606,-1666409,-249,539,-926,-793,35,322973,-7528,-664,-203,7684,-1046,-1098,-511,-2363,-1747,-2177,-126,-75,-538,808,-293,181,-4776,444,1686,-1672,-495,-114443,-1873,148,182471,-2188,223,-19,0,-55,77,2439,-64,-135,30,-77449,-891,-4701,-2150,-68,-1760,269,175,1339632,5,-125,319,-2153,-291,-20,24,299,-3633,126,64,-174,-5442,246,24011,-311,134,12147,-6149,-458,152,-2913,1725,-163,-1684,46,-2036,-2944,-2217561,-631,95,-1359,29,-5537,608,-1428,-1705138,-279695,-25924,99,211,-333,-3255,72,11353,33,752,467,14685,-6267,21965,40,414,90,-4,20411,234144,-44,449,-18995,-4510,-4051,-1163,25494,-281,79,-1192,291,-268,-4637,-4790,-215,-350,-229,-89,-668,509,-2570733,59,827,-3302,-105,-97,83170,108,506,-1942,58,-50,319,149,17426,-76,6,-8,-30,305,-4075,118,-99,81,-28,-6010,-100,204,41927,854,-170,114808,843,79,-118,225,22,34,1416,56,560,231,-361889,1043,2975,50,68,-4259,-89,-60,1712775,-454,-46,273,398,3946,27,149,-92,-573,-2,-85,-69,227,-2,13620,-32,126,3067,4758,659,234,-3579,-21,83,256,-34,-436,3383,5804240,73,9,787,256,2808,657,632,-1005241,-9817435,-256253,51,321,-566,3458,-115,8872,110,1029,-69,-8802,2775,11982,127,333,82,-41,10656,-37001,-37,101,-7105,2389,1038,24,4653,45,-58,115,-96,722,1511,237,-73,2037,117,-175,3310,-438,-1497459,299,164,656,327,-260,55042,170,-198,-86,-35,4,548,-157,13085,90,348,30,62,-158,1364,-81,-95,453,-95,3619,55,444,-56599,-63,-474,-167192,303,-417,-575,48,-338,-52,-2816,-1082,1558,28,233915,581,4456,680,-68,-3509,804,95,544131,-224,-688,-3417,1181,1107,-93,120,-36,5210,599,-106,203,4942,-995,-21217,55,-61,483,8928,19,213,-7583,-220,-19,525,76,-561,5051,10798333,-119,-109,588,62,5508,1735,-131,-364386,-9258681,103776,-358,669,-58,-3928,-143,-13804,71,-1433,-131,-21427,16148,-2336,582,364,-164,125,21204,85645,98,-883,50989,-4326,3128,-357,-19696,-771,349,-392,-220,324,3394,5271,-433,-1013,-793,1752,-1063,143,-1365354,151,-183,2348,-315,-20,-60847,421,2014,-1025,258,-627,-7,136,-4457,286,-767,-60,-69,-1005,4193,245,50,510,-203,4351,95,252,-97461,19,-1104,-115796,-1089,440,154,-92,230,-59,3417,694,112,-274,-496961,-1928,9947,-1620,71,-1248,2919,443,-915861,-107,786,3608,-846,309,375,-177,260,6014,-97,-68,-95,15134,-924,1637,-21,-967,-7697,18882,114,-67,-17307,374,48,794,14,-546,3440,-3032485,542,654,152,-119,10928,2232,1379,-1829695,11949299,-749989,-95,-625,-282,-5911,41,-682,44,-3137,702,-15335,8738,-4424,304,-3211,-181,208,6173,89847,552,-1045,-13786,1465,4680,162,3364,1086,3183,-495,389,-100,4904,15420,-61,-1503,-86,3289,-1845,-2042,-2032004,-92,869,3872,69,-666,-10946,1058,-1129,234,190,1240,2113,220,-17684,-20,185,30,74,1631,6771,-88,20,-1494,116,9005,291,109,-47583,-3746,-273,299887,-1118,-2464,-867,156,-460,-103,4851,-766,312,141,213598,-574,8175,-4425,-55,275,1147,46,-1802592,-162,199,1664,-567,409,-26,150,9,5633,-680,-100,-251,4090,885,-11687,-12,-461,1804,9430,78,190,-28213,-581,-95,92,-154,-2592,5206,2133597,77,-962,-151,85,11955,1453,-730,-228401,-30444422,758306,-660,1099,-585,-561,-161,-18248,33,-3993,-550,-75180,722,-9788,-516,-482,-856,-188,14913,149859,35,-768,53976,-863,6266,-469,-20158,529,-1772,-268,214,243,4763,3778,-198,-582,60,1199,836,1206,-550240,12,1014,3309,233,-87,54042,-527,-3128,-654,-98,-226,-997,-91,-4702,-340,-64,-24,65,-858,7228,-503,92,-988,742,9749,-85,-70,127929,2716,-526,272201,514,94,1041,-25,-1124,91,2614,-9,-715,-258,-362763,456,-2011,2994,103,-4051,124,-48,116269,-32,-204,-1225,-1829,968,6,-73,-450,-875,-712,38,39,-982,62,-4108,-262,-807,-3210,625,230,-85,2782,-162,130,-393,137,1826,1434,15298314,-68,-78,-99,-3,2158,1309,-132,-2609086,27050498,473544,-466,-261,-408,-3363,-39,-11385,20,-1633,-131,57104,-1877,-7066,-46,-8527,-585,-208,8300,90824,114,-397,54117,-621,2079,986,1326,1877,109,-1060,57,-254,1445,-790,-104,-2507,-114,-16,-2370,-552,-1472045,107,-176,-182,-479,114,189118,139,-3592,513,454,-1111,-538,-303,-1996,-115,-158,95,-60,-835,2113,100,104,-1542,26,2105,135,-35,-93516,-1298,-144,21080,246,356,-66,-93,-239,-160,-5074,-193,582,147,-202697,-95,274,-218,-109,-995,-919,-317,3259796,234,-18,-78,-278,-106,11,20,-752,4885,-320,-31,294,-260,-1825,-13240,-147,176,516,3426,-202,82,18820,-425,35,912,29,-33,593,6419633,162,-476,345,139,-599,609,180,-1515566,-10248642,-217213,341,553,-81,5037,-25,2944,39,1299,-622,-26637,5191,4216,-188,26,-158,-127,-25709,30704,-168,397,-14463,1555,1061,-75,-3601,771,-3258,354,-175,-25,-211,1666,-726,3264,-252,-605,1214,-942,-2137473,204,1586,9,410,629,75822,-512,-2121,-366,-1626,-219,-834,231,-10334,-6,-541,82,-27,-798,-1013,90,-66,-270,37,-1209,-386,67,-56034,687,-150,-27349,1234,1305,1243,-121,236,-30,3570,-1003,401,-12,-283236,1408,-481,-827,29,-2813,2468,418,-5054128,-251,-49,491,-565,-83,-60,-50,66,-1979,-33,-69,33,-234,1590,-4800,-54,-96,-2513,2793,80,-246,-9817,666,123,251,26,-1091,528,989621,-15,114,202,80,901,109,754,129322,-3984631,-9100,167,-275,158,4551,-91,4909,61,-124,-85,-38140,-408,-8026,162,-434,345,160,-39729,5383,284,70,-16493,-743,26,559,-1417,223,-56,-491,420,25,622,-31,27,3218,-883,1673,2735,432,-1540425,-68,812,-221,-661,51,166296,-1,498,800,2566,62,271,103,-1307,-35,-791,64,17,811,-475,21,18,2247,153,1546,96,66,24266,744,567,-73378,-96,-306,-41,144,-27,-76,-228,311,-276,49,-293807,68,107,-62,-213,-6099,-54,82,-2021548,-423,-248,314,32,392,-44,-108,-138,117,-109,13,-148,301,-257,-17746,123,19,-6028,-2533,-79,-50,4481,-159,-92,-959,-77,-44,1049,11987647,-239,-214,137,-12,1188,-165,-85,-874393,341198,-223816,-336,-114,480,-5074,-85,-10974,-132,-1192,27,36406,-4658,-5204,-128,25,-39,95,-44754,-37548,-164,-35,-18932,-1455,-49,-166,-5169,313,-601,-557,488,126,-243,-108,-399,-1010,-207,-134,858,-456,-1670936,56,-44,110,-192,21,92222,-116,-2006,-249,-100,-225,-179,4,-4033,-187,-29,-121,205,-59,107,-267,-251,9,74,-79,-135,336,-11277,-1410,-484,31085,51,1257,1212,145,0,9,-126,95,-302,81,-144675,471,91,1919,-67,26,1419,398,749884,-167,-429,89,-1339,-3171,294,-58,71,357,-94,12,-33,-395,1825,342,-56,41,-390,-1497,-714,-68,1691,-949,197,-201,-150,257,-1488,2978194,-125,203,-162,430,888,-287,902,-924537,15004560,-208551,-30,28,-41,-1198,60,-1412,-110,-907,25,1321,-3252,-4798,7,-211,-9,-41,6002,87776,50,-64,53470,554,759,562,-1,355,636,-889,109,174,1069,-1055,-77,-708,315,1508,472,-1859,-1133570,-59,-76,680,-95,-104,54907,-250,-1988,453,1574,-474,-777,217,-2401,-42,64,-103,179,660,1458,305,-53,424,512,690,290,26,-26994,-866,159,-86538,968,-211,-255,-13,-683,153,2763,-1823,694,-332,-131373,603,1296,-812,5,264,-878,-231,-731096,59,-51,-1807,-79,-10,-161,-91,127,2249,460,101,51,-1141,39,14007,-86,69,1869,4337,-115,-82,663,155,-213,-673,14,-1587,2776,5005406,28,-64,-431,-395,2279,1071,87,-600182,-24137768,1267,-69,34,-114,561,-125,-7841,140,1306,272,4316,9207,7645,-20,-49,7,66,-44481,20019,18,-20,-78334,740,797,-43,-2022,12,-682,626,172,-537,1078,1139,-122,1382,-1169,-1175,-587,1774,-858200,-6,-60,618,-24,-46,-59971,42,390,107,135,-29,-570,139,-5158,1194,-981,-89,124,-1348,976,50,-13,2302,-167,839,-39,-252,-20845,1796,77,-143115,-2492,-2989,-3489,175,299,-43,3378,349,-334,64,-97176,-3267,4366,-901,82,3518,-3922,666,1617810,-81,521,1704,182,-14183,-265,-63,196,2898,-25,113,313,-1892,-2672,-3204,-143,23,-4726,-1328,-94,-81,-9219,461,-241,1514,32,-1106,2242,826697,-45,342,-680,300,6844,-578,-1942,-814586,3087114,-85853,-107,-79,192,-636,-68,-4512,-186,-1610,-357,-41254,1880,-21671,-59,-245,79,-209,13982,-76338,-294,173,22564,-88,3703,-1283,-946,4239,1210,-433,140,491,4822,-2769,-994,-1460,1186,-4097,-1380,6,-612348,-222,-1133,3164,1,-368,-61472,805,-78,-2773,-3125,-113,410,-583,6495,34,1072,-197,58,1105,6047,-346,-9,390,477,5813,-1359,305,-24198,1578,139,-134790,-223,-792,-615,-79,114,-37,4957,-64,-424,50,-265930,700,-2836,2558,-1,-257,-663,-415,-579747,79,-2383,-6999,-1868,12,-410,102,102,-3237,10,1,124,364,-630,8177,-163,-100,-11336,1935,8,-25,-4499,-202,-149,-221,-93,-578,-2763,2362917,-433,-97,346,-413,-473,-76,292,-1223188,-4539751,-495186,-161,151,174,-4672,61,-1189,30,2057,-552,-64410,-2170,-5068,-285,2041,-130,96,11119,16524,-223,129,-48519,-1567,189,357,9357,-259,-5395,-806,-371,19,630,-141,71,-658,-191,-1010,-1125,-692,-1276006,81,-533,443,956,-568,134510,-1279,-48,-238,-2125,-995,-972,-534,15724,97,-100,88,-72,-774,-1395,52,-113,998,-346,-913,-32,-34,-59894,2377,-608,144469,-118,-275,84,50,230,-104,4711,187,-234,92,-28645,-359,-3652,3523,-62,2743,420,-39,-661943,-317,-247,-1618,472,530,50,176,27,-8199,525,-81,140,1815,623,21678,-207,151,844,2498,-83,123,-4766,115,157,-538,69,828,-1633,3562907,41,253,-99,307,-2965,-193,110,-643793,7632201,416637,269,-57,53,-1366,108,13907,144,-1514,772,-23733,-2234,8119,-386,-158,44,-97,5916,-38869,292,-16,-25181,2713,-2032,53,10554,365,-944,-338,-231,-172,-1873,1226,-380,-1283,-407,120,-2308,323,-1930857,-15,438,-1701,233,-56,-55998,-471,-165,-605,324,-29,1800,1,3299,131,110,99,-6,-182,-2427,-27,-64,-3258,-397,-3019,16,-127,6915,-1127,614,-173174,-1082,-801,-619,85,99,13,-11618,368,-1017,-147,-364416,-415,7151,-4605,-107,-4012,-2579,-298,1033162,123,-530,-1544,-891,-710,-368,29,74,-1488,134,-46,77,3730,91,9524,-472,-192,-4467,5705,-114,-111,4233,-214,-231,415,-215,-1822,3693,2508834,-202,-74,-475,455,1238,58,-845,-1792250,22086405,-157226,-593,-365,437,-4345,-91,1716,46,2077,-724,-38383,12638,-2226,-256,642,-60,38,-7333,-53364,257,-1565,35758,-740,2673,-139,-15010,1849,-436,157,-392,-69,2302,1095,-274,-1717,-113,-2755,1093,-1803,-2901839,22,-114,2257,-146,105,25325,96,-1052,-795,-2802,482,-1481,-401,-12699,-71,67,51,45,-795,3169,49,35,1996,-136,1511,-318,110,-15688,-838,-498,-18288,1044,526,644,116,85,-3,-93,1537,353,-78,26490,1005,-652,-1368,-59,886,852,-129,-2090747,-362,42,-1776,-1195,-205,9,-43,24,-3766,47,23,-100,16,813,20941,6,47,-7229,-2206,-443,-150,-2980,-327,-111,61,-90,-701,-840,7816130,-18,36,1,-92,-2546,-1256,184,-153429,21307719,420848,-106,-188,-214,-490,32,336,-111,349,-262,11650,-9663,-5883,-162,-1392,335,-208,2823,123125,-103,1001,-17462,-2635,-542,336,1946,201,-274,-1195,-271,-118,-1238,-931,-123,-1163,-34,935,-978,-2916,239951,-140,49,63,141,-37,53206,262,-56,642,1111,-431,-731,-188,-4885,21,-242,-28,-98,-459,115,-165,-52,153,49,-755,-215,52,-13769,1059,149,51058,-680,-716,-817,-81,-93,-19,309,-1924,-1221,79,-44791,-853,1895,-506,9,-1289,-1274,8,1016155,-98,434,4222,3898,-170,50,-126,284,-689,430,-3,24,2532,-295,19156,241,215,5119,3602,26,-116,6402,-103,-20,707,51,1239,-1523,5148981,47,81,-438,-12,721,-427,-495,-1712104,558841,-441635,29,-122,-443,4166,-164,10260,107,4153,-77,20793,-1356,13106,108,741,-6,137,6819,87393,73,517,-6802,-1276,394,-284,10009,21,-148,577,79,-185,154,3158,-74,793,132,-1198,377,95,-1753559,109,45,-118,-412,-687,74342,72,781,-536,-1337,1,1782,88,-18,28,244,-83,92,-90,797,81,-85,-95,14,2206,-19,-126,27408,-323,199,32681,-220,-791,-882,93,57,51,-69,-55,24,261,180228,-223,-4212,-849,26,-2522,-759,-833,-1063440,215,-236,-1544,-185,-3003,-331,92,365,-5219,-203,-104,-113,2126,-1026,-2359,-422,-362,-4473,3398,78,136,-3331,-190,57,1803,-38,-638,-2268,2812722,-162,-582,274,28,-2585,275,-273,194409,2698295,141768,90,79,-353,-854,-56,-1385,-107,-82,-816,1432,-4767,624,-637,-337,-212,190,492,-44868,-78,-934,-14737,-1146,-570,-205,-531,418,-596,-235,-168,315,-2413,1544,-428,-1751,-927,-928,-732,328,443889,95,-14,-966,-521,113,53702,-773,-477,99,-666,0,-981,-214,-12789,68,-887,58,115,-956,-2008,-17,71,681,-220,-2240,-243,291,35750,-541,129,-98074,-131,326,2,112,24,27,59,145,-20,313,11499,-13,-318,457,20,-189,-81,-16,-135487,26,-107,90,13,36,38,122,-54,-1039,-549,-74,-159,102,452,283,-239,-76,2907,149,803,22,-71,85,34,-305,-83,-231,905,-2256061,53,-110,-287,205,-824,57,122,86583,-3413550,-47983,26,-22,18,-455,-8,-868,-23,439,22,16792,213,1223,79,47,-127,239,-20000,24556,-92,-225,-1374,-1420,1326,-40,-9116,1914,103,-28,-121,-27,1198,-741,20,2287,339,50,-470,242,69961,35,116,-98,-226,28,-55759,123,-69,94,375,59,-122,-4,4083,111,-97,26,127,434,117,25,51,-1570,43,1936,16,-126,18430,-2132,-1005,142028,-14,-118,-51,105,-58,-42,-3361,-355,-34,120,95831,121,2490,-3434,-36,-591,-56,108,2225502,57,-62,-38,-390,123,-297,-334,-102,5001,139,-72,1,834,-959,13419,105,85,5959,1409,554,-2,-8821,9,50,-660,126,122,243,445638,381,9,626,-428,1575,-567,98,-362424,-13376791,159132,20,-313,-743,4230,-16,6871,-113,-224,-44,14757,-1557,14018,20,-264,19,-247,407,66813,29,167,-36688,2021,780,-84,17107,304,-60,2,-490,1,148,834,-41,581,63,-125,1136,443,-329504,-127,-485,174,-120,-87,78719,83,-348,67,-916,435,-370,61,1890,115,-108,65,115,-1007,-70,-5,-310,1993,-68,-408,-259,74,47460,1676,-14,19739,-2072,-523,-582,-22,-36,29,-4464,-360,-43,15,-418449,-2583,-3197,-407,80,-4052,-655,53,1584310,124,35,-123,386,-177,61,-26,-198,-4785,190,98,-13,-7457,-614,12988,91,55,-5131,-6124,-51,118,7624,122,88,-765,-99,-2511,149,481559,293,24,-895,-45,-2675,-103,-435,-1276633,121139,-655571,48,-125,-90,370,11,11815,26,-1387,-274,7561,-6370,-4231,-100,521,10,-534,-15054,-75165,-183,1093,58618,3798,238,-898,5551,1662,1123,118,24,-199,96,-2789,27,-295,180,-765,-244,-224,-1644174,-90,67,-79,-212,-35,91456,1636,-113,-347,-886,-122,523,-20,-18518,58,-39,-14,99,46,-1892,92,-88,-2250,837,-572,-180,-108,-8352,1987,939,27561,23,112,103,-83,1161,52,-3002,484,-60,-7,-267505,215,1383,-140,50,88,64,3,524668,-129,15,875,1032,397,-70,-111,383,3086,543,-6,241,138,812,1027,-24,-3,-3716,2922,54,39,10753,199,348,772,47,785,137,3021211,-453,1,-757,308,1141,1702,-14,-1294092,4059209,-26737,263,-160,-710,1446,39,4679,46,655,-153,28577,2375,3132,23,15,480,-67,-10392,52459,-154,312,19267,4416,-330,-45,2011,327,543,-24,255,46,114,194,-111,1418,104,79,1200,334,-2393112,60,1472,19,309,-34,140719,99,915,281,874,311,294,154,10619,-70,154,24,-49,32,29,112,-14,-568,166,1401,74,77,-15194,559,95,22573,-898,-666,-650,-23,50,-51,-4367,-670,-242,97,-101771,-799,656,-2640,2,1831,-668,117,-180659,-143,-103,2540,-467,-20,-97,57,398,-7899,408,-124,-124,-218,-585,-10420,513,-109,-8943,-2926,80,84,-5014,-270,-6,818,0,6,-287,2767351,-174,-18,-600,-117,-419,-621,-534,-545343,8696447,-273706,-28,100,-110,-298,154,-15591,-12,316,-77,10051,5255,-3210,-57,-37,-88,-397,-12476,-22397,11,312,31832,-1621,-34,-425,-12077,84,-142,-41,561,-111,117,-1247,122,1710,30,-625,804,366,193861,-99,-313,18,450,-14,95533,-94,-799,-627,-823,-418,449,-102,1801,88,-112,-91,-63,-92,84,-93,-39,-2195,113,455,-314,39,-54099,-1295,-103,53502,-31,-116,103,-33,-95,-6,2670,-54,-14,-50,-66766,110,1248,47,5,151,-14,-40,73128,-86,232,312,31,-93,45,-111,-6,405,-65,19,-57,-51,-7,-7374,63,-113,-1393,2467,-33,-89,3163,-54,-51,913,-108,-6,-291,764423,-48,-22,70,-73,880,76,-71,-944716,-4200385,-81153,17,22,-337,748,-29,593,-89,954,-44,-28667,-1782,2796,182,-73,-125,-152,19986,6127,34,103,-1268,-720,52,-98,-2208,-2699,-627,-60,185,57,596,-7,101,-2487,-114,103,776,81,-1275596,-44,-82,-271,-451,-94,-51554,-81,16,83,483,-131,404,-118,8418,-47,-86,58,122,11,-84,54,9,-781,123,1385,-89,-98,-21130,345,162,-73355,-23,-33,107,-104,168,-72,-827,-1,-10,-92,-98654,-120,-4956,1410,-120,-582,75,-126,-1594473,34,59,-14,-5,-283,130,42,77,-4296,-7,10,41,-10151,-1292,22677,36,-170,-4257,-14590,-165,48,9629,112,43,-2145,45,108,-3660,2764715,126,96,36,25,-6213,-10,24,-150331,-7329366,51366,-25,-110,-8,-2043,-10,5010,33,-751,38,-15376,-5679,13294,-434,-1223,110,-184,-30681,50896,75,-1658,-12242,-125,-4007,-83,12215,-63,-659,-17,-73,-100,-4410,-10201,-107,-276,11,104,-626,44,-47475,-7,114,-3483,-11,-105,127328,-1013,-734,-43,-103,-75,136,-53,2981,40,-77,30,-37,2,-5617,-11,102,-472,-8,-5081,108,56,-24568,-213,521,-74339,-779,445,-54,46,318,13,3957,345,-347,-100,307794,-1462,1735,-2977,-39,-5517,-111,105,-1385397,-241,-790,-272,-1033,674,263,-113,-17,4903,239,-50,-185,1773,98,13861,338,855,-3120,3890,-149,84,4699,311,148,1288,87,-1590,2279,5190915,35,363,-594,17,1041,66,-539,118658,6694783,60122,-46,-282,-76,77,-75,8783,17,1229,394,-13429,8765,7785,714,93,-93,-14,29002,-27617,-114,2331,-15693,-1649,456,-145,4145,-33,-3626,-272,275,12,487,41,93,-1723,505,-2764,-3447,-590,560803,72,13,367,95,78,63685,-429,-31,572,996,326,1226,-30,-2526,-124,351,84,-60,1124,524,-35,43,900,107,370,163,-35,82022,2077,-200,-183790,480,214,-545,-35,98,-47,-4830,-1452,-728,411,-168120,-193,-865,567,-9,-4239,-1202,542,90890,462,110,477,291,1012,274,-96,339,796,-236,31,81,-910,-47,7891,-16,-212,5442,4261,286,250,2588,-131,97,1825,45,-35,-536,-6446927,-163,-635,551,993,410,771,-351,-395735,-12854568,-72700,203,-238,-650,33,-71,-1236,-139,-1419,-337,11171,-3295,-2719,-39,-659,698,353,1530,105876,-116,1679,-48286,1502,157,-376,752,108,557,225,179,660,366,-214,-211,4101,-1110,-1311,3523,-477,-271551,-150,386,438,189,-13,96789,913,291,-1703,-1955,668,2502,239,-7682,-44,-7,57,169,-813,63,-195,16,-786,508,2999,-348,648,37880,-6213,-1003,-2092323,-9134,-31689,-21264,383,-1892,-30,-120975,-11060,-13575,-901,-1374044,-13421,-114699,-7378,-218,-3285,-21247,-6194,3499575,-974,13326,2491,-8502,-122068,-4106,-530,-363,-95558,-3563,-125,-1245,5954,-10104,121804,-940,-4895,-6450,53105,-1609,-593,-5540,-67922,-2728,-42738,-22,-4302,-86643,-5948650,-796,-3042,-2524,-1461,-111001,-1482,-11619,-7119344,-72492332,-3125339,1206,-554,-2858,1197,8,-64165,-600,-10165,-6150,-233903,-84929,-32055,-1028,-35966,-391,-210,-154960,842087,-1225,-3802,1081638,-12928,-91428,1295,-123112,15401,-668,-789,-1941,557,-94523,-2546,-5916,1172,-2296,-20238,-4049,-669,-7170045,-199,-132,-76946,-447,-4306,210388,12009,-2945,-16296,-19463,-863,-6832,-3706,-100408,-5297,3834,-507,-148,-12847,-107380,-629,-73,-2247,-6876,-116912,-738,655,-188072,2023,1053,-371193,1786,-2673,-2116,23,-1630,-56,-8983,6015,313,34,-64808,-206,1851,1866,48,418,-4143,-888,1133062,-35,959,1290,-1608,-647,-784,56,384,498,525,25,442,1879,-1314,11640,143,-82,-5341,-638,-403,109,10196,523,-272,2138,-107,3939,4855,7732658,-286,-793,-304,478,3263,-251,-1238,-1450643,17249699,-239674,-30,-404,-122,3359,-117,2310,65,105,-703,-132752,-4303,-8825,-224,-594,81,82,6840,-106477,71,595,110751,-6158,957,-490,2477,762,3120,-521,-151,438,2573,-995,319,-3995,-206,-5207,844,-130,-1121844,15,-120,1457,472,-688,156382,1651,-3327,-552,-3780,-246,1211,-697,17080,-146,-293,192,-75,-1653,907,86,-124,-3578,-972,4620,-1807,49,-35654,-832,42,6068,-360,535,560,-28,-306,274,-264,478,643,-101,-313289,-918,3000,2686,3,-3955,2151,232,-2114984,-142,135,3973,581,-998,220,-5,-12,-2740,-853,53,-332,-1834,1400,-15818,-636,-153,-11157,-3448,-816,7,492,-868,129,-1587,-62,1552,4432,-5074723,-1,697,442,27,2057,525,535,-1301996,7812859,-6638,-143,-391,299,-1213,-71,-8511,103,-769,501,13040,-2153,2846,195,598,-48,-85,41323,-74850,77,-338,-43581,573,646,85,7881,93,315,-419,10,-38,-478,-1309,-625,129,199,2693,-1084,-10,-1034336,86,608,314,-270,-296,-212314,1211,-836,718,3069,-166,-130,18,128,-377,523,130,36,489,-534,-203,-68,-2231,17,-763,289,-100,16944,-5837,69,-1665537,-4388,-12208,-6640,-1027,-2492,19,-57549,20935,-10113,499,-913826,-4761,-31254,-5407,-192,-11277,-12893,-2326,4288719,1615,-1530,-9226,-1184,-72254,149,40,51,-8936,-89,106,-645,136441,-6100,86701,916,-1631,-9731,229336,-1403,1010,-19189,-47791,-1350,-13644,219,-3779,-16058,9444742,-640,4569,-1606,-3399,-10246,-589,-6952,-6436667,3797695,-894351,-363,541,-1260,640,215,-10290,-489,-2380,-1112,-170314,-12274,-18640,519,-24313,-302,-416,-113281,436672,-1342,4013,935321,-14912,-21652,-402,-32473,25301,4270,-1472,517,-705,-21257,128138,-9659,8368,10592,-15414,3667,-478,-6889208,309,-1919,-18532,-403,-1586,505160,-75,-3687,-2917,-19324,-250,165,-1586,-10380,1032,8618,-311,195,-3394,-9871,-212,2,840,914,-15651,1682,513,-42409,643,-15,-44234,-550,-536,-39,-84,109,74,-266,145,-44,-58,-67285,-773,-4063,-2041,134,1059,-746,-359,-1512240,153,5,-711,17,-328,-25,17,-225,1038,483,20,-36,-88,-666,-2947,204,74,-939,-647,17,-80,3715,-435,-67,-173,63,-2126,-1484,-5352386,-68,107,-43,-267,-1654,-675,-667,-963488,-11798304,19379,209,-37,188,2395,-46,-2932,-127,745,-384,-18574,9122,-6663,-87,1050,142,-131,5502,-3448,463,-37,-52033,111,-1139,-408,-2593,-2549,-28,711,258,-91,-1124,-182,-130,709,63,-690,590,-574,-787359,-26,-39,-543,-477,91,64210,-104,-415,182,-351,120,164,-23,2152,-9,120,33,-25,-846,-87,79,44,-2120,8,-1422,10,-112,-29409,-382,48,-14659,-3363,-4733,-3530,86,-35,-111,6335,-2865,-435,-10,-579177,-3712,-4781,-4245,-100,-1081,-4828,133,-1111597,-283,723,-107,45,2287,128,-100,-68,-5364,-669,-93,-38,-5708,-5734,3064,-74,-899,-5780,-10903,320,-73,-2931,667,-23,-2987,93,-1252,-3333,10672445,88,-1038,-729,-216,-3843,347,-3076,-573302,20334669,-212280,71,52,-359,-3028,-120,-908,-50,-1665,81,1382,-2649,-587,-186,152,100,106,-43244,-62011,29,-202,-6526,3949,-3760,-1354,2808,1596,-419,139,230,-102,-3945,-6642,-300,91,-415,-6037,-2041,-582,-1180060,-46,303,-2850,38,-61,-32169,-427,-839,-4454,-6575,-335,-1021,228,-4216,-25,169,-54,81,331,-4145,-310,7,-242,216,-3572,-1319,-33,-97231,-1511,23,-280125,-1077,-653,-391,-87,-761,-122,599,-54,-248,-21,-57928,94,-4149,1841,-50,-671,-736,-372,926441,-106,-673,-1687,-1157,-9058,-238,-229,2,-7511,72,99,-48,848,-2086,-7331,-50,-522,-11838,59,167,-116,-21250,-691,37,-172,-22,-1559,57,2741920,-81,71,101,54,535,-290,-396,-869940,156013,-132281,-101,-129,159,-6747,57,-13734,-86,-1701,-466,13630,439,-29964,-696,127,-442,-328,-53266,-76774,-187,-966,20666,-4037,128,-22,-30315,302,-343,-719,-482,-29,-98,2264,-11,288,-39,-832,-435,-545,-1476891,88,-252,-111,-263,-15,-96387,-143,-534,-543,-1635,190,-1384,-329,-20918,-38,-399,-9,-86,-541,1380,112,-31,1357,-166,438,-243,-127,-65048,-2712,1075,324975,-4789,-404,-4983,860,-3868,194,-20245,-19227,-1897,-66,-321298,-8448,-9455,-9417,114,-9606,-8370,-2591,-7347449,-500,-1973,-2132,-5041,-24512,713,-535,-58,6574,4126,187,8,44125,-5275,15752,-142,-2338,1326,71024,1344,-7,-8084,-27357,-528,-18296,-47,-4501,218,-2416974,-188,-4806,-840,607,15376,-20,8,-5137396,-73245194,-539932,-287,-294,-1169,1461,-172,-3516,-207,-7029,-3281,5865,9328,-10204,-1538,-699,-673,-6,-31385,727206,-504,-3192,536451,-12051,-3371,561,-15262,11606,-6677,-45,-303,785,-565,42292,-2400,550,-4683,-11443,-2115,67,-5309156,-47,-1137,-1548,-750,-656,757773,5185,-3033,-6301,-12235,-292,-2325,-613,-6297,1357,-3029,-77,38,110,9620,78,-51,1010,-1846,6509,-2052,-584,-87549,-346,-1059,-175815,1887,-1203,-743,356,1114,55,7421,4260,-822,147,-281047,3236,-8123,-810,-18,-6465,1981,-757,-2774955,456,-2372,-11678,-3873,799,-1139,-278,-292,-5980,-685,77,-138,-13616,633,11651,219,-79,-10232,-23237,-43,-98,-13095,-4647,-19,-4289,-106,1335,-5473,-12594494,-464,-3017,-235,76,-11321,226,974,-2248403,2163348,1027591,95,-42,-460,1682,70,8680,7,1583,5877,-62554,-815,-1187,-969,-8040,67,99,-29227,85850,-78,1139,60715,3714,-3636,767,18317,1891,-10620,521,-388,381,-2834,-13922,369,-2681,1472,844,-632,-211,-2114730,-155,-580,-1880,-582,-11,17044,-1936,-3026,339,-30,59,-2496,-202,-165,-14,782,115,10,-542,-6304,-130,137,-857,-3500,-7352,-677,278,-113820,766,-231,285227,11670,21861,23476,-537,1142,-85,-23568,5238,-2344,-1499,296739,16724,-6607,7736,-204,-24299,17321,1647,-4920957,-403,-3226,9120,2198,-35756,2603,-804,91,-18354,-728,82,362,-11616,15783,38966,1361,-2596,-8657,-22794,-1659,-834,15407,-16950,1537,-13112,-138,7031,-6808,3784706,182,-1090,1285,-556,-13395,-1214,6006,-3800379,-6242064,808401,-138,-685,-325,-4233,-207,3441,339,-4916,6283,-37186,-22696,-9533,-1528,-8973,-1490,-198,-77058,267774,1750,-5201,420362,-17069,-2439,4769,-17727,4260,-5714,415,6,-1918,1546,-14139,-5427,32,4182,18205,46,-3157,-2384193,39,-754,-1640,-942,-2530,97429,-3919,-5931,13884,13263,-1075,3889,413,-17535,929,1451,251,-248,-583,-1653,129,-63,6167,3404,-2043,9199,-2013,-87219,-1251,-571,-706356,-16611,-10073,-7435,-219,728,-69,-25900,-29824,-402,-765,-624530,-17275,-23700,-18935,33,5109,-3971,-640,-15385485,-1671,3206,6142,-4115,-69396,2966,-1119,-741,-24965,-3642,-30,-1024,-18622,-13387,16924,-1531,-2599,-7210,-12877,-134,-1630,-6728,-27053,1553,-30819,-61,-16813,-22569,11436610,24,4275,-4333,-1327,-14188,-200,-9375,-5517639,57456427,-779189,-1087,-1120,-3140,784,72,12794,89,-718,-2759,-146889,-21269,4048,-883,-1959,674,-51,-42040,-291053,315,-1045,499440,-22676,-29106,-4789,685,25277,4331,-1054,194,-1419,-20818,-15704,-6949,-5550,-1277,-9629,-1844,-2093,-4516801,-127,-373,-21531,-733,-2118,-390067,6330,-1311,-10476,-8940,-1739,-5265,2442,-44175,3770,-2959,8,-91,5187,-17562,45,-101,-2381,-2031,-19046,-848,-2017,-200695,75,-503,94598,735,1280,1120,-184,-761,-65,-7124,384,-472,-147,-277394,884,-4750,5638,215,2382,3111,114,-1416371,-493,317,-2638,-2433,-1007,22,-259,258,-3576,-322,-33,217,11511,-261,13632,-30,-922,-2059,21460,-782,-181,-7027,1003,17,1358,91,1753,-962,-12689651,228,-432,18,-200,2930,947,350,616786,-1824785,691335,3,443,130,111,-48,-268,-8,1536,-526,-83854,-5839,10231,-519,71,12,-287,53752,251405,229,-208,24505,1071,-423,368,5190,132,-3126,240,-231,-578,933,11769,13,-1580,183,3027,-3640,-1274,-191623,-265,697,32,792,-128,204885,780,1191,1219,2283,-367,79,182,-18584,240,698,32,-78,1630,1606,309,-116,234,-12,960,376,-19,59613,3159,724,-622052,-3607,11144,7918,-336,3927,138,-23257,727,5773,-2198,-1070216,-1997,-30821,8531,-152,1837,10545,-654,-3123384,-1923,7312,9418,-9397,-66975,2324,-1125,-578,-38688,-2077,-106,-365,-39308,6920,83112,-1387,-1511,5621,-13696,-1777,-1286,6455,-20568,1023,-21619,100,-3092,-39551,2673659,-168,2491,-4856,137,-34681,4273,4155,-7022410,-23570919,-2367609,-580,-1285,-5456,842,-29,-15163,-153,-1699,-1919,-40550,-49543,-7747,1100,-15008,337,-308,-105465,953540,-555,-2838,1181986,-16653,-42809,-1702,-60646,7347,4079,-781,163,-2780,-35102,-39419,-1364,-1788,2358,12377,-723,-973,-6758183,-724,1404,-33581,-523,-4012,-47653,1925,-2003,3353,16544,-1374,3256,2440,-52201,-1454,5136,-366,-85,11396,-44651,-352,-181,11955,-3032,-39213,-992,-1758,-297534,190,284,-135638,-738,104,-23,-62,-52,-111,5,496,360,-162,282034,-1171,-883,-1799,-204,250,484,960,1049537,58,-514,2998,876,-5218,895,110,-226,-346,-37,-103,112,4908,417,8215,-367,-353,1810,5735,-416,-105,3292,-2295,370,1093,6,1204,2502,-4815251,-54,2190,-1015,164,1910,-252,688,192211,-10028864,-150390,248,-39,321,-368,-174,-4004,78,-1303,6626,6026,-3948,5880,134,-901,-80,-293,40093,61020,4,210,-37986,-7249,3235,-98,19424,650,5272,709,-2,-388,3094,6800,125,-1121,778,989,1498,-491,426060,-65,-11,2686,-651,68,131221,1272,649,1364,3575,-81,68,678,9526,-176,826,-180,117,1901,5082,-176,-123,-3026,941,2704,198,-248,17828,-1438,530,-130686,-1029,-1203,-677,-40,1002,-128,2997,-1667,-821,71,-44916,-1171,-6609,2618,43,-6630,-54,190,-452870,-362,-750,-3354,-189,-4636,204,-322,577,-2365,495,-37,-676,2304,-1907,-3275,329,-338,-3922,-1213,-215,4,-7524,-393,-108,3010,86,3768,-3227,15153100,-72,-123,-1047,940,-471,-74,-1678,-1147838,-13888829,204891,-336,44,-14,-1518,90,1358,-191,-2208,154,26070,-5343,4691,-116,1880,519,36,26807,9177,-455,-642,189210,438,-1469,-699,5170,1984,-3693,-201,215,585,-1659,2933,-601,-2878,186,-1833,1032,532,-1596205,-116,120,-1367,-930,-939,-95148,-2033,-262,-1789,-3120,254,726,-93,539,-1593,381,16,-142,1331,-1149,-675,38,-1499,-34,410,-747,319,636,-426,287,255407,-560,6258,4803,-120,1210,82,-323,8407,945,-91,-468666,1754,-3756,2473,294,-8370,7959,-121,-1014325,164,3174,-272,668,-3905,1641,369,178,-11795,1195,119,-22,-14227,5595,3384,105,148,-6974,-19141,1139,152,21517,-2707,407,-3859,-17,-1300,-4279,15439336,-180,3158,-1102,725,-8094,-2770,3034,-1012986,-156488,-579889,-143,-716,516,-3721,-115,5022,120,2881,918,1276,-13035,6910,1537,178,-204,-96,-22081,115239,262,-5,109347,-2684,-6046,854,-15953,-422,3476,-786,-35,136,-5960,-12560,-592,-2492,2085,9229,36,85,-1113980,-39,-550,-5458,967,204,-251528,4972,-1696,3229,10927,-1558,-1426,280,-22671,501,1259,29,69,4798,-6873,114,-20,-1157,2853,-5931,1405,116,-194662,4053,-158,11507,-65,-1262,-3226,-274,-922,159,-2081,-7268,-2044,-97,-237376,-3278,-8048,-1859,-93,-2484,-2581,-1916,-2861109,-878,-1262,-5868,45,-15001,-601,-200,-307,-8259,-1030,-81,-298,-11402,-6673,-10041,-496,-543,-3158,-10548,70,-432,-9417,-6084,-219,-10210,58,-3580,-5596,-15356782,-190,-1174,1113,-333,-8111,-2314,-292,-1184744,-23038187,-142734,614,23,874,6358,22,-13050,-31,-408,-2424,72924,-593,-7847,-1593,-216,600,-256,-25218,157405,-117,4663,156799,-309,-4043,870,-52,6487,-3548,-714,52,-65,-3896,-7013,-1193,-4643,-1040,-1155,-2851,-450,-1166500,-368,-1496,-3100,-626,-498,-35063,-2285,-122,-185,-5644,-139,114,28,2360,-880,-1283,-87,-14,-7100,-3621,-43,99,1141,424,-9490,-239,-280,-46812,-3739,417,-314473,3052,-412,3466,-169,-832,-20,-27693,898,862,832,-117797,6302,-31035,-12323,-74,-5231,3208,-313,5200897,-744,2684,6463,3162,-13265,-642,120,-249,-33458,539,12,71,-30952,-2050,-18783,188,-804,1852,-26619,570,-171,-6509,-19349,-713,-19845,-38,3002,-27042,9216395,-168,-4050,-320,311,-34781,-815,-3880,-4616858,-14198307,-822009,-200,-654,-567,2775,82,-36267,-607,-5194,-911,-40441,-28406,-43120,2024,-11362,293,-502,-110401,868676,437,-854,190574,-13041,-26474,978,-64653,-7301,4275,-55,-572,-350,-27021,-32609,-1575,2795,359,4481,81,-2752,-5012375,49,215,-22417,-1245,-1104,365217,9533,-5184,-2316,2176,835,-5302,-508,7835,-2099,2408,-172,202,-5996,-32491,-954,-284,-1199,699,-28882,-1152,-520,-127559,-312,278,-29481,-6153,5119,6609,-1213,855,-47,-7298,515,-674,-454,-523069,-6830,-2679,-5452,-168,-4254,3416,-447,-6822930,-138,-3591,-15252,-309,-31786,2145,-254,-288,-20351,760,11,-505,8710,940,6069,14,-225,-6482,35195,-1676,24,14454,-8422,1399,-2929,-149,-9282,-4949,19589132,-243,3116,-4563,-892,1311,-2588,370,-3848951,38024351,-1195192,-603,-654,-1764,-12146,-140,2667,-110,2647,5548,86504,-12702,-6503,2861,-15964,-1069,-190,-52945,231368,-476,-1518,151185,-1616,-6981,-847,-10561,16886,-17164,-3396,936,-1032,-6664,11974,-1864,-3683,2068,9025,-1698,-1733,-5352575,-180,230,-6067,-472,-1170,-88820,-329,-3316,-297,3484,-795,2471,1615,5276,1315,2805,-369,-17,5827,-1959,-437,-167,-4401,2815,-3197,-50,-980,-141027,1502,88,-284966,-1446,-5202,-3191,436,130,-117,-10237,-2232,-2449,-105,-669831,-1437,5578,-3430,118,-16139,-3929,-793,-6763875,917,-7022,-8822,-580,-10776,423,-493,-112,7932,-95,78,268,19755,-1738,-36645,359,-981,-9843,33059,-21,142,-2059,-22635,746,3144,40,1101,-105,-15434760,242,-1810,307,413,5295,365,-3437,-2337319,-33806543,-238148,-1175,155,-1630,-1015,20,-14407,-162,-6239,-317,-114112,17,-35456,-983,-303,-668,-189,-84547,-171510,-155,-1193,121301,-9331,3454,265,-46038,1688,-7725,292,411,1015,4944,22151,336,-4686,-729,-3818,-2161,-2592,-4811321,-104,13,4093,18,-1194,110056,-6588,-444,-2952,-7719,1043,750,458,35738,-373,392,-188,62,2560,7839,-215,-2,600,-355,5473,-338,725,-215724,-263,-116,146268,-2997,-3070,-1694,-784,563,-143,868,-9132,-4031,-269,-289705,-4019,3964,6306,54,-1044,-7666,454,-3520270,-576,2503,74,1512,-9742,914,45,-714,9480,58,197,855,-7119,-1663,36438,-46,777,4502,-3490,-696,54,1008,770,247,-1446,99,-432,-1095,-3031898,213,3714,-433,-114,4164,-915,-938,-315450,9070650,-408076,1113,-9,-362,122,62,7737,334,1338,-3172,44657,-4891,21893,628,-2452,1730,180,-49200,-76862,326,2236,110323,-2545,-1734,-197,6929,-109,8258,44,606,-1453,23,-7148,-69,320,-1743,-6262,-1629,-63,1154811,36,780,-755,162,-21,281175,2729,-2893,-947,-4968,-609,-696,749,-2524,702,-1544,328,-41,1316,-411,354,-40,1583,395,856,1594,88,-32433,250,-397,167482,2837,4050,3895,-153,711,-76,-2762,-1358,389,130,-240140,3577,-1120,1601,-173,-3282,4495,135,-6101519,1216,-359,-1310,-644,-1182,184,-35,-170,281,-570,-37,19,7716,2586,-539,320,522,-6025,12127,-548,12,-1825,686,411,-1133,88,1714,-2202,9016847,-54,508,2589,126,1435,64,1763,-1472442,2291050,579227,209,146,-59,-1924,-252,1197,94,-2519,150,-35496,2088,-575,172,-3795,-72,-278,-4750,-28125,442,425,-19657,-5881,-1939,1427,-5869,6410,-1131,-182,114,-154,-2102,7409,-162,-2649,656,4830,-1790,-83,-2151177,130,-42,-1488,537,346,-7603,206,-255,4005,4548,-648,-2238,-126,-17862,7,667,-137,205,236,10,327,-90,-1762,68,-916,410,409,-11438,-319,-60,-98458,3062,793,967,-105,-607,-75,-3575,1825,1302,-88,305830,2887,-715,-869,33,-10571,3723,-148,-917668,-60,-535,-5434,633,-1098,-184,127,165,-1673,344,-40,-99,7124,1898,3019,-498,-270,-2588,12921,-403,-13,-1883,-2500,-49,3864,117,2183,-675,10939597,-21,107,1175,-38,-1880,84,2622,-1277691,-5112559,749033,-350,133,-132,-4779,-77,1247,-49,-2107,-276,-20014,3179,-10034,-53,-200,131,6,18937,-38921,-101,2145,109994,195,-1253,1621,-2125,146,-2818,-301,-296,68,-1689,6800,31,-2659,1334,2430,52,118,-1791417,-263,-738,-1857,248,22,79963,-318,453,3429,3039,-141,-1527,57,20220,560,1235,-87,-8,1552,-1995,57,-78,-759,-590,-1529,-381,88,-105760,-1191,11,166787,439,-3232,-1794,-88,-719,76,546,-2152,-47,56,387495,402,477,-2995,-94,3356,-3143,-214,-1241940,-257,-371,1865,-403,-6534,-251,-32,-346,2170,-685,-31,117,11,-4034,-6568,73,-111,-2541,4486,