{"acc_weights":[-0.003859714,0.076667294,0.12514418,-0.04796402,-0.055241767,null,null,null,null,-0.0827577,null,0.023706846,null,null,null,0.020363817,null,-0.028079938,0.018747555,-0.0052508805,null,null,-0.09379387,-0.051579915,null,null,null,null,0.056576483,null,null,-0.022406006,0.07155442,null,-0.07540474,null,null,0.012828736,null,null,-0.03206439,null,null,null,-0.04980419,null,0.101318546,null,null,-0.020752387,null,null,null,0.021857718,null,null,null,null,null,-0.09234388,0.034724128,null,-0.015176153,-0.093232065,0.027691958,0.04876993,0.10030054,null,null,-0.01962044,0.05584626,null,null,null,0.059270535,0.023409957,null,-0.008835478,null,-0.022216598,null,null,null,null,null,-0.075192034,0.021493161,-0.11670131,0.001225029,-0.0058355657,null,0.064106986,-0.072366565,-0.012428412,-0.016951572,0.025813228,null,-0.0023889476,null,0.012628577,-0.023600895,0.065443754,0.0021740478,0.0028691147,0.028380472,null,-0.016427254,null,null,0.08772253,-0.12776211,0.04385164,-0.022265967,0.073327914,null,-0.0044832923,null,-0.037642352,0.034309685,-0.04927364,null,null,null,0.01363942,null,null,0.07476409,null,0.076918684,0.04276797,-0.06367503,-0.0400664,-0.03332405,null,null,null,null,0.06342117,null,0.029623365,null,null,null,0.09022418,null,0.043948483,0.01661665,0.016543593,null,null,-0.022670591,0.03606493,null,null,null,null,0.10317003,null,null,-0.030616805,0.034171086,null,-0.029019268,null,null,-0.00037744906,null,null,0.05644316,null,null,null,-0.016714308,null,-0.01402219,null,null,-0.10878852,null,null,null,0.012389563,null,null,null,null,null,0.028323814,-0.053272802,null,-0.017632334,-0.077699594,-0.0017203623,-0.011024077,0.06636631,null,null,0.05444779,0.108383514,null,null,null,0.07765584,0.030289216,null,0.03368664,null,-0.026148519,null,null,null,null,null,0.002610995,-0.009151504,-0.009448074,0.06430469,0.064070486,null,-0.026003096,-0.0038836536,0.008193757,-0.00410647,-0.010350264,null,0.004786102,null,-0.057432048,-0.12615843,-0.040613815,-0.100689605,0.024493543,-0.016898546,null,-0.08065594,null,null,0.046188597,0.03572204,-0.0219069,-0.052384607,0.07585682,null,0.040306784,null,0.027052034,-0.027548958,-0.03957891,null,null,null,-0.020160647,null,null,0.022896977,null,-0.01133283,-0.03176905,0.02225482,0.053588312,0.030633735,null,null,null,null,-0.048871722,null,-0.03736405,null,null,null,-0.036555685,null,-0.08903566,0.026377989,-0.058741543,null,null,0.03623703,-0.016807625,null,null,null,null,0.043631844,null,null,0.0025959164,0.027172983,null,0.045954622,null,null,0.00935155,null,null,0.0179485,null,null,null,-0.0053700204,null,-0.0741896,null,null,0.009898027,null,null,null,0.00966212,null,null,null,null,null,0.079844534,-0.009825989,null,-0.10666933,-0.031066714,-0.004120447,-0.008154157,0.034201324,null,null,0.018275851,-0.03791087,null,null,null,0.0074388506,0.08070229,null,0.0031443813,null,-0.013864869,null,null,null,null,null,0.114782885,-0.022522582,0.122082934,-0.09432504,-0.016747054,null,-0.03375582,-0.07575853,0.05456818,-0.053156562,0.03324638,null,0.040618077,null,-0.03073313,0.038207907,-0.030671503,0.09088401,-0.035065368,0.035596233,null,0.006250748,null,null,-0.01890074,0.064267315,-0.0109835565,0.11554519,-0.0015096172,null,-0.04885337,null,0.0495665,0.06599137,0.026013589,null,null,null,0.035610143,null,null,-0.028311143,null,-0.06607627,-0.047425773,-0.027600836,-0.025493741,0.008831634,null,null,null,null,-0.05505815,null,0.02456009,null,null,null,0.021374183,null,0.04239794,-0.03939106,-0.088748276,null,null,-0.007454041,0.013796754,null,null,null,null,-0.04233903,null,null,-0.043472134,-0.015503392,null,-0.071544506,null,null,0.051074207,null,null,-0.03315771,null,null,null,-0.041597415,null,-0.002433549,null,null,-0.088855416,null,null,null,-0.074803144,null,null,null,null,null,-0.0023902238,0.021113027,null,0.061838966,-0.042452496,-0.076239295,-0.0048474665,-0.010798469,null,null,-0.06777086,0.0032743667,null,null,null,-0.04078505,-0.030601354,null,-0.008068217,null,-0.033561226,null,null,null,null,null,-0.021521974,-0.0752828,0.010856372,-0.0661087,0.020359743,null,-0.048751067,0.032275517,-0.0023107547,0.045643028,0.06930533,null,0.052644387,null,0.025714759,0.061907306,0.04236281,-0.005997804,-0.0033309525,0.019459376,null,0.062241394,null,null,0.038285863,0.018640503,0.007987012,0.032677457,0.07781014,null,-0.034123234,null,-0.05540654,0.053546622,-0.077423476,null,null,null,-0.08890965,null,null,0.013471982,null,-0.012169487,-0.06774673,0.095274724,0.07909218,-0.044996493,null,null,null,null,-0.022197813,null,0.017316889,null,null,null,-0.0032480084,null,-0.016404875,-0.001969396,-0.028302023,null,null,-0.004955928,-0.063082114,null,null,null,null,-0.023601625,null,null,-0.043307766,-0.09020989,null,-0.0091564385,null,null,0.11026272,null,null,0.03578258,null,null,null,-0.027730564,null,0.018264245,null,null,-0.10133732,null,null,null,0.05136799,null,null,null,null,null,-0.08306142,-0.18413992,null,-0.055777755,-0.08857625,-0.09823083,-0.009064885,0.083065964,null,null,0.054312337,-0.12088764,null,null,null,0.059395276,0.030716306,null,0.06705918,null,0.0516382,null,null,null,null,null,-0.044779968,-0.017052768,-0.06313822,0.07228004,0.06663791,null,-0.03086808,0.0057726377,0.01867803,-0.026912153,0.0066763484,null,0.13250223,null,-0.016357487,-0.025577093,0.01042592,-0.047138993,-0.0018009937,-0.028303158,null,-0.010370542,null,null,0.013316016,0.005080234,0.041309774,0.0053714523,-0.12049812,null,0.009211609,null,0.04557107,0.05495538,0.0077571813,null,null,null,-0.019592432,null,null,-0.039542347,null,0.011146115,-0.033054195,-0.008329304,-0.014970771,0.11470402,null,null,null,null,0.030515434,null,0.02131813,null,null,null,0.014048869,null,-0.03455816,-0.018119643,0.020696394,null,null,0.0044667474,0.07186878,null,null,null,null,-0.010746988,null,null,0.07347579,-0.07080962,null,-0.044367187,null,null,0.00048117604,null,null,-0.03550325,null,null,null,-0.012175921,null,-0.0009817106,null,null,0.012983037,null,null,null,-0.018008756,null,null,null,null,null,-0.0036701101,-0.07374072,null,-0.05259682,0.008117289,-0.058691964,0.045959793,-0.015600544,null,null,0.007016508,0.06845939,null,null,null,0.074625194,0.040685546,null,-0.05919402,null,-0.028930899,null,null,null,null,null,-0.042291395,0.06546987,-0.022687273,0.06024042,-0.0039476478,null,0.02868624,-0.004845923,-0.020016422,-0.03708641,0.06439278,null,0.072031416,null,-0.021864038,0.0012558068,0.06871299,0.048553444,0.038240474,-0.065361336,null,-0.06299997,null,null,0.042368285,0.014463323,0.053224448,0.074383326,0.028047634,null,-0.0030255083,null,0.117031716,-0.06389632,0.0035341945,null,null,null,0.07659501,null,null,-0.07674218,null,0.023762228,-0.10644586,0.011734506,-0.0016682012,0.100619495,null,null,null,null,-0.0025742035,null,0.023730703,null,null,null,-0.033287127,null,0.07552462,0.039802883,0.054123107,null,null,-0.0838543,-0.0484046,null,null,null,null,0.070094205,null,null,-0.104598306,-0.05289476,null,-0.0192932,null,null,0.08496932,null,null,0.0032141327,null,null,null,0.0032123663,null,0.03196887,null,null,-0.0063148704,null,null,null,0.052571014,null,null,null,null,null,-0.03035721,-0.011135296,null,0.054944206,0.07186064,-0.030513668,0.09855441,0.023300467,null,null,0.007400757,0.098359525,null,null,null,0.09044597,-0.034961037,null,0.12311319,null,-0.070709325,null,null,null,null,null,-0.032297634,-0.031873066,0.019172112,0.00665005,-0.0085716285,null,0.011217693,-0.01003039,0.057458792,0.06011863,0.035673298,null,-0.05117885,null,0.12075176,-0.0070965444,-0.011570386,-0.04092071,-0.004399512,-0.036331996,null,0.12355763,null,null,-0.040724806,-0.0027750013,0.01135399,-0.019640677,-0.04973561,null,-0.019853795,null,0.0135607235,-0.04231879,0.009795697,null,null,null,-0.023407632,null,null,0.08440648,null,0.033919543,-0.009981701,0.0021916036,0.004775929,0.052606214,null,null,null,null,0.009988968,null,-0.10372407,null,null,null,0.07808551,null,0.007972496,0.017286781,0.033817165,null,null,-0.012630503,0.110540435,null,null,null,null,-0.032056924,null,null,0.04458544,0.07962837,null,-0.048969932,null,null,0.05171197,null,null,0.051204942,null,null,null,-0.031796955,null,-0.07187222,null,null,0.05644402,null,null,null,-0.09800436,null,null,null,null,null,0.04756628,-0.00620079,null,-0.004760126,-0.062150046,-0.011440968,0.009255365,0.0018877836,null,null,-0.049233157,-0.030708168,null,null,null,0.017711718,0.010717072,null,-0.008552068,null,-0.063897304,null,null,null,null,null,-0.050028026,0.004563475,-0.025859393,-0.038041186,0.04632606,null,-0.012335443,0.0002915303,0.0063113645,0.006162403,-0.058532014,null,0.020365445,null,0.0039388896,0.061627455,-0.11703224,0.030290807,0.047720898,0.05184101,null,-0.026961666,null,null,-0.015213628,-0.027780183,0.06082153,-0.044063456,0.036020823,null,-0.076164216,null,-0.00210211,-0.03939956,0.010208968,null,null,null,-0.020536337,null,null,0.04338522,null,0.046673972,-0.06482586,-0.014539315,-0.046112362,-0.05350865,null,null,null,null,-0.038221497,null,0.007450853,null,null,null,0.12790431,null,0.020417834,0.030370006,0.055366475,null,null,-0.10187424,-0.03943732,null,null,null,null,-0.07675815,null,null,-0.034975335,0.07618553,null,-0.07282304,null,null,0.099232376,null,null,0.026740294,null,null,null,0.00011932671,null,0.03789599,null,null,0.074439704,null,null,null,-0.08768462,null,null,null,null,null,-0.0107138315,-0.028022055,null,0.012874095,0.05080513,0.031021988,-0.0593584,-0.012781831,null,null,0.050439678,-0.016953107,null,null,null,0.04700542,-0.071064316,null,-0.039685566,null,0.05034863,null,null,null,null,null,-0.03631658,0.038067117,-0.09191974,0.021880534,0.07684402,null,-0.090775535,-0.092643075,-0.04381055,-0.04739211,-0.023481574,null,-0.030793365,null,0.046438027,-0.02844453,0.03355462,-0.105845764,0.022039544,0.024133673,null,0.038775064,null,null,-0.0059818365,-0.053152196,0.03218837,0.024554845,0.054334413,null,-0.018230595,null,-0.032397162,-0.11380037,-0.0000540121,null,null,null,0.019079266,null,null,-0.025623165,null,0.0018352584,-0.03839724,0.026790638,-0.00036241693,-0.04535901,null,null,null,null,0.098980114,null,0.072810784,null,null,null,0.06142626,null,-0.008443775,0.043923657,-0.02037301,null,null,-0.07679034,-0.009496014,null,null,null,null,-0.03314527,null,null,-0.0024870285,-0.017281583,null,0.0030063936,null,null,0.009502308,null,null,0.057856947,null,null,null,-0.028566321,null,-0.047248416,null,null,0.075758204,null,null,null,0.023180768,null,null,null,null,null,0.038279105,0.12033378,null,0.041249238,0.026291685,0.0014556273,0.071478665,-0.0965677,null,null,0.04132356,-0.06392814,null,null,null,0.019814406,-0.0179875,null,0.03223054,null,-0.00017641085,null,null,null,null,null,0.018422626,0.08344487,-0.043622628,0.017348373,-0.049153574,null,0.08165415,0.03445613,-0.111154445,-0.018467644,0.09529699,null,-0.0485573,null,-0.03809114,-0.10092584,0.0060061286,-0.07647733,-0.065419376,0.11499966,null,-0.07443347,null,null,-0.039527632,0.009403443,0.01902127,-0.017500171,0.0034804435,null,0.039279822,null,0.07535047,0.060643513,-0.096954435,null,null,null,0.00007611381,null,null,0.0020233283,null,0.058650974,-0.008398269,-0.009234874,0.047324836,0.058117513,null,null,null,null,-0.005205596,null,-0.03854975,null,null,null,0.002549737,null,-0.04025962,0.06443059,0.041548517,null,null,0.05862587,-0.021886313,null,null,null,null,-0.065043874,null,null,0.056492142,-0.11687874,null,-0.0753659,null,null,0.08640916,null,null,-0.028031813,null,null,null,0.023020504,null,0.022752734,null,null,-0.010239736,null,null,null,0.0053592324,null,null,null,null,null,0.06800032,0.052700676,null,0.015319418,-0.06835363,-0.10159203,-0.040894292,-0.032908205,null,null,0.04541555,0.042397954,null,null,null,-0.061198868,0.006746696,null,0.029501215,null,-0.07790016,null,null,null,null,null,-0.04591267,-0.015586694,0.09150523,-0.0476901,0.058090508,null,-0.0068883607,-0.03446888,-0.14172842,-0.0058547244,0.07685398,null,0.037357084,null,-0.025190854,-0.10175243,-0.14054437,-0.03618827,-0.0527367,0.03069682,null,-0.020085134,null,null,0.092703894,0.005846163,-0.003440144,0.10485465,-0.05364207,null,0.03720709,null,-0.0022586386,-0.118589096,-0.059309524,null,null,null,-0.030959843,null,null,-0.068395816,null,-0.031515177,-0.01132854,0.058704477,-0.06269619,0.026626578,null,null,null,null,0.016204812,null,-0.023991786,null,null,null,-0.024467578,null,-0.0109993005,0.0110591175,0.0873333,null,null,0.007764348,0.026495505,null,null,null,null,-0.04015588,null,null,0.0012807128,0.025642965,null,-0.007622941,null,null,-0.03523973,null,null,-0.113575846,null,null,null,-0.0054924916,null,0.024752649,null,null,-0.0067546833,null,null,null,0.065281294,null,null,null,null,null,0.039971776,-0.04467713,null,0.015473452,-0.024121234,-0.065227665,0.034703482,0.02617942,null,null,-0.01856073,-0.06493577,null,null,null,-0.037874844,0.010392943,null,0.014783749,null,-0.023462439,null,null,null,null,null,0.031255536,0.014464573,0.032552455,0.0013585638,0.0029155922,null,-0.10306234,-0.030107573,0.013454476,0.07883606,0.046724923,null,-0.039196234,null,0.009132857,0.020032797,0.030556628,0.013036034,0.02229255,-0.0508248,null,-0.021055823,null,null,-0.012123906,0.124943726,-0.07999623,0.038030356,0.030036986,null,0.11034762,null,0.036244646,0.06612812,-0.00080888084,null,null,null,-0.0079842,null,null,0.01974178,null,-0.03889294,0.036002103,-0.09082602,-0.0028127285,0.023517743,null,null,null,null,0.038675085,null,-0.0068612443,null,null,null,-0.048621047,null,0.058466453,0.0120538445,0.0058801793,null,null,-0.022524958,-0.0018037918,null,null,null,null,-0.0033144536,null,null,-0.08300684,0.057859845,null,0.0684137,null,null,0.009138333,null,null,0.04407342,null,null,null,-0.01609512,null,-0.118421376,null,null,-0.017465984,null,null,null,-0.046622172,null,null,null,null,null,0.08485586,0.050872136,null,0.025364503,-0.026439434,-0.026435276,-0.038997848,0.00078547356,null,null,0.08887063,0.015527138,null,null,null,-0.083895534,0.037038337,null,0.023194518,null,-0.014842468,null,null,null,null,null,-0.017220939,0.03399407,-0.06986384,-0.048207015,0.015423598,null,-0.0033494532,0.05283953,-0.011366391,-0.009439661,0.018754434,null,0.06269261,null,-0.04156566,0.04321763,-0.054681074,0.05789701,-0.006697628,-0.027683886,null,-0.03921016,null,null,-0.013114791,0.060764614,0.02996172,0.041308068,0.06534944,null,0.06051187,null,-0.021785945,0.05546092,0.039331786,null,null,null,-0.024961093,null,null,-0.112993814,null,-0.03901915,-0.032223567,-0.040517114,0.049152054,-0.048426446,null,null,null,null,0.00019592067,null,-0.032976694,null,null,null,-0.055406608,null,0.024936926,0.0030420811,0.0314899,null,null,-0.09161297,0.022399493,null,null,null,null,0.043167803,null,null,0.04477827,-0.051821653,null,0.05377579,null,null,0.052042976,null,null,-0.0021938889,null,null,null,0.031370666,null,0.07896977,null,null,-0.03561527,null,null,null,0.056586854,null,null,null,null,null,-0.013142951,-0.032662444,null,0.12855087,-0.0081274565,-0.059876703,0.03611105,-0.007902846,null,null,0.051781446,0.0711509,null,null,null,0.06617305,-0.08444904,null,-0.08193394,null,0.013123974,null,null,null,null,null,0.02820462,0.10204192,0.013836164,-0.01616645,0.086523555,null,-0.0012563103,0.024688875,0.04175,-0.0067564948,0.02789199,null,-0.013248318,null,-0.0004903209,0.05244329,-0.03291218,0.030894386,0.033515688,0.031131255,null,0.027334405,null,null,0.10107904,-0.035098195,-0.009212608,0.012843462,0.067949444,null,-0.012605761,null,0.054757975,0.062400073,-0.037203874,null,null,null,-0.01543304,null,null,0.0029826842,null,-0.06605194,-0.06438787,0.082161956,-0.016729072,-0.020538293,null,null,null,null,-0.01827847,null,0.061200734,null,null,null,-0.00012816816,null,0.033733282,-0.0061628646,0.11362,null,null,0.049771175,-0.06420389,null,null,null,null,-0.013996109,null,null,-0.03321964,0.14872792,null,-0.038056158,null,null,-0.056589637,null,null,0.013122169,null,null,null,-0.07783441,null,0.013502481,null,null,0.059742965,null,null,null,0.031085733,null,null,null,null,null,0.052294713,-0.01782567,null,0.009120917,-0.054284323,0.06516437,-0.088658065,0.072246715,null,null,-0.032924585,0.030206643,null,null,null,-0.046672143,0.010494349,null,0.052509706,null,-0.08107591,null,null,null,null,null,0.04223582,0.0018856957,-0.07670735,0.048862804,0.03186172,null,-0.007632743,-0.025376426,0.06472685,0.081897244,0.032495588,null,-0.035054848,null,0.04436271,-0.01567508,-0.06534943,0.09471822,-0.06682194,0.038704723,null,-0.052650165,null,null,-0.029852627,-0.020637803,0.025510084,-0.017782338,-0.0038315363,null,-0.035842177,null,-0.025519127,-0.06281531,-0.028010882,null,null,null,0.0095677925,null,null,-0.031137232,null,0.061395317,0.002417967,-0.019625738,-0.0034807583,0.020373203,null,null,null,null,0.042073406,null,-0.014168039,null,null,null,-0.055488862,null,0.031715862,-0.037715882,0.043367054,null,null,0.00858481,0.026026081,null,null,null,null,0.022989105,null,null,-0.066799864,-0.07126762,null,0.054817718,null,null,-0.07305663,null,null,-0.074076205,null,null,null,-0.056389183,null,0.0054038633,null,null,0.107086845,null,null,null,0.011093812,null,null,null,null,null,0.057404667,-0.011835593,null,-0.043071453,-0.034357864,0.07992911,0.023270538,0.02788302,null,null,-0.087748125,0.027579347,null,null,null,-0.028859008,0.027815908,null,-0.07128925,null,0.027438521,null,null,null,null,null,0.07033719,0.035463884,-0.02667278,-0.02213048,-0.054298155,null,0.0625786,0.06399437,-0.108891025,0.016727049,-0.09189346,null,-0.028368622,null,-0.054809835,-0.06714644,-0.02158438,0.018592736,-0.039365493,0.07571599,null,-0.01711716,null,null,-0.03991502,-0.015430636,0.0018127501,-0.054481067,-0.006092406,null,-0.053815197,null,-0.01145996,-0.027961662,0.016598558,null,null,null,0.049259465,null,null,-0.09914475,null,-0.01609403,0.018247684,0.05134084,-0.069198586,0.014246618,null,null,null,null,-0.00424791,null,0.02937522,null,null,null,-0.009659774,null,-0.07553518,0.007426853,0.033387717,null,null,0.06177223,-0.029767295,null,null,null,null,-0.024479048,null,null,-0.01797252,-0.023649504,null,0.016709737,null,null,0.06379484,null,null,0.077411234,null,null,null,0.030146716,null,-0.029311161,null,null,0.0936983,null,null,null,-0.027481094,null,null,null,null,null,-0.057492446,0.017206144,null,0.056534436,-0.10219983,0.023158269,-0.08146659,-0.006570264,null,null,-0.028196268,-0.008371768,null,null,null,0.044352062,0.0017299209,null,0.06867938,null,-0.09499905,null,null,null,null,null,-0.004487065,-0.027575921,-0.05231399,-0.020272804,-0.0357487,null,0.10479366,0.030951023,0.050063476,0.014061713,-0.089489006,null,0.08417627,null,0.046863165,-0.009546281,0.011603885,-0.046454877,0.09620468,-0.14766869,null,-0.0005696162,null,null,0.04021658,0.061886452,-0.0848539,-0.02907238,0.047963884,null,-0.0012565962,null,-0.06523077,0.012444766,-0.09134087,null,null,null,0.034068532,null,null,-0.06430742,null,-0.0302211,-0.08393593,-0.08715152,0.052284822,-0.10249828,null,null,null,null,-0.019622173,null,-0.027145207,null,null,null,-0.0483844,null,0.0009061414,0.056154445,-0.014207861,null,null,0.020411335,-0.0055718697,null,null,null,null,-0.0015269215,null,null,0.047091812,0.0018154329,null,0.09796905,null,null,-0.0049176444,null,null,0.035390034,null,null,null,-0.09224247,null,0.06572712,null,null,0.010861807,null,null,null,-0.010279662,null,null,null,null,null,0.06956488,0.035385236,null,0.026622787,0.056474235,0.047227506,-0.018946247,0.0756864,null,null,0.053328935,0.054077335,null,null,null,0.06606752,0.031480446,null,-0.011696946,null,-0.084777676,null,null,null,null,null,0.007948289,0.006597634,0.072620004,-0.052939665,0.053268295,null,-0.08054303,0.02625025,0.046976533,0.062217087,0.039584912,null,0.05536833,null,0.081381686,-0.031955846,0.009396573,0.011690582,0.046908688,-0.06595168,null,-0.08378895,null,null,-0.04538167,0.026922053,-0.04005529,-0.028244946,-0.020779714,null,-0.06797045,null,-0.017733075,0.004702014,0.010799908,null,null,null,-0.1165367,null,null,-0.117457576,null,0.010964616,-0.055207852,-0.004449296,-0.00899698,0.019657636,null,null,null,null,0.03585616,null,0.08949786,null,null,null,-0.06933401,null,0.011037522,-0.10764098,0.034899365,null,null,0.05266045,-0.014862607,null,null,null,null,-0.020207353,null,null,-0.03824646,0.019787783,null,0.042779084,null,null,-0.022020584,null,null,-0.029126585,null,null,null,-0.010075835,null,0.010007041,null,null,0.028609207,null,null,null,0.0023182444,null,null,null,null,null,0.050939806,-0.009105848,null,-0.020811956,0.047530722,0.054479167,-0.04476393,0.0076468047,null,null,0.022641823,-0.046461407,null,null,null,-0.03209079,0.1130727,null,-0.050538566,null,-0.0074924887,null,null,null,null,null,-0.04962672,0.01914969,-0.068067,0.015608865,0.035053615,null,0.029876556,-0.012714093,-0.110063076,-0.008448812,0.03315289,null,0.060682945,null,-0.006267023,-0.051022843,-0.0030278808,-0.04108642,-0.01146034,-0.0103747565,null,0.031870507,null,null,0.05433914,-0.07864034,0.09700547,-0.017980276,0.055329423,null,-0.06895639,null,0.0174659,0.06571923,-0.038285553,null,null,null,0.013117246,null,null,0.07540363,null,-0.04496368,-0.02064416,-0.005812455,0.06010927,0.050585244,null,null,null,null,-0.062116593,null,-0.011971667,null,null,null,-0.05757337,null,-0.057274528,-0.051451605,-0.025786022,null,null,-0.0574319,-0.07560783,null,null,null,null,-0.052637067,null,null,-0.086078554,0.05497821,null,0.13397008,null,null,0.026108334,null,null,0.044521753,null,null,null,0.023677003,null,-0.023779135,null,null,-0.010952294,null,null,null,-0.028112976,null,null,null,null,null,0.0070105037,-0.10592525,null,0.066008046,-0.012016648,0.06538304,0.060892425,0.041864872,null,null,-0.041929077,-0.01822146,null,null,null,-0.0077252383,0.02347733,null,-0.020930668,null,-0.015428831,null,null,null,null,null,-0.010254554,0.005184689,0.10487022,0.009241814,-0.00028665081,null,-0.048595935,-0.0321503,-0.018111693,-0.045698754,-0.008752175,null,0.027248308,null,0.029165486,-0.012635482,-0.03785977,0.051794752,-0.09598271,0.075288154,null,0.087264374,null,null,-0.015107849,0.021050649,0.10648378,-0.011179429,0.09699647,null,0.057443522,null,0.00514922,-0.0068014613,0.014172544,null,null,null,0.03522871,null,null,-0.04566646,null,-0.0730056,-0.0016935767,-0.022369124,-0.066359565,-0.034593545,null,null,null,null,-0.085214235,null,0.012154796,null,null,null,0.012228437,null,-0.017196696,-0.08028414,-0.0191275,null,null,0.01778446,-0.06576111,null,null,null,null,0.01649382,null,null,0.006641605,0.04861883,null,-0.00070732145,null,null,0.05707227,null,null,0.07472892,null,null,null,0.027679384,null,-0.005737112,null,null,0.02082745,null,null,null,0.10413325,null,null,null,null,null,-0.019221611,-0.056570128,null,-0.07824075,-0.055415764,-0.0004328005,-0.027941633,0.026122887,null,null,-0.09034383,0.06068694,null,null,null,0.020282058,0.00792835,null,-0.06455798,null,-0.053466123,null,null,null,null,null,0.033459403,-0.03187967,0.031222086,-0.119621225,-0.01519948,null,0.03595646,-0.002806408,-0.0035557316,-0.052694403,0.059153777,null,-0.093626514,null,-0.06515039,-0.022521526,0.11514729,0.022800976,-0.0074828365,-0.039203666,null,0.022638755,null,null,0.052792862,-0.007405996,0.008844708,0.01912875,0.04663476,null,0.06578586,null,0.06735472,-0.034692056,-0.02420864,null,null,null,-0.0063969376,null,null,0.054893196,null,-0.08387454,0.0094169285,-0.027804136,-0.052712124,0.11728428,null,null,null,null,-0.0026739645,null,-0.020141251,null,null,null,-0.02069655,null,-0.01567858,-0.045824923,0.055291206,null,null,-0.0053321775,0.020858448,null,null,null,null,-0.05252198,null,null,0.030053629,-0.040511638,null,-0.00207541,null,null,0.07383324,null,null,-0.005394007,null,null,null,0.020200726,null,-0.032717586,null,null,-0.041839156,null,null,null,0.08910578,null,null,null,null,null,-0.06577962,-0.01138664,null,-0.06260678,-0.014891316,0.037479546,0.009414836,-0.006473872,null,null,0.026965909,0.036153067,null,null,null,0.022163313,-0.038378857,null,-0.006374534,null,-0.08069096,null,null,null,null,null,-0.03592356,-0.00875585,0.12286267,0.060934003,-0.08110455,null,-0.107420094,0.120253384,-0.026606953,0.017045418,0.100196145,null,0.0044333907,null,0.11511623,0.069236815,-0.01717249,0.08249734,0.10536484,0.080437265,null,-0.059484463,null,null,0.062214866,0.0053112493,0.034836773,-0.016939081,0.033293564,null,0.030924115,null,0.008676859,0.065448046,-0.027211858,null,null,null,-0.08486635,null,null,0.04128181,null,0.06259557,0.020558812,-0.005679423,-0.013952317,-0.0056216824,null,null,null,null,0.05095575,null,-0.031554885,null,null,null,0.065561764,null,-0.009250924,0.004776743,-0.012559873,null,null,-0.031563874,0.008189433,null,null,null,null,-0.088908814,null,null,-0.058296893,0.07197123,null,-0.008138314,null,null,-0.027876385,null,null,0.034667954,null,null,null,0.043490067,null,0.085449316,null,null,0.044373628,null,null,null,-0.03525928,null,null,null,null,null,-0.0012030847,-0.042789917,null,-0.027611878,0.046082307,-0.005197178,-0.03122684,0.02414496,null,null,-0.0103330305,0.0679251,null,null,null,0.17390412,-0.00816187,null,-0.16197194,null,0.026311325,null,null,null,null,null,0.06113368,-0.0077768695,0.05255311,0.027285717,0.070418574,null,-0.0011160391,-0.03861459,-0.042417496,0.020392343,-0.023819303,null,0.02036205,null,-0.024007604,-0.018426925,-0.036825083,0.07579467,0.007722348,0.0032171991,null,0.058482576,null,null,0.05682149,0.1283796,0.08731329,0.0106263785,0.055496905,null,-0.088704474,null,-0.02780163,-0.023411836,-0.007931087,null,null,null,-0.018954571,null,null,-0.07849896,null,0.045226585,-0.077972084,-0.050924398,-0.03409513,-0.080581486,null,null,null,null,-0.021929575,null,-0.06625363,null,null,null,-0.07485752,null,0.043690305,-0.00057583296,-0.026822811,null,null,0.04413777,0.1009194,null,null,null,null,0.018939389,null,null,0.012892362,-0.0065365336,null,-0.026176846,null,null,-0.0706573,null,null,0.022089891,null,null,null,-0.073571,null,0.0035509532,null,null,0.058660995,null,null,null,-0.026007503,null,null,null,null,null,0.03778014,-0.1398999,null,-0.017769618,0.007882235,0.08234142,-0.026649512,-0.031879496,null,null,0.022499166,0.0018693679,null,null,null,0.049364112,-0.09061008,null,-0.0014677362,null,-0.00593714,null,null,null,null,null,0.013663164,-0.022625925,-0.06093685,-0.0059035406,0.10559685,null,-0.051870756,-0.087719254,0.0142960455,0.06613302,-0.033740662,null,-0.027052818,null,-0.021629894,0.0034444712,0.0039337147,0.05006918,-0.00884621,-0.008624803,null,0.036520597,null,null,0.03138628,-0.00022518619,0.0634481,-0.011114125,0.009305507,null,0.031930543,null,0.030646054,0.0002667321,0.034352556,null,null,null,-0.08284989,null,null,0.0052178367,null,0.0035871507,-0.052463416,-0.0590286,0.04977033,-0.032819718,null,null,null,null,0.10520248,null,-0.01639625,null,null,null,-0.005329247,null,0.022656411,-0.009477617,-0.025645617,null,null,-0.01562729,0.06993584,null,null,null,null,-0.040800437,null,null,0.011470236,0.0031182978,null,-0.09756074,null,null,0.018139677,null,null,-0.0015321386,null,null,null,0.032887623,null,-0.056856684,null,null,-0.07062539,null,null,null,-0.06986341,null,null,null,null,null,-0.007971954,-0.05515782,null,0.054432668,0.13544905,0.07981032,0.013198301,-0.015958535,null,null,0.012276819,-0.054554198,null,null,null,0.07024128,0.03256631,null,0.016704284,null,-0.0064961757,null,null,null,null,null,-0.025398305,0.08229652,-0.058946766,-0.082184024,-0.011330337,null,-0.040697888,-0.03855583,0.015937852,-0.023027347,0.012951676,null,-0.00060697703,null,-0.017715365,-0.07438838,-0.045696143,-0.052721687,-0.000652517,-0.0059050256,null,-0.039949976,null,null,0.013241943,0.06539575,0.017635379,0.027723236,-0.0031147946,null,-0.093903966,null,0.0017506387,0.02258853,-0.05233544,null,null,null,0.037209123,null,null,-0.022177357,null,0.08496539,0.022397207,0.019089494,0.0787972,-0.025742058,null,null,null,null,0.010051372,null,-0.021391679,null,null,null,-0.008901483,null,-0.045512713,-0.08160183,-0.067598775,null,null,-0.018899914,-0.026241446,null,null,null,null,-0.08824926,null,null,0.06562339,0.0003005029,null,0.06794713,null,null,-0.031518664,null,null,-0.07036313,null,null,null,0.01284473,null,-0.04082389,null,null,-0.037303746,null,null,null,-0.052096445,null,null,null,null,null,0.012479535,0.009677615,null,0.092036195,-0.028796872,0.03420628,0.12464899,-0.019409388,null,null,0.031229036,-0.028078645,null,null,null,0.058665033,0.08318091,null,-0.061157983,null,-0.008847422,null,null,null,null,null,0.07232643,0.033628352,-0.0154852085,0.070455045,0.028228546,null,0.011243247,-0.09252339,0.008201936,-0.029730486,-0.020405518,null,0.06624506,null,0.014148762,-0.037597284,-0.01710869,-0.062337007,0.027394071,0.018292079,null,-0.029862598,null,null,-0.0035757802,0.110651314,-0.07069779,-0.04389885,-0.0044840192,null,0.033192564,null,0.043613512,-0.0034127065,-0.0905396,null,null,null,-0.06209864,null,null,-0.03820213,null,0.041201584,-0.032095857,0.026959779,0.06392444,0.019441418,null,null,null,null,-0.09325487,null,-0.04663617,null,null,null,0.0064903325,null,-0.03911011,-0.06877793,0.045888696,null,null,0.063891985,-0.046181947,null,null,null,null,0.023379287,null,null,-0.073517375,0.07579585,null,0.06031625,null,null,-0.007837,null,null,0.034106214,null,null,null,-0.015696581,null,-0.0012962008,null,null,-0.043841425,null,null,null,-0.074917406,null,null,null,null,null,-0.06576839,0.02202894,null,0.008972618,-0.008597066,-0.01847931,-0.052897166,-0.040583268,null,null,0.009354478,0.0144886905,null,null,null,-0.050420284,-0.04063263,null,-0.002372492,null,0.04807153,null,null,null,null,null,0.008022878,0.034656335,0.0386211,-0.026159951,0.05397425,null,-0.02828396,-0.014793062,0.04354018,0.01838853,0.00958089,null,-0.018975593,null,-0.045647215,-0.03858798,0.0822859,-0.051504154,0.08225261,0.008587925,null,0.012769741,null,null,-0.03905855,-0.07295175,0.003218076,-0.04091785,-0.0008526173,null,0.0063218353,null,-0.062556945,0.007863785,0.057094667,null,null,null,0.06661013,null,null,-0.05719953,null,0.012978151,0.0672459,-0.03497041,0.016864661,-0.08999581,null,null,null,null,-0.0020815197,null,0.02426372,null,null,null,-0.020290347,null,-0.057496034,-0.022255085,0.083358034,null,null,0.038736194,-0.0067354226,null,null,null,null,0.04366707,null,null,-0.020580275,0.0414552,null,0.02411495,null,null,0.066201314,null,null,0.03827478,null,null,null,0.090860285,null,0.0117886085,null,null,-0.0656861,null,null,null,0.014590763,null,null,null,null,null,-0.05639317,-0.029906984,null,-0.012598078,0.009200724,-0.06649799,0.022400444,0.05033022,null,null,-0.05429701,-0.0009433774,null,null,null,-0.03151635,0.0813971,null,-0.08591177,null,0.022834668,null,null,null,null,null,-0.049120024,0.0046810214,-0.046622835,-0.043403853,0.07351492,null,-0.00329148,-0.0076439837,-0.003740989,-0.018733932,0.052719843,null,0.033327926,null,-0.04480171,0.030497458,-0.038439464,0.03479201,0.023374088,0.022741158,null,-0.02646022,null,null,0.053120118,0.076379575,0.058445722,0.008618181,0.025293812,null,0.0029266705,null,0.04209097,0.029163074,0.04214196,null,null,null,0.0068603097,null,null,-0.026335726,null,-0.04732254,0.06118734,-0.06335895,-0.03516897,-0.05600243,null,null,null,null,-0.00024860003,null,0.0180555,null,null,null,-0.0042147078,null,-0.014123907,-0.051821586,0.013524963,null,null,-0.040197857,0.04550568,null,null,null,null,0.13976192,null,null,-0.07375948,-0.015250177,null,-0.052754037,null,null,-0.022987647,null,null,0.0091741625,null,null,null,-0.0082907425,null,-0.0069350903,null,null,-0.047940582,null,null,null,-0.10999795,null,null,null,null,null,-0.056309775,0.018716214,null,-0.02066054,0.120194815,-0.023904597,0.0016389337,-0.087354176,null,null,0.13023347,-0.059242487,null,null,null,-0.07087076,-0.028120952,null,-0.0117595345,null,-0.04034262,null,null,null,null,null,-0.0011631976,0.00019092223,-0.02854488,0.009754107,0.06031818,null,0.013072902,-0.000023686332,-0.077166155,-0.050255116,-0.11008158,null,0.16169769,null,-0.04029641,-0.013475176,0.0044353344,-0.0006146926,0.0017177918,-0.011287067,null,-0.000818109,null,null,-0.04929086,-0.076515906,-0.05449184,-0.042257532,-0.07469862,null,-0.02221937,null,-0.038059015,0.02040189,0.07355671,null,null,null,-0.007866231,null,null,0.06982163,null,0.03332231,0.0070505626,0.047195382,0.08843822,0.04806186,null,null,null,null,-0.081200354,null,0.000028709137,null,null,null,0.020510312,null,0.070112966,0.010334038,-0.03485607,null,null,-0.003801698,-0.13280213,null,null,null,null,-0.03153673,null,null,-0.0038087685,-0.14036039,null,-0.08415224,null,null,-0.030431,null,null,-0.023836594,null,null,null,0.01538619,null,0.056862343,null,null,0.0073908796,null,null,null,0.05310803,null,null,null,null,null,-0.043070212,-0.025977835,null,-0.003373813,-0.03766137,0.00439319,0.047545474,0.06345503,null,null,-0.13468832,-0.01128185,null,null,null,0.04936004,0.09114604,null,0.0008699951,null,-0.056777332,null,null,null,null,null,0.054595657,0.028995173,0.026537137,0.012492151,0.038643654,null,0.030186178,0.0010007017,-0.022704277,-0.041098464,-0.08480688,null,0.011159889,null,0.024511507,-0.108855344,0.07453434,0.025259892,0.055338785,0.019390883,null,0.018546559,null,null,-0.005823345,0.03194101,-0.010718124,0.023254676,-0.0094872285,null,0.011943095,null,0.009504788,-0.02011043,-0.027394066,null,null,null,0.06732245,null,null,-0.07099504,null,0.043719098,0.0538398,0.008767371,-0.08518417,0.0025336107,null,null,null,null,-0.027852194,null,-0.01541676,null,null,null,-0.035760667,null,0.06779621,0.037315156,0.021498812,null,null,-0.058000132,0.0032849007,null,null,null,null,-0.1121551,null,null,-0.030206904,0.039547656,null,-0.00948822,null,null,-0.02110837,null,null,-0.084279545,null,null,null,-0.07000947,null,-0.028428767,null,null,-0.030193966,null,null,null,0.031875286,null,null,null,null,null,-0.034788158,-0.072684616,null,-0.0212783,0.03757457,0.023221074,-0.0851402,0.082710594,null,null,-0.0018007336,0.051222075,null,null,null,0.067784354,-0.08186333,null,0.05503933,null,-0.015308062,null,null,null,null,null,0.006231595,0.029172175,-0.015401819,-0.027405431,0.122882925,null,0.015435568,0.07056917,0.047643032,0.015970977,-0.076012745,null,0.006580007,null,0.058729257,-0.031300202,0.04773812,-0.055117868,-0.04183506,-0.09208379,null,0.021687923,null,null,0.02356249,0.03634208,0.087718494,0.008280323,-0.027463036,null,0.028398935,null,-0.048476163,-0.04668841,0.0059267106,null,null,null,0.09582696,null,null,0.049684092,null,0.036566976,0.010242066,0.012597158,-0.049871877,0.041356057,null,null,null,null,0.0069910428,null,-0.005083491,null,null,null,-0.0272567,null,-0.02043467,-0.021522634,-0.062535845,null,null,0.023900783,-0.023841564,null,null,null,null,0.05465826,null,null,-0.024529722,0.027668254,null,0.048141148,null,null,-0.019824458,null,null,-0.06675011,null,null,null,-0.03418901,null,-0.009306142,null,null,0.082021676,null,null,null,0.034189038,null,null,null,null,null,-0.0076640816,-0.020327229,null,0.014794878,-0.012580566,0.04993954,-0.10183023,-0.024344131,null,null,-0.06162962,-0.049045004,null,null,null,0.022717025,-0.052661326,null,-0.038606737,null,0.045156628,null,null,null,null,null,-0.12261295,-0.002264845,-0.017190186,0.032798517,-0.0039682514,null,-0.008224758,0.004480614,0.07183172,-0.016391836,-0.0011945015,null,-0.03461838,null,0.055089775,-0.040378954,0.13393676,-0.034522396,-0.014995999,-0.05438879,null,-0.022143763,null,null,-0.12074965,0.059843954,-0.019463388,-0.042903807,-0.12458231,null,0.013201922,null,-0.044645168,0.024478147,-0.038012072,null,null,null,-0.029929202,null,null,0.06739864,null,-0.09288641,-0.009030147,-0.0028797167,-0.040022828,-0.010143045,null,null,null,null,-0.02846568,null,-0.006415916,null,null,null,-0.024362998,null,0.0022794383,-0.02162902,-0.005460439,null,null,-0.05765391,-0.051201597,null,null,null,null,-0.050231926,null,null,-0.03194687,-0.09006937,null,-0.043230478,null,null,0.07150072,null,null,-0.02504829,null,null,null,-0.026750285,null,-0.020977357,null,null,0.029878872,null,null,null,0.16224925,null,null,null,null,null,-0.08159001,0.11328903,null,-0.005895708,-0.050345108,-0.019714247,0.030989224,-0.01592575,null,null,-0.0013857275,0.044679902,null,null,null,-0.011852694,0.11735749,null,0.13254042,null,-0.0328012,null,null,null,null,null,-0.009626366,-0.02355827,-0.011238031,0.036557935,-0.0949066,null,-0.10598285,-0.052349396,0.06539753,0.0090311505,-0.030420506,null,0.037114006,null,0.10227008,-0.07422827,0.06691678,0.059683226,0.026164807,-0.053959597,null,0.013610914,null,null,0.01098006,-0.0034126837,0.056255393,-0.013592407,0.0014355844,null,-0.07156046,null,0.047103018,-0.027817577,0.032623313,null,null,null,0.007988059,null,null,0.010048621,null,-0.09499967,0.0056306184,0.0047209472,0.03829445,0.08556245,null,null,null,null,-0.073127486,null,-0.035660032,null,null,null,0.044969432,null,-0.02894665,0.031090423,0.054971077,null,null,0.040636774,-0.11502735,null,null,null,null,0.093375556,null,null,-0.0019492328,-0.045042187,null,0.018854927,null,null,-0.002739037,null,null,0.119798034,null,null,null,-0.023906518,null,-0.045398414,null,null,-0.03429704,null,null,null,0.031425226,null,null,null,null,null,-0.07262585,0.06678334,null,0.016943388,-0.043685786,-0.07047124,0.03913474,-0.021601737,null,null,-0.0018855805,0.024655156,null,null,null,0.05879092,-0.06901839,null,-0.0054318313,null,-0.026537769,null,null,null,null,null,-0.028616099,-0.078823425,0.09498677,0.0141771715,-0.022980254,null,0.013942642,-0.016808735,0.016436366,-0.05102619,0.03446922,null,0.006762861,null,-0.046280794,0.011169102,0.006886765,0.03401739,-0.014635397,-0.029334549,null,-0.066308275,null,null,0.07727066,-0.041197672,-0.034374837,-0.003588813,-0.02570558,null,0.004762642,null,-0.045207676,-0.007939978,0.04807327,null,null,null,0.03376432,null,null,0.05860277,null,0.05532542,0.023269288,0.07725429,-0.054624584,-0.05535193,null,null,null,null,-0.0029089905,null,-0.097140156,null,null,null,0.07154388,null,0.037255872,0.0586461,0.00102575,null,null,0.020270096,0.04469028,null,null,null,null,0.023799963,null,null,0.0068294425,0.022682337,null,-0.03496134,null,null,0.11286892,null,null,0.012284573,null,null,null,0.005600362,null,-0.09685777,null,null,-0.06449952,null,null,null,-0.048492588,null,null,null,null,null,0.015726645,0.043624554,null,0.13521314,-0.016886977,-0.093542576,0.011740883,0.001032235,null,null,-0.010605471,0.06360497,null,null,null,-0.018520253,0.0050675897,null,-0.06566243,null,0.02431125,null,null,null,null,null,0.025671123,0.05859032,-0.0315796,-0.000042025637,-0.08487108,null,0.0060587497,0.06773947,-0.06815301,-0.095740184,0.041031376,null,0.06820231,null,-0.010038844,0.09338344,0.015774647,-0.019643134,0.081557006,-0.0059772823,null,-0.013178136,null,null,0.028970486,0.039121855,0.042070027,0.007041745,-0.049467284,null,0.08778468,null,-0.0077886013,0.032213602,-0.129161,null,null,null,0.03725833,null,null,0.00045300584,null,-0.062316567,-0.07266973,-0.048637837,0.04270313,-0.050869342,null,null,null,null,-0.036716595,null,-0.059213646,null,null,null,0.014438399,null,-0.010935725,0.06580495,0.06550567,null,null,0.010142669,0.053948723,null,null,null,null,0.034927763,null,null,0.048066273,-0.039165817,null,-0.032402772,null,null,-0.03229224,null,null,0.018508323,null,null,null,-0.088736944,null,-0.06176753,null,null,-0.010632437,null,null,null,-0.041340146,null,null,null,null,null,0.030518062,-0.0052584754,null,0.017175596,-0.015456866,0.045148283,-0.12495262,0.0014927192,null,null,-0.05707149,0.064066574,null,null,null,0.016575718,0.036029305,null,0.038290203,null,-0.058833167,null,null,null,null,null,0.0018782348,0.008919835,-0.018027809,-0.030039143,-0.075112626,null,-0.038027037,0.030133689,0.099405915,-0.06241074,-0.008531235,null,-0.058925748,null,-0.038468268,-0.035592906,-0.0045439764,-0.111616224,0.035984356,-0.02756846,null,0.05830395,null,null,0.035737675,0.010977281,0.027305594,0.11540539,0.040525626,null,-0.020509869,null,-0.083541356,0.026177697,0.069901265,null,null,null,-0.05348231,null,null,-0.02306055,null,-0.0057484726,-0.04338195,0.051171675,-0.031223804,-0.036382034,null,null,null,null,0.01903889,null,0.020074658,null,null,null,-0.02181974,null,-0.056905966,0.017658357,-0.015185941,null,null,-0.033799153,-0.058832727,null,null,null,null,0.037112255,null,null,-0.018464211,-0.042888254,null,-0.014987935,null,null,-0.025627844,null,null,0.035382412,null,null,null,-0.10972399,null,-0.14286467,null,null,-0.020715993,null,null,null,-0.0059702983,null,null,null,null,null,0.028773816,-0.104399115,null,-0.03492315,0.07111182,0.00250783,0.0025601438,-0.0050045257,null,null,-0.08519109,-0.053278133,null,null,null,-0.01948563,0.107654616,null,-0.08270429,null,-0.030970288,null,null,null,null,null,-0.0096981535,-0.028318673,-0.099608295,0.09358869,0.038508642,null,-0.06828043,-0.013211172,-0.071416475,-0.10100199,-0.022177316,null,-0.060101524,null,-0.06694089,-0.020008344,0.0042452402,-0.079647824,0.023671448,0.00978864,null,0.07297074,null,null,-0.07173945,-0.16158819,0.057044312,-0.038638446,0.011482105,null,-0.008039963,null,0.022878202,0.04657812,0.03229984,null,null,null,-0.07007927,null,null,0.084145054,null,0.043625563,-0.068007186,-0.058845785,0.0017916274,-0.027182976,null,null,null,null,-0.02505613,null,0.0415823,null,null,null,0.01323007,null,-0.017333742,-0.017637666,-0.05923749,null,null,0.057697807,0.09194729,null,null,null,null,0.0011339056,null,null,-0.028318077,0.002722698,null,0.03726348,null,null,-0.029314045,null,null,0.04840451,null,null,null,-0.011539763,null,-0.07436278,null,null,0.042522028,null,null,null,-0.035931226,null,null,null,null,null,-0.0554468,0.063271455,null,0.011192361,-0.01709016,-0.009818416,0.004079793,0.05271791,null,null,0.008860662,0.037397,null,null,null,0.00804953,0.048076674,null,0.042253852,null,-0.07454815,null,null,null,null,null,-0.02089562,0.028972523,0.029883813,0.031176595,0.026894318,null,0.035516143,0.024085602,-0.08045947,0.011376577,-0.028498033,null,0.051169537,null,-0.06445857,0.02740489,-0.009504744,0.046432894,-0.00084148755,0.065129936,null,0.043988004,null,null,0.09433739,0.04895669,0.08993195,-0.012004228,0.01493125,null,0.017100485,null,-0.007559533,-0.02430751,-0.01696356,null,null,null,-0.09559252,null,null,0.030279702,null,0.056030877,-0.027456025,0.040306635,0.02326153,0.027175644,null,null,null,null,-0.0050524864,null,0.0018284911,null,null,null,-0.07509706,null,0.0006664883,-0.044872798,0.03936397,null,null,0.019029899,-0.038545746,null,null,null,null,-0.044430982,null,null,0.04938981,-0.089794524,null,-0.031835906,null,null,0.009469023,null,null,0.10797797,null,null,null,0.039252147,null,-0.036721513,null,null,0.012513731,null,null,null,-0.021143995,null,null,null,null,null,0.06447275,0.006755374,null,-0.059767,0.0088877585,0.0783784,0.04184219,0.021316173,null,null,-0.02361151,0.060321372,null,null,null,-0.103743434,0.044478122,null,0.009244924,null,-0.005494992,null,null,null,null,null,-0.08691305,0.02391311,0.0021511274,-0.04109214,0.07983859,null,-0.016313996,0.04452683,0.029822685,0.011406158,-0.04636259,null,-0.114865705,null,-0.070853285,0.01746279,0.12861393,0.08008334,0.018132685,0.068556875,null,0.062531464,null,null,-0.00051219144,0.065944195,-0.040073857,0.006412837,-0.0147682475,null,0.016981622,null,0.1299527,-0.0010315523,-0.07366079,null,null,null,-0.0023356928,null,null,0.05138776,null,-0.040264454,0.01151886,-0.05178965,-0.008470595,0.03589213,null,null,null,null,0.008324361,null,0.018175831,null,null,null,0.07237776,null,-0.08319323,0.095480815,-0.032465044,null,null,0.024734091,0.09898052,null,null,null,null,-0.0028611908,null,null,-0.08825531,-0.1044094,null,0.08207153,null,null,-0.070228964,null,null,0.014723801,null,null,null,-0.033771496,null,-0.054360498,null,null,-0.03144622,null,null,null,-0.014876113,null,null,null,null,null,0.0054119444,0.040745072,null,0.049081843,0.015867809,0.039110113,-0.06269408,-0.018087905,null,null,0.09683826,0.0046572494,null,null,null,0.054465633,0.033623435,null,-0.039279774,null,0.07948749,null,null,null,null,null,0.049272124,-0.069426924,-0.030507063,0.0050263433,0.022663016,null,0.065444216,0.061825413,-0.0002695102,-0.015424069,-0.0027266433,null,0.00053923205,null,0.004186203,0.063977554,0.036994793,-0.0211898,-0.049023885,0.022026183,null,0.06681982,null,null,-0.0026526079,0.028826533,0.011612472,0.067801215,-0.06160077,null,0.03449339,null,0.043515224,-0.05046159,-0.031480923,null,null,null,0.0033538549,null,null,-0.08903122,null,-0.06671733,0.0011371713,-0.016308516,0.031107642,-0.060450885,null,null,null,null,-0.013192526,null,0.06558201,null,null,null,0.03036707,null,0.023528898,-0.034382578,0.040613603,null,null,-0.031458486,-0.038528696,null,null,null,null,-0.06292947,null,null,0.07489439,-0.02358412,null,0.043362558,null,null,-0.014353339,null,null,-0.04347358,null,null,null,0.053765845,null,-0.10670586,null,null,0.027145017,null,null,null,0.056411467,null,null,null,null,null,0.0073748482,0.03020144,null,0.06855548,0.0003032089,0.02617245,0.022000771,0.09704999,null,null,0.006608794,-0.026964972,null,null,null,0.049302462,0.059551295,null,0.09786069,null,-0.04125077,null,null,null,null,null,0.02024063,-0.074975245,0.10590272,-0.0901022,0.068964966,null,-0.017661043,-0.044120934,0.14371778,0.0018276088,0.005174402,null,0.017397817,null,-0.0204848,-0.016827432,0.07714828,-0.11158769,0.039786804,-0.056084424,null,-0.040777702,null,null,0.012671984,-0.030272145,-0.005379415,0.045819115,-0.0065550962,null,0.014714458,null,-0.019088028,0.009143937,-0.059307773,null,null,null,-0.026199209,null,null,0.063531645,null,0.054217212,0.05274702,-0.019657543,0.014251492,0.015293657,null,null,null,null,-0.07309685,null,0.012430243,null,null,null,-0.06284853,null,-0.025067521,0.042833313,0.03542269,null,null,0.013309105,-0.000485591,null,null,null,null,0.08614295,null,null,0.041379873,-0.012461994,null,-0.037786853,null,null,-0.07768888,null,null,0.059525847,null,null,null,0.087934956,null,0.045404214,null,null,0.08767327,null,null,null,-0.02871756,null,null,null,null,null,0.07341428,0.0722929,null,0.020434024,0.053620197,-0.0061577596,0.06509015,0.009730684,null,null,-0.012537355,-0.009248228,null,null,null,0.018796515,0.03523387,null,0.026898468,null,-0.017601382,null,null,null,null,null,0.04376261,0.039443284,-0.03323762,0.085695155,0.007085424,null,0.027548047,-0.020233048,0.032819405,-0.00820366,0.005883393,null,0.06799368,null,-0.0055834064,0.014454917,-0.02457068,0.07514314,-0.019317392,-0.04798056,null,-0.0026301658,null,null,0.011085545,-0.0351217,-0.07554875,0.04977423,-0.010988531,null,0.0451846,null,0.012757692,-0.007256037,0.018594017,null,null,null,0.037772067,null,null,-0.10010523,null,0.049008004,0.0116049135,-0.021376546,-0.03791795,0.074066766,null,null,null,null,0.04455992,null,-0.025171852,null,null,null,0.049292102,null,0.020207541,-0.07197543,-0.032110427,null,null,-0.09365541,0.01950546,null,null,null,null,-0.028480642,null,null,-0.050566386,-0.026575167,null,0.06655362,null,null,-0.04459229,null,null,-0.009801226,null,null,null,0.030987946,null,0.035356604,null,null,-0.022968976,null,null,null,-0.010074412,null,null,null,null,null,-0.04831581,-0.018195529,null,0.0053714337,0.040067963,0.09443638,-0.10171652,-0.008811714,null,null,0.06250856,-0.07195372,null,null,null,-0.044357583,-0.007788857,null,0.0022161654,null,-0.013048904,null,null,null,null,null,-0.0099998955,0.010158129,-0.03802179,-0.014911802,0.0024779344,null,-0.0066850246,-0.07290036,-0.054955702,-0.011569247,0.04026922,null,0.019179117,null,0.01492166,-0.014586323,-0.07819763,-0.0043470943,0.051395394,0.031275872,null,0.08037514,null,null,-0.028111523,-0.041256405,-0.04418103,0.03927028,-0.06160939,null,-0.09409691,null,-0.050587658,0.013876036,-0.0106191365,null,null,null,0.04554618,null,null,0.020437114,null,0.048185542,-0.061851293,-0.08066261,0.021884339,0.059104502,null,null,null,null,0.011921219,null,-0.05112086,null,null,null,0.011327549,null,0.015556207,0.068428256,0.012655704,null,null,-0.07265532,-0.019303897,null,null,null,null,-0.053570453,null,null,-0.016203301,-0.06404753,null,-0.028037647,null,null,-0.013523896,null,null,0.089400485,null,null,null,0.017627772,null,-0.03119602,null,null,-0.06760423,null,null,null,-0.060454495,null,null,null,null,null,0.0049056634,-0.027829235,null,0.06945403,0.053741686,0.08991546,0.05500268,0.023268828,null,null,-0.06207692,-0.0027282168,null,null,null,0.01827566,-0.0500152,null,0.04073018,null,0.0109723825,null,null,null,null,null,-0.07936419,-0.09001571,-0.04879082,-0.0022038734,0.029024413,null,0.14006491,0.0025143793,-0.06874565,0.030658966,0.029420156,null,0.03247075,null,0.043370683,-0.000514534,0.0042866743,0.073125705,0.061050214,0.03990243,null,0.06463631,null,null,-0.04482485,0.11991336,-0.007302729,-0.06523505,0.02529734,null,-0.033377644,null,-0.06845428,0.00481846,-0.005283582,null,null,null,0.013988846,null,null,-0.03818292,null,-0.016282624,0.0379945,-0.039750393,-0.0100186635,0.1245201,null,null,null,null,-0.009304839,null,-0.02410449,null,null,null,0.02022583,null,0.031895746,0.029112339,-0.062387966,null,null,-0.017658602,0.07315235,null,null,null,null,0.04499057,null,null,-0.011488943,-0.0075269393,null,-0.02000602,null,null,0.048876353,null,null,0.01763762,null,null,null,-0.026845817,null,0.056115765,null,null,-0.0465871,null,null,null,-0.021320751,null,null,null,null,null,-0.040783007,0.06759254,null,0.022192527,0.08383499,0.020117989,0.022482486,0.038444366,null,null,0.030262208,0.0608411,null,null,null,0.1118435,0.0072450154,null,-0.07158317,null,-0.01029005,null,null,null,null,null,-0.0062570767,0.0034349135,-0.09017858,0.015796838,-0.03706194,null,-0.00949741,0.014710255,-0.041323416,0.069456466,-0.0038841,null,-0.018689029,null,0.071889214,-0.005963921,0.040369894,-0.044781927,0.008555704,-0.014067378,null,0.02420342,null,null,-0.124939,0.041950047,-0.088638775,-0.002778882,0.0026075656,null,-0.09950145,null,-0.13110386,-0.052890804,-0.061245553,null,null,null,0.033805005,null,null,-0.03894572,null,0.008640236,-0.008511502,-0.016284173,-0.05895672,-0.053001285,null,null,null,null,-0.024455527,null,-0.039008096,null,null,null,0.029310225,null,-0.07440827,-0.037047476,-0.034447625,null,null,-0.012010545,0.022756135,null,null,null,null,-0.06716784,null,null,0.061860643,0.045508992,null,-0.107601024,null,null,0.023489408,null,null,-0.028664805,null,null,null,-0.0105575565,null,-0.06335709,null,null,-0.0103577245,null,null,null,0.07046913,null,null,null,null,null,-0.025419677,0.049630135,null,0.04273986,-0.032566756,-0.00048677233,-0.006900889,0.0061640237,null,null,-0.06274627,-0.0042313505,null,null,null,-0.028143652,-0.014372345,null,0.035882074,null,-0.024640244,null,null,null,null,null,0.01893205,-0.0073612733,0.0008887934,0.021181494,0.05994387,null,0.07003097,0.06495393,-0.031303376,0.064036176,-0.034471415,null,-0.1080606,null,0.087544814,0.052192044,-0.053505257,-0.022392727,0.006300618,-0.03232293,null,-0.040899694,null,null,0.030496981,0.010997134,0.046991132,0.046944093,-0.017698554,null,-0.040232357,null,0.031885743,0.03153086,-0.028547658,null,null,null,-0.02244022,null,null,-0.07648408,null,0.009509201,0.08345835,0.007564319,0.03664505,-0.053184036,null,null,null,null,0.040492315,null,0.05213814,null,null,null,-0.07091999,null,-0.027843991,0.026558015,0.0428902,null,null,0.07248592,-0.07012143,null,null,null,null,0.11488475,null,null,-0.015238765,0.031177947,null,0.028331714,null,null,0.021627257,null,null,0.057640057,null,null,null,0.030528234,null,0.03593062,null,null,-0.014315334,null,null,null,-0.008311728,null,null,null,null,null,-0.012214203,-0.044769984,null,0.024524773,0.008918793,-0.039586242,-0.028884768,0.038373057,null,null,-0.033158466,-0.049826223,null,null,null,-0.019390265,-0.00039553098,null,0.03587574,null,0.04066671,null,null,null,null,null,0.00094529224,0.014807811,-0.0072647845,0.011870061,0.04881045,null,-0.031002728,0.0002666619,0.01085167,0.01821148,-0.024006404,null,0.05557769,null,0.030291524,0.022415055,-0.056444827,0.024129173,-0.052097544,0.06474878,null,0.036721148,null,null,0.0125047965,-0.057703562,-0.02200384,0.082527325,-0.050015952,null,0.10721745,null,-0.027644895,-0.08339291,-0.064196914,null,null,null,-0.102694236,null,null,-0.080753885,null,-0.00089612324,0.01645541,0.04689949,0.08494698,0.030572116,null,null,null,null,0.006727427,null,-0.019080177,null,null,null,-0.10895614,null,0.033891734,0.042932827,0.00669781,null,null,0.0012099606,0.05411166,null,null,null,null,-0.027185457,null,null,-0.023335073,0.03229968,null,-0.012608378,null,null,-0.04873078,null,null,-0.0021602404,null,null,null,-0.0065384153,null,0.010920513,null,null,0.024693366,null,null,null,-0.007723787,null,null,null,null,null,-0.07369551,-0.058054853,null,0.10280372,0.015526818,-0.065013215,0.0042549907,0.116958484,null,null,-0.03538963,0.04139337,null,null,null,0.060932234,0.0009342734,null,-0.029910434,null,-0.04279599,null,null,null,null,null,0.031035792,0.015241359,0.053145174,0.009730603,0.051205255,null,0.0063343057,0.016016923,0.05461743,-0.070371635,0.053504266,null,-0.0010388548,null,0.07977491,0.011930532,-0.044542544,0.018829469,-0.036583647,0.04845781,null,-0.013914352,null,null,-0.058917213,-0.024566239,0.03072982,-0.017070472,0.040407877,null,0.028908934,null,0.13187632,0.06648229,0.01186363,null,null,null,0.032029506,null,null,0.09335404,null,0.01077351,-0.03200265,0.039308976,0.055376172,0.012810959,null,null,null,null,0.04666754,null,0.035008892,null,null,null,-0.017335832,null,-0.03402928,0.09761734,0.019913236,null,null,0.01493162,0.03578089,null,null,null,null,-0.09810503,null,null,-0.025047237,-0.0059148627,null,0.018608363,null,null,-0.08185006,null,null,0.029158523,null,null,null,-0.07936255,null,0.020216899,null,null,-0.059143327,null,null,null,-0.0002899641,null,null,null,null,null,-0.019670168,0.0045786593,null,-0.031068036,0.008142178,0.02237015,0.05274554,0.0300567,null,null,-0.14688256,-0.062804036,null,null,null,0.0650413,-0.011839192,null,0.003467382,null,0.03499488,null,null,null,null,null,-0.026066696,0.006699833,0.063315265,0.034227844,-0.012834731,null,-0.053172573,-0.07215041,-0.06189096,-0.046509583,-0.02039526,null,0.02554522,null,0.035201564,0.08016292,-0.014433691,-0.044811185,0.029225018,0.008182382,null,0.027477177,null,null,0.0058498085,-0.006665412,-0.02762211,-0.05945285,-0.009922026,null,0.029096708,null,0.008051037,0.0047381325,-0.0070961504,null,null,null,0.050396644,null,null,0.00074044376,null,0.004877817,0.15228023,0.06941169,-0.00025465377,0.03345715,null,null,null,null,0.028256347,null,0.007768065,null,null,null,-0.025975252,null,-0.08087297,0.041433565,-0.12952998,null,null,0.09039638,-0.018952187,null,null,null,null,0.00019772854,null,null,0.07714746,-0.027208718,null,0.0018138714,null,null,0.03296357,null,null,0.02778787,null,null,null,-0.06384355,null,-0.04583231,null,null,-0.04753563,null,null,null,-0.011131302,null,null,null,null,null,0.03279908,0.020190643,null,-0.1529986,-0.016490784,0.024273783,0.005585828,-0.0010385512,null,null,-0.024662653,0.009577261,null,null,null,0.06446186,0.0076620467,null,0.028262874,null,-0.12020347,null,null,null,null,null,-0.0025164678,-0.029613776,0.009640856,0.022799853,-0.04451987,null,0.041853137,0.045456648,0.024966417,-0.11168612,0.11032472,null,0.036826182,null,-0.03417781,0.00062286353,-0.09117673,-0.03250362,0.0038570228,-0.06405058,null,-0.04312196,null,null,0.033713408,0.078468926,0.09190447,0.01390664,-0.05752869,null,0.041152097,null,0.03212874,0.085929245,-0.008252533,null,null,null,0.03661372,null,null,0.0073007504,null,-0.013834996,0.03375005,0.059122752,0.011297769,0.007831001,null,null,null,null,0.011489378,null,-0.09457063,null,null,null,0.06304992,null,-0.023440154,0.11203125,-0.019510262,null,null,-0.047060657,0.064097635,null,null,null,null,-0.09533926,null,null,-0.07795661,0.021479335,null,0.04107183,null,null,0.054326877,null,null,-0.07784738,null,null,null,0.0007229797,null,-0.0029286626,null,null,-0.07586357,null,null,null,-0.0010014494,null,null,null,null,null,0.025974205,0.0101034,null,0.018653613,0.023065113,0.014048793,0.080178596,-0.014999232,null,null,0.040929336,0.0038687368,null,null,null,0.0572134,-0.058047935,null,0.07973268,null,0.044119168,null,null,null,null,null,0.07012958,0.0133535685,-0.024424834,0.092739485,0.075299315,null,-0.050125286,-0.024981499,0.037076056,0.0018533204,0.020664243,null,0.010876734,null,0.021014176,-0.046708036,-0.011357321,0.0061162477,-0.023759631,-0.057747066,null,0.045074698,null,null,-0.03381011,-0.08061485,0.12929025,0.025721842,-0.024423756,null,0.014392908,null,-0.016327064,0.08022502,-0.0014363165,null,null,null,0.0037636298,null,null,0.09891642,null,0.04998836,0.049947932,-0.05638226,0.03614487,0.104367934,null,null,null,null,0.04621998,null,0.0125004025,null,null,null,0.037041914,null,0.023392702,0.10625959,0.06466728,null,null,-0.006832455,0.11684589,null,null,null,null,-0.067354806,null,null,0.025524514,-0.006699059,null,0.037267413,null,null,-0.022549538,null,null,0.02666587,null,null,null,-0.014675571,null,-0.06567207,null,null,-0.010479752,null,null,null,-0.0997019,null,null,null,null,null,0.01312124,-0.022011837,null,0.043660596,-0.055670694,0.011119186,-0.051768314,-0.0036694452,null,null,0.029898347,-0.014865787,null,null,null,-0.11701296,-0.014480709,null,-0.033568706,null,0.043526407,null,null,null,null,null,0.012761226,0.055318486,0.022896614,-0.052764963,0.0066440706,null,-0.07435553,-0.031342596,-0.020058595,0.05145688,0.019452881,null,0.01124012,null,-0.025573859,-0.101703875,0.0033527785,0.04105381,0.12671046,-0.05643468,null,-0.025321621,null,null,0.029920977,-0.08376087,-0.07976968,0.052296143,-0.098409474,null,-0.01179649,null,-0.01592502,-0.01768806,-0.024435962,null,null,null,0.034311295,null,null,-0.0066560786,null,0.019377245,0.038393278,-0.01827375,0.079947665,-0.01753218,null,null,null,null,0.06502889,null,-0.06417632,null,null,null,-0.030144934,null,0.06254647,-0.052633327,0.08121883,null,null,0.016056815,-0.01758243,null,null,null,null,-0.07408982,null,null,-0.06635776,-0.014984766,null,-0.0076781902,null,null,-0.051374488,null,null,-0.08590155,null,null,null,-0.035200227,null,-0.010406644,null,null,0.10471021,null,null,null,-0.021761777,null,null,null,null,null,-0.026630297,-0.047972705,null,-0.06895934,-0.029070174,0.06345405,0.0027826452,-0.04154082,null,null,-0.012819518,0.01119547,null,null,null,0.10329032,-0.021384817,null,-0.0049275625,null,0.004615411,null,null,null,null,null,-0.01361749,-0.028867856,0.011854079,0.0076503055,0.0019839688,null,0.045332115,-0.11356197,0.10246356,-0.06663115,-0.012024573,null,-0.013886368,null,0.03585332,-0.0002676295,-0.008147564,-0.006248841,-0.029553924,-0.04909476,null,-0.006259362,null,null,0.040046573,-0.005460912,0.0198543,0.02519176,0.03608323,null,-0.08980851,null,-0.08220643,-0.008891362,-0.03506637,null,null,null,-0.018499093,null,null,-0.028574906,null,0.025883812,-0.037474092,-0.04492466,0.0002027256,0.017011432,null,null,null,null,-0.07988743,null,-0.05323705,null,null,null,0.054346558,null,0.05655676,-0.10988976,0.059478205,null,null,-0.055766445,0.11127161,null,null,null,null,0.01958742,null,null,-0.07850761,0.0037590885,null,0.025427854,null,null,-0.07146214,null,null,0.0013948032,null,null,null,0.049719997,null,-0.0155750215,null,null,0.0067595537,null,null,null,-0.020836439,null,null,null,null,null,0.04053068,-0.07554661,null,0.026616031,0.03150417,0.010715277,0.10493842,-0.012368341,null,null,-0.05450279,-0.03947733,null,null,null,-0.021236422,0.047467712,null,0.06988734,null,0.14786118,null,null,null,null,null,-0.011010736,-0.058012575,0.04547558,0.032047495,-0.10199745,null,-0.044045474,0.03555164,-0.026677163,-0.048113864,-0.05795584,null,0.014160735,null,0.053196255,-0.012855056,-0.098121524,-0.015919408,-0.032759316,0.05219756,null,0.053052153,null,null,0.0049100206,-0.0032450112,0.0444849,0.09429973,-0.05403525,null,0.062128145,null,-0.017045584,0.066499226,-0.037102174,null,null,null,-0.037857063,null,null,0.076276034,null,0.06454529,0.061202165,0.091238074,-0.08722447,0.015557859,null,null,null,null,-0.07779265,null,0.15064837,null,null,null,0.065098904,null,0.020577012,0.019658014,0.013019801,null,null,0.08216567,0.01985063,null,null,null,null,-0.07663657,null,null,0.0037184367,-0.058134455,null,0.0032251687,null,null,0.07500106,null,null,-0.027122475,null,null,null,0.030595148,null,0.037925694,null,null,-0.038937446,null,null,null,-0.022266334,null,null,null,null,null,-0.010846637,-0.07939371,null,-0.028466847,-0.0009655492,-0.03723583,0.042353824,-0.05998558,null,null,-0.015828874,0.028331032,null,null,null,0.013020083,-0.1079653,null,0.008357193,null,0.00017433657,null,null,null,null,null,0.028398488,-0.021681275,0.008256054,0.015706686,0.0729821,null,-0.0091763325,-0.026073312,0.023785612,-0.05167126,0.07151326,null,0.0489857,null,-0.011076132,-0.07713523,0.07459081,-0.054930765,-0.0054910188,0.003527856,null,0.0045488705,null,null,-0.061400052,-0.04143766,0.042066988,-0.032849733,0.023614611,null,-0.032858647,null,0.016581366,0.06866394,-0.011480633,null,null,null,-0.034831423,null,null,0.0026224365,null,-0.043967914,-0.012460191,-0.037350185,0.02754227,-0.0834495,null,null,null,null,0.024843512,null,0.014960491,null,null,null,0.024713226,null,0.018612003,0.051218346,0.021665499,null,null,0.0789727,-0.023750858,null,null,null,null,-0.048203208,null,null,-0.06560568,0.03234179,null,-0.005424578,null,null,-0.09198682,null,null,-0.013187956,null,null,null,-0.0068964697,null,-0.011063209,null,null,-0.0737456,null,null,null,0.055823136,null,null,null,null,null,0.00254205,-0.020965094,null,-0.084210984,-0.06947988,0.01824868,0.037489604,0.067809545,null,null,-0.017669624,-0.014332995,null,null,null,-0.054404013,-0.04523214,null,0.009259804,null,0.048788425,null,null,null,null,null,-0.15025029,0.011142204,-0.01886542,-0.1081413,-0.07958793,null,-0.08094833,0.01796182,-0.017448517,-0.03586006,-0.12975517,null,0.01807601,null,-0.13075067,0.009695915,-0.0011229207,-0.022397727,0.015472395,0.028089406,null,-0.07332012,null,null,0.08038335,0.03238398,-0.068868935,0.061453573,-0.04837645,null,-0.056707915,null,0.03729722,-0.015256432,-0.036218427,null,null,null,0.0069092414,null,null,-0.04840692,null,0.0015951121,0.0037776881,-0.00971446,0.1071201,-0.046622403,null,null,null,null,0.006794322,null,0.055495184,null,null,null,-0.028893068,null,0.11661038,0.03877863,0.003304645,null,null,-0.042272955,0.024427498,null,null,null,null,-0.029909205,null,null,0.0815183,-0.017178562,null,-0.03937972,null,null,-0.0010568312,null,null,0.05236083,null,null,null,-0.03973909,null,-0.052652624,null,null,0.03189634,null,null,null,-0.012292285,null,null,null,null,null,-0.012574423,-0.012946954,null,-0.024632033,0.07913425,-0.05184252,-0.03898121,0.067172624,null,null,0.042884085,-0.04534945,null,null,null,0.011874809,0.083732486,null,0.023703566,null,0.05769308,null,null,null,null,null,0.053505395,-0.087852105,-0.056417525,0.04551497,0.01369516,null,0.039920397,-0.05798531,0.062655844,0.011398515,0.06345035,null,0.005507282,null,-0.1249638,0.005143467,0.005154896,0.055694487,0.03963872,0.026816318,null,-0.04525962,null,null,0.1299784,-0.010849207,-0.0022180502,0.024396814,0.044375744,null,-0.038622834,null,0.08595193,0.08901396,0.016354077,null,null,null,0.07649429,null,null,-0.117771596,null,0.08335224,-0.045529135,-0.0033683933,-0.007040937,-0.009631119,null,null,null,null,0.064689025,null,0.0013426983,null,null,null,0.048282936,null,0.07873586,0.11497231,0.024598625,null,null,0.003682318,-0.018677412,null,null,null,null,-0.011769725,null,null,-0.035203326,-0.034718774,null,-0.10502745,null,null,0.00093866134,null,null,-0.007744249,null,null,null,-0.02918301,null,-0.073004514,null,null,0.056286544,null,null,null,0.019714154,null,null,null,null,null,0.027348185,-0.028160479,null,-0.0982848,-0.087475196,-0.057209898,-0.009721537,-0.101224,null,null,0.030720603,-0.021947004,null,null,null,0.08971168,0.053557202,null,-0.067408256,null,-0.070308715,null,null,null,null,null,-0.09993876,-0.09217953,-0.10032264,0.023297783,0.0022060375,null,-0.031950362,-0.027183108,0.06404505,-0.0035348006,-0.012864477,null,0.033972878,null,0.016396498,-0.08071893,-0.019766148,0.010985282,0.02257799,-0.04496887,null,0.008416407,null,null,0.010730578,-0.049535334,0.015922073,-0.0028516867,-0.039847128,null,0.00004729765,null,-0.027366346,-0.045708653,0.044592187,null,null,null,0.07855804,null,null,0.01597665,null,-0.06908631,-0.07971194,-0.06177191,-0.023676328,-0.03357633,null,null,null,null,-0.018405281,null,0.0005279286,null,null,null,0.013919602,null,0.023790138,-0.076201655,-0.053558838,null,null,-0.020027487,0.042100534,null,null,null,null,0.035912286,null,null,-0.03823917,-0.04535769,null,0.008114078,null,null,-0.057119194,null,null,0.060061302,null,null,null,-0.10826305,null,-0.0062925876,null,null,0.07854129,null,null,null,-0.0134844715,null,null,null,null,null,0.0150132375,-0.023445897,null,0.023463208,0.10496791,-0.018593857,-0.014690374,0.07916672,null,null,-0.0013297612,0.1049374,null,null,null,-0.14575818,0.013840018,null,-0.022461437,null,0.0077796215,null,null,null,null,null,0.026511753,0.04566581,-0.06682374,0.053881854,0.03302653,null,0.00056752894,0.031324785,-0.045887887,-0.13274698,0.053760093,null,-0.026235295,null,-0.036643673,0.01899127,0.03289175,0.019138716,0.063541785,-0.08088907,null,-0.05474163,null,null,-0.07625673,0.06635534,0.03812257,0.023361832,0.05707941,null,-0.022714747,null,-0.040789016,-0.029587852,0.015926288,null,null,null,-0.09893333,null,null,0.061754875,null,0.051208418,0.0009425717,-0.07421562,-0.026670652,-0.04070099,null,null,null,null,0.047699906,null,0.11210671,null,null,null,-0.049117513,null,-0.024296865,0.10428664,-0.07861858,null,null,-0.05092723,0.047670122,null,null,null,null,0.031057363,null,null,0.025749266,-0.04664165,null,0.03385982,null,null,0.041114584,null,null,-0.029400684,null,null,null,0.0016238316,null,0.09930097,null,null,-0.049495846,null,null,null,0.065253824,null,null,null,null,null,0.03911464,-0.0121165635,null,0.14414567,0.0012494888,-0.04986054,0.009821551,0.0025356591,null,null,-0.08045863,0.054846834,null,null,null,-0.02733679,0.014196255,null,-0.06796356,null,-0.0608618,null,null,null,null,null,0.039515268,0.022300413,-0.016370513,0.036053155,-0.032658845,null,0.0648557,-0.115884766,0.019247763,-0.11363424,-0.013216347,null,0.08543964,null,-0.040437374,-0.03227197,0.009707055,0.040464554,-0.04483336,-0.057979077,null,0.04555946,null,null,0.01994303,0.05403815,0.1110683,0.08977712,0.15756148,null,0.1038328,null,0.019154327,-0.000763372,0.13523458,null,null,null,-0.023343666,null,null,-0.017989554,null,-0.0051976237,-0.06757348,-0.040686034,0.073927514,-0.016614832,null,null,null,null,0.039161183,null,-0.014411453,null,null,null,-0.028463403,null,-0.048752062,-0.05734073,-0.11620967,null,null,0.002720462,0.0036954046,null,null,null,null,0.02994319,null,null,-0.0153431315,-0.13120987,null,-0.08672796,null,null,0.031276874,null,null,-0.013592669,null,null,null,0.07121453,null,-0.058341153,null,null,-0.013862127,null,null,null,-0.0053527304,null,null,null,null,null,0.011657939,-0.05793502,null,-0.057701506,-0.030770607,-0.02849566,-0.03600584,0.0047344468,null,null,0.08382869,0.0036241708,null,null,null,-0.053109806,-0.0033039555,null,-0.0006842232,null,-0.06064393,null,null,null,null,null,0.03628087,0.028814863,0.068922974,0.072079465,-0.053352583,null,0.014089994,-0.013001152,0.053239856,-0.0036372214,0.06198566,null,-0.090836056,null,-0.10798374,-0.038384132,-0.10419101,-0.073330626,0.049162734,-0.012521346,null,-0.057824407,null,null,-0.050306026,0.014971286,0.0227759,0.058732092,-0.03676381,null,0.027430722,null,0.052969895,0.06827546,-0.012640551,null,null,null,0.008163136,null,null,0.026409982,null,0.030319937,-0.06663317,0.069727175,0.069447614,-0.041281678,null,null,null,null,-0.009188506,null,-0.040230665,null,null,null,0.03300858,null,-0.08352525,0.035493027,0.0741553,null,null,0.0011222198,0.066676445,null,null,null,null,0.032851618,null,null,0.07032117,0.033743776,null,0.08405602,null,null,0.030397652,null,null,0.011044827,null,null,null,-0.017130733,null,0.010327699,null,null,0.06894667,null,null,null,0.09759038,null,null,null,null,null,-0.053850573,-0.11211576,null,-0.03812184,0.013921153,-0.08457631,0.026161412,0.02370853,null,null,-0.003263219,0.018493693,null,null,null,0.036946435,-0.026243212,null,0.03119627,null,0.05596679,null,null,null,null,null,0.011803198,0.032614067,0.10018047,0.016202576,-0.08216688,null,0.02757788,-0.12397014,-0.028546859,-0.03717346,0.0020002897,null,-0.07546846,null,-0.06995385,0.03413826,0.055912293,0.07797707,-0.004513316,-0.030155154,null,0.02869611,null,null,-0.11869893,-0.048154525,0.04867994,0.039005164,0.00026712,null,0.014861994,null,-0.041173283,0.087140866,-0.09714673,null,null,null,0.07495992,null,null,0.037236445,null,0.09841116,-0.03974159,0.051129997,-0.012452356,0.06468347,null,null,null,null,0.017888715,null,0.045192007,null,null,null,-0.0029049462,null,-0.061483588,-0.10755282,0.024395455,null,null,-0.063248724,-0.017347923,null,null,null,null,0.024278052,null,null,0.1124914,-0.044141248,null,-0.006868256,null,null,-0.015771477,null,null,0.036039323,null,null,null,0.02167894,null,0.013884681,null,null,0.013829913,null,null,null,0.04600719,null,null,null,null,null,0.097386606,0.042558547,null,0.085684985,0.00045826807,0.03348665,-0.04488921,0.03886593,null,null,0.038972754,0.02048363,null,null,null,0.03185565,0.07821475,null,-0.0027737073,null,-0.012790187,null,null,null,null,null,0.03552729,-0.044652615,0.045100365,-0.045902126,0.016414663,null,-0.09552241,0.03633222,-0.04237864,0.04892393,0.004274745,null,0.09347405,null,-0.05554475,-0.055156376,-0.05674995,-0.0349888,-0.057186086,0.010249166,null,0.05108672,null,null,0.060009994,-0.07557603,0.024008987,-0.013231382,0.0075470526,null,-0.034773424,null,-0.007683166,-0.06424211,0.036149252,null,null,null,0.04135084,null,null,0.06310389,null,-0.054375824,-0.0340052,-0.03769504,0.15718053,-0.0796411,null,null,null,null,0.007771291,null,0.03205397,null,null,null,0.09771536,null,0.124858156,-0.000050397568,0.027126823,null,null,-0.040616218,0.035514057,null,null,null,null,0.038578585,null,null,-0.013532757,-0.03578893,null,-0.046383124,null,null,-0.053107914,null,null,0.028279701,null,null,null,-0.05062059,null,0.07835143,null,null,0.08439452,null,null,null,0.09122579,null,null,null,null,null,0.064448245,0.012871118,null,-0.04771275,0.018003358,0.08262374,-0.062036566,0.06206439,null,null,0.05095676,0.09573283,null,null,null,-0.03628938,0.037285697,null,0.09053248,null,0.03151661,null,null,null,null,null,0.0317812,-0.04680986,0.08128031,0.014589559,0.00539372,null,0.006297171,0.089648694,0.012097,0.069629066,-0.03216973,null,-0.0074573304,null,-0.002981692,-0.01785458,-0.04019184,-0.056122165,-0.020208672,0.01718738,null,-0.04829993,null,null,0.06169575,-0.007509446,0.044444848,-0.082343735,0.004591317,null,0.005949301,null,0.012420025,0.0366323,-0.03688749,null,null,null,-0.106210195,null,null,-0.01539023,null,-0.03704995,-0.01565532,-0.0033141372,0.065946884,0.04820917,null,null,null,null,0.056720853,null,-0.059260126,null,null,null,-0.08785187,null,0.043715302,-0.05216046,-0.020319125,null,null,-0.09501585,-0.06636732,null,null,null,null,-0.043726128,null,null,0.07387718,-0.033303842,null,-0.06442875,null,null,0.0071299234,null,null,-0.06171997,null,null,null,0.03270826,null,-0.056661163,null,null,0.011460546,null,null,null,-0.028336879,null,null,null,null,null,0.027861794,0.08906001,null,0.012454181,-0.02063747,-0.02133023,0.0152042685,-0.04657285,null,null,-0.039441276,0.016822115,null,null,null,-0.07637296,-0.087657906,null,0.010673566,null,-0.03838329,null,null,null,null,null,-0.080443755,-0.05021519,0.0017282676,0.01251705,-0.13612564,null,-0.07905536,-0.020019297,0.013270868,0.031078357,-0.044173423,null,0.0059150336,null,0.032923594,-0.0244802,-0.008151676,0.0037043914,-0.019696746,-0.008903226,null,0.014003827,null,null,-0.040668834,0.044023737,0.009949849,0.03583427,0.0691882,null,0.03727426,null,-0.11633323,-0.020130519,-0.09110118,null,null,null,-0.10153864,null,null,0.017791733,null,0.047276378,0.038697775,-0.13202663,-0.03512741,-0.03721883,null,null,null,null,0.014720606,null,0.020313166,null,null,null,-0.05725349,null,0.0019889495,0.00041437315,0.097994976,null,null,0.06821336,0.097046405,null,null,null,null,-0.07862526,null,null,0.041487154,-0.043928012,null,-0.037727814,null,null,-0.08445328,null,null,-0.090082906,null,null,null,-0.04835315,null,0.056985185,null,null,0.008970875,null,null,null,-0.029303363,null,null,null,null,null,0.01610795,0.025971197,null,0.049591724,0.025462344,-0.054181248,-0.07349112,-0.044517666,null,null,-0.042312227,-0.07352922,null,null,null,-0.032359492,0.014278908,null,-0.0016238255,null,-0.069186375,null,null,null,null,null,0.028291998,-0.024692545,-0.0062827254,0.025568234,-0.051225573,null,0.07879616,-0.014361484,-0.02170697,-0.06494974,-0.0651587,null,0.0138360495,null,0.040785912,0.0041020783,-0.062410172,0.06945525,-0.011026575,0.032479983,null,0.021058679,null,null,0.017817995,0.0039225942,0.024911309,-0.013397866,0.044290572,null,-0.044217516,null,0.027689993,0.06792132,-0.089179724,null,null,null,-0.00058164715,null,null,-0.031058364,null,-0.06645603,-0.033981394,0.0010567517,-0.073318906,0.08049065,null,null,null,null,-0.034512382,null,-0.030021992,null,null,null,-0.014621588,null,0.009396835,0.008139275,-0.025654962,null,null,-0.03605878,-0.040190123,null,null,null,null,-0.061424118,null,null,0.0012934858,-0.02911054,null,0.04904327,null,null,0.07009171,null,null,0.003609795,null,null,null,-0.031224787,null,0.046227988,null,null,0.0015751529,null,null,null,-0.024774933,null,null,null,null,null,-0.032868873,-0.055581007,null,0.15212227,0.017426552,-0.011733246,-0.008570796,0.03026641,null,null,-0.097245604,-0.012193999,null,null,null,0.023504455,0.11155051,null,-0.006203693,null,-0.019841058,null,null,null,null,null,-0.038428403,-0.0124936495,0.080341145,0.03655222,-0.06008808,null,-0.02159788,0.045791868,-0.00667609,-0.024788242,-0.030096758,null,-0.1036949,null,0.08774197,0.0110474955,0.027636865,-0.00016852785,0.025229454,-0.06570478,null,-0.039379776,null,null,-0.037879515,0.023357578,0.029032558,-0.006932355,0.04143175,null,0.044764176,null,-0.0060541285,-0.13176967,-0.10955134,null,null,null,-0.027600404,null,null,-0.11055932,null,-0.008866756,-0.008220801,-0.11087103,-0.125366,0.044925313,null,null,null,null,0.07151054,null,-0.018091364,null,null,null,-0.05166035,null,-0.053849038,0.038763706,0.03152808,null,null,0.00017457943,0.040648054,null,null,null,null,0.04657157,null,null,-0.030431015,0.006145013,null,0.005141028,null,null,0.10630366,null,null,-0.050520796,null,null,null,0.05657874,null,0.04537156,null,null,0.03187524,null,null,null,0.016924802,null,null,null,null,null,0.003171666,-0.01979105,null,0.09118729,-0.05480522,0.033199888,0.055601697,-0.05177975,null,null,-0.038862,0.036226474,null,null,null,0.02482137,-0.018975908,null,0.04117831,null,-0.0030366953,null,null,null,null,null,-0.08449423,-0.057420608,-0.123444356,-0.037205227,0.022140514,null,-0.076189496,-0.06845262,-0.030979542,-0.012520793,0.023621919,null,-0.0653062,null,-0.056416754,-0.027602898,-0.028323868,0.023617247,-0.061099283,-0.0152727505,null,0.024613045,null,null,-0.05363881,-0.036089752,-0.0073166206,-0.0013348928,-0.012057598,null,-0.02095759,null,-0.09234744,-0.034949422,-0.07272633,null,null,null,-0.014058237,null,null,-0.034959003,null,0.09405523,0.08236726,0.025638249,0.060753316,0.017787652,null,null,null,null,-0.080398016,null,0.040628538,null,null,null,-0.052974164,null,-0.04038096,0.043080132,0.011851317,null,null,0.031827945,0.088391684,null,null,null,null,0.011383505,null,null,0.026996534,-0.12773697,null,0.026715519,null,null,-0.0963995,null,null,-0.026772432,null,null,null,-0.009325702,null,-0.050666615,null,null,-0.03531039,null,null,null,-0.03171619,null,null,null,null,null,-0.023943266,0.014702867,null,0.0051853745,-0.02435546,-0.00554298,-0.031608198,0.0017832579,null,null,0.051862545,-0.06491422,null,null,null,0.047030926,0.0135078775,null,0.019511858,null,0.035930347,null,null,null,null,null,-0.07812003,-0.010293146,0.05190696,-0.018077945,0.071627855,null,-0.044634786,0.076259136,0.0943396,-0.06202198,0.095524326,null,0.02475649,null,-0.033386305,0.026755316,0.052542135,-0.03985529,0.038091756,0.03369272,null,-0.0693225,null,null,0.08701225,0.13927974,-0.06892294,0.072672844,0.033105597,null,0.07950174,null,-0.06371928,-0.035818703,0.011653699,null,null,null,-0.042364366,null,null,-0.028396213,null,0.0021771987,0.0072451322,-0.05796777,-0.01369866,-0.0016867167,null,null,null,null,0.01039864,null,-0.05804437,null,null,null,0.036184806,null,0.0130641665,-0.008620815,0.0015189891,null,null,-0.027527062,0.00051051436,null,null,null,null,-0.056773104,null,null,-0.03703861,0.08072449,null,-0.044805054,null,null,-0.02739619,null,null,-0.048465434,null,null,null,-0.029909093,null,-0.05292468,null,null,0.018481424,null,null,null,0.028642194,null,null,null,null,null,-0.04249095,-0.032116223,null,-0.0049300827,-0.053838577,-0.018650923,0.013040372,-0.037990157,null,null,-0.07568331,-0.03139958,null,null,null,0.029254835,-0.006006956,null,-0.050331134,null,0.037237085,null,null,null,null,null,-0.019852964,0.052610077,-0.008799389,-0.0037904275,0.06869322,null,-0.0062454394,0.09524284,-0.019233312,0.0045308187,0.026849994,null,0.014967915,null,-0.037151422,0.01868676,0.08952617,-0.033343557,-0.0040743607,-0.046558004,null,0.019339012,null,null,-0.13491252,-0.035362117,-0.026023779,0.034544367,-0.029396039,null,0.0078018974,null,-0.053020556,-0.043224707,0.028953565,null,null,null,-0.0442447,null,null,-0.05097575,null,0.07180942,0.044737842,-0.025482753,-0.08801469,0.10242977,null,null,null,null,-0.053855784,null,0.07969812,null,null,null,-0.021699661,null,0.0058918376,0.0057716207,-0.038774967,null,null,0.04054818,-0.017067764,null,null,null,null,0.08172109,null,null,0.07940677,0.021414775,null,-0.050635543,null,null,-0.0511289,null,null,-0.05583219,null,null,null,0.06692574,null,0.0007302187,null,null,-0.028058613,null,null,null,0.033937808,null,null,null,null,null,0.12994194,0.01655536,null,0.014535226,0.040086832,-0.0024727497,0.018131139,0.06537655,null,null,0.032134853,0.050528564,null,null,null,-0.014233659,0.056160897,null,-0.014821413,null,0.010575232,null,null,null,null,null,-0.025697552,0.014465451,-0.05540115,-0.013884603,-0.113305286,null,-0.006305723,-0.022509508,-0.05148346,0.034982916,-0.0725118,null,-0.023908217,null,-0.04145379,-0.03372669,0.020915518,0.009966537,0.014825105,-0.07080076,null,-0.058301374,null,null,-0.05902605,0.021410838,0.0808277,-0.054820474,0.07730786,null,-0.033752944,null,-0.054533783,0.042921696,-0.019436773,null,null,null,-0.012025733,null,null,0.03675473,null,0.020579984,-0.08003687,0.011403203,-0.023624482,0.0050298166,null,null,null,null,-0.015462716,null,0.0017175849,null,null,null,0.03242213,null,-0.12925304,-0.043825828,0.04855519,null,null,0.02764047,0.102471426,null,null,null,null,-0.07809094,null,null,0.036923613,-0.062306724,null,0.010675176,null,null,0.09586094,null,null,0.0085872365,null,null,null,0.01892807,null,0.078724444,null,null,-0.038348213,null,null,null,-0.06312708,null,null,null,null,null,-0.035849687,-0.01070728,null,0.06809604,-0.059822068,0.09719002,-0.07718019,-0.04384297,null,null,-0.037806872,0.025653435,null,null,null,-0.07176743,0.035503462,null,0.044996455,null,0.088992685,null,null,null,null,null,-0.002834952,-0.07118679,-0.06381659,-0.03159667,-0.027798511,null,0.07030292,-0.04109123,-0.020423263,0.057175744,-0.027751202,null,0.022465993,null,-0.053034708,0.051345523,0.10021258,0.02272473,0.049586438,0.018017875,null,-0.07641569,null,null,0.04653754,-0.019029468,0.047911614,0.019172804,-0.094575115,null,0.10763662,null,-0.005044574,-0.064585686,0.037689097,null,null,null,0.017738834,null,null,-0.0015201302,null,-0.005573414,-0.07301818,-0.0022675928,-0.09622014,0.111149736,null,null,null,null,0.03282696,null,0.0044380953,null,null,null,-0.03590781,null,0.025897138,0.034547366,0.007046591,null,null,0.06366138,0.018140072,null,null,null,null,0.000555796,null,null,-0.035251677,-0.041669812,null,0.009023045,null,null,0.018873394,null,null,0.04625225,null,null,null,-0.05283909,null,0.039173648,null,null,-0.031073168,null,null,null,-0.026580438,null,null,null,null,null,0.038808398,-0.018114474,null,0.012953463,-0.012653045,0.05535813,0.01579886,0.03161959,null,null,-0.078326054,-0.014314098,null,null,null,-0.038069826,-0.05085745,null,0.06494455,null,0.07663028,null,null,null,null,null,-0.057701208,-0.05395262,-0.002368612,0.027939303,-0.018587073,null,-0.078184776,0.080411345,-0.014627341,0.04372615,-0.049640972,null,0.029173747,null,0.0061344425,0.016402917,0.02566263,-0.07654864,-0.05909402,-0.03987035,null,-0.0012869945,null,null,0.109988175,-0.004427163,-0.04470808,-0.059470814,0.07071486,null,0.040225476,null,0.0057444815,0.04717673,0.102633156,null,null,null,-0.031302944,null,null,-0.015226658,null,-0.05866454,0.000109075416,-0.024398435,-0.11094074,-0.0007195624,null,null,null,null,-0.021391142,null,-0.01490155,null,null,null,-0.05959579,null,0.0337275,-0.016993182,0.019371437,null,null,-0.051814128,0.09187391,null,null,null,null,0.041162774,null,null,-0.021799948,-0.0028335028,null,-0.032146674,null,null,0.013076522,null,null,-0.031767525,null,null,null,0.04384799,null,0.059751585,null,null,0.033356912,null,null,null,0.0046064886,null,null,null,null,null,-0.047675442,-0.14819661,null,0.10240783,0.009018918,-0.00057736377,0.03869007,0.025409373,null,null,-0.055365592,-0.08832763,null,null,null,0.04960158,0.035245597,null,-0.076740295,null,0.010632991,null,null,null,null,null,0.023948329,-0.042163476,-0.013329718,0.00578053,0.01604564,null,0.048200596,-0.09015168,0.005558769,-0.01774502,-0.05234807,null,0.037008032,null,-0.019765688,0.08220895,-0.027254162,0.008302116,-0.031923026,0.002397077,null,0.06444028,null,null,0.010842151,-0.023363871,-0.06674813,-0.009125678,-0.07094734,null,-0.073307775,null,-0.025776435,0.026223557,-0.02111034,null,null,null,0.027730996,null,null,-0.01761079,null,-0.044382587,0.006771871,-0.06480639,-0.051377427,-0.0074738474,null,null,null,null,-0.07975627,null,-0.029520864,null,null,null,0.0022100927,null,0.066402264,-0.026517503,0.05526489,null,null,0.08935358,-0.00044733615,null,null,null,null,0.0679588,null,null,-0.05966461,0.011668215,null,-0.081347056,null,null,-0.07294331,null,null,-0.0021904912,null,null,null,-0.12601504,null,0.01886871,null,null,-0.038322616,null,null,null,0.028061535,null,null,null,null,null,0.09250709,0.055501577,null,-0.020768752,0.027038725,0.050710917,-0.001601543,0.08612582,null,null,0.0041479897,0.018810796,null,null,null,0.0008406821,0.020804891,null,-0.030678397,null,0.09692948,null,null,null,null,null,-0.054239318,0.060129855,-0.006400694,-0.023393296,-0.07209091,null,0.038979575,-0.024491364,0.032039296,-0.081245944,-0.15069471,null,-0.02232468,null,-0.02779099,0.0010294932,0.019229027,0.03266437,-0.028026095,-0.012735872,null,-0.017596532,null,null,0.10423727,0.011012635,0.023814617,-0.061785087,-0.059387732,null,-0.037225176,null,-0.016769165,0.056970254,0.024861747,null,null,null,-0.06467262,null,null,0.0071367724,null,-0.09570749,-0.078089364,0.028871987,0.007108592,-0.049783472,null,null,null,null,-0.078019306,null,-0.054927055,null,null,null,0.052471515,null,0.030090338,0.052858926,0.06001279,null,null,-0.03136374,-0.008483197,null,null,null,null,0.02241836,null,null,-0.037507426,-0.050348073,null,0.002195083,null,null,-0.00025992584,null,null,0.091026545,null,null,null,0.081847094,null,-0.057238445,null,null,-0.013931496,null,null,null,-0.04624945,null,null,null,null,null,-0.007809044,-0.06031995,null,-0.022998925,0.05477908,-0.021744095,-0.019177735,0.04991716,null,null,0.009433287,0.03487229,null,null,null,-0.112001784,-0.03502429,null,-0.097178176,null,0.01231596,null,null,null,null,null,-0.015758313,-0.099531434,-0.020105515,-0.036843956,-0.032562498,null,-0.032727994,0.050302457,0.0014921736,-0.05554468,-0.010268671,null,0.011048051,null,-0.020352056,-0.088902794,0.03654158,-0.00094365026,-0.1125046,-0.14636296,null,0.067822374,null,null,0.039132573,-0.009507862,-0.010091964,-0.006738115,-0.060376942,null,0.051889323,null,-0.012747099,0.10001029,-0.036994364,null,null,null,0.04149376,null,null,-0.05042445,null,0.010899352,0.02634626,0.104980744,0.025576597,-0.10919948,null,null,null,null,-0.027161509,null,-0.030471157,null,null,null,-0.07354408,null,-0.09785814,-0.008331305,0.0031989897,null,null,0.07075695,0.052676413,null,null,null,null,0.008085326,null,null,-0.008415521,-0.009855092,null,-0.039711274,null,null,0.015084671,null,null,0.002205735,null,null,null,-0.012500848,null,-0.043186083,null,null,-0.024283225,null,null,null,0.032048106,null,null,null,null,null,0.034087494,-0.079878405,null,0.038807638,0.0042515113,0.052693516,0.00094595377,0.02669845,null,null,0.028876796,0.0011719061,null,null,null,0.011142437,-0.009822326,null,0.026250564,null,0.019598981,null,null,null,null,null,-0.04710809,-0.0019040462,-0.07715745,-0.007924532,0.022142587,null,-0.07475226,0.013249408,0.09127429,-0.018389825,-0.058861308,null,0.12002882,null,-0.06813331,0.035899553,-0.015653323,0.0112987235,0.015429778,-0.00054983527,null,0.04477666,null,null,0.033976126,0.003522235,0.045540098,-0.06890913,0.05115656,null,-0.052306876,null,0.034024186,0.05352288,-0.040093943,null,null,null,-0.11837596,null,null,-0.03452752,null,-0.06961758,0.049920037,-0.047369223,0.030025125,-0.01863517,null,null,null,null,-0.10324759,null,-0.09335788,null,null,null,-0.017519968,null,0.03256643,-0.019340904,-0.077455275,null,null,0.073138945,0.035491895,null,null,null,null,0.09990222,null,null,-0.0015715162,0.046871416,null,-0.018855311,null,null,0.09291121,null,null,0.004627153,null,null,null,-0.008340975,null,0.017580315,null,null,0.020217558,null,null,null,0.032769747,null,null,null,null,null,0.047572173,0.00664313,null,0.007177905,0.020850603,0.057356343,0.029790042,0.041440677,null,null,0.004149732,-0.0056634266,null,null,null,0.0082636895,0.010314079,null,-0.071954295,null,-0.09852842,null,null,null,null,null,0.0469144,0.04687063,-0.020447763,0.089809366,0.018185591,null,-0.012748303,0.037815932,0.054564692,0.01532797,-0.04457274,null,-0.018834293,null,0.07725607,-0.043449685,0.058085877,0.03798343,0.098992266,0.041757368,null,-0.011266051,null,null,0.04274491,0.09207844,-0.058897432,0.026250232,0.042001914,null,-0.03310442,null,0.044607628,-0.03095564,-0.018275298,null,null,null,-0.021123273,null,null,0.018678164,null,-0.03645703,0.020292405,-0.027042331,0.014152672,0.10437801,null,null,null,null,0.005793392,null,-0.058610775,null,null,null,0.01718636,null,0.052252714,-0.03426815,0.033084545,null,null,0.020016834,0.04081576,null,null,null,null,0.0013972763,null,null,0.032272812,0.01708601,null,-0.0064641368,null,null,-0.032795634,null,null,-0.00906056,null,null,null,0.020108754,null,0.028736334,null,null,0.08561087,null,null,null,0.0039981855,null,null,null,null,null,0.024077501,0.046071824,null,-0.064767525,-0.03740238,0.021537734,-0.032273117,-0.113379076,null,null,-0.05421182,0.038919806,null,null,null,-0.023650903,-0.009781595,null,-0.006535096,null,0.051142752,null,null,null,null,null,0.049558815,-0.023041707,-0.031494502,0.032077987,-0.059509467,null,-0.027930206,-0.07383764,-0.07116325,0.009999195,-0.037218943,null,0.1229799,null,0.021199308,-0.07992462,-0.028705928,0.00028666135,0.025949365,-0.010267261,null,0.07349265,null,null,0.0043737567,-0.036145564,0.025445882,-0.026620552,0.017260056,null,-0.025691098,null,-0.102531515,-0.006753279,0.018200312,null,null,null,0.01596177,null,null,0.0248439,null,0.009946656,0.04064546,0.083250895,0.027598819,0.01012763,null,null,null,null,-0.06264283,null,0.014887448,null,null,null,-0.020962859,null,-0.030139947,-0.052873492,-0.024085373,null,null,-0.03040038,-0.082598895,null,null,null,null,-0.0577499,null,null,-0.033065435,0.02775226,null,0.04363617,null,null,-0.0377937,null,null,-0.04627903,null,null,null,0.10680037,null,0.034266844,null,null,-0.06619765,null,null,null,-0.057610955,null,null,null,null,null,-0.05086771,-0.010358466,null,0.009826867,0.015285988,0.03516459,0.03038843,-0.017011933,null,null,-0.03485685,0.05661286,null,null,null,0.06675767,0.087549575,null,-0.008048642,null,0.05959303,null,null,null,null,null,-0.038530536,-0.06775363,0.06292542,-0.023390334,0.054246407,null,-0.042962097,-0.034741227,-0.033233915,-0.015572982,-0.059422515,null,0.028818293,null,0.07296486,0.0464608,-0.014105885,0.0017742498,0.008367589,0.0010007005,null,0.10133528,null,null,-0.051469438,0.068507,-0.09765956,-0.05472483,-0.033718415,null,0.043069974,null,-0.005683998,-0.061284784,0.00019331969,null,null,null,0.07926244,null,null,-0.06697575,null,0.04506111,0.009336818,-0.0032198413,-0.01589047,-0.057330973,null,null,null,null,0.035436913,null,-0.0738927,null,null,null,0.03363279,null,-0.014786988,-0.07876022,0.029367562,null,null,-0.011137515,-0.03909567,null,null,null,null,0.08834848,null,null,-0.025375785,-0.015057689,null,0.012948163,null,null,0.04260251,null,null,0.009584824,null,null,null,0.009094812,null,-0.039679594,null,null,-0.06100413,null,null,null,0.020406464,null,null,null,null,null,-0.07168491,0.03178385,null,-0.073547356,-0.04362767,-0.015265004,-0.051133446,0.07222209,null,null,0.0152681125,-0.0030511294,null,null,null,0.058657933,-0.029129952,null,0.021435475,null,-0.010290692,null,null,null,null,null,-0.055352118,-0.027636684,-0.011532281,0.037667915,-0.06809389,null,-0.00048043678,-0.06705302,-0.045399006,0.009877318,-0.06160054,null,-0.00050732034,null,-0.035143506,0.020479128,-0.072182834,-0.07670378,-0.0016491323,0.010176226,null,-0.011662229,null,null,0.04283757,-0.053800512,-0.002449737,-0.011702043,0.015364744,null,0.041059,null,-0.056307666,-0.01789259,-0.039146952,null,null,null,0.057315983,null,null,0.06570101,null,0.18218085,-0.050625958,-0.010783244,-0.11241999,0.042004,null,null,null,null,-0.027632697,null,0.081911966,null,null,null,0.05624983,null,-0.04700531,-0.0037500453,-0.0040451665,null,null,-0.0018798664,0.013385809,null,null,null,null,0.07923033,null,null,-0.03050821,-0.06621354,null,-0.05001369,null,null,0.0061522387,null,null,0.020464856,null,null,null,-0.06508938,null,0.048403427,null,null,0.023746867,null,null,null,-0.07339268,null,null,null,null,null,-0.022384642,-0.07192675,null,0.010299153,0.06568819,-0.043026634,0.047780696,-0.069602795,null,null,-0.0118245855,0.097858064,null,null,null,0.12926725,-0.060021535,null,0.019202916,null,0.06105073,null,null,null,null,null,0.0032939052,0.06665281,-0.08578306,-0.012935689,0.063840605,null,0.021861399,0.004901467,-0.037606563,0.018380769,0.033718996,null,-0.0086550815,null,0.0072628343,-0.08659524,0.012105416,0.017534198,-0.05844299,-0.07233183,null,-0.014043674,null,null,-0.041051127,0.054428373,0.0030483257,0.05170978,0.0032103008,null,0.06053726,null,-0.032338325,0.04135886,0.074884795,null,null,null,-0.013729279,null,null,0.08936984,null,0.067340754,-0.0032762724,-0.0031366632,-0.07262881,0.0040803,null,null,null,null,0.029898781,null,0.054665793,null,null,null,0.11326108,null,0.08574674,0.03474337,-0.012422316,null,null,-0.016729968,-0.09021683,null,null,null,null,-0.10338427,null,null,0.031363796,-0.029073734,null,0.12101719,null,null,-0.024661109,null,null,-0.06670502,null,null,null,0.10356573,null,-0.019781884,null,null,-0.073119394,null,null,null,-0.033762384,null,null,null,null,null,-0.041286193,-0.04735202,null,0.051383212,-0.07720131,0.0044643614,-0.0043949913,0.10085759,null,null,0.02270586,-0.062268965,null,null,null,0.030303868,-0.10805589,null,-0.05991975,null,0.07268845,null,null,null,null,null,-0.03641586,0.008419412,-0.0021251466,-0.075632766,0.00073913403,null,-0.015754463,0.054800667,0.0984823,-0.025955765,-0.011976296,null,0.0025716687,null,0.023166478,0.048968505,-0.017251413,-0.036786314,0.009235069,0.07000778,null,-0.037099004,null,null,0.06954764,0.005714427,0.010554986,-0.028337212,0.015159322,null,-0.052454986,null,-0.11694302,0.05270951,0.027205301,null,null,null,-0.052010503,null,null,0.06742895,null,-0.023862425,0.057281632,0.038858034,-0.015053414,-0.05528767,null,null,null,null,0.0013094832,null,-0.0681096,null,null,null,0.02350591,null,-0.09417384,0.030592375,0.037171472,null,null,-0.021572135,-0.02023595,null,null,null,null,-0.016898198,null,null,0.03736339,-0.08100894,null,-0.014540289,null,null,0.09927552,null,null,-0.0061410796,null,null,null,-0.016144328,null,0.04423724,null,null,-0.042642962,null,null,null,-0.021437692,null,null,null,null,null,-0.066231206,-0.046001613,null,-0.08188561,-0.014061307,-0.029356558,-0.028572086,-0.007217993,null,null,-0.033909127,-0.019813484,null,null,null,0.022793096,-0.08498041,null,0.083395824,null,-0.022867398,null,null,null,null,null,0.014915977,0.090147965,-0.042808097,-0.09181157,0.10460957,null,0.09782197,-0.091850296,0.15090589,0.020802604,-0.10140245,null,0.0009239197,null,0.026417073,-0.01588807,-0.041191716,0.047590405,0.05472528,-0.04639623,null,-0.06597667,null,null,0.019945936,0.07574083,0.0034710886,0.06677195,0.09759229,null,0.06226372,null,-0.1204661,-0.031205246,0.10451502,null,null,null,0.013858482,null,null,-0.021922085,null,-0.0042158007,0.025593495,-0.013776577,0.022896914,0.014837723,null,null,null,null,0.057434518,null,0.017216818,null,null,null,-0.04734749,null,-0.059257288,0.029124513,0.027799519,null,null,0.028138254,-0.0259978,null,null,null,null,-0.06851531,null,null,0.06767251,-0.06870314,null,0.029289208,null,null,0.016242903,null,null,0.034846086,null,null,null,0.055322796,null,-0.07191282,null,null,-0.09799082,null,null,null,0.045932803,null,null,null,null,null,-0.009933797,-0.08831294,null,0.02808943,0.030140657,0.020379545,0.013371023,-0.049451068,null,null,-0.0029021478,-0.13173775,null,null,null,0.0063759107,0.046145163,null,0.0030581148,null,0.019269012,null,null,null,null,null,-0.014208955,-0.013363088,-0.027764114,-0.046077497,-0.025190907,null,0.027695423,-0.065145075,-0.012812337,0.019480743,0.033668175,null,-0.07364025,null,0.042835824,0.069351345,0.0009228576,-0.01023052,-0.13679342,0.0020787907,null,-0.008065463,null,null,0.02686034,-0.008694276,0.050154477,0.008541384,-0.019527443,null,0.009309388,null,-0.055182733,-0.047434192,0.007231991,null,null,null,-0.041871164,null,null,0.045314245,null,-0.10602059,-0.104312085,-0.024259107,-0.056493014,-0.012145582,null,null,null,null,0.1083329,null,0.009076591,null,null,null,-0.017459374,null,0.027916407,0.040562127,-0.078187555,null,null,-0.030646555,-0.09099322,null,null,null,null,-0.01797317,null,null,0.037740547,-0.014599755,null,-0.052856207,null,null,0.048644733,null,null,0.028847791,null,null,null,0.060775284,null,-0.10586806,null,null,-0.08559412,null,null,null,0.0895406,null,null,null,null,null,0.04566786,-0.092383794,null,-0.0056580696,0.023967091,-0.029283239,0.009050724,0.049073815,null,null,0.05572932,0.060611386,null,null,null,0.06617047,-0.0057379296,null,0.020419655,null,0.018318629,null,null,null,null,null,0.07113361,-0.0031049482,0.01796279,-0.0018351449,-0.015307292,null,-0.011516869,0.06642641,0.010328738,-0.03641738,-0.10717149,null,0.000046172438,null,0.038769014,-0.05880721,0.0024087774,-0.029007971,-0.06390741,-0.01804525,null,-0.0013747335,null,null,-0.013429717,0.022960797,0.0614465,-0.053975318,0.009285607,null,-0.02308095,null,0.008871526,-0.014757281,0.09600335,null,null,null,-0.038681198,null,null,0.05361574,null,0.09759003,0.03754521,0.009639562,0.023267932,0.058325667,null,null,null,null,0.028354062,null,0.04820873,null,null,null,0.04182805,null,0.024320817,0.0863715,-0.05856073,null,null,0.052179787,-0.069214694,null,null,null,null,-0.027018355,null,null,0.07343531,-0.022497471,null,0.005516578,null,null,0.046517745,null,null,-0.023760974,null,null,null,0.018628461,null,-0.11446363,null,null,0.08248979,null,null,null,0.0107180625,null,null,null,null,null,-0.036135014,-0.018344123,null,0.06873921,0.086867295,-0.07895026,-0.016158126,0.021112928,null,null,0.0050083757,0.0041640545,null,null,null,-0.029671742,-0.053625695,null,-0.048087407,null,-0.040384393,null,null,null,null,null,0.05122467,0.015979245,0.0020151462,0.08218637,-0.02906407,null,0.06777849,0.09810535,0.105433606,0.054070905,-0.005397233,null,0.09871443,null,0.15033612,-0.046549223,0.022567851,-0.00792114,-0.04560835,0.088671476,null,-0.07154331,null,null,0.043378063,-0.03895916,-0.07413715,-0.047491584,0.024468454,null,-0.04666837,null,-0.03809519,-0.010931448,-0.04404634,null,null,null,-0.03727038,null,null,-0.047193717,null,-0.021528035,-0.07433149,-0.023107229,-0.035783194,-0.010115143,null,null,null,null,-0.004853122,null,0.03926914,null,null,null,-0.010866887,null,0.02991043,-0.06645037,0.036453016,null,null,-0.020319398,0.0116366185,null,null,null,null,0.0029934354,null,null,0.03816952,-0.06524073,null,-0.053853218,null,null,-0.013528009,null,null,-0.015134088,null,null,null,0.00492442,null,0.018061418,null,null,-0.03521248,null,null,null,0.03719281,null,null,null,null,null,0.0015686725,-0.043958154,null,0.046825293,0.04457599,-0.0025985306,-0.014802191,-0.045066252,null,null,0.06609119,0.0077353655,null,null,null,0.020371186,-0.03577653,null,-0.025797976,null,-0.0025198944,null,null,null,null,null,0.054696776,-0.06276585,0.012021914,0.07759441,0.08697855,null,-0.0052575995,-0.059662417,-0.029081462,0.01287477,0.0827879,null,-0.040454112,null,0.0077103195,-0.016695391,0.049971484,0.10990975,0.004074345,0.03486754,null,-0.015327318,null,null,-0.06351287,-0.025521483,-0.032186598,0.067265905,-0.06316774,null,-0.031391524,null,0.028463012,-0.003502999,0.055320516,null,null,null,0.04014669,null,null,-0.0010752509,null,0.020953314,0.05717805,-0.038708035,-0.039159354,0.017374529,null,null,null,null,0.03983291,null,-0.02964268,null,null,null,0.082476705,null,-0.009527272,0.033010352,0.021556636,null,null,-0.0841044,-0.032925684,null,null,null,null,-0.09763478,null,null,-0.040873248,-0.04468614,null,-0.01543651,null,null,0.0338239,null,null,-0.08963769,null,null,null,-0.046319865,null,-0.046569537,null,null,-0.022989687,null,null,null,0.0018533595,null,null,null,null,null,-0.012556263,0.0029045558,null,0.02003774,-0.01206282,0.025812143,-0.03750474,-0.05261799,null,null,-0.0041300585,-0.010840743,null,null,null,-0.040643375,0.01926248,null,0.018249324,null,0.0085258605,null,null,null,null,null,-0.063113436,-0.050656162,0.05859107,0.0049003568,0.039088726,null,0.0025048745,-0.033943247,0.083689444,-0.0053679114,0.0076804664,null,0.041301414,null,0.086686574,-0.0942877,0.00819742,-0.029246343,0.012329906,-0.06302501,null,-0.016257908,null,null,-0.0022712932,-0.054811217,-0.06672477,0.019989142,0.040214743,null,-0.04896711,null,-0.06156968,0.052754246,0.009590061,null,null,null,0.018712042,null,null,0.00030503666,null,-0.032378063,-0.0076855375,0.01296828,-0.002605665,-0.052962556,null,null,null,null,-0.030961428,null,-0.03403044,null,null,null,0.043654814,null,-0.039884824,-0.064171985,0.061047897,null,null,-0.05194445,0.03133909,null,null,null,null,0.019761244,null,null,0.040644545,-0.034506034,null,-0.038520698,null,null,0.02817061,null,null,0.03578765,null,null,null,0.0061428365,null,-0.030673815,null,null,0.0051749493,null,null,null,0.018223122,null,null,null,null,null,0.005351607,0.00980929,null,-0.03839757,-0.013426607,-0.004586593,0.04288657,0.0552312,null,null,-0.06264168,0.009428496,null,null,null,0.0059226695,-0.0069644167,null,-0.025435893,null,0.018294651,null,null,null,null,null,0.0040204553,-0.008773329,-0.026896829,0.046782095,-0.015624426,null,0.013070553,0.088506,0.087192625,-0.019041754,0.011448878,null,-0.002911894,null,0.075338565,0.031126902,0.035291627,0.038745135,0.008745258,-0.034149278,null,0.045638394,null,null,0.046971712,-0.07312506,-0.049863808,0.057232194,-0.07696434,null,-0.0033542996,null,-0.04628153,0.034613077,-0.038598023,null,null,null,0.03625704,null,null,-0.030248594,null,-0.05770412,0.04652175,0.028264955,0.024067529,0.03615414,null,null,