{"acc_weights":[48,-42,-37,113,39,-41,115,24,-18,-127,30,45,-34,82,3,60,122,122,76,83,17,-9,-62,-11,-11,-2,102,-75,99,-24,-111,-38,-77,-100,41,24,-124,87,-30,-72,14,-70,-41,24,-61,-111,-120,-96,125,12,92,-4,-52,105,-8,40,17,-85,-82,-60,8,-108,14,-70,18,81,-76,19,-49,-30,17,-85,-40,90,-71,14,-56,-21,98,-56,-119,113,63,123,116,67,44,-113,73,98,-58,-27,1,63,-16,97,50,72,-119,-11,-101,-92,41,-83,-76,-93,57,110,-95,-24,24,-80,-39,32,-98,-70,-36,-83,81,-76,69,-19,91,-40,-73,45,24,-53,-78,-62,104,1,-109,60,-66,51,-98,70,18,-3,40,-18,-21,50,-1,71,-9,-77,119,1,-9,7,-50,-41,-50,-37,4,4,52,-113,31,33,-111,-21,116,-36,-116,-101,-70,72,74,25,89,-94,60,-13,85,75,23,81,-95,-80,3,127,51,-123,22,96,-92,16,48,-97,30,114,90,12,-84,-75,121,35,0,-76,52,2,40,97,122,-18,18,-35,76,-111,71,-51,-123,-122,126,-124,-67,7,105,99,115,-124,46,-32,118,39,-39,46,-53,44,-14,-72,83,-100,118,-29,-39,45,20,39,-119,-14,57,0,-72,-21,15,88,-68,-104,-90,-48,90,-52,-36,78,-116,117,-126,-118,-33,47,-128,80,-97,-124,65,-62,-2,-78,60,-124,86,-50,23,-77,-42,-54,-91,114,-103,116,6,-93,17,17,114,20,-86,37,-109,-9,8,-29,53,-54,-31,-100,102,31,-47,-22,119,-17,-37,-13,99,4,39,48,-81,-61,41,93,60,-40,-118,63,-119,-109,76,65,-85,19,121,-6,-49,-19,-83,90,113,-102,79,-75,21,-90,116,-113,17,-88,-104,94,-77,60,-6,-101,-37,-67,-93,-54,62,-7,-61,-75,60,-95,-25,-117,84,37,41,50,-104,85,-58,94,-53,99,-53,-102,-107,73,76,-82,122,-8,6,-35,65,-22,12,-64,91,91,45,12,-29,76,67,72,-23,89,-100,62,68,-112,-115,-9,-122,-83,45,-19,122,-116,-59,124,-51,-100,17,13,90,37,-9,96,-1,-104,79,-24,-26,-25,120,-16,72,-110,71,49,77,3,-66,64,-36,49,-120,-44,-19,-8,84,-6,-122,-84,76,99,41,111,86,33,78,-12,-109,83,24,-99,-44,-22,7,-118,-38,79,-16,-72,31,-117,-121,108,38,-39,-67,86,-54,-56,87,15,-58,75,32,-22,21,59,-37,-43,-35,82,-83,77,-109,16,90,-10,-26,-61,-21,-64,-83,-125,-38,91,-57,38,-82,-39,55,44,100,-116,75,91,-92,-6,-91,83,-110,15,-30,1,-122,-89,-10,-125,1,16,109,42,125,-34,-30,103,102,-37,35,-39,-64,-49,-8,-85,94,6,71,-81,115,114,68,-71,-113,115,-96,119,67,22,-74,64,-100,-30,-55,-85,-2,-11,-79,103,-107,22,62,-89,-96,72,-15,-74,-55,-13,107,55,109,-106,22,70,-4,-94,-93,7,-38,-99,-73,-18,121,-22,31,-106,112,73,-103,-123,27,-49,3,42,-116,-74,119,-100,-31,-98,74,-93,-31,39,68,123,-77,13,71,111,-109,18,-58,-125,-16,127,-32,-99,99,21,42,57,9,57,-40,110,-49,-114,24,-63,28,98,63,63,109,118,-90,0,-47,64,-86,-30,73,53,111,-68,65,-60,-19,113,71,89,-122,8,-21,-117,95,88,25,35,-124,8,-109,-95,-118,61,-73,-9,-105,-21,87,-128,-68,-49,-14,-49,18,-102,110,-110,-52,64,7,-124,-47,-112,122,-87,-91,88,14,108,48,81,-112,-7,4,43,-13,2,58,51,-65,35,87,-118,-53,-76,-121,-6,88,-46,54,119,-123,-39,-41,-6,-98,59,14,-104,75,-120,57,123,-122,-48,78,-65,-23,27,44,-42,14,-39,30,17,-84,24,112,-34,67,25,-31,84,-41,-110,112,-22,106,0,63,-35,-37,-1,72,-35,50,31,64,-44,31,-94,45,7,116,-106,69,84,-75,-119,-50,-37,-110,46,42,-69,97,-17,124,-41,-37,98,115,81,-34,7,127,68,-33,98,39,33,-33,-128,65,-3,-50,99,-42,52,40,69,-37,-91,-44,-74,103,-123,70,-109,110,52,117,-75,-61,107,-110,-32,116,-97,57,-24,-109,-106,50,-73,12,-81,90,33,123,89,86,-116,51,104,-106,-7,-119,101,-47,46,104,-41,-109,99,-60,35,-26,12,80,-30,126,-61,-47,36,74,-74,17,33,84,120,-46,83,36,-23,121,-73,-48,-41,125,26,-126,-39,-5,-63,-57,72,-94,-115,-27,96,-89,4,119,18,-31,108,127,-45,-71,87,122,2,114,-59,-49,-121,78,12,-86,-3,113,-31,-128,75,-101,-83,-103,-61,-65,-61,-78,51,98,76,-76,-80,94,-110,34,-68,-69,51,117,-48,-49,-24,49,45,-115,76,-17,-71,104,58,-8,-125,-71,-114,-89,50,-13,-119,-53,-80,-128,118,-47,-97,29,-102,127,53,10,101,47,-54,-50,-37,29,81,-63,103,55,-72,-50,-122,-103,75,-12,-56,100,31,-80,-13,-125,72,118,-57,85,-95,-86,-12,-61,108,121,114,123,32,-16,-74,71,-116,-45,-66,-8,93,-120,-27,-82,73,101,-128,74,110,89,102,123,-84,-32,47,-29,29,32,-73,-109,-47,-3,-15,-101,89,0,-110,93,32,-11,124,-1,34,-70,-76,64,-46,79,-20,49,4,58,63,92,-45,23,66,108,127,47,-36,-35,-88,-24,-8,10,-68,-102,10,-6,104,99,123,70,70,106,12,63,58,-117,-100,27,105,119,-28,-103,-90,64,-105,36,53,-76,94,77,-55,-24,43,72,-103,67,4,68,5,-46,-34,90,114,65,102,-94,-32,-104,2,79,-120,-35,52,49,-83,42,87,-39,-4,-87,-76,88,-89,-114,-73,-50,36,99,89,95,119,-48,-92,46,-20,-48,112,114,-55,95,-23,0,-62,55,-8,35,-12,-113,95,79,63,-34,102,19,-2,-74,85,67,-56,127,-16,61,-109,-51,-57,-8,106,-44,-89,30,18,-86,46,71,-69,91,90,-77,-61,45,127,-6,-25,93,43,-90,41,37,-2,20,-48,35,-69,-11,75,27,67,36,86,-5,1,-96,-103,114,-100,8,86,76,99,37,-92,19,-87,-116,56,78,70,83,-31,35,-69,-120,-35,-82,-75,-44,-75,68,93,52,22,81,60,-116,104,-40,101,-109,28,-117,-19,-75,-33,63,49,-44,83,76,100,17,106,4,-70,-77,120,111,106,-73,-57,-31,15,-23,-72,56,84,60,-83,49,-6,-100,99,57,12,32,-99,26,90,-80,94,-73,1,-64,-110,118,38,10,51,-128,82,25,89,105,118,-5,-84,-15,56,126,90,19,2,31,-21,-21,-119,23,99,-23,-56,-17,105,58,-109,88,92,40,106,-28,101,-116,92,-49,99,-100,-105,27,125,13,-54,81,45,-109,84,42,99,91,-91,40,-33,-114,117,115,116,41,-127,17,-55,-102,-20,-92,72,-80,-37,-127,-83,25,-12,74,9,-76,108,-95,68,77,66,-46,106,-117,-35,-48,108,-112,32,53,117,31,117,-44,0,100,0,103,-32,-78,-111,-18,13,-76,50,127,49,25,99,-84,59,-113,-104,-21,20,-127,53,-126,21,5,78,2,-128,-68,-53,106,-29,-98,-6,-79,-44,-39,-1,39,-26,-118,-28,73,-72,-12,-64,102,76,-76,17,79,-79,2,50,37,-86,90,39,41,-117,-41,-71,-113,71,-9,-7,-48,-68,-81,-39,-27,7,94,-90,53,115,74,107,-106,22,-9,-47,101,-10,74,2,-83,-16,-2,34,61,-118,38,-27,-94,-33,110,-106,-20,-16,-29,-107,-67,-68,-93,-76,47,65,11,56,-120,-74,-66,121,-105,86,-49,90,-111,119,-111,77,116,-7,-52,58,-116,-58,-6,62,65,-14,-35,62,109,41,0,-104,42,-114,-28,27,-11,-126,89,-26,-81,8,-43,-83,14,27,77,-124,94,32,41,-126,116,-28,13,26,27,34,125,67,120,37,-25,-15,27,30,3,-47,-90,-118,-93,41,108,-121,79,-31,-88,-86,-41,127,83,-5,-24,-76,-80,86,-17,114,-84,76,-19,-70,109,-11,-99,84,53,121,63,9,-51,111,-121,44,-47,16,38,-59,-125,-18,38,-6,-125,8,-13,65,-31,70,31,7,-6,15,-2,-43,-107,67,-14,67,-111,125,-37,124,-23,57,61,98,-1,47,-41,68,30,104,73,-102,-74,-30,94,-94,87,-37,-7,122,120,-88,-12,69,-63,-3,72,96,-103,-73,-87,1,64,-41,-56,97,90,62,-8,35,-12,71,23,81,14,-82,-62,82,41,-113,-8,-2,-104,-84,-28,59,-70,81,19,-82,-106,118,-105,76,95,-31,124,20,-50,-41,-49,-13,75,-52,-88,124,93,-106,-96,-25,-24,51,-115,-102,57,59,115,89,-87,-119,-40,126,-110,11,112,-72,20,-13,-127,97,42,35,115,-108,-112,6,-73,-120,8,-82,9,-125,-72,-124,-85,112,79,16,-7,83,-123,-57,-101,18,1,-120,24,-59,-19,-124,118,125,106,-121,42,113,76,120,85,-64,66,-6,-112,16,110,82,-121,-55,12,53,-77,126,26,-117,52,116,-128,87,46,108,41,-72,-85,-30,67,-37,115,78,-114,112,-99,94,-111,-86,49,-123,-44,77,-16,41,24,10,102,66,-84,-125,-9,38,89,-99,-58,-109,66,-84,-15,-59,-78,-68,-91,-93,-124,122,-68,-57,80,-8,-102,-69,-46,-84,84,21,-115,50,-83,-19,75,69,-45,36,-106,120,109,-60,-76,42,39,-94,76,11,112,96,102,-119,11,23,-12,-22,33,-107,108,-52,101,39,99,119,115,-18,-72,0,74,24,68,-71,4,49,7,-122,4,32,-20,10,31,-39,-68,97,-78,86,102,11,21,52,82,-41,66,91,-26,-16,-26,99,-40,-14,-60,120,34,11,-84,-58,84,116,111,-83,35,-45,-4,-118,-48,-70,-48,-86,-83,-95,-56,102,44,-82,95,90,-76,-84,-90,-98,-79,6,2,31,-18,16,-50,-14,54,31,-8,-61,122,-37,-27,104,-105,65,47,-5,10,-44,45,3,18,-76,111,80,-45,-110,65,58,-82,23,37,94,9,-91,74,-27,92,31,-11,76,120,-20,119,-34,-71,120,95,-63,-36,-66,-25,53,-117,-5,94,-58,75,-81,81,76,-1,-123,5,41,-126,-57,-21,23,-82,-103,114,-85,-54,-7,10,61,-104,46,25,-28,65,73,76,92,-57,46,-105,-110,57,-111,5,9,-100,-31,108,53,-71,58,-19,-69,-59,100,-89,71,32,107,-107,-84,-9,-7,-73,9,-84,-41,-58,-36,101,19,-97,98,-47,25,102,74,36,-109,96,-78,-15,-45,-120,-72,95,2,55,81,60,-28,84,-104,-83,112,109,45,86,-116,36,-43,80,-91,-37,-33,-47,-41,113,117,-47,60,120,-58,31,-58,-94,39,68,19,-120,122,-127,81,41,69,-30,-66,25,48,84,103,-74,121,-76,-9,-46,38,43,-93,45,-80,79,124,105,-54,-33,-79,-4,-100,110,-11,-117,-15,19,99,-71,48,79,126,71,-19,-120,55,67,126,65,19,21,112,50,-69,-90,-35,-59,27,44,-82,-111,56,-73,114,103,14,108,41,-23,33,-46,-75,103,-37,57,-34,115,16,105,24,127,121,-95,24,-19,34,12,35,-42,102,-117,59,-15,52,116,-42,99,-128,-92,-94,-101,-76,-85,-68,126,-122,-16,-48,97,90,-83,92,-99,-53,95,24,-17,12,102,15,117,99,-10,-102,-63,72,38,65,-65,90,-57,-14,-110,119,-3,80,-22,-115,14,61,-96,-55,-8,62,51,23,-123,20,65,117,18,-2,-27,81,-99,-73,-57,41,-10,-41,-22,-77,-103,9,-112,-85,12,95,-26,-63,-34,-69,102,-16,-64,56,-81,82,-25,51,-79,-27,-87,23,45,-114,-28,35,-36,86,-8,50,115,-106,60,-42,57,60,-85,49,-92,-73,-100,120,10,-49,34,-77,84,-92,-52,28,90,-9,108,108,52,-46,-10,-82,44,27,-100,124,-109,113,-123,46,116,-65,-113,-86,118,-9,-78,59,-66,117,69,-94,52,-116,1,118,103,-84,-49,27,65,-19,11,-2,-81,80,-13,52,-88,18,-61,94,51,-26,41,-56,-68,-12,-103,-5,-54,-64,-63,-85,8,20,-84,102,9,18,49,-117,34,29,121,-117,100,-20,-119,-58,110,59,-78,114,-114,72,115,-48,-128,37,3,-66,124,-117,64,73,103,-84,-7,-84,113,-62,57,-3,-15,87,79,-81,-10,91,34,-12,76,86,-107,-86,15,37,6,38,114,-62,5,-112,98,37,-31,-57,110,-52,16,5,107,87,94,54,125,97,0,48,101,-55,34,14,70,95,41,-27,90,111,10,109,-70,-118,-50,9,102,-112,-36,-99,-45,-115,-35,-19,72,-47,31,-35,-58,90,101,-127,-7,45,-9,124,66,-58,93,58,116,15,80,44,113,-93,84,-88,37,105,-17,44,21,38,-68,-83,-88,98,76,64,89,-68,-109,123,-40,-97,108,-47,3,-6,113,111,41,-45,-76,-22,-64,81,24,-94,37,-118,34,-26,26,4,-78,-87,104,12,60,116,-90,96,50,15,124,105,-56,-57,66,-30,-56,53,-26,20,16,63,72,35,120,-10,-67,73,-33,119,-77,-123,70,109,116,-71,98,38,-100,-21,24,91,-103,89,-105,-68,43,70,-25,-104,54,54,-37,-18,121,79,-87,82,-69,-5,-121,58,97,40,63,121,84,81,10,-21,41,-83,-61,-57,9,76,116,-31,32,-126,-23,-124,-122,86,48,-119,79,-68,-41,-100,89,-71,59,9,93,-6,110,23,-119,-11,83,24,-89,-128,-86,1,-94,5,86,90,81,-41,111,116,38,61,42,77,-4,-118,30,-103,-23,-71,-31,9,-86,-1,-69,-47,-10,29,-6,-61,-30,76,-37,55,-48,-71,91,-31,38,-43,111,107,120,-103,-72,-35,37,66,31,-32,-105,-103,-112,-78,-82,-73,106,-72,32,-56,-9,7,-22,98,27,46,110,-45,125,-48,77,-24,-114,6,-58,-52,120,64,-7,13,-104,-106,27,-114,-41,-123,26,65,-10,-11,-88,22,-43,117,-22,29,122,-91,13,-79,-57,-49,3,-1,-35,-61,-75,30,27,-122,70,115,45,127,-102,-31,-51,-54,70,-102,-63,37,28,119,124,101,9,104,53,45,62,-114,-24,-70,40,81,64,-34,20,-71,-55,-88,-58,-57,4,-35,-30,-14,73,30,22,-5,-4,-52,-31,-45,4,-101,82,-107,122,-80,16,-120,2,-88,-52,-127,38,-54,87,112,92,108,42,43,-23,-57,-108,-94,-53,64,118,72,105,-125,51,56,-122,25,-65,-43,-17,-42,-120,21,-115,-4,-41,61,94,84,-103,-67,99,55,-39,87,-21,37,57,61,-107,-19,-89,-101,-106,67,-58,62,20,112,-12,80,-78,-115,-36,-63,-99,-34,-13,-42,19,116,-58,61,76,-92,-40,-118,7,-107,-96,2,71,45,-122,-84,96,43,70,-25,111,82,17,78,41,21,103,18,-12,104,-120,106,119,49,91,-102,74,-43,-14,-104,-55,59,-128,-10,100,-124,68,75,-50,69,117,5,-34,59,-45,-57,94,100,-67,32,110,69,7,108,-124,-79,91,-56,80,-43,-55,-38,-47,67,-2,-84,-99,-94,122,53,-22,14,77,25,22,26,113,89,9,97,-70,44,-105,87,-13,-68,92,26,-64,91,-39,28,46,-53,81,-34,89,-109,51,94,15,-62,-89,112,30,22,-5,-45,-23,5,60,37,-114,-71,-4,-122,24,-25,-48,110,-111,96,-65,-77,30,-79,-74,-89,-124,23,-63,72,-5,17,-38,-128,21,123,-76,-45,43,24,-43,-84,-122,-17,-89,-10,113,-125,-22,-72,-77,35,-96,52,-62,-49,58,-75,-75,-81,89,96,-38,111,48,-53,30,-40,67,-77,62,48,112,-50,-3,34,8,41,-67,89,-120,-52,19,-115,-98,6,-108,23,111,123,56,1,51,108,-15,51,-49,-39,-11,96,114,7,19,-109,41,-6,88,75,101,100,-110,-43,-120,-80,16,-117,-5,50,-37,-45,-73,-61,-71,-4,104,-79,-24,-32,88,11,-22,16,40,66,44,79,-65,74,-60,73,15,103,28,98,27,41,-7,-76,-13,4,-60,-79,-58,-24,-21,-64,15,2,8,-58,-87,-13,66,-9,-106,-124,73,-36,-113,-28,-35,-35,45,23,-27,56,-71,-21,28,11,116,-48,-44,62,-58,-109,-65,-47,40,69,75,37,-49,-63,75,-105,9,-11,38,-27,110,-40,24,16,-121,-82,-18,118,-39,111,110,-13,44,-115,51,-2,23,-82,1,-128,58,-15,123,39,46,25,-76,66,-101,126,35,-63,-95,-4,19,106,3,-76,81,-87,46,113,-34,-43,68,91,6,98,-10,-113,-103,94,-41,103,83,-96,24,97,39,66,-124,-93,70,55,-28,71,-90,122,73,11,22,26,24,6,-105,-122,-82,30,56,-50,120,-56,-27,111,64,66,-4,-125,-115,-39,-34,67,89,37,35,-78,-98,-40,19,110,0,-53,-28,-65,-39,-78,-22,-51,-8,-12,-72,-93,114,38,17,73,-80,-4,-100,-34,-98,-64,-79,87,103,23,41,112,-67,-107,-102,-64,29,7,106,-7,119,59,-48,39,79,58,116,4,-104,-32,84,21,12,40,-127,-38,-119,90,-66,9,101,103,75,-49,-71,3,20,-81,-59,29,41,-119,-23,-109,-35,58,-36,-61,-55,111,34,112,-7,99,-98,99,115,-23,-118,-69,-4,-24,59,59,70,44,-3,18,-13,-9,-55,-41,7,107,104,48,-82,9,-86,-99,-123,-9,37,82,95,22,-86,-45,25,-91,120,-90,-79,-4,107,70,-6,-22,50,15,-49,-98,38,23,14,19,-19,-17,41,-82,-120,100,-107,42,113,-40,82,-12,45,-84,94,18,69,-93,-32,-102,37,-43,63,-64,99,-54,81,-93,125,89,-125,-116,-119,-85,-44,-117,23,-67,107,-37,-68,78,33,-24,32,-93,-118,-100,84,104,1,-2,90,25,-124,59,-25,-122,118,-104,-84,47,-32,66,-43,15,87,-68,-108,13,-54,10,48,26,-122,95,90,62,-59,-117,-119,9,-11,-58,-28,-42,124,-90,-23,-20,121,-110,-22,-126,59,-47,28,-109,43,13,43,10,102,24,-10,-58,-112,-74,-79,30,24,-41,-20,-123,13,26,-67,-20,-69,55,-91,-32,115,72,-120,-75,12,86,85,21,-18,13,74,7,76,-1,46,-52,119,89,-127,-48,23,-17,94,55,29,-7,60,-128,107,10,127,-31,-92,-78,-11,-27,14,-32,89,14,36,-39,-9,69,-5,-5,75,86,-40,-48,22,-69,6,17,4,-83,73,90,48,-82,53,34,-113,53,-53,-47,-66,88,106,-45,38,-87,65,-80,-42,120,-81,-85,-83,72,26,-17,-108,-123,-36,124,66,-5,64,26,-105,60,-44,2,-104,88,35,95,14,89,107,25,-5,95,71,82,4,85,-78,-73,-98,-98,-61,27,-106,-99,-83,-35,55,59,91,36,-72,-87,-26,101,-58,-95,-80,95,-116,-100,-9,50,127,-104,24,95,117,36,42,-14,-69,-83,-92,-97,13,-104,-111,53,-43,36,127,94,-47,10,-6,13,-65,17,-54,70,-80,-8,127,-26,93,-59,-62,87,-20,-57,37,-117,-53,27,126,29,-84,52,-59,9,-105,74,35,124,-18,117,-76,99,-11,-83,120,-124,100,18,-1,34,-81,60,-89,30,94,-124,-100,-125,-44,76,-19,114,48,56,30,-17,71,13,-37,82,126,109,-42,14,91,-76,44,-29,86,10,73,4,-28,-123,-66,124,14,-58,-69,117,59,-63,5,13,45,113,-44,23,-62,104,-127,-5,-128,112,-50,111,69,-6,-85,-18,14,56,-13,29,-29,75,117,-125,-119,85,-83,17,-88,41,32,84,4,32,-99,-2,109,-55,-52,-115,-45,-48,100,121,-93,-103,17,-85,-107,-118,-101,64,107,7,3,-50,-23,-6,124,-78,73,105,-81,17,-22,-12,-22,-58,-89,-99,-111,113,-115,47,114,-101,112,118,-9,124,54,97,-23,-17,64,-64,5,100,-57,-84,30,-99,0,-51,103,66,-128,-34,1,-126,20,88,-111,-30,26,48,81,127,-84,91,-90,61,73,-12,112,108,127,-55,-26,-40,-71,80,-54,36,66,-82,-10,106,114,-37,62,-2,-109,-93,-54,-36,-33,11,-86,116,-63,-70,41,71,-97,-45,-14,108,73,115,16,1,60,-3,53,-45,-57,-119,121,-106,62,-21,91,-16,53,118,-63,-45,-43,108,-68,64,-90,-46,29,23,-22,67,30,3,101,-109,-122,36,59,-40,-25,-80,15,122,-3,80,84,2,87,-64,72,64,63,82,22,-12,-67,-109,90,-2,-123,-29,-84,-59,-18,24,-90,26,118,11,-5,50,52,-101,-101,-75,-19,-79,-68,-58,-89,108,26,92,-125,52,123,-105,-9,-115,-27,-13,60,12,28,37,-2,96,24,94,19,-57,-74,-1,-113,-11,126,72,-4,85,29,-76,105,-30,-84,-34,-87,40,-52,114,61,27,-43,5,-93,40,104,112,-3,-118,98,-8,48,-36,-112,-115,-8,-2,-29,118,-47,76,35,78,-65,-32,-120,-39,-121,-2,68,60,51,69,102,-88,118,-51,100,53,-90,-97,-26,89,96,78,-125,-26,115,108,-101,-5,28,66,116,-35,-45,9,102,-125,51,119,25,126,44,-111,-127,29,-23,-98,117,-38,104,60,79,11,-85,77,13,-56,109,-108,-56,-78,-71,-13,-74,-119,-120,7,79,-68,12,75,-79,-80,80,100,-119,-11,103,5,-80,15,52,-62,-39,-34,-47,121,-22,-59,98,-48,109,125,-59,-30,-39,-117,-66,74,78,20,-47,81,105,-17,-64,-83,-9,104,-70,-123,-91,116,109,-41,109,-28,-80,-106,-19,-1,-98,-121,118,-102,-32,-27,14,-71,-104,-103,27,111,28,37,-52,122,-121,-11,-114,-4,63,-79,65,-70,-100,117,46,-94,43,74,-12,-79,-110,-54,122,-34,115,23,33,-12,-93,-12,-33,-67,-64,-128,-64,-80,24,-27,58,87,-49,-113,-68,111,-74,38,-72,41,-12,-123,-48,-4,-121,-89,2,-116,-11,-27,58,50,108,31,-3,37,83,-45,110,8,-73,82,62,-103,-91,-86,-38,103,-67,-109,-68,16,94,103,-45,71,114,-107,77,57,-92,-38,-73,36,-7,13,-103,82,115,-98,3,-87,-87,92,35,38,99,-62,13,33,-95,54,-35,122,-49,122,-36,-19,76,28,19,-80,69,29,-51,8,-3,-93,26,-122,-21,68,88,53,-9,-115,-15,9,9,-39,-41,36,119,-27,70,49,-101,19,112,63,36,62,33,39,55,-103,83,-56,-23,-103,-3,75,121,108,23,110,-58,46,-44,-114,-109,-80,-90,-6,115,-37,-67,80,-122,-117,-99,-99,82,-108,-14,20,58,77,-111,43,113,-22,47,-49,-86,-71,-36,-93,118,-37,57,-33,-99,-47,-27,40,-101,-66,73,111,115,-68,-78,-33,90,58,-60,-71,-123,68,-98,-75,2,-6,48,42,-41,-26,-83,-100,70,70,-81,-61,35,-33,-81,87,-58,-81,5,-60,44,99,-120,76,-5,-116,-69,-42,-13,68,-124,-91,122,26,-58,-119,-66,-41,-70,46,14,91,94,-96,-122,-34,-55,113,-21,120,-115,13,30,-102,56,0,75,23,77,125,-29,53,-43,-83,110,62,-123,-51,-78,89,-111,47,109,-26,113,-83,62,81,120,101,29,-25,12,-40,82,72,-42,46,-39,81,-63,-95,84,-117,-3,-71,98,-123,100,-52,-46,-125,-15,27,-58,-70,124,60,-120,35,92,-83,-104,-48,104,49,9,72,37,-91,-52,-112,-59,-70,40,-64,-14,-78,75,-39,96,93,-21,-111,-6,83,-4,111,89,72,92,38,18,-48,93,-117,-79,116,60,117,3,81,-62,15,-43,-79,126,-60,70,-42,-33,38,-123,-7,-121,125,94,58,34,-59,18,108,-97,121,65,-50,-45,61,-46,17,-15,2,126,-89,-74,-71,-13,-6,-96,48,11,-27,-51,100,-85,62,19,54,-83,103,0,4,-87,43,-93,62,79,-40,105,-98,-115,-127,-37,92,77,57,-5,46,2,-33,64,112,-74,-106,0,-102,-7,49,-41,57,-48,-57,48,94,26,118,-127,70,120,-67,41,-23,-72,127,47,-39,12,103,-123,11,-40,-57,37,-54,-72,-101,106,-70,45,-24,-81,115,32,-123,83,89,37,35,-49,-35,-124,95,-81,-73,55,-20,30,-43,90,30,86,-9,-118,63,-112,100,-23,15,-123,-46,4,-63,56,-6,-128,83,73,-73,67,-40,63,54,-35,-38,-39,-28,66,94,-124,102,116,71,-86,99,-1,60,12,85,86,-67,-46,88,39,31,56,70,-65,66,95,101,-104,39,94,29,104,106,16,112,78,-117,34,-113,-107,115,-11,73,105,-61,-118,97,73,41,-87,-118,-60,-102,-45,75,47,-113,-40,-17,36,-28,9,95,-40,-123,83,-31,-60,101,17,-116,96,-93,-48,43,-122,21,-14,122,11,-67,100,13,-42,-53,-56,93,-7,-71,-11,-19,115,17,-115,43,-34,-119,9,-81,-13,-25,-64,-53,87,-106,-105,33,-66,22,-97,73,10,101,-85,53,112,-10,29,107,-93,19,-98,19,82,10,89,-110,-71,100,-99,49,-69,-21,77,13,41,34,127,-17,55,58,-98,-58,38,85,88,-126,18,-4,38,-118,-94,-22,8,30,-19,15,119,-24,-35,41,8,127,-125,110,-67,-78,40,66,109,-95,68,-51,-45,106,-84,-76,119,-15,-44,-40,-117,102,-86,-56,-118,-88,-30,15,-6,-85,54,94,60,40,-50,-15,-34,-64,36,-41,62,-2,27,72,69,31,115,-59,-12,40,127,-13,115,-128,69,30,110,121,-7,-56,20,-115,112,69,-90,44,-85,112,67,-110,-32,32,2,67,60,-92,-31,57,-17,117,-6,-1,1,52,-15,-37,-53,97,-121,107,-98,117,98,73,-89,-4,-14,31,-92,-75,62,57,108,92,88,-2,100,-127,67,120,-59,-26,44,111,115,80,107,30,52,-44,-24,54,-120,71,-109,81,-21,-80,23,-115,-17,57,115,-54,-48,38,-128,-30,32,-43,-91,54,120,-77,-114,55,51,-127,115,-27,48,45,-92,-119,38,115,-6,-27,27,-47,83,2,29,79,-92,41,-88,17,96,91,51,119,-61,-6,10,-100,-60,-117,16,84,113,18,21,79,-107,-87,55,113,42,-47,127,84,-50,-126,-95,55,46,61,2,115,-88,-20,-10,99,-52,80,83,121,44,-57,7,-44,-7,-32,-11,55,107,-126,48,-84,15,41,-33,50,19,106,-123,-116,105,-40,-54,-61,-8,-88,-44,-109,-117,82,-49,25,-108,123,59,9,-77,17,114,-33,87,-82,83,67,64,-86,119,67,76,-114,-74,36,118,110,-117,-102,-66,44,-26,-118,6,-89,-31,-89,88,-95,4,29,-39,-104,-72,-124,-82,5,30,84,-99,103,63,62,-52,122,45,-93,12,103,-46,-113,92,-28,-66,32,6,-117,31,88,-74,7,54,-12,-42,-37,-42,-16,65,-46,82,114,118,120,-22,37,-58,101,-51,20,-86,83,70,50,-90,-113,68,-108,-66,-11,-23,-24,-106,-94,-32,-112,-78,-76,-60,5,-20,27,-67,10,41,122,-49,4,60,122,39,92,-45,-24,-123,39,43,-62,-123,40,12,36,-13,113,77,-109,-34,94,-99,-21,59,104,110,-89,-77,-64,-3,-66,68,-99,10,65,-38,28,39,35,-48,-105,-39,46,-37,77,14,-84,95,-18,-113,-78,-21,53,0,-1,3,-47,-17,-10,28,3,50,-100,-128,127,-119,118,87,-50,-63,115,-102,-38,63,28,69,-17,-34,-8,-35,-36,-22,10,24,-83,86,-68,-18,-41,-10,50,100,-119,33,102,-67,-61,-80,-30,-40,-106,116,-112,-78,-95,42,-36,-88,90,-126,126,-36,93,-78,-28,92,-39,-84,78,37,-48,-89,93,-46,15,-68,38,-66,-18,66,101,-109,58,125,-97,12,-108,-17,-79,80,-86,-49,71,-104,-58,-87,35,-118,26,2,46,109,66,-112,-120,68,64,-70,-72,23,-99,66,-78,-126,-55,-94,-63,-122,-1,78,12,44,120,63,-53,27,29,76,-92,-106,-13,70,-61,-62,-26,32,-28,85,57,-127,90,9,127,-56,-14,127,-107,-100,-64,52,60,109,-40,47,42,-105,47,101,21,96,-14,-27,112,30,75,82,36,-38,116,-5,-75,-50,97,75,-46,-83,-80,-123,95,63,-43,-24,-36,-26,-6,27,57,-91,88,70,-78,-42,-121,119,-101,5,-55,75,127,-4,-116,-105,69,-22,-128,-10,117,-31,73,101,103,-85,121,53,111,-60,-62,21,80,-7,90,-42,-72,5,-114,40,-70,-2,90,19,103,32,116,-2,100,-5,-126,-23,-40,-75,-29,101,-106,-56,-67,-39,-115,101,-41,-122,126,-39,76,65,-48,-15,10,-104,-70,16,66,-63,-57,124,35,-109,83,-67,103,-3,-73,-61,50,114,-72,-62,88,-38,77,36,25,86,41,88,-120,125,104,-110,-128,-126,15,119,29,-6,92,-15,-21,8,-31,11,84,-88,-117,-126,124,81,-60,66,89,-42,12,12,87,-8,-95,68,95,90,-62,-17,62,-102,108,-52,-122,87,83,-2,-85,126,-78,36,-83,31,37,33,34,13,19,38,-86,-5,41,-121,14,65,-69,-26,72,48,-47,-117,-85,-17,6,70,-74,16,88,-26,28,10,82,13,-126,61,66,36,37,56,-14,6,67,-5,-43,99,76,54,109,-76,-7,49,-116,49,-84,-3,-113,-119,-63,5,121,-114,-41,-28,-42,-50,-125,-107,-17,-1,-108,-79,5,57,27,116,105,25,-35,-77,1,-63,-10,3,47,-71,116,20,45,-91,-72,-36,122,-64,77,10,105,-127,-43,-99,83,99,64,-36,63,96,30,-112,-111,101,-105,119,102,40,-126,-74,93,-108,-108,44,-24,82,25,76,9,-30,-46,-75,-79,-64,-12,-19,-79,47,44,117,-45,-48,15,-26,123,-88,-109,-23,111,-62,-35,38,38,-55,97,-55,100,42,20,-102,-53,-110,-37,-1,109,-15,22,19,32,-49,-85,102,17,125,76,112,42,113,-60,88,-35,49,-79,87,46,122,-103,25,-58,85,-125,56,-112,80,99,-94,44,108,-43,-2,-52,67,-84,81,-1,-24,-57,-25,21,-48,125,-19,122,90,-102,-96,122,-16,72,95,-90,48,-44,41,102,-55,45,2,6,80,54,64,37,-44,75,-47,90,50,-50,43,110,-90,-128,-120,96,-61,117,-23,4,47,15,9,-3,-40,94,90,34,-70,-19,108,119,95,95,-55,-13,-4,76,-96,48,102,73,-122,-35,108,-118,28,-13,101,39,-121,-25,-32,12,29,64,-53,1,7,-125,-16,88,53,81,-80,41,-93,63,53,80,-42,17,-95,48,-53,52,86,87,0,15,80,115,55,-71,-10,-53,-124,-39,120,21,-104,8,90,97,-95,-98,-27,70,78,-109,12,78,36,-103,-55,40,-75,-7,116,-54,-90,48,49,109,20,27,-87,-103,-37,100,-19,-28,114,2,-101,99,-46,-83,57,-15,-114,3,38,70,94,126,-54,-114,110,105,-81,68,-117,90,-36,-41,30,56,-103,5,2,-35,88,34,27,-127,52,46,111,122,18,8,54,22,-20,-31,-99,-114,45,-21,5,-74,120,55,-3,-65,-14,-79,-69,15,37,-109,117,-83,41,89,63,11,-96,62,-55,12,35,-43,-60,49,-23,-29,-118,-6,-93,-92,-98,-93,-110,-22,-104,-57,-24,-23,50,126,58,-61,-21,118,-18,-88,106,118,10,-114,-80,-56,99,29,-91,101,-16,43,-35,76,-121,21,-66,-29,43,23,-14,124,36,24,49,-16,-32,84,74,106,2,-77,87,105,-64,-71,-81,11,-17,10,-42,-38,-70,-90,33,-16,56,-65,27,-67,-26,-60,-2,-123,-66,111,4,-24,-63,64,76,-121,-106,-119,-74,107,-86,61,-54,22,12,86,47,-55,-22,-50,10,-95,-15,28,-118,-38,-84,48,-127,93,-121,14,97,-38,-35,123,90,-26,-54,-119,37,-39,62,48,-92,73,-108,113,115,-7,-37,-20,27,51,-56,-24,8,66,89,-114,8,-110,-122,-18,122,81,46,31,28,100,87,82,-66,78,-21,-125,50,121,35,83,-67,104,-47,-13,37,-72,-14,114,-108,124,119,-30,-42,-21,-4,-91,-93,94,92,17,117,47,102,74,-79,85,-2,100,-128,18,-18,8,127,68,49,-33,-59,72,-92,71,-88,107,-63,95,25,-36,105,38,-27,34,-75,115,55,48,-12,-104,45,39,-70,44,-101,87,77,-112,-78,5,68,-11,-93,-87,68,-10,27,-60,-55,95,14,-122,110,124,-19,-5,73,49,-75,-55,76,34,-59,-31,-42,-120,77,118,125,-99,106,-35,-7,-121,-126,43,27,-5,40,-128,32,44,-70,-110,104,31,90,-99,5,101,-118,36,91,-31,-63,-5,-36,-56,-102,101,58,86,-30,-49,76,-84,47,1,-83,-50,-105,35,-127,54,11,40,-51,9,63,116,25,-79,-55,110,-90,15,-28,126,-3,0,-2,58,-117,84,99,46,-38,95,58,52,80,-74,85,-72,-22,-53,90,102,97,79,-51,58,95,27,-111,109,124,108,54,75,-19,44,24,9,-6,-124,107,17,-29,108,-34,91,36,76,-83,8,107,-31,-113,81,45,49,51,98,29,87,-35,-84,108,73,-31,83,102,-110,-54,77,-11,-118,-25,111,-16,-126,48,15,-29,-37,-107,-55,65,40,5,-16,-121,-85,120,-90,26,107,-53,-45,20,-29,111,-98,-33,-19,71,-10,28,-112,-19,-32,-73,-60,-72,-95,-112,28,21,-10,-109,95,120,-18,-81,29,-7,-105,109,-106,-86,-41,59,91,-47,97,63,126,127,117,-106,-29,-7,88,-72,-103,-21,81,-123,-18,62,-18,-76,-110,-112,-46,-121,117,-78,-64,-1,-76,39,125,-71,-57,-127,-111,72,42,41,105,81,-109,-24,85,-71,35,-116,-15,-78,-117,98,-57,-6,81,-16,39,99,34,-121,46,13,-70,54,-28,92,35,43,59,85,-44,-80,-61,-32,-95,-90,-13,-76,-48,33,-79,-46,-1,98,-79,51,-60,11,-76,104,-91,123,42,5,-85,-77,18,96,-35,-83,57,26,21,-92,-104,58,-90,38,63,101,97,-128,-3,-21,75,41,-119,74,55,-87,26,109,-44,49,-32,-127,-56,4,20,-126,-117,-54,-58,0,15,55,117,-78,-68,2,-61,-36,-98,59,-109,-68,-125,-5,-117,-23,-24,-112,8,112,-81,52,35,114,102,-78,27,-21,-1,3,98,52,48,-83,57,-11,61,-55,-42,-38,-61,76,-50,-14,-124,10,-118,51,-14,-105,89,-71,-65,1,-13,85,75,85,-44,-7,-25,17,-2,-78,-7,-70,-51,56,83,28,-120,75,-112,-5,-43,-11,-63,-53,-112,-64,-22,-103,52,106,122,66,3,69,-86,40,32,69,20,-52,116,3,-23,113,-51,75,-61,60,58,-25,9,10,-59,110,-10,118,-21,124,-26,102,-123,45,-73,-78,-15,-71,12,115,55,51,9,-127,-28,-39,82,119,69,-28,84,114,101,53,55,6,6,-9,103,58,-25,-97,-77,-44,3,63,-112,43,-69,-4,-77,-47,100,-54,-50,82,-3,33,-20,-108,127,58,-105,99,67,-75,124,-92,17,-105,-78,-105,80,-47,31,-127,-101,58,-91,-123,47,-42,-109,33,-117,104,60,-37,23,-113,-26,78,118,-125,4,21,34,127,-106,-57,-17,115,90,-82,-50,-61,-63,-52,-67,-58,23,30,101,-124,-78,37,42,67,55,66,39,102,11,99,25,-27,-27,-31,-33,-114,8,-32,51,60,44,0,83,-114,-86,-79,74,-55,124,-66,-29,-60,-91,109,-51,-103,14,121,43,-10,38,-69,-5,112,-3,-43,-27,12,15,-119,-110,30,-16,77,-128,69,-35,-17,-118,-95,-24,80,-19,-17,-58,-92,-83,-76,-26,-118,-72,19,47,110,-90,29,-124,48,-110,102,101,-100,-45,87,-2,15,4,-81,34,13,75,86,-105,-117,-79,23,102,46,-95,49,-14,-5,-124,-27,81,-7,-87,60,89,-23,25,-6,102,123,-62,51,120,28,-112,-78,30,99,103,-78,81,-128,83,93,108,85,59,127,19,-83,11,-82,39,112,2,23,1,82,26,94,112,64,-8,-53,118,-57,126,-109,-20,-35,-10,115,93,-113,-106,-34,-34,-126,124,-111,-109,-108,-32,105,-37,22,-108,29,-26,119,-61,-80,-2,-31,-1,80,-99,27,18,-111,94,125,106,10,-120,-42,-46,-18,-43,11,113,25,28,113,104,-97,-23,96,-66,-63,9,-117,-6,101,118,46,-107,-25,102,5,-22,-49,-113,47,112,54,124,-76,-64,121,38,-71,62,65,-83,-85,13,-87,32,-54,-61,49,-38,35,-84,65,83,-10,-39,111,10,42,-20,-101,-34,-95,13,-104,-70,54,-117,99,23,33,54,-82,-84,-51,106,70,-105,34,-59,111,-54,66,-99,40,-78,18,33,-5,-75,72,53,62,84,-18,26,-7,39,-24,14,57,83,64,60,122,-68,3,100,17,-78,24,24,-83,81,99,-49,85,-9,25,39,55,100,107,96,1,-11,17,121,32,-125,-83,-53,-16,-33,8,-67,-117,-24,53,-4,-95,-21,15,-58,-87,-51,-57,-65,26,-70,19,-57,23,37,-50,11,-34,110,-44,-28,-72,-17,108,51,77,-71,-105,91,-123,-58,33,67,-91,96,-87,47,-84,34,-33,65,39,111,-91,-32,23,76,115,15,-73,40,110,16,122,44,-8,-61,101,5,-110,-68,-18,79,59,-103,82,-93,-33,-18,-100,8,-50,53,-75,-122,78,-124,122,-36,121,44,88,-103,-14,-20,40,11,-102,-2,101,106,5,10,36,63,-7,-25,36,-75,112,59,-31,54,-128,-36,35,28,-18,47,47,33,-25,-76,68,-79,-11,60,-32,113,-36,-80,-127,-61,-46,9,-88,-39,61,-62,-44,-12,-12,-121,-28,65,-110,-28,99,48,-107,-98,42,-47,6,62,80,-82,-96,47,85,71,17,97,0,-42,108,42,106,59,-4,-121,25,-93,59,-21,3,-59,-26,-75,42,-17,-127,-2,-25,-30,-66,-70,-65,0,-126,-52,2,94,126,-120,-72,22,-41,-42,22,74,11,-65,-110,-74,-93,-45,69,102,-99,-116,28,-82,80,-33,-102,41,86,-11,-88,5,-106,-4,-92,14,33,-24,2,-109,105,68,95,-30,-107,-61,-52,9,88,92,108,-91,54,-72,77,73,-69,-40,-15,95,-75,-62,71,87,-93,3,1,-41,119,-90,76,-33,101,-49,66,49,-43,-33,-76,-36,99,-49,-49,38,-5,-46,-94,-93,114,-67,21,75,-63,-21,-4,119,125,126,-32,112,-69,-30,81,6,34,-114,-97,-11,-81,79,-23,-72,68,-3,5,78,-36,-39,85,-65,-95,68,57,40,-40,-6,-4,-69,-26,56,17,-77,-85,64,41,96,-106,-99,-68,-111,7,-39,74,-10,66,-19,-35,68,-60,-54,-112,-8,11,-4,-121,-108,-3,-110,-77,-93,-112,11,38,-38,59,-77,2,-92,-4,-114,11,-47,-101,-106,-101,-44,-19,65,-30,99,118,-92,0,-98,-75,57,84,-31,78,72,58,-51,79,-110,5,77,-40,-95,3,24,13,-37,38,-53,51,-116,103,15,36,-26,114,109,-33,-48,-18,43,107,-30,-117,65,16,85,-105,78,-69,54,41,86,-40,92,50,-7,-44,-35,123,28,35,-35,-58,110,-10,103,37,-39,-120,63,23,-13,79,35,-89,32,34,94,40,-13,118,-2,46,41,-2,49,122,5,-68,33,78,-68,83,107,22,112,64,-22,-100,-61,69,-22,37,61,60,116,97,-26,19,-13,12,33,-36,-42,-79,-69,-46,94,-105,-115,-70,-79,-118,-70,-107,-92,58,37,86,23,-59,-101,-111,-12,-12,-115,26,-7,-72,106,-94,25,-109,42,53,-19,109,19,-48,-120,-122,-88,34,-4,121,123,-68,-33,-14,-69,-6,-84,-121,-105,94,69,-47,-127,10,124,27,-71,-118,123,-94,-3,92,105,-113,-5,-126,-120,-96,-51,57,-7,90,-7,-99,-6,100,-85,-70,-87,-23,60,112,22,112,17,107,102,25,-39,-98,-85,123,-95,-30,105,-48,99,40,-37,-96,-93,-126,-46,-36,14,82,-28,126,117,-126,58,-8,39,14,-109,-12,-64,-128,121,116,-53,127,-4,-7,0,-1,49,-106,-88,2,-96,-70,-14,115,-109,-41,-67,-31,-15,10,-88,-73,109,42,93,-33,-110,103,73,102,11,-125,100,-109,-125,81,95,57,79,25,-87,120,-38,-26,0,-39,55,-34,-119,86,-110,-50,85,46,24,-42,123,81,86,75,-97,1,-19,7,-17,71,42,125,103,-3,-74,-100,81,125,-31,-92,-95,-25,-19,-81,-62,-83,-5,-15,-50,-79,4,-1,-36,24,-107,42,96,-17,-122,15,92,-32,-68,-86,126,26,-61,-42,-84,37,87,-23,43,124,-82,-24,27,111,102,72,-31,-10,-25,119,-124,35,40,126,25,-37,-96,63,74,87,-77,-39,89,-76,-109,-41,31,99,34,-66,113,54,-125,43,-14,15,-45,-93,58,-23,99,124,-13,-49,-17,-6,108,-36,47,-24,102,52,19,41,-38,59,-119,-46,-50,50,-89,-33,62,-9,-113,-11,-53,-64,102,80,-94,84,51,-59,119,33,-66,-27,-128,31,109,-5,60,-65,-65,-95,16,-26,26,-41,-95,126,14,-73,87,68,59,51,41,111,72,-101,79,-75,34,-94,58,18,99,103,-88,-21,-45,-89,-46,-4,-88,-67,-74,86,-113,4,35,-40,76,27,-26,74,58,-30,127,85,57,85,104,-114,-64,29,-18,-93,119,7,21,117,62,-7,-128,55,124,-92,48,-77,-24,33,72,126,-43,51,-92,10,-30,-96,-29,65,-114,55,-4,-104,92,74,-33,-90,-111,-26,-83,44,5,-111,23,30,-43,-48,-126,109,84,-84,-105,8,-84,96,-82,-69,41,-31,21,120,79,-26,-44,-126,61,-61,69,62,29,1,64,30,-26,86,-80,-82,-112,-56,-30,125,-118,9,-76,91,-12,-30,46,-8,0,-36,-100,2,62,108,-52,-24,69,119,-95,-49,57,-125,23,114,84,-120,-14,-41,115,-53,94,41,-56,95,59,-113,30,70,-112,-12,-24,19,25,17,70,-40,-43,14,55,-111,16,44,-105,-120,-28,-7,97,-33,91,-93,-9,28,81,-37,-122,-14,-93,36,104,-68,-28,-18,-107,108,58,-10,27,-124,54,96,-96,-62,7,-23,-15,-21,-41,2,-80,-41,-121,27,-7,-17,19,-97,62,-52,-104,-40,-76,-1,-47,6,10,-81,16,-106,102,-122,114,23,-12,-59,84,-120,18,74,87,109,-44,-96,-127,-34,11,62,74,118,48,14,55,-10,74,56,-16,72,96,75,-87,67,0,79,-71,-113,87,-125,69,14,-111,37,-50,109,-79,-68,-86,12,-70,63,-23,-84,-2,52,9,107,-112,104,-70,-107,-122,47,-111,11,91,62,118,-54,42,63,-2,53,-107,-81,122,-126,126,54,-47,-82,-76,-123,13,-108,85,112,0,17,-105,-11,80,125,90,-96,37,-32,83,82,5,-26,62,121,27,-17,79,115,-47,-91,-12,84,54,-44,65,-91,35,7,-28,-54,-48,32,42,51,98,73,-50,61,22,-23,10,105,32,-71,111,-67,-101,-112,-85,-43,104,81,-57,-73,-33,-96,-42,73,76,-84,-68,80,23,93,9,31,95,115,-61,-6,4,-76,17,81,65,-111,6,125,110,118,84,56,-1,-51,-101,56,-90,65,33,-39,69,-122,10,98,24,-78,-9,-91,-110,-95,102,-43,35,-9,70,-67,-73,-89,79,14,116,-23,111,100,-40,20,38,-124,122,-109,102,-13,-77,11,-83,-35,123,20,-68,-30,119,-60,119,-26,-118,64,29,58,-86,21,-123,34,73,-18,-100,-42,83,-22,94,44,-24,0,-128,21,126,76,34,63,-48,-83,-62,27,-94,-124,-75,104,-104,92,117,-13,-106,-19,90,1,-84,66,-23,-33,54,-99,-35,-68,18,92,-9,119,-72,-114,-36,19,75,59,-16,-114,-79,97,-105,74,8,2,50,-89,-8,40,-4,101,12,109,-2,-127,33,89,-90,-82,46,39,-47,-82,-50,23,48,-81,-118,56,64,-5,-81,-85,2,110,72,109,-48,100,-72,-81,-65,77,-31,109,75,-6,0,-85,95,62,112,62,-70,-96,-38,-101,-31,-98,-9,-112,-36,121,125,-94,-121,-128,111,-116,-28,-116,54,5,100,112,27,-96,111,-48,116,-90,-19,-124,31,37,41,-24,15,115,43,120,-92,67,-93,96,19,1,15,-81,121,-90,-74,38,-117,123,108,-75,-9,-79,-65,-20,86,-20,-27,-14,99,-78,-29,-70,-42,-107,-6,-89,66,-98,-10,-25,-72,73,-32,-78,-77,113,-11,-29,-86,-126,-12,111,109,86,75,-10,-40,89,-19,-86,-78,-5,109,125,57,-49,-93,-27,49,-12,104,-115,-57,-113,-23,92,87,114,-104,-99,-1,-93,74,-104,-43,109,-40,-103,-114,-96,-62,100,83,95,67,49,39,-40,106,-71,100,95,52,-54,-32,90,79,124,-12,80,-14,90,-104,38,-51,23,51,-7,-53,-47,37,-60,-72,79,16,30,-111,-10,93,-63,88,66,-17,23,59,15,-120,-49,-90,-23,85,-57,-7,78,83,22,-6,-4,-38,-57,-64,-119,125,-46,33,49,95,3,122,-73,84,125,92,-21,26,-18,-70,52,-18,22,28,-33,-105,89,-23,126,-86,-108,32,61,-110,-55,103,-104,16,-109,-61,39,70,-103,19,52,7,92,127,-78,28,-50,-7,26,59,106,43,-31,-9,-64,56,4,-15,121,-11,-113,23,-4,46,-81,6,111,-14,41,94,-120,51,-77,-19,-58,-122,-2,-64,123,20,20,71,-65,-31,-76,115,-61,120,111,8,-22,66,46,34,0,57,7,-78,-40,82,12,-68,105,-68,110,-53,-110,2,-112,-10,-63,51,117,-107,-110,26,-76,-97,-103,56,48,77,104,122,-65,-42,-102,8,-124,96,28,114,11,-11,-126,115,73,-34,-37,12,-59,11,-88,-35,-92,68,-95,-70,-124,-90,109,47,127,82,106,88,89,126,23,38,31,80,112,-7,-39,-94,-45,-51,-100,-90,72,4,-86,-77,77,3,-20,-47,-70,-20,86,83,18,-128,-78,90,-88,-9,-29,-92,64,84,-9,-66,-91,-71,5,-87,-14,-113,89,101,-10,-92,-40,91,-6,-124,71,45,-54,118,26,92,66,78,-64,59,-75,50,-79,-50,47,-6,72,70,9,59,120,47,15,-68,3,48,-104,3,-30,99,-97,1,87,-35,-108,99,-33,127,-81,3,-115,90,-7,-92,-35,99,-70,19,-90,48,127,40,-105,112,35,-125,2,-94,-37,-122,-112,32,22,53,4,40,-11,24,-51,-72,15,7,45,3,16,-35,115,78,99,-19,127,17,-96,102,1,-18,119,38,-17,-84,56,62,-88,5,-23,-51,124,61,-84,31,116,-45,-38,46,76,-72,-69,89,78,70,116,-128,50,46,-79,17,63,-96,116,-62,-55,-123,-21,94,1,67,-40,-2,-106,-89,-53,-3,107,95,52,110,-83,30,-70,-6,95,-18,91,-12,-38,55,7,105,-43,-97,-58,117,-44,-17,-15,-24,-23,-33,3,90,9,-126,72,37,-67,-114,-70,25,23,-127,-11,-87,31,-50,-21,-101,104,89,-40,-102,45,-9,-88,-103,-116,122,47,-114,75,-5,-118,-18,29,-91,-128,-50,-64,2,94,-73,104,-7,57,123,-76,-96,-15,47,86,-108,55,-47,113,-88,54,-51,57,79,-12,-69,-33,-26,-119,96,-53,-3,106,95,70,68,-75,28,-90,-1,-83,40,67,19,80,-55,-84,42,3,-26,-76,-55,126,49,42,54,-87,-79,-45,-91,13,-33,127,-117,-74,17,-95,-85,62,-43,-66,-43,28,14,26,124,42,12,115,19,-88,23,23,-39,39,-28,-23,28,59,4,-89,-15,42,-89,37,70,119,76,-63,-76,62,4,46,14,118,124,-58,-127,39,-34,97,96,-2,-126,-63,6,-95,52,124,121,92,39,127,-45,80,92,111,-121,-118,86,116,-14,66,-31,46,48,-95,50,52,-86,-30,-69,110,108,52,92,-127,20,25,110,-67,-78,68,11,51,-114,28,-70,4,-128,19,-51,102,-9,6,-11,91,-16,-47,-17,-58,-63,108,-29,-80,-50,-51,-70,-51,-25,-5,-116,40,125,-24,-102,-97,-55,74,51,-107,118,-118,-43,-39,35,6,46,69,93,-28,99,10,-94,48,23,-37,76,-56,-66,73,-111,-14,-19,120,59,92,-32,-77,-116,59,72,-75,59,-31,109,-101,-76,-15,101,98,-49,116,93,-83,-70,-105,8,81,-31,-82,27,13,32,-25,-116,111,-60,17,-66,-97,12,32,-71,78,-36,-98,-4,85,-101,77,40,30,47,-11,37,-15,87,36,50,-87,56,-46,45,68,-6,-115,-37,55,-18,79,-41,107,-32,49,-67,20,-16,28,-1,-67,15,-122,119,9,46,118,-62,124,-99,-98,113,96,-65,-24,-77,17,98,28,-28,103,65,-16,62,42,-22,13,38,7,60,-117,15,12,-56,17,70,94,59,-58,-90,-93,75,-107,46,86,-51,-61,-71,-90,80,-42,-68,-116,80,58,-6,22,-78,-116,95,11,2,125,51,-7,-61,-113,-86,-94,-56,-6,107,16,123,4,101,-77,-90,52,88,-122,22,-20,78,-42,-20,34,-128,54,62,47,-3,65,-71,46,-52,123,-11,-117,-62,-46,74,-7,-70,23,-128,100,121,-89,64,-10,87,-17,-127,102,10,111,6,110,-43,88,-120,-20,-29,57,45,26,-38,30,111,-18,24,-36,58,1,104,82,-7,-65,127,103,32,-51,61,17,-4,-21,30,32,81,98,-87,-73,-120,-12,-61,11,16,-22,33,51,-84,62,58,120,105,18,-69,24,25,99,-103,99,-83,-79,81,35,89,-79,-72,-54,127,-1,-123,-33,-74,-94,114,23,81,-48,17,-3,-122,68,76,48,-50,-50,-6,-97,71,2,70,79,-21,-123,-102,115,-29,-57,-119,-128,-103,-61,106,122,90,79,-57,-8,47,7,-107,23,2,108,-75,-113,105,13,-14,68,-95,56,15,-30,-60,-64,-59,127,-115,66,33,50,69,-127,-76,14,114,-38,-81,-109,60,-97,-8,89,113,70,-86,110,-53,-56,1,-43,113,92,37,55,-46,120,-23,34,-12,-36,54,-4,-87,103,87,-88,-116,90,4,-31,-67,-65,-86,-85,-46,-31,104,113,-51,-13,1,-112,-29,-21,-54,-117,56,-118,-6,62,68,-114,-15,101,7,-63,36,-4,-59,-92,71,84,-104,6,63,61,-107,-65,-16,-79,-122,-35,-96,35,-121,-16,-117,1,-18,-119,-95,3,27,37,-53,-94,-38,20,123,69,-82,-72,-68,78,-102,-48,-68,-51,26,-115,123,-123,34,-26,41,53,15,33,-54,106,48,61,88,30,-44,-67,31,-119,75,-12,-19,55,-8,-60,-83,20,-98,19,-128,52,-32,40,-74,89,114,89,41,-83,-13,89,-42,33,55,70,83,-40,-59,-44,-76,-99,64,32,118,-127,97,118,-51,119,-61,-126,38,-21,-115,67,-125,-116,115,-85,108,110,-22,-49,-125,22,-11,-90,-45,-87,-78,-45,-27,118,-78,-16,-15,-127,-51,103,-101,-122,20,73,-71,-5,46,-19,78,71,-25,48,16,113,92,-59,9,-76,63,74,-108,-41,-62,111,17,-39,-59,-75,-82,103,124,106,42,107,-7,-64,-115,-99,-34,-73,-113,-67,26,-5,-26,-87,64,-114,-82,-42,60,-37,-50,-11,-57,-44,-34,65,-15,125,85,-1,104,126,-12,12,-5,84,1,111,62,43,-85,24,-33,-22,97,114,93,-60,-1,91,13,-19,-71,29,-83,24,32,29,-84,-107,-59,117,-38,-5,-83,108,-39,-118,-54,-128,-75,-108,115,2,-118,-106,59,45,84,-44,123,-77,-94,-119,72,-114,35,-34,-14,-28,85,49,29,16,49,-113,-114,29,56,90,-59,-88,-25,58,-67,90,-55,124,-30,-86,-34,111,-53,20,-6,93,62,-105,-87,-102,-89,19,-106,-71,108,-98,-62,104,51,92,-46,-30,122,60,61,111,54,-47,-21,-115,124,49,-81,49,83,-60,51,-43,121,103,31,-79,-124,-34,83,58,97,-107,-93,8,10,23,-46,74,5,92,121,78,26,85,99,79,-73,-28,26,104,-100,-31,-46,-104,42,-8,34,-42,120,-36,-39,120,-16,104,-11,71,-75,-28,-37,27,-8,-103,-19,-46,91,76,5,-72,103,-101,8,102,-91,53,-128,-33,-52,-62,51,-88,12,74,54,77,124,69,-98,-7,-70,102,124,123,-107,-52,46,99,-17,-62,30,-76,-74,-26,-94,-47,-80,-11,16,101,7,72,-31,-24,75,-100,-18,8,20,-59,-14,-30,-78,-5,8,36,-105,-85,124,110,-31,-37,100,64,-35,-55,13,101,87,105,43,-80,-93,9,-102,-55,-115,87,36,99,102,-67,85,-23,117,8,116,-7,-8,4,-16,40,-34,59,60,122,54,-123,122,115,71,55,-15,-42,-77,-35,111,29,25,23,-11,-2,64,-108,-86,0,26,-30,-23,55,24,-26,26,80,44,35,43,-125,13,100,97,111,-102,65,72,-32,54,102,-100,-101,0,-106,-74,25,90,45,-53,-112,-117,19,74,125,105,23,-33,46,113,-80,-87,119,85,74,73,102,-51,-104,-41,28,114,52,42,47,-83,-43,-65,89,5,27,45,21,-77,-45,51,-52,-53,-87,48,-4,-49,68,125,-45,-37,-116,-74,62,69,10,72,84,105,-126,9,-23,-58,99,-116,28,-103,123,105,4,62,-117,9,88,23,125,-10,7,-36,112,111,-82,78,69,-72,95,-34,112,100,-54,6,105,-95,-91,73,87,43,10,-62,-22,66,-10,-31,-73,-22,93,26,-16,107,-96,-118,-77,9,-63,-8,74,-49,68,-113,-90,-106,-74,28,-123,-16,23,65,-17,23,19,107,85,32,13,-103,88,83,14,-44,118,-59,-78,-47,-68,-43,93,-106,-119,-30,26,45,-109,28,-64,-96,-13,69,-74,-127,-26,-119,120,-49,-76,-61,25,42,-33,-42,14,-68,33,-86,-57,-72,54,2,84,7,71,-37,6,84,101,-119,40,49,38,-92,20,52,-5,21,-20,-97,-119,67,98,-127,2,88,-105,-92,118,-114,38,106,116,85,53,-108,22,-16,0,93,107,123,-26,24,104,123,76,-43,60,77,15,30,-25,110,-5,60,48,-50,36,-20,113,91,125,49,-32,109,69,-73,69,-94,-74,104,53,91,-125,-21,-93,-107,85,-105,-97,-79,5,65,56,-52,-40,-48,-76,102,38,80,-42,-61,-51,-21,-115,17,16,-12,76,56,75,3,-71,87,-48,-111,50,76,43,-59,84,42,-63,93,-3,117,2,72,13,-89,61,62,-83,-71,122,81,9,53,-34,23,-113,57,5,-64,22,-19,43,-23,118,-85,-5,115,-4,92,-18,39,-24,-63,42,101,116,-124,41,122,-65,127,-72,-40,-121,83,48,-116,5,8,113,100,-111,93,-102,-29,-117,-8,-77,105,39,-38,63,14,-119,56,39,-46,79,-9,-103,118,-76,79,-52,-27,-19,-101,-48,18,111,60,-94,-6,77,12,-97,-23,-75,-74,-32,-107,-64,-88,63,8,61,-63,-103,105,31,75,125,27,121,31,71,92,-53,84,18,5,-65,13,-17,86,23,-20,-120,-38,-85,30,-8,-12,-111,-23,100,-39,-122,39,10,-102,115,83,82,65,121,95,-98,103,50,73,99,-97,-97,66,-25,19,-126,17,-94,27,7,91,24,-67,-91,32,-61,71,-49,-21,96,48,124,48,-118,108,24,111,22,-85,-49,56,-36,107,33,-20,-51,-121,102,83,-78,24,-118,-99,-49,101,84,-45,-102,-77,-45,-20,-12,-110,60,50,123,99,-14,-26,-72,9,100,-109,-1,-118,87,101,120,101,14,56,32,109,104,-31,-98,72,-86,-97,-27,99,-101,122,-120,14,-68,85,-118,-54,57,-14,-120,-41,5,-53,-60,95,3,-114,124,89,-84,-11,78,-87,72,44,-102,-122,21,44,113,31,-86,97,44,-98,11,-30,-87,100,56,3,-9,-114,93,-12,-86,33,70,-92,-78,-31,-40,78,-42,73,23,29,-118,123,95,-51,97,120,24,-75,-51,-68,30,-69,-87,58,66,77,47,-103,72,-84,-66,-103,-22,6,-49,96,3,39,103,-27,77,-42,-121,-66,-105,79,26,9,115,-52,62,-22,-19,-100,-69,62,-20,108,-54,-42,32,41,44,-115,-99,-54,51,-38,-33,18,-97,73,1,-117,-108,3,-75,13,80,105,109,-100,-128,-112,2,-64,112,-59,-14,108,102,-114,115,122,-111,46,-45,-89,46,32,-76,103,16,-116,-8,-103,-83,-11,75,-114,-56,-52,-62,-107,104,85,-15,-1,-99,-114,74,-70,-35,0,-65,-8,66,32,-122,28,93,5,-22,-67,-52,94,-34,41,57,11,94,45,-109,39,-93,99,-13,108,-19,-26,-17,71,104,-89,82,52,-57,-38,125,55,40,-114,90,113,27,-30,110,44,-109,87,113,-46,-61,-52,104,111,52,-91,34,2,45,79,26,-63,70,85,29,-94,-121,67,70,-42,-107,-15,34,-47,48,-106,78,-22,34,52,-70,51,125,13,-69,-64,91,-67,-2,79,57,-107,-65,-104,-52,-97,66,33,-10,116,-29,-96,-61,-61,53,-105,-103,126,-126,-16,28,-30,-128,54,45,58,-109,83,91,-88,-124,-27,119,-51,108,31,-39,96,-98,53,41,52,-19,-83,-23,-7,-21,106,-13,-97,-57,13,-92,81,71,-37,33,81,35,10,-95,-125,53,42,-71,10,106,-85,55,-71,101,76,-25,-39,-105,-115,107,5,-7,55,68,-16,34,91,-76,-71,12,-56,84,123,-79,-37,42,-41,-19,-65,113,-29,-93,51,-100,97,98,-69,93,-53,1,119,-120,42,85,-88,-53,123,-14,92,-101,48,33,88,76,80,-56,127,56,-25,81,33,76,10,-26,91,-73,-46,97,16,65,120,-3,-53,90,-31,91,104,-21,-81,119,63,-82,-95,-76,-78,26,-13,-44,75,19,-124,-95,81,89,56,-86,-88,27,123,-102,-69,-122,88,60,19,115,111,-5,-9,93,101,-61,88,89,52,-103,86,-126,1,-36,-107,35,116,78,-58,64,-38,-114,-8,-4,48,88,-125,16,91,98,-26,103,38,98,-34,-122,35,22,-59,36,125,-108,-125,36,-105,19,15,-39,-39,-22,-88,91,-50,95,-99,-67,-106,-104,-29,53,-9,112,20,50,58,104,92,48,-69,53,75,28,33,-77,77,4,-16,71,-41,-13,121,-30,-95,1,-68,-90,-103,-7,68,-36,92,60,25,34,75,106,119,-15,-56,58,0,-45,25,12,-81,6,-24,70,78,84,48,-46,103,121,87,-127,68,-63,32,122,-83,82,-41,-50,-51,-121,58,-40,-92,108,-108,52,61,86,71,21,-101,8,-74,95,-57,-65,28,-56,-121,-54,-1,-36,44,30,95,-35,93,-115,77,7,-80,18,54,-111,125,-63,-71,-72,-2,-109,10,-40,-56,127,93,-95,-63,-35,-107,23,-31,76,-97,64,91,-73,-13,11,94,124,-60,-35,80,22,-67,-127,-33,-120,3,24,49,-77,-38,-54,0,-64,-75,68,67,-32,-38,-39,117,24,113,55,104,98,89,122,-109,-116,-4,-63,-37,-9,-28,-77,-5,28,68,20,104,-70,111,-112,79,110,52,-75,104,-37,83,-37,25,-103,5,-95,-97,-2,-122,-72,72,70,-80,-110,-47,-45,-60,-63,30,-75,68,-27,-120,84,8,102,17,-20,22,-16,57,66,27,-111,36,-58,-60,-46,-44,40,86,72,48,-47,-45,-109,-109,114,61,33,-49,-36,78,-122,-12,-21,-99,119,38,82,54,25,30,91,1,58,-16,-46,51,-41,-47,-111,-128,-119,114,-9,67,51,-2,17,36,-117,-75,89,-17,85,70,118,88,-114,68,125,112,-108,-32,-64,-45,-65,-15,55,-48,115,105,-62,115,0,-128,-29,36,76,88,70,-115,-57,67,-68,-12,-51,-22,118,29,-87,127,-96,-49,-76,20,-50,125,30,-99,88,47,-73,-84,54,-105,-83,-111,-31,-52,109,124,-66,62,120,89,38,-40,-76,102,-33,32,-29,-13,38,110,-79,9,-87,111,61,-78,-19,43,-41,-108,68,76,-127,-13,20,75,10,-114,66,5,27,-66,-124,48,-52,90,-117,-75,-2,-43,50,-100,76,-99,68,-118,83,49,11,-17,108,55,42,79,3,34,-26,-82,89,112,-72,-120,0,112,115,80,-108,-22,-37,-4,-101,-104,80,-31,-63,29,73,67,-37,20,-64,41,-14,74,80,105,98,-74,-107,-27,45,-94,-76,-49,-114,74,-39,-30,-64,125,-55,-94,115,78,-21,-17,69,-30,102,98,81,-39,28,-65,-35,127,84,36,123,-112,56,33,84,-115,-62,125,-104,24,59,99,-69,-68,-111,-123,88,-45,115,-58,-55,-58,-77,-63,-91,92,-92,-124,-62,-113,-11,83,121,32,109,-61,111,36,-117,-93,125,-49,0,66,-127,-26,-14,-105,28,2,46,-12,49,-68,-65,-96,-12,-28,-65,-17,-88,39,39,108,49,-65,-64,18,-17,28,99,-96,-107,-108,115,-77,93,80,-128,-88,33,-99,-80,-20,47,-91,29,110,-38,23,-118,-6,-80,45,-32,-23,94,123,-104,-5,62,49,35,40,29,79,85,-34,-123,3,-1,-29,-93,52,55,73,-42,64,91,-5,-62,82,64,10,35,64,62,-112,-94,-36,-53,-10,-34,-49,48,-109,87,-32,71,35,-42,9,-59,119,29,32,-68,-53,-75,-66,60,26,-62,-19,55,-30,-107,-97,-1,-122,30,32,125,106,-8,-119,-48,99,85,107,18,104,43,-98,14,101,-40,50,35,17,-128,112,-92,-51,10,78,20,-13,57,-83,2,-114,-53,-67,8,-37,102,58,55,-44,-43,56,97,-126,-55,-128,-43,26,40,32,5,-33,44,27,32,81,31,-56,-20,-120,-109,47,-99,35,63,74,78,34,87,65,-37,16,-6,49,17,78,-101,92,4,120,-8,-12,102,53,47,82,53,-26,23,-35,34,36,18,70,87,9,82,-37,28,-11,96,62,12,-62,-72,-63,-70,-26,87,-49,25,-88,-26,112,-47,6,-70,-125,16,-118,63,-2,-13,-71,-38,22,-90,-66,-29,-72,-43,85,-66,3,-103,-17,95,43,99,35,-6,-126,-43,107,53,90,84,37,21,57,-11,-101,-1,69,38,-128,77,117,17,78,58,-46,76,-58,-48,41,102,59,-64,-14,-46,-76,-27,-45,-51,-103,-84,114,-123,-114,42,-69,69,-4,-98,-84,1,48,90,-101,-22,43,61,-28,45,-76,-120,71,119,57,81,-109,-124,69,-67,-122,-122,-112,88,-115,-77,-15,-93,1,-111,-82,-89,-75,58,-50,-12,-67,103,-26,-27,-34,87,-37,-89,-40,96,-51,-121,-40,28,31,-33,-100,39,10,-95,-112,101,-33,83,-66,82,63,-82,126,-70,-45,28,26,102,-37,66,84,-24,-94,105,-116,-99,-86,-1,-106,25,57,-89,6,-128,-38,-48,-87,-42,60,-4,-90,66,37,99,-112,-128,-76,-54,47,85,55,-116,40,-41,-40,-126,-34,-35,83,-15,52,36,122,102,96,-60,97,127,79,-64,68,60,50,3,100,-71,48,-96,31,-19,55,18,-53,-75,-111,-111,33,55,30,-91,96,-19,116,-7,50,-57,-82,100,37,55,-21,82,113,117,31,41,-39,4,-80,-4,111,-84,-4,84,-39,84,-29,39,-90,-47,-78,-48,114,111,76,-86,-64,43,-123,41,100,-8,99,-64,83,44,97,66,-35,-33,-23,11,117,86,94,36,108,-122,-74,73,-82,11,102,-28,-127,-106,-32,-112,-105,-52,-38,116,94,105,-123,-96,44,49,115,-121,-9,23,-89,-108,69,73,27,118,100,-1,37,-73,-106,-61,-37,-42,13,84,-113,-119,-81,34,112,97,97,69,62,-96,-39,-70,-88,-107,-71,-61,104,101,-27,84,-103,-87,-100,70,124,21,-57,14,-17,-34,87,-29,-108,114,-66,-120,-88,100,45,31,21,93,120,113,43,34,-1,48,57,-64,111,33,116,4,-40,-96,71,38,48,-96,-7,-117,-33,-56,-49,-53,-114,-47,105,-98,15,95,-113,-72,95,38,35,89,5,-111,27,8,-94,-117,106,92,103,-27,-15,-105,102,99,-107,7,111,-111,-125,-72,-21,102,-35,120,-125,-73,-4,-4,8,-22,49,-54,14,1,88,119,-83,50,86,33,-23,-5,-61,9,-82,52,10,119,-56,111,96,47,-40,-107,13,87,-49,-51,-118,-57,-115,117,-56,40,64,103,-101,26,-128,56,53,49,-31,84,-89,43,38,125,-47,77,49,-65,70,-107,79,124,-33,126,60,46,-47,18,2,97,-126,-81,-91,85,-27,-101,-70,-49,-55,71,65,-40,-125,21,-79,59,-10,-124,-110,46,122,-126,-65,16,81,122,-42,8,-52,26,-107,-18,-73,-25,41,22,-124,-53,-110,55,16,-122,35,-72,-102,-109,105,127,125,-98,6,118,-59,120,-15,-71,79,-11,106,-49,114,27,-76,-72,32,-40,10,108,-70,24,82,-64,124,105,-106,-105,-100,106,-70,28,-11,46,100,72,48,52,-19,-44,-101,84,8,-93,110,96,-66,-56,-31,-75,-65,-5,-100,-10,-33,50,-27,-67,38,-71,-17,118,-16,-127,-46,17,-41,-91,-4,72,-99,19,-105,-29,1,3,42,34,4,54,51,-35,99,98,-122,80,91,20,-124,-30,89,13,-48,-88,93,-95,-68,74,12,24,-11,88,69,-23,-110,91,29,-26,-29,75,-21,-28,-4,83,5,70,-123,-91,113,79,-91,-16,-103,3,48,-41,-20,-114,-31,-28,-121,-50,97,73,-8,21,-24,-111,-10,112,-5,70,95,9,-73,-47,38,-123,-54,23,96,-116,-24,-112,39,102,32,-20,-120,95,90,-105,8,50,114,20,-19,-45,-115,-103,-70,-69,-50,115,-120,81,-91,-47,-48,-19,9,127,-107,-73,-122,-20,33,64,-55,111,-110,82,51,50,-68,-100,-10,22,-41,-124,-35,-115,-78,-9,4,115,-25,16,10,39,-13,125,-98,73,-79,73,-9,-118,40,46,66,125,113,-45,-66,-63,-119,44,34,-17,-40,-53,40,61,58,-47,-81,-59,-120,92,-112,-106,86,-10,105,-86,69,-28,40,-23,-103,45,31,88,85,45,61,8,-32,11,21,86,-35,-96,-74,-8,54,59,-2,-128,97,61,63,120,51,-20,-83,-114,26,37,60,69,-47,-27,112,-55,-69,-103,-30,31,-60,33,118,82,-58,76,-16,17,-30,68,-73,85,52,-36,79,-103,105,-16,-2,124,-71,-83,90,123,82,68,-21,118,46,-127,-27,14,-50,23,63,-101,-110,-83,48,78,73,76,-84,-51,115,-25,53,-51,-18,-25,38,43,-100,-71,105,117,-48,70,-110,113,-91,30,-3,80,126,47,45,-125,40,-62,114,-28,126,22,127,56,-83,-22,-52,-35,-13,75,-121,20,-22,-72,85,16,16,-49,21,27,82,-121,-7,65,-106,-40,-106,-75,118,109,-77,95,92,68,-64,92,60,54,-28,-7,-80,-101,-105,-57,-99,-59,-24,24,5,90,-81,-9,84,-5,-107,105,-29,-92,98,101,120,-37,-114,-86,-71,86,-27,-61,63,43,-32,-92,-118,-79,121,-40,-12,24,53,-108,-101,43,-99,-25,16,36,-103,-11,44,-115,-102,-54,-49,89,48,41,36,-51,-92,58,-19,54,57,-114,-95,-80,77,-92,67,43,-41,-122,77,-120,-18,-113,31,-69,114,-83,-79,-126,12,49,-31,77,-24,-124,-89,45,125,-113,-102,-62,114,-18,108,-54,35,-90,-109,-42,26,53,-33,-116,-127,49,-90,-87,66,27,-39,107,-105,1,-88,-67,-119,18,-20,-50,-114,40,0,-66,51,-28,18,10,-13,45,38,-115,-114,107,9,-127,13,54,-121,-44,77,-87,67,-1,-20,-17,-99,-32,113,-5,-108,61,75,-19,0,-17,38,39,-110,81,-99,74,-126,-107,56,42,6,47,-28,79,-38,-38,-106,83,61,77,-38,110,-14,-46,-57,-69,91,-119,-115,92,6,-107,55,-72,98,-87,63,72,-67,-16,119,-19,15,-88,99,113,63,62,-82,109,2,-80,60,1,55,107,-79,-32,-61,55,110,-39,-8,89,-74,66,111,74,60,-76,-28,-80,110,74,36,-33,15,97,120,38,37,-65,-57,-125,122,85,-72,97,81,38,-60,-90,58,64,124,-74,42,87,-1,-100,-95,97,103,90,-45,-54,-55,-32,-128,-65,-24,25,-100,85,-69,111,-17,80,93,-20,-108,-77,8,29,5,-89,8,-89,59,8,-80,-107,-36,111,57,-113,-88,12,-104,101,-99,85,-104,125,112,-34,126,-71,47,102,-79,-112,28,51,105,-128,-4,5,121,116,94,-38,119,-104,-23,-21,63,98,-38,40,-111,-72,-87,51,-97,-69,72,-57,-24,33,-95,-76,35,-68,-122,24,124,50,80,118,-90,66,4,-17,-33,-10,23,92,121,13,49,-17,102,-15,25,0,22,10,41,28,-18,-68,-22,119,125,122,-57,61,37,-87,116,-46,-96,100,-59,71,-60,115,-123,32,120,-96,102,-37,-120,-111,-84,31,81,102,-54,-21,-44,-89,96,90,19,26,110,-47,98,-75,85,-72,11,-53,2,-53,-40,-11,11,46,-112,112,-64,40,12,118,21,-79,-50,119,-121,-21,85,-128,-79,-65,74,-40,14,-45,-98,-87,-34,-59,-80,107,-17,6,-45,-11,113,-91,-94,84,49,86,-68,43,-122,117,6,-70,79,60,-58,0,114,97,67,24,113,-53,-120,27,-27,-37,-118,80,19,-57,107,2,-71,-93,-35,-91,12,90,22,24,-43,120,-121,57,7,-120,-120,124,-121,-104,73,39,18,101,90,-80,64,-106,90,74,81,28,45,48,123,-103,-29,-53,92,-38,-35,59,19,-53,-111,-54,39,-31,-109,73,111,-16,-59,-113,-121,-80,-119,75,120,-47,-82,-107,-81,127,-74,107,-31,-15,40,-73,5,94,66,68,-48,95,-109,21,36,-21,-105,-76,-89,-103,83,121,99,-24,77,-36,-99,-20,82,14,-19,88,73,-19,75,19,96,-24,14,-106,43,90,18,54,-37,117,-26,73,-85,-30,-42,-32,26,24,-41,74,118,-66,-70,73,117,-99,-97,-4,77,45,106,53,44,29,-18,-85,75,-101,81,41,-30,47,-33,118,53,-96,-8,-65,-114,39,-67,-126,-21,83,115,126,50,83,100,118,23,73,-24,118,-66,-125,-16,-53,-92,20,-76,-75,80,27,-14,-11,97,-71,113,12,27,123,-2,68,-39,-77,16,62,-75,9,-81,3,-105,84,119,96,42,-111,-39,36,-78,-59,17,-75,-42,-98,-3,-78,18,-90,-47,-73,-3,-56,-126,76,-79,123,10,124,118,18,-92,109,103,-46,-79,69,113,24,76,-98,95,-119,-62,77,120,97,112,-24,124,99,-45,-57,-93,-72,46,-101,-94,-101,96,-48,26,102,39,109,-78,119,-99,-107,47,-44,-118,50,-115,86,58,127,-36,29,103,-24,46,-63,45,46,90,-108,58,29,-14,-31,47,-117,115,-64,55,-17,105,76,59,86,118,31,-114,74,71,102,-69,62,2,100,-35,22,102,-125,49,-52,15,-110,-19,79,104,51,-42,-74,27,117,-32,90,51,-120,1,-81,27,-13,110,54,-63,35,64,-87,-82,15,-65,62,-88,-55,-56,-25,-75,83,100,-21,3,76,114,-5,18,117,-65,125,-85,26,-46,-2,-13,-3,-22,-35,111,25,-48,119,76,102,-61,17,60,-33,-74,71,100,0,92,9,47,-65,-55,27,-43,-49,-8,-53,-99,-99,-114,-44,-86,-114,-46,114,-84,-122,-98,-56,0,-79,53,27,94,100,-108,59,-84,45,-99,-46,64,-17,-19,45,-43,-17,-63,72,-13,12,-114,14,-115,110,-80,56,-100,5,-104,-45,-99,-74,87,-57,113,-93,-4,-89,-68,-128,88,-38,-118,-27,-45,-79,114,3,-34,-95,69,-37,46,68,124,-107,111,80,-84,106,99,107,85,118,-64,-59,-13,-10,45,-26,-95,27,64,48,-71,120,-31,-118,-13,-28,-21,67,-95,4,-98,10,-85,-92,74,92,99,68,91,86,-43,-9,-66,-98,-14,25,67,106,-113,26,-51,90,-60,1,113,-31,96,121,-45,-98,89,104,-8,-48,96,39,60,94,-112,-113,-27,-83,73,79,104,-26,-69,8,-111,80,5,-101,-35,120,57,-25,100,62,-119,78,-34,5,-117,44,23,-13,-115,116,-104,23,-83,-75,-22,125,-49,87,34,-26,113,38,51,-30,-39,100,60,-103,11,27,29,-101,86,39,92,109,-16,-86,34,63,-88,92,-89,40,33,106,-13,-119,-39,-68,-92,109,-106,10,-38,50,-16,-41,-108,42,121,-24,120,93,-29,-114,-37,-107,-35,-121,50,-39,-101,-112,87,98,-99,-4,-72,124,-128,51,72,-119,-108,80,22,94,-87,90,-114,-53,99,126,-81,48,88,126,-8,47,106,-109,111,-38,-45,-115,-32,114,-72,121,-69,45,-40,112,-63,2,76,-20,-70,44,28,-30,29,-5,-20,84,-128,106,18,57,-25,22,-124,-114,-55,63,59,-68,-77,88,23,118,1,-39,-3,-6,74,48,-46,-32,47,-23,-7,-37,-99,-21,2,-9,-34,57,-48,-77,41,-120,-45,66,98,-55,114,51,-22,-76,117,-22,-92,97,30,-28,28,51,-18,5,42,-34,102,-119,42,-11,122,-37,-116,-110,-88,-51,-6,-91,-97,-41,-21,-112,-89,103,104,-55,-109,108,-97,62,25,-42,77,70,20,-121,-83,115,112,-121,-19,112,74,-89,51,70,-73,68,80,-95,-18,97,-67,-16,-57,62,-100,-50,-119,-80,77,-92,-70,35,83,-115,-56,26,38,-117,38,-109,66,51,-32,7,81,-12,1,-107,40,21,-123,1,-92,80,92,-79,56,85,-89,96,-40,36,1,-125,40,75,-53,9,-120,72,91,-101,53,-89,47,-115,-59,-60,-38,-65,-32,-86,118,86,111,-4,-17,107,-11,-16,-72,11,95,65,-8,11,-80,31,100,-68,23,-86,-96,53,-72,-125,109,-117,61,-110,-77,-32,25,98,73,123,-107,0,-27,-77,-25,-34,-3,77,-36,-4,-72,-90,-98,-30,-26,109,15,112,-84,-111,40,88,118,-123,52,-59,-127,-86,-39,-122,-75,-119,-48,63,-80,46,-80,87,-53,119,-1,64,80,-53,-101,33,92,50,-58,-121,93,-82,-91,-7,-39,10,23,-39,-67,-83,49,4,74,-113,-62,99,-126,109,-125,-71,60,-67,-46,-32,99,62,17,13,-33,-77,-71,109,-31,-114,-25,-16,96,-67,-9,-85,-11,-32,-43,-62,63,35,-43,101,9,87,-93,-64,-66,69,37,47,-37,50,-61,35,-84,-48,-105,-21,100,99,-67,75,-47,52,103,35,19,20,-115,-97,-7,102,28,-14,-10,72,15,-125,34,-63,-95,61,24,46,-21,21,-14,16,-15,-104,-8,10,27,-108,119,-89,-59,40,-69,119,-120,36,-28,69,0,-10,-14,115,11,-19,-114,43,21,-98,1,63,-21,-4,-88,50,74,92,-74,-28,54,87,60,-30,88,-94,-67,80,-124,-29,-110,38,-33,102,4,10,-1,-118,-110,-81,-8,-89,-77,125,71,47,72,21,60,-56,41,-36,-27,-79,-73,-67,-76,-13,-6,89,-5,18,52,-58,-49,94,11,-11,-14,-51,-7,70,58,-20,-69,77,-72,-40,-114,9,59,-98,-70,-118,72,95,0,30,-35,78,-3,-73,-24,27,-2,33,9,19,-13,20,2,-22,70,57,94,-120,52,-95,26,-92,-1,56,-107,56,77,-93,105,-102,-30,106,12,81,34,-36,65,53,-47,48,18,-82,100,-7,113,-96,-43,40,30,-110,87,57,86,77,-99,-115,2,47,-117,-111,-124,-60,-53,-59,-7,41,90,-123,107,-83,-122,-8,-109,-88,-111,-112,124,-109,58,20,-87,116,77,26,-8,88,-56,110,16,-2,32,-41,-93,-128,69,-82,52,-72,126,-47,-13,-120,-122,65,-4,92,8,104,28,-113,47,62,9,-89,77,32,16,55,-64,-22,90,-88,67,29,-73,-71,-89,-62,109,-25,64,-47,-73,74,-52,0,-82,-85,83,20,104,87,-84,62,-1,-94,-45,-103,117,105,84,-45,-8,54,35,-69,56,97,-88,-86,85,-42,-74,-46,63,-28,-60,75,38,-29,-93,34,-26,127,49,115,29,115,-104,20,-94,39,-108,85,-117,-125,-100,127,-74,-84,13,68,72,65,78,17,95,55,-122,-69,41,-59,92,83,124,82,26,-119,1,16,44,-92,-90,-99,-77,115,-95,-99,-126,75,97,-69,43,96,-106,104,79,-71,11,51,-92,29,4,-85,-32,-70,-123,36,-104,-36,49,58,75,-90,-83,-78,-78,93,95,-2,96,21,80,87,70,122,-30,107,-79,-121,26,-10,-66,-2,7,-26,81,122,53,-33,104,81,22,68,37,-78,74,-50,-20,42,-117,63,62,35,-57,123,89,123,-121,114,31,53,90,35,46,113,-91,-54,75,59,100,-45,62,-78,55,-96,97,64,42,42,-42,-56,-27,-101,112,43,6,40,92,-30,60,-75,-60,-90,-52,-109,40,-10,21,47,20,-108,-70,-91,-45,-23,45,25,-61,99,82,4,54,-116,0,95,118,-78,-54,-119,-83,4,-118,91,87,-107,58,85,27,87,-98,-120,119,-114,-24,-12,38,-90,116,-108,73,100,-70,-55,63,72,68,34,110,108,-127,-124,-6,14,121,-58,-49,85,-62,-80,-62,-109,-103,-87,37,-80,85,35,-21,60,-46,6,11,23,-123,30,-62,-109,-13,-113,-81,-82,-49,-72,13,111,98,9,-14,3,-13,27,50,97,55,16,-5,9,18,-26,-9,68,17,-107,-124,-36,-122,-39,-64,81,-95,-60,9,-84,74,95,-47,88,82,1,-5,124,-73,-124,100,-25,-120,118,68,-65,-16,-90,-14,87,-42,-114,71,72,88,-25,121,-101,89,55,-95,-9,-89,-118,103,49,100,-68,20,-75,27,-45,60,122,37,67,93,-79,-112,14,26,65,-32,33,9,2,11,-26,-41,-44,54,-47,116,51,-37,77,-35,87,-49,-95,0,-80,-59,-100,-58,-1,-110,101,118,-94,-4,-39,-32,73,-80,43,60,-81,-87,-122,-39,-86,-35,-12,124,111,-85,-115,28,95,-57,14,1,34,15,-116,-124,1,56,-21,-23,57,88,42,26,-90,4,54,61,100,-6,120,-53,-27,-53,-15,56,6,19,-117,-42,42,-8,34,32,0,-57,-105,114,-82,120,-65,48,113,121,-10,83,-106,63,50,-103,103,60,-102,73,117,-53,59,87,113,5,106,-113,3,-93,32,7,33,-2,38,100,-57,-20,-8,1,-22,120,-13,-91,114,-8,27,-9,-109,-5,-127,46,-20,114,-66,86,26,-32,-37,-65,-66,-33,35,60,61,-41,28,-97,32,53,-123,-117,80,64,-78,-45,-94,96,-50,-10,-33,-96,-22,-34,15,-105,107,8,-108,-12,99,-118,51,34,-94,-83,-64,-25,11,41,57,110,80,9,-75,80,102,-122,-9,-97,-76,-26,-63,-92,77,84,90,88,-10,-115,5,8,-60,-54,105,-74,-55,-7,81,105,-84,101,94,20,49,113,-94,53,108,74,85,17,39,-87,-49,5,76,-9,88,-104,-87,41,0,-38,92,73,-43,-5,-13,30,6,-39,-11,16,82,-2,-18,57,-27,27,38,-95,-123,82,122,-122,103,-126,-53,-26,-50,-111,95,59,-32,-30,2,50,62,73,78,103,-38,-111,77,121,-1,41,51,82,-11,-21,111,-59,-88,-35,-38,66,-35,-69,55,19,3,-12,-43,90,4,-61,74,-8,-100,114,-101,-2,1,-11,-22,-48,-127,61,1,-10,-54,43,-59,39,3,-56,-70,-49,92,3,89,101,67,127,17,-118,84,48,57,43,73,-45,-82,67,-39,-29,-119,95,49,39,111,46,43,1,-87,87,50,21,49,-105,55,-104,-114,-107,-74,126,109,-58,-56,-98,-40,-29,120,30,-68,40,30,-45,31,-53,114,68,-105,-57,-66,-13,-84,82,-95,-108,-10,-36,-37,61,-51,-8,99,-96,43,-46,8,46,-22,-59,3,-29,-62,93,-94,57,-72,23,24,-114,40,-14,-58,-71,-109,-65,-74,-59,62,-108,109,116,-114,-67,26,125,-33,-62,-88,36,109,-8,-105,-41,70,15,91,34,30,120,-33,-120,-34,-67,-109,-19,-122,-97,-1,-101,99,87,-40,-11,100,-68,-55,-127,-99,120,-58,-30,-43,-20,18,22,-25,-15,22,-3,-25,-3,-118,-17,87,-128,-85,-96,7,-47,108,26,-54,23,-79,64,-45,101,-127,-98,25,54,103,25,80,17,-90,88,-49,-115,82,-109,98,-96,-44,-2,-41,62,94,44,-8,-87,-9,-91,12,-5,34,89,83,8,-17,-71,8,114,53,44,20,-100,112,1,-41,-13,31,-64,97,-90,-36,-44,-16,-30,-81,68,17,83,85,97,-87,22,-76,34,51,-88,-55,110,-76,89,105,-66,53,-119,42,-76,-96,-30,38,-42,-117,98,83,-17,81,115,-111,99,-45,36,-125,-126,28,68,42,109,44,-60,110,71,-110,80,-55,98,31,64,108,-17,21,35,-16,-112,103,-77,-47,115,80,107,0,-113,-88,-65,-30,-101,69,52,103,92,-15,-106,21,-4,92,-114,-111,-100,5,-92,-111,76,33,106,-92,-87,105,70,111,4,81,-56,48,23,-69,93,-69,21,-117,-13,-126,108,-69,86,71,36,63,35,28,61,83,-1,-99,17,-123,121,63,-66,60,101,-18,81,-92,18,-124,42,-41,47,4,25,115,-34,-39,38,114,-107,-66,-93,-120,-22,-61,-10,-97,26,121,-79,46,-40,40,-98,26,110,-40,-57,-89,-113,74,-33,-103,-96,17,-70,-122,87,37,-14,21,-96,6,-3,28,-16,7,-124,-81,30,-53,76,-30,-110,-61,123,82,-82,50,-76,126,-126,-23,-37,-12,115,106,-108,-45,-21,-40,-113,-64,103,87,-78,-80,46,-17,-28,-74,-81,-61,-124,99,87,-48,-23,-84,105,-25,-85,-120,107,-38,124,-78,51,-61,-99,-86,-49,-36,103,31,-107,-32,121,78,-67,-5,-100,93,-102,-87,-42,15,-30,117,53,0,-118,-2,-18,-2,16,-42,67,-2,23,-22,82,-123,102,58,-107,0,-107,2,49,85,-26,111,126,105,-60,-24,21,5,-98,-47,-38,51,2,-47,-128,-85,105,73,-48,-83,-128,89,-106,16,-41,-33,-91,-54,-26,-34,-19,-93,-99,99,-77,46,109,-22,-50,44,57,110,125,-104,95,59,-28,-41,57,-73,94,104,-21,124,-40,86,-73,-118,-96,-46,-33,-110,-46,-109,61,-6,7,59,-110,-99,93,-117,-109,-83,-42,50,-96,69,18,108,115,-72,-39,111,96,111,-35,1,-32,-54,36,18,-71,-126,15,-117,-91,104,-87,-21,115,42,-128,38,103,56,52,30,25,108,-49,21,-34,43,-109,-49,86,70,12,79,97,77,-87,95,-64,-47,16,124,42,71,-116,-117,85,22,34,-98,80,-25,122,-48,0,105,-45,68,105,-81,24,121,58,40,-54,65,-50,-96,-91,-40,74,-95,-104,116,87,84,-115,117,81,67,39,-116,-128,-58,102,-66,38,-128,-125,-122,76,-3,127,-58,100,-11,3,-61,-108,-33,78,13,-13,-47,-17,-30,119,27,-63,21,-96,-96,48,-79,61,7,-102,-34,43,45,-117,-78,-35,-89,52,99,-22,-115,-44,-61,-96,13,-108,122,5,-118,30,-113,36,6,-120,-106,-89,5,66,96,-43,112,-91,-39,-45,14,105,78,-77,118,50,-90,78,-114,-97,24,-53,5,-14,65,91,121,-2,82,33,-15,-6,-87,-114,-124,17,-48,115,-43,4,-17,79,65,32,-81,-102,80,-93,-36,30,64,8,0,73,-57,-60,-128,-1,33,120,31,-41,127,127,-32,-108,5,-101,-15,71,15,20,-87,-97,-79,-27,84,11,-69,3,13,62,-54,116,-122,62,62,-121,-63,-106,40,-78,-44,-67,18,-118,-58,-43,-71,-2,-12,62,-14,-51,-84,80,75,74,27,-105,51,43,123,-8,10,-99,-38,-23,69,84,-19,47,-12,121,-5,-42,-87,-4,-81,-34,88,-31,89,13,-127,-83,-87,116,-92,53,-99,10,-113,-83,-64,22,-120,-3,-121,-123,-115,10,106,-105,1,-58,82,35,29,-117,-17,44,-103,-73,42,76,6,-67,-81,-20,72,-8,34,32,-79,-38,85,-37,-114,94,-57,102,1,91,37,-79,108,71,4,6,16,79,80,117,59,-98,116,-67,127,-4,98,9,91,15,-96,44,28,-31,-19,106,22,79,-81,97,119,79,82,-82,-120,84,-26,-100,-62,71,56,-108,-44,-22,14,-32,-55,-81,62,-105,-32,28,-81,-62,-23,0,47,124,22,96,-44,-18,-51,-109,57,103,-105,15,-96,1,83,57,76,68,68,-121,-61,115,-6,113,44,-46,-108,105,-66,104,46,59,79,-108,25,-37,60,29,-67,65,102,-105,-124,-6,83,46,69,-116,-98,-105,61,-41,65,65,-57,-89,-70,-11,90,-117,32,-58,-121,94,119,26,63,-13,70,74,15,-35,-89,107,-37,114,-128,41,117,-36,-93,48,63,-7,-70,-50,-128,-103,11,2,62,27,-74,31,83,-16,121,108,-98,-58,-22,-40,-23,95,-16,8,-101,113,42,18,37,66,49,-128,9,-51,46,60,68,101,-4,106,59,27,-15,115,-105,-107,-21,-100,96,-72,22,-103,-114,124,127,-49,-117,58,67,55,-89,16,-39,2,45,45,32,-38,-97,-92,122,60,22,96,-124,-52,-3,-53,94,-51,-47,7,-118,-34,3,127,-26,126,126,33,62,-18,-88,-99,-28,109,-113,82,2,-54,-45,-92,32,-12,26,-56,-1,80,109,-7,-35,60,119,94,39,112,68,56,118,-37,96,-65,-54,-6,-79,-59,-61,40,81,-50,-2,-124,-122,-84,72,-87,90,62,-88,-24,-103,72,-100,-121,-25,-42,10,-17,8,96,116,-53,-30,-26,62,90,122,119,50,-21,118,-50,119,48,54,-123,-38,22,20,-96,-94,-53,-67,103,-66,-92,-71,113,96,91,86,70,-30,-12,63,-55,31,98,-69,46,-23,-105,-2,-105,69,104,-95,-94,115,102,11,-101,-67,-60,75,75,-105,60,-36,-111,42,-63,0,73,-69,70,-34,111,58,-20,-89,-122,44,-1,-30,-68,-18,-110,-96,-29,-84,-41,74,69,0,30,7,-81,-68,-86,10,-83,-92,82,-78,118,91,36,-57,-13,-21,3,36,43,40,-60,-28,-49,-29,-7,116,-52,-118,-24,95,11,-65,31,-56,-77,76,-38,58,78,-88,-86,-115,109,-69,-23,-18,-105,66,-15,-90,108,-37,-105,-128,-63,-121,48,-13,50,63,41,114,47,13,105,32,-42,116,64,124,-47,90,82,54,-100,103,17,117,32,25,-32,-69,-51,-101,96,-36,-65,-119,7,22,-119,23,-29,51,69,-119,-41,46,-123,-5,-108,-65,35,-97,52,-16,-102,49,-100,-6,30,93,-89,68,-92,-117,121,65,-114,-86,40,7,29,40,-27,-48,97,105,92,-72,-78,-56,-68,30,50,-66,126,-90,31,77,-2,-59,120,1,-99,78,88,-102,-106,42,-85,100,-83,110,117,-121,45,66,47,-76,-97,82,-106,-108,-82,-86,-111,26,34,53,93,-23,16,87,-42,-99,-95,-73,91,39,3,47,-33,32,11,63,102,3,-108,-107,35,-43,-78,79,60,43,-69,90,95,6,87,96,-113,-51,22,-109,74,12,-101,87,-113,50,28,55,74,94,46,9,-35,-14,63,-111,-100,4,75,-6,27,-16,-87,-8,-61,-44,13,-63,111,99,-127,59,-61,81,-123,-100,27,-118,108,-125,38,68,39,-32,-53,-68,107,-107,84,-110,7,69,-57,-30,-116,117,-108,-118,-112,-43,2,84,-67,73,17,-124,26,90,48,110,-77,-116,-11,-103,48,79,-45,-69,50,-2,-64,-110,127,-127,116,112,-17,99,-37,-66,125,34,-37,25,31,-107,-126,-58,97,102,123,6,-80,-82,82,-124,-18,-9,79,2,-35,-28,126,127,41,81,57,35,-80,63,2,-29,-113,-115,106,-33,109,-25,-7,6,88,-2,48,-110,-128,-86,-97,-43,17,14,-88,-43,-56,37,28,21,0,66,-57,79,34,92,32,8,-99,32,82,-26,48,18,76,-63,-84,-1,-68,-104,-94,92,24,95,-83,-80,54,34,61,0,103,-128,-64,21,-70,-57,-125,6,8,-7,-53,-128,42,-88,19,112,-111,45,56,-55,-64,76,54,102,62,-104,-50,-94,61,-69,-53,-11,16,28,-121,11,-53,-112,-78,41,111,-24,62,-107,81,18,-65,41,-42,-75,5,-45,-113,-8,94,120,-99,107,124,77,8,-52,-95,-25,81,-33,7,19,-60,-99,86,-123,66,-58,105,-23,-124,-97,-103,-54,50,-89,105,30,10,43,-118,122,-99,111,-116,-31,118,-72,-29,25,-87,114,-76,-51,-14,69,-75,-64,-60,44,1,111,17,80,-20,-45,43,82,-74,13,108,-8,-64,-75,123,-26,25,33,-54,70,53,16,-11,121,90,86,-50,69,52,-80,-45,17,16,-121,13,61,-56,-50,32,-100,108,-78,-4,10,79,-109,57,-6,-15,-3,88,22,-119,-125,9,93,-88,-47,-20,50,34,67,24,-68,55,103,-36,94,-97,11,-81,-119,-76,90,-107,32,10,46,-38,-113,0,-97,82,107,58,-119,-72,-64,41,49,-74,65,28,71,104,48,123,26,49,12,120,19,78,-73,-55,60,-74,33,-56,-66,31,-95,40,93,-14,49,80,-27,78,-39,8,67,-66,-27,-22,-90,-29,39,-97,56,-14,-90,45,80,103,55,-47,-95,67,100,76,-91,-4,-72,21,47,-112,-15,-90,-31,-89,-5,114,-43,125,10,-72,-51,108,-6,-29,-53,105,-7,21,-68,-103,21,-80,59,36,3,14,113,31,119,103,45,123,0,2,2,36,-33,56,118,-41,-93,31,7,57,-106,27,-83,-62,65,-21,-46,-5,-49,-31,-53,-122,55,-111,14,110,-74,-87,-50,118,-81,-103,-12,-79,7,43,124,99,-26,13,43,44,80,77,-80,91,-77,94,-91,-102,107,1,78,93,-44,-42,123,-48,-122,-18,58,-3,-88,-110,-95,37,-1,-93,34,103,60,-54,127,-128,-108,-83,18,97,24,123,-57,-39,124,-118,88,-10,-71,10,-54,66,53,119,-66,-22,-95,80,19,-58,125,23,-35,25,108,51,82,68,98,-34,-61,-122,83,81,78,21,-67,112,121,-86,8,9,-126,17,-78,-123,78,-127,119,-33,102,-34,-99,21,49,-9,-124,19,-62,59,10,9,-95,-93,49,62,22,-99,118,79,-62,22,-16,123,-111,28,-57,78,-110,-45,-74,107,99,-23,114,46,48,-65,74,-7,91,103,9,40,68,48,-70,-121,35,-5,-9,31,-117,45,125,-113,-103,-12,66,-122,95,-112,-13,110,-40,63,-10,0,31,-29,-96,108,69,41,62,36,66,-24,-10,-74,-1,7,93,-42,-69,42,118,97,72,-103,-35,100,-112,-126,79,-98,-61,-49,-50,-94,-124,6,21,91,-34,101,-37,-78,-74,55,-45,-124,77,-32,21,-37,66,5,10,-26,77,-1,-33,49,42,67,2,35,-1,-10,-26,-124,41,-41,21,50,-56,-40,-125,-32,75,-15,-8,-69,47,9,74,-98,115,-12,116,-46,-26,-66,-40,35,4,52,20,-32,-16,-30,11,-31,8,97,-2,-114,96,59,100,-4,-34,-28,94,-2,-114,102,-69,-44,-21,104,-87,-57,40,53,-79,-108,26,54,10,-39,-45,18,-63,-52,41,35,33,-115,74,-77,-104,89,25,-116,-106,-78,-41,-13,97,-109,-34,104,42,-57,-39,57,103,41,-86,121,-65,-56,49,97,74,-91,-55,57,-109,-11,-89,-71,-54,-32,-88,92,-67,-115,115,89,104,87,36,-107,118,106,-128,-117,-97,47,68,-21,34,-106,55,64,-72,-50,33,94,-29,-121,29,79,-110,-100,-69,-4,111,-74,8,52,75,52,126,-106,6,-109,97,70,7,-3,-47,102,-106,-56,45,-29,57,91,-59,-71,49,-25,-93,-39,-42,124,91,58,51,16,-117,126,-84,-34,-5,123,124,-107,3,-59,-8,-109,68,-34,-28,74,15,93,-25,37,98,26,45,47,-50,-46,24,51,68,-94,9,11,16,-54,-41,62,-60,65,87,-127,-106,-14,35,38,-71,121,-79,-67,-7,31,-50,20,-82,104,65,-40,70,18,-1,127,15,-35,50,62,55,-83,-55,-79,82,60,-1,127,113,29,-118,-117,7,-37,-19,65,-37,0,123,-4,1,-100,8,-51,69,-74,-106,26,-114,14,73,70,1,82,-24,12,-16,43,-107,-100,68,-35,116,69,112,67,27,-73,20,-96,45,-65,-79,-53,-12,122,69,103,-119,52,13,-43,-73,10,78,34,-119,45,-125,-55,8,-114,126,-107,33,-92,-81,75,-5,-86,-102,108,-87,-62,59,-25,47,24,62,-1,-46,-6,118,-41,124,106,77,21,-74,-103,18,-105,49,57,-101,84,-111,-100,124,-82,-103,-38,46,26,20,-123,96,88,80,-93,-120,-46,-114,46,107,117,108,53,-77,117,39,-43,103,124,77,-109,-44,-65,-37,5,4,-1,95,71,25,83,77,-5,60,-97,104,6,-46,6,53,69,-5,-58,114,-75,-115,87,63,-104,-46,109,85,-101,33,-113,77,106,-11,-11,96,-5,-49,53,95,124,-84,50,-73,124,2,-21,-14,-12,-117,127,-63,-55,62,28,94,21,49,-116,-103,36,-70,125,-61,-57,-39,77,65,33,-43,114,-7,98,-86,114,84,-109,-123,124,17,-92,50,71,-95,79,21,-15,11,41,121,-35,0,121,-124,34,19,-79,-119,-28,117,-81,67,-121,11,105,16,100,-88,-58,-5,-71,11,-12,-2,-71,123,-24,44,-106,-89,89,28,126,-106,48,103,-35,-40,-99,81,-75,100,-25,-20,7,8,18,62,-25,-47,40,-39,14,11,31,-83,-32,89,-31,12,46,-42,-14,67,81,-14,61,74,-70,68,119,97,14,-86,-40,-14,-105,112,108,0,23,57,114,94,-51,-11,114,-59,-77,45,-30,-20,-86,-84,20,-58,8,47,43,-56,-12,126,15,16,-54,-119,30,87,-6,116,-16,120,34,43,64,-2,95,4,44,-20,102,-20,-65,-97,-118,-102,7,-34,-105,-127,-85,91,24,-91,-3,-91,-87,-75,13,-98,-99,29,62,-82,71,-83,13,36,-80,44,-13,-100,19,-21,11,-35,85,37,-104,75,-31,105,14,100,32,-46,91,-20,124,-87,-124,-29,-89,-52,90,-122,0,32,60,-103,7,-88,-4,52,69,108,-56,95,-100,-28,30,-100,38,-67,-93,-110,-64,-14,-116,110,82,-44,55,-85,61,106,111,-81,-86,60,63,21,29,56,-13,-4,-7,115,26,28,85,-110,83,7,48,36,-54,-112,-101,55,-91,83,108,-118,99,-20,-128,-24,74,-19,-30,7,-116,51,-45,49,-82,85,-7,-33,-24,88,-49,89,-76,86,-84,-4,60,-95,10,-24,36,-73,-102,-48,15,23,-74,-60,74,50,-80,105,34,119,22,124,-26,-10,20,69,-15,-8,18,89,10,-119,60,45,-86,27,110,41,-56,25,-115,-51,-13,-95,51,-116,-73,-41,-106,-59,98,104,116,121,83,-51,102,24,-53,-22,1,63,-126,78,-2,-95,3,-49,-46,-33,93,85,-82,117,3,113,-126,-15,-35,25,86,22,26,35,-81,-116,78,69,3,26,-58,-127,-96,72,-110,58,22,-125,-43,43,-27,-62,-105,1,-87,77,-69,-58,-122,-8,112,39,-53,-16,-39,-42,67,44,-53,119,-116,85,-106,-28,-7,-60,12,29,37,9,-110,40,20,20,-87,-1,53,-42,79,102,-12,-37,125,-76,-6,89,25,-87,-90,-13,-67,47,113,19,109,-110,-105,-126,14,-39,-110,-53,-41,-88,103,-74,93,-72,109,77,120,-34,7,-63,-89,-99,77,-41,-27,-60,120,-8,10,35,9,54,0,1,-13,11,62,-111,-24,70,-79,-62,22,53,-28,125,104,-81,-24,-84,83,-69,24,75,56,75,-15,91,5,-56,21,47,89,125,50,-124,83,-16,-82,77,-115,-27,-6,-42,-92,-31,-15,16,65,-19,61,121,-53,68,-128,-96,96,-17,37,55,90,82,52,13,-95,47,-123,-77,7,-38,94,-15,-83,-76,111,94,75,127,123,-67,120,-101,-38,23,-71,-100,-40,39,-118,-71,-128,-58,-57,17,-11,-27,-65,-78,87,-13,-69,-78,-5,-43,-32,-63,79,-103,-108,-32,93,68,85,12,-88,21,87,6,-87,-71,107,-57,108,42,120,88,109,-53,-86,108,-101,85,123,-109,-123,-67,122,121,-46,-107,-6,5,-95,-118,72,8,121,-64,-48,125,-17,-120,-20,-122,-108,-6,65,58,-82,78,-2,101,5,-15,-79,-94,-40,-51,89,7,-56,-53,-43,-65,108,-89,33,-65,-64,-48,110,-11,2,-19,-42,0,-114,-120,-44,98,-126,57,-120,-89,-67,15,-80,-67,65,-14,-51,9,-61,13,51,-89,-32,103,-24,61,0,23,-74,-79,84,-80,-68,105,120,-49,-76,12,55,29,30,40,123,49,-99,21,-30,119,75,100,55,18,-118,-110,-53,-101,-112,-5,14,-8,-82,52,-16,37,-112,-2,-56,-108,43,-32,-99,43,14,-35,-123,-127,76,97,-3,69,7,1,48,-39,-98,-72,116,-86,22,-117,-62,91,32,53,37,112,14,83,-110,51,-79,127,91,-2,21,-71,49,-52,-101,113,123,-96,-76,-102,-42,12,-23,-113,-23,-54,73,42,40,-62,14,-33,78,-99,5,79,-119,89,52,1,-105,-61,-76,91,20,42,-63,102,93,-92,-35,13,5,-8,72,8,-24,-44,34,-81,122,65,107,1,-64,88,-31,17,87,60,-20,8,31,-74,40,-6,-103,56,-4,36,96,104,59,-56,-86,-4,-112,-40,85,-101,-40,-124,11,116,-19,108,17,-22,20,-5,105,-93,-108,80,37,41,119,10,110,5,95,85,-6,60,77,20,-34,83,-56,-3,119,-97,2,-89,-38,98,17,125,98,-97,-105,-17,46,13,-82,101,-28,70,9,26,-26,-77,19,-80,-101,116,-23,78,-90,65,-35,-23,-85,95,59,104,92,123,-121,-71,118,76,4,-76,-123,43,71,0,55,-64,37,84,26,52,-11,-23,-15,-111,73,2,46,-94,47,61,-59,126,54,-73,-11,93,-40,-119,109,39,36,-123,-50,-38,19,99,-31,-9,-63,-70,-52,119,-103,6,7,-33,-84,-104,-1,-115,-112,-17,-53,-58,-113,-29,14,-34,-30,-104,-91,49,-77,-25,-128,38,82,-124,-98,-53,-55,28,-89,-33,43,-50,-20,-8,90,27,127,-69,-19,-62,118,-105,103,93,104,3,29,-66,89,92,5,10,117,82,-64,-58,27,9,-13,-58,-57,-40,-40,85,62,52,75,80,-128,-83,85,-103,-125,-53,-12,-91,-47,-102,-9,-15,-55,-34,39,-36,104,-64,104,40,73,124,31,-111,0,-47,74,86,-87,27,-94,-67,9,-64,-101,-110,-77,65,-119,118,-128,56,127,27,109,-4,-56,-54,-103,29,66,-46,-110,-121,91,96,0,30,-122,-16,68,-80,-66,24,77,-36,80,50,-72,-18,-21,79,-100,-78,-46,-64,-52,-101,-92,-126,-95,-117,-10,52,105,44,55,21,-55,-94,-55,104,58,-12,-90,-116,125,43,67,9,-102,62,-23,-77,4,19,-5,127,-94,119,36,-95,22,-107,6,114,-44,-30,-46,115,-6,72,-42,57,-112,94,87,92,107,37,45,75,24,78,19,-16,86,-20,-19,-63,2,-88,-62,19,127,-92,81,26,-38,117,-57,-54,109,46,82,101,-68,-24,-109,-49,-105,-8,-13,-88,-87,-94,77,-37,23,-51,127,-45,39,45,105,-6,80,-59,-105,-128,-61,-123,-5,24,98,18,115,-119,17,65,-91,61,-6,41,6,-12,23,-5,68,-86,-94,-63,33,54,45,20,-116,118,-89,50,79,-23,48,-100,-114,1,43,60,-109,27,-103,55,13,79,68,55,12,-60,-58,-28,104,-7,126,66,-118,27,38,9,126,54,113,58,-38,50,43,94,90,44,88,-31,-85,95,-15,119,1,32,68,-112,20,-76,108,21,25,-86,33,-128,-48,-58,-110,-80,-70,39,32,-11,-119,-63,-86,-16,-97,-26,29,4,78,8,91,28,33,53,78,-17,113,-64,89,44,32,-30,-2,65,-17,43,-36,50,-39,-106,-88,-5,42,63,1,-41,88,-10,26,98,37,-19,-2,6,111,-103,79,-115,82,-127,-81,82,98,-6,-94,5,100,106,60,-94,-89,79,-46,66,1,92,-60,-117,87,-76,-99,5,-51,-8,-48,98,-79,-15,-97,-111,20,42,-60,0,75,-46,-48,-66,-111,125,-17,13,-5,-109,127,96,98,60,-88,-19,-100,123,34,-102,-32,72,37,-106,-35,62,113,72,-50,-113,78,-103,50,20,-19,1,-38,78,56,59,78,-99,108,-33,-89,68,-102,39,-125,47,103,-101,-10,-105,-110,-108,22,-34,-11,-80,-59,53,-54,-75,-8,-23,-119,-12,-115,-58,-29,97,-52,6,112,-73,-80,78,12,77,20,-43,70,112,7,36,13,-115,3,11,22,55,115,24,116,92,-99,21,-13,74,-120,95,31,-59,-66,-53,40,-70,-28,-126,71,38,88,20,-22,-37,60,49,49,-57,101,73,-23,-41,92,-60,11,-41,70,-34,-95,109,-28,-126,14,-38,-11,33,-1,-23,-70,58,121,72,55,113,-18,73,-9,123,105,70,-122,-128,-77,-35,92,-68,-58,-9,65,118,-5,31,107,92,14,-117,-54,15,-101,-113,11,32,11,126,106,-66,74,-36,-86,-115,45,-65,-4,-35,93,70,56,-107,56,-68,125,-86,-116,-48,63,-3,96,-14,40,-52,-85,115,-103,31,55,-20,-80,95,-3,-98,13,-79,-51,-86,8,-18,120,122,78,-34,-5,11,40,0,27,-42,-68,106,-5,114,9,59,-52,-49,88,-13,-119,64,44,19,21,79,13,-116,31,-112,-111,89,-38,16,32,97,-28,-95,-16,-13,94,93,-100,-122,15,-115,34,-85,-125,9,-12,-76,64,-9,-125,-84,56,-39,119,44,-122,-125,-2,121,2,60,63,-66,-99,-118,-95,43,114,-72,119,20,-106,-33,-116,70,79,67,7,125,118,-26,-76,80,73,-112,-11,59,-47,76,-64,59,-32,-40,-78,74,84,50,-52,125,-45,-56,-115,-11,-19,-70,-90,-18,-103,73,-36,-121,-12,-26,55,-55,-26,15,82,115,51,-38,-78,-82,109,18,-128,44,127,89,-62,-72,-117,99,-105,26,-30,71,-54,-42,-116,-115,76,-126,-126,35,-42,48,-63,-107,-40,84,14,78,22,89,-5,5,-8,6,17,-111,83,-100,-111,-54,22,-92,109,-44,75,-49,84,117,20,-63,-90,101,104,-95,-13,-67,-98,20,22,117,84,1,-77,114,100,-115,54,78,100,-126,-53,13,3,7,-98,-11,-16,-13,94,-57,127,54,26,69,101,-27,-81,-18,48,1,64,-46,17,45,-27,-19,-116,-10,16,110,91,-11,-59,-6,-18,-113,58,46,84,-112,41,97,111,38,115,37,80,91,-114,-73,-120,-128,-3,-31,-71,-104,44,127,28,-15,85,52,-52,-113,-60,67,-33,44,-16,55,-73,29,-77,64,39,-54,-27,-31,-8,-62,15,-28,18,55,79,50,15,-35,61,-106,7,27,0,-11,-24,-63,89,58,87,-44,-76,90,-8,99,-123,-116,3,-93,-115,42,119,34,85,58,88,32,64,-16,-10,36,-36,-79,81,-60,86,69,21,13,-74,-19,-124,78,51,17,-44,-116,108,-73,113,-103,39,-73,-80,-98,4,-18,17,108,-64,-77,-9,-2,74,115,-18,-49,109,-69,-49,-49,118,-123,-124,120,16,85,16,96,-49,68,87,-3,-65,12,39,-14,58,-73,-108,-72,3,-27,49,-86,-119,-93,60,79,-92,-69,22,-83,117,96,120,121,5,-68,12,-100,-20,-58,-47,-71,-123,-23,42,-4,57,127,-53,-8,111,70,110,109,26,-107,37,-109,-30,-30,39,-6,-111,95,4,-112,-59,69,31,42,62,47,-83,-39,-11,53,-87,-123,70,-71,112,-110,-26,36,37,10,-9,74,107,-7,34,54,-17,-110,93,-5,-63,90,18,77,-23,-33,-85,-40,45,-26,-3,-121,-34,8,-127,100,17,-116,28,84,80,51,-124,102,-73,108,-28,-4,-83,-85,113,-97,87,-48,-48,14,14,85,51,-82,37,86,57,-3,-30,5,127,120,-126,99,-60,-7,54,-33,-82,-42,-61,22,35,5,99,78,1,100,0,-57,-80,-64,121,96,48,-99,61,100,-115,35,118,125,53,-113,78,-20,6,20,-26,-64,-128,3,-63,2,102,-80,-4,1,-120,117,-11,-48,32,13,104,114,57,126,46,105,48,112,-45,74,-5,-128,-107,8,-89,101,-118,28,122,71,38,-40,15,29,71,-25,61,44,64,10,-126,25,-15,76,87,-51,-126,-61,5,-118,-54,80,-11,-107,49,-27,121,28,68,87,87,-111,65,-98,76,-112,11,-5,-94,127,-73,-12,45,72,92,-89,-102,-94,119,47,-125,-92,-74,-105,-122,57,-107,-106,-77,78,-116,12,-48,-46,44,-125,50,8,-35,-32,-61,-28,-106,-70,122,-13,28,-91,-94,99,-56,-110,12,82,-84,-99,-79,64,-38,41,-126,43,57,-9,125,96,49,-41,-42,-113,37,120,-57,9,-87,-44,61,-23,29,4,-124,-39,3,103,-63,37,124,60,90,11,100,6,34,106,70,109,40,13,-118,-77,7,-71,-37,25,-95,-15,95,20,-76,84,79,95,-101,-115,46,-9,56,105,10,114,-115,42,37,117,9,-45,-66,101,94,11,-126,-86,-44,34,45,-100,-101,-73,76,116,-27,-36,-7,-3,24,-53,-93,72,-100,113,69,-72,1,-84,-62,-92,-10,-114,114,42,-29,59,-67,124,-31,-97,68,6,77,54,122,97,-43,36,78,106,-82,-15,48,-103,83,-113,22,27,95,-76,-87,-74,112,109,88,76,79,-123,-91,-86,0,10,-76,-32,-3,-127,34,26,-25,-25,113,5,-6,-12,-104,-126,-14,36,123,-25,117,124,-68,5,32,-123,-107,-48,-41,112,56,67,-17,8,-36,-119,61,-91,-105,-20,108,36,-93,-127,28,-9,-52,98,10,-25,-63,126,85,-103,-6,63,-128,8,-119,-85,56,-69,41,20,-59,2,-30,-10,-1,-61,105,-94,-74,-88,60,-101,-101,-73,53,-110,-103,15,33,45,12,-59,-98,-32,102,-56,-40,14,-29,50,89,111,-101,-14,125,-9,45,-11,39,-97,-104,-50,5,53,-60,-47,87,58,92,73,86,121,-22,-73,92,-5,-113,-109,61,107,-31,-10,9,-5,57,32,55,105,-92,55,-87,-19,17,-22,33,-10,-51,-41,67,-68,-12,59,-70,47,-119,-16,-103,-104,-107,-86,69,36,-74,18,95,-73,33,-54,1,54,124,29,-56,-74,-19,59,-103,80,-61,5,112,5,-65,55,-115,81,-115,127,-67,-60,7,82,-18,126,-30,-5,73,-19,65,-10,68,-7,70,78,-67,-123,11,-108,-60,-12,52,-75,108,38,35,-127,79,14,85,112,-89,24,-54,-34,106,72,-89,-113,48,97,65,84,-95,-4,-127,109,-115,-121,-24,-96,-20,105,-45,40,72,-57,66,106,54,-41,75,-62,-19,-127,99,111,-58,8,-124,104,-78,-50,-114,-57,12,6,89,122,-117,41,69,-42,-93,93,-89,-102,-84,15,15,-56,-13,124,-34,32,-12,-44,-36,67,25,-78,12,-49,-18,-22,91,-26,-55,-40,-4,-70,96,44,-34,76,-85,-112,65,47,88,-61,-38,-84,112,-98,52,41,126,-65,98,-91,24,28,-28,21,49,-87,-40,-36,53,29,-89,-53,-52,-128,-75,-60,-102,102,109,-126,-57,-94,8,36,-114,-103,-83,84,-58,45,92,-77,-10,-24,-24,98,-83,-62,54,-114,23,32,23,124,-25,-85,126,-58,25,84,-16,-126,-106,-73,-13,112,52,-35,-22,28,17,-106,40,-107,-23,-9,-112,-115,102,3,-5,41,24,126,93,89,-49,48,102,120,12,-25,-61,-43,97,-19,98,-66,-21,-34,56,126,-22,47,68,-10,118,117,-37,-66,122,-18,19,-113,114,-7,49,-24,112,-7,57,114,117,-21,-94,30,43,-5,-12,-73,61,-9,48,6,-67,89,126,-126,-74,-74,108,75,78,-99,-105,15,127,-31,-81,61,95,-109,-76,42,-37,-113,79,37,109,-100,-114,-6,6,-24,62,65,-57,62,29,-108,121,-124,-123,90,32,54,48,-115,-58,-112,-69,-123,6,-114,-13,83,52,96,98,-93,77,113,-77,112,26,67,-39,116,0,6,58,-57,116,121,115,31,54,53,103,-85,-2,-51,-25,-127,125,102,-123,-65,100,124,33,-68,47,-9,-78,-87,-117,60,58,-46,105,-79,-121,-3,-9,-94,-17,-41,-14,111,41,-50,-74,89,-81,-73,-39,80,107,9,51,116,70,-74,91,-68,50,11,-101,24,26,-34,-71,-25,16,-58,-52,-97,-52,-92,101,-44,75,-15,-117,25,75,-95,54,7,-115,37,-94,-33,31,-22,-3,-99,-117,122,-103,6,107,99,25,-106,-13,94,-41,-85,109,-15,-55,72,-15,108,-93,-64,-95,-84,-74,-14,52,121,16,-16,102,-3,-124,9,39,-25,57,-72,66,100,83,90,-74,90,71,115,-3,-122,-46,121,100,32,120,-81,-73,55,121,125,-72,-80,-113,-38,-58,-105,-84,26,38,90,-112,26,66,2,67,-11,-123,120,-6,86,57,117,8,-42,-17,-16,106,-60,108,127,63,113,17,-114,108,-33,-71,-6,5,-66,71,8,99,114,-127,-18,33,43,-33,66,-61,69,118,-79,108,-25,44,-49,21,21,84,107,-126,-19,-122,32,21,114,-4,-56,85,87,102,-16,54,-76,64,46,29,-122,-79,113,47,17,26,17,97,-126,88,81,113,89,-80,-10,-116,64,-101,-99,25,101,22,28,114,14,-115,121,5,-75,39,-20,30,62,-87,-71,1,-68,-44,-107,15,-59,37,11,117,-56,-118,-79,125,78,-98,9,-47,66,98,15,98,-8,97,69,-111,60,-118,-14,-16,27,-4,-26,-115,-68,-1,108,-51,-8,60,102,118,23,-36,99,96,93,-24,-32,22,-39,-50,9,-79,-83,14,75,85,-106,106,-77,122,96,-120,64,95,-17,-74,-120,56,102,36,-75,98,-87,-96,-102,-49,42,-61,55,-20,123,76,-26,-86,66,-4,126,-3,-13,121,6,59,83,-104,31,8,115,-15,-109,91,-50,-2,74,-82,-20,75,7,20,-80,119,-25,-105,-67,-96,-126,-76,122,121,-65,-46,-90,-54,50,71,45,-122,-56,-39,-64,-122,123,-102,94,-59,48,75,-103,-119,26,0,-120,43,18,-75,-124,28,31,24,117,-7,34,-102,-104,-5,98,125,56,63,-92,-90,-94,-92,-11,-114,33,-90,73,-57,59,-52,116,-105,-49,-52,61,43,-61,101,48,31,-20,23,-84,-44,70,0,-123,-77,70,116,11,-90,-123,68,28,18,-54,23,-42,-76,-111,42,-7,58,55,-29,-56,102,-123,-32,-105,118,41,-22,-106,-51,67,109,36,-56,-63,-123,69,-51,50,-126,-92,32,37,28,59,-41,-31,-122,-121,-42,-28,38,-13,-84,-101,86,112,-104,-89,30,-62,14,-121,-30,-65,-120,10,-24,110,39,118,83,-61,-8,95,-122,81,-8,-63,-8,-103,-81,-71,112,-123,-26,16,90,107,-91,70,112,-14,121,15,-70,-43,-31,39,77,-69,-84,70,30,100,104,-36,26,-52,36,-20,-87,22,-79,-95,68,107,89,120,33,-87,-41,9,-83,-31,-13,95,81,109,7,-74,-25,-109,126,99,-93,-107,12,80,-44,25,107,58,18,37,111,-22,-39,-44,-102,92,-46,-115,2,-24,-27,3,52,34,127,80,-69,-67,-47,6,55,-100,-128,-62,-123,108,-25,62,-125,-128,26,110,6,-102,22,120,63,-109,-62,-119,22,-54,57,-101,-18,123,-10,121,-42,52,62,-65,107,-39,-19,105,-37,37,68,114,48,-87,-34,-93,-12,105,-102,38,-44,-108,-95,-3,69,-87,31,-53,-109,-75,103,42,118,-35,-30,33,9,-4,115,-75,-75,4,-22,43,-94,-10,101,-32,79,-106,-87,-128,-32,-52,-82,110,-35,-93,-36,95,-101,102,-58,-107,-77,35,-39,20,126,87,8,-125,65,111,84,115,-77,-125,105,-13,18,-83,96,67,-57,-112,-119,-43,121,-3,-54,-106,113,88,115,79,-54,85,-43,-62,45,-100,-13,54,-117,37,-6,-36,-121,-32,-29,25,-33,-10,40,-18,110,83,89,-64,-110,88,-20,39,-14,40,-30,11,-93,46,-48,-60,13,-83,-39,-6,57,-90,39,71,72,9,-122,-118,33,-27,121,-71,85,36,101,-9,112,-53,-124,-62,43,91,125,-38,-11,-42,8,10,-50,-107,9,26,-49,-112,122,98,-121,5,-122,-126,85,-57,-42,84,41,35,-85,-112,94,45,84,-83,-75,-29,7,-47,-5,51,9,-48,-39,51,45,-9,-43,20,57,100,-111,-86,102,-126,106,-1,20,97,-66,-79,24,-8,-3,-71,-19,93,89,123,85,-6,49,-42,-68,124,52,39,72,-53,-44,-37,78,-10,126,126,83,19,-15,-68,-15,-80,48,-68,60,-74,37,23,71,-53,-122,-21,114,-124,-9,-55,23,-101,-94,-79,45,-26,-45,56,-2,107,122,118,-14,-95,107,33,22,13,-94,-98,-103,96,-91,106,83,-69,92,26,115,106,-122,15,-40,86,-119,55,-56,10,-38,79,109,99,-42,42,22,-101,35,-7,-27,104,42,-28,-101,-119,-22,85,-70,-94,40,-115,-5,99,32,123,91,-74,111,13,-56,35,68,114,36,-17,119,36,89,98,42,125,98,-95,84,-93,40,-106,-106,75,-99,-28,18,-12,-15,47,101,-126,76,-114,-23,78,-78,21,-39,-81,35,96,-43,-69,104,75,-120,60,98,74,47,-68,-43,50,8,-115,120,19,-15,24,82,47,54,-11,22,83,30,-27,-2,-14,66,-77,-120,-95,91,44,-17,-39,-25,-86,-40,118,-90,82,117,85,-35,-23,-9,98,-71,-104,90,96,35,-81,10,-120,-26,-125,72,-69,104,42,24,127,-100,123,-61,3,75,58,57,108,-24,-34,66,21,75,-95,75,41,-56,4,1,112,-11,42,1,79,-24,89,-77,-127,-21,122,-32,43,-107,-49,35,82,66,81,1,11,85,118,-31,38,2,86,-15,-119,29,-49,-101,-74,100,100,-3,-4,77,-4,-17,-67,114,-6,85,-61,77,7,-61,19,-77,33,26,-117,115,-7,-23,-46,-6,113,24,-28,-68,97,-4,70,-84,36,-72,117,-95,-33,-24,20,-42,41,21,-76,54,-72,50,123,-17,31,122,-124,114,30,121,-72,-53,61,-44,-81,-33,66,24,73,-126,-19,49,-83,-57,92,37,61,43,45,-54,-75,120,20,5,-80,34,-70,-50,84,-35,25,100,-85,35,-26,-82,-39,-34,-77,-114,-107,106,-113,125,123,76,-18,80,-70,38,39,-23,-65,-73,54,10,64,53,-117,72,-67,21,55,-28,43,-52,101,-66,84,-126,-8,-72,-8,-52,94,-75,122,-60,2,-15,-93,36,-94,-26,95,127,60,9,-26,64,102,-83,-81,-92,30,-61,59,-42,11,45,-98,94,34,-33,24,93,-71,96,-8,-114,88,-2,2,66,-105,42,-41,-85,-32,47,-26,-5,-108,37,90,99,-17,-72,86,-68,11,-29,92,-49,-108,-41,-55,-27,72,-81,103,121,17,6,-115,-110,-107,21,-37,-47,-126,-6,-58,19,-15,-80,-68,18,67,-111,46,-110,99,51,-35,64,-113,-24,115,-87,-96,44,91,15,37,-38,-73,121,103,29,16,92,48,-6,52,81,-43,95,38,-7,47,0,103,72,-24,-119,-42,-12,25,41,-27,-120,24,59,83,-22,98,38,-32,113,10,-9,-123,-81,124,-2,26,-28,14,122,104,-88,-6,-101,-106,7,120,40,52,71,-31,74,110,5,-68,67,57,41,-7,76,72,48,-110,-79,-111,-104,29,-68,-35,61,2,-4,63,78,50,-95,-116,102,-101,13,-77,47,80,-21,-107,73,-111,22,23,42,-48,-45,-110,-114,103,39,103,117,93,-91,-100,-1,127,-126,-89,-53,-128,113,-25,-44,64,43,82,-93,-100,-54,62,-109,-17,120,24,-41,-46,-11,-82,-4,-9,-15,62,-83,115,30,61,-121,-11,84,-54,84,104,91,126,66,108,-103,-1,10,-54,73,122,115,82,88,104,101,-128,-86,-101,1,-3,122,-83,71,79,17,115,-38,-120,-113,-126,-25,-117,25,77,105,-103,54,42,-116,23,-8,28,-4,83,-111,-89,7,6,-2,68,98,-118,116,-59,80,-123,-127,-88,-107,57,59,32,-99,-50,-52,61,-96,85,15,-25,108,13,-101,98,121,76,31,-23,-56,-48,104,-50,127,-108,-68,118,-75,39,106,38,-41,98,78,58,98,106,-4,89,-111,29,5,-64,-85,91,-102,-90,-103,-68,-80,10,-26,-30,36,-73,-33,-124,-23,7,-74,38,-109,-123,-112,-84,-8,55,7,68,-106,-55,83,-28,109,22,-82,71,-20,95,-96,-64,115,-54,11,3,85,-33,1,1,-1,83,4,-106,-43,-27,-15,104,48,72,98,-7,-86,125,43,80,-9,32,2,-75,3,-95,86,-21,74,79,-102,18,-17,80,30,119,-95,-83,-25,5,-56,-89,-5,-108,83,110,77,9,99,97,93,12,-50,4,33,45,20,73,-116,10,-115,68,-104,-69,42,27,16,-42,-90,40,51,-37,55,-7,-81,108,10,-116,-41,81,1,96,-14,-89,122,-119,116,108,4,84,53,-94,-92,2,8,75,-31,-46,-80,58,-61,107,-82,119,-55,-27,80,-32,-31,-69,48,107,-78,88,30,54,-109,113,-79,102,49,36,-23,32,94,90,-54,117,-37,-81,-55,95,107,-92,29,123,97,-70,46,42,58,-40,115,108,-52,-91,-20,-114,105,34,42,-128,27,57,-37,71,-10,38,-45,-57,88,4,64,64,83,30,-85,-126,-108,66,-106,19,80,-126,62,-91,-115,-36,15,119,-61,-16,-51,-91,9,-39,116,88,84,-117,98,117,-27,42,-115,122,-97,-39,102,-90,108,-48,-24,-22,59,-75,-68,-10,-65,-4,-3,41,4,71,-119,-65,-19,-63,-83,58,-15,-35,41,31,4,-102,104,-11,72,-82,61,32,60,123,3,-104,-21,-70,91,34,107,-107,127,-128,33,-13,-115,67,20,-5,45,-95,76,70,-79,-61,100,117,-99,61,-27,-62,-29,-64,-55,79,-36,27,111,-64,37,93,123,-84,-1,36,110,-76,-98,116,97,-57,-56,97,48,-50,57,68,52,-15,-103,82,-87,-59,-42,-24,78,-79,-109,-28,-114,36,-103,62,-57,125,-90,5,89,122,-51,110,-70,-93,-70,18,37,-99,47,50,17,90,72,-56,-101,90,-57,51,27,114,87,85,12,-82,99,14,-18,-11,-51,-11,9,-26,11,-28,-108,-5,-98,101,-27,-19,-18,-88,85,18,88,7,40,-113,2,95,-123,-33,15,7,118,-72,119,-15,-86,56,-68,-54,79,94,-58,-98,127,22,102,-38,-36,-80,-90,-97,-56,-77,-19,-1,7,45,2,-12,-1,86,-40,-99,-105,3,108,59,119,-71,-84,-35,-121,-44,39,-21,6,105,22,-80,-39,-65,-64,-119,-15,37,-101,-70,28,-118,121,-107,-44,87,106,-24,-76,-94,-28,79,-110,21,1,28,37,84,-38,-47,30,-53,126,-37,115,-50,-4,88,54,-47,120,-46,-31,-115,-56,69,58,-11,-113,-8,-116,-86,16,-124,-91,-42,11,-88,-47,77,-86,43,71,87,32,-34,-39,-119,17,-28,110,-82,12,31,-111,116,80,-39,29,77,67,62,92,-13,117,-52,23,104,-3,45,110,100,-113,23,73,-108,-58,17,29,59,48,-62,-108,22,35,-5,92,-99,-1,67,127,82,4,-85,47,95,-87,39,-37,-46,45,-24,-14,74,19,-24,-106,62,-33,-114,20,49,-85,-96,-70,-102,97,69,-33,-84,30,-106,18,99,25,-43,44,116,83,-29,-89,95,44,-29,105,-41,-100,-106,-59,-32,-111,-68,-31,-28,70,106,-58,24,99,-66,-127,-40,8,-94,86,-104,16,-35,74,36,126,-81,47,102,23,-122,86,17,22,36,15,21,-93,100,120,-57,8,14,120,71,68,106,-13,-76,-114,100,-103,20,54,0,-23,-114,-81,-91,119,54,44,119,-38,-46,-4,-76,-40,40,-48,3,35,81,-87,22,123,121,-75,-20,48,-26,-6,115,7,-31,-43,44,-61,-22,-59,57,-88,-34,2,77,116,-86,38,-12,-107,17,-40,-96,-73,-54,-126,-91,-73,29,-78,-44,-105,48,10,-65,26,-85,-78,83,-3,104,-53,-101,51,-60,-121,40,61,7,-111,26,-10,79,-53,45,-81,-38,-116,-55,-57,8,89,36,-118,-78,43,56,-76,13,-60,-110,47,-9,18,-76,65,59,-43,-122,-107,40,102,117,-65,96,-32,83,25,93,-70,-126,83,-62,89,-74,-45,49,90,-44,73,107,27,107,120,-120,-79,-106,61,100,12,-22,-45,32,-96,112,-106,-109,-118,-26,56,79,-92,-29,8,-92,-9,73,34,-126,85,0,24,75,34,104,109,74,5,-9,31,100,26,-40,-2,-100,-119,48,120,87,-108,82,99,9,60,53,-5,115,52,113,-97,-70,65,-67,107,-41,-81,-67,92,-118,-70,40,0,-113,100,81,46,45,33,84,79,28,-116,-121,91,-54,34,-50,-14,124,21,122,12,111,-48,25,102,109,0,-12,-8,-6,-51,123,-48,0,80,-117,-59,17,42,-125,107,-41,-95,124,-125,-111,-7,31,100,-22,100,-1,-63,59,-7,-106,-37,103,-83,45,-63,76,-67,-90,60,108,106,-86,6,57,-37,-114,29,119,-105,54,-76,48,49,-30,45,-17,-22,-89,27,13,98,35,-19,-60,-68,73,-110,-108,70,-25,22,-70,19,-25,99,13,47,110,-114,64,-100,-97,35,-8,-100,-77,-6,-54,42,42,-91,-94,123,110,-105,-14,22,-52,2,-101,-31,86,102,-1,27,118,117,68,-31,23,107,26,2,-90,77,30,60,-11,-40,-126,66,-68,44,80,107,-47,125,116,-67,-68,-62,-22,14,2,-128,84,115,50,-106,125,4,-49,78,-114,125,-18,-18,-66,-81,-53,94,-126,-47,81,23,124,-100,69,51,-3,57,-32,-102,-64,-2,25,-112,97,25,-32,-117,-74,-85,119,94,29,10,28,-23,-91,-121,46,-54,108,-83,1,-75,0,-66,65,-103,-64,-45,-21,-71,73,-36,120,52,-38,-56,107,-60,104,104,-77,27,121,76,-120,127,35,-90,-15,-65,0,-1,88,-43,-49,-38,98,-36,53,58,-34,-87,-104,112,-122,-120,111,99,31,44,19,-9,-118,-25,14,44,-71,-62,112,36,-96,-50,-19,-99,-62,3,89,-45,-52,-60,79,30,115,31,-77,-109,47,85,-44,102,37,53,62,-73,-8,-53,-35,96,35,-20,-33,-82,-110,-17,-91,-107,124,11,-92,13,71,-34,69,118,-92,62,-34,-55,-20,103,47,103,-90,15,49,31,64,111,50,100,-33,-94,-26,52,-92,-121,77,-122,105,93,35,-84,111,-128,-98,108,66,72,-23,21,93,-65,-118,-23,-3,124,-93,108,-66,-18,-64,-97,65,91,28,90,-100,60,-11,-84,-21,-63,-94,-94,57,-33,11,54,16,86,106,-27,57,-119,51,104,96,45,59,64,97,91,107,67,49,-23,-104,-24,75,-46,54,45,-67,46,-97,37,74,-54,-77,106,107,26,-70,89,-67,60,62,101,-49,-52,118,102,74,-127,-69,70,106,31,95,10,52,-104,-41,27,-34,-1,-34,84,-69,-37,-51,20,81,33,-49,6,91,-86,-75,5,-121,-24,-31,5,-107,59,-94,-87,27,-56,-54,40,13,35,-21,-57,-92,-92,126,21,52,-71,50,78,-49,-62,79,-88,-34,38,13,-42,-114,-73,112,-27,-9,71,-17,103,-61,80,70,-16,111,-128,56,119,82,-38,83,-86,-83,121,-101,100,-32,40,-90,-118,-1,106,-63,56,-32,27,-94,67,116,-108,98,-84,-85,76,20,94,34,115,60,124,8,-59,-25,98,-67,19,83,38,-10,-18,33,-77,-29,75,-58,-13,108,-77,-118,-72,-13,124,65,-74,-43,19,-38,-37,-90,-122,36,-109,46,-111,65,-120,-50,86,-19,-19,-67,52,-93,-114,49,-98,-79,54,-9,-68,-50,108,72,-117,-41,104,-126,115,50,-14,22,-26,37,64,-19,-12,89,119,-95,-106,-41,94,-120,-67,112,8,48,-67,5,35,54,-101,-88,-1,87,-90,105,-66,-106,70,75,53,2,82,101,97,-101,117,-34,-19,-95,89,-98,31,-125,-70,55,-113,-10,-35,-56,86,-89,-21,-28,-107,44,49,-121,-39,-69,-21,-74,-68,49,-65,-48,-57,-116,-63,-33,47,58,66,8,-32,-78,75,-48,22,48,-90,57,-99,66,-121,76,-19,13,-95,-57,-124,-64,6,80,-13,33,44,-69,68,7,-75,-54,-19,-84,22,126,54,-78,-26,-77,-122,113,-92,-27,79,-7,-76,42,-118,-123,78,86,-89,52,-35,-40,-94,36,-127,120,44,53,124,-41,-106,43,15,-21,60,-30,97,-99,121,111,6,-76,-112,35,126,-24,87,37,115,-107,-54,10,-21,-13,-22,21,5,25,-55,103,9,12,-64,-29,-46,1,-60,7,-53,44,19,-103,61,-32,-26,-79,-96,99,-76,43,49,-86,70,-95,-92,-84,-113,-34,44,-125,-34,105,36,65,75,-25,40,71,27,101,98,51,-88,-39,-75,5,-3,-107,2,-89,92,-92,95,34,90,-20,-33,61,-111,-82,91,-6,-101,119,-109,1,-116,118,29,102,-39,-46,-98,-66,119,-99,-84,-95,-25,-65,101,-45,-106,117,123,119,-44,-120,11,-45,-71,-108,-14,89,54,-116,-29,39,-48,-62,80,-9,-11,52,-24,-24,36,70,35,-6,113,62,-19,46,19,5,-104,-11,-93,87,119,-127,-23,-2,-62,-107,-72,99,-31,37,-76,62,-79,-10,-97,-93,34,73,92,41,74,127,-32,26,-37,-8,-86,-48,112,119,89,87,106,-16,-96,3,120,-72,9,59,103,0,54,93,-89,-126,-9,-69,121,81,-126,113,5,25,78,-69,-24,99,125,80,96,77,-90,45,-99,3,74,-125,93,39,-22,73,-77,-124,47,-62,-16,-65,-124,-89,108,36,118,125,51,98,-20,-121,118,-119,-20,3,-111,-27,37,26,11,112,-8,-118,-110,49,29,49,123,-95,-48,34,118,90,-105,53,-37,-77,114,-63,-83,14,-106,-98,62,-59,-80,-48,-51,101,-43,45,78,-97,-26,107,64,15,-84,-50,-39,45,87,-40,68,-81,-50,-121,38,-20,123,76,3,-7,-55,41,7,-61,-43,-11,-97,7,56,-51,68,7,-128,-21,109,70,0,-61,-44,-82,-60,-51,113,-104,106,-17,-124,67,-77,-113,17,-71,-111,-17,84,73,43,-39,-112,14,50,-72,4,70,11,-3,-62,-24,4,-105,49,37,-13,-49,117,-21,33,-123,-58,35,105,34,93,126,-87,-36,-86,104,122,-94,120,53,-53,-116,-52,28,-9,51,-22,-55,53,-76,-12,-18,4,-60,-108,44,110,-112,32,-102,-99,-121,77,57,-6,99,-80,-10,60,-127,-29,99,-113,-94,-76,0,-48,-90,-39,-14,13,87,-84,105,95,114,121,-94,97,19,-113,126,-80,-7,-4,-57,73,2,34,-46,115,53,76,-47,-9,22,69,-82,-126,20,20,110,48,-16,-66,-87,49,-112,-40,127,-49,-25,112,101,94,25,-94,-110,-79,116,118,10,-108,-32,38,36,-3,-1,-63,109,-16,59,-38,-55,-92,4,-93,7,-52,-47,21,103,-95,-94,-24,-89,10,-30,3,113,-44,54,93,-73,-12,74,48,-50,23,34,-59,-28,-41,-111,-99,56,-2,79,-86,89,-68,-68,-7,-17,-92,-66,105,-118,83,-108,-14,36,99,-120,-61,-53,43,-106,-72,-104,44,92,46,-112,6,-28,119,24,-123,-27,64,77,45,15,63,113,-41,115,66,-57,-117,84,-127,-57,47,31,-3,42,-19,-44,93,-36,-97,-125,119,-43,120,60,-21,-15,-118,55,106,-111,77,85,101,123,24,85,36,36,42,-29,54,40,117,-6,52,106,-112,-60,67,26,89,-116,113,-109,95,21,-98,-114,40,-68,18,-49,-126,105,98,-50,81,95,117,2,101,124,-59,-74,104,-113,-62,-20,84,27,109,-2,72,116,33,-92,-72,82,71,36,109,74,82,-32,-18,4,24,-19,100,-31,-32,86,48,27,36,8,-116,-104,-96,14,-56,20,-114,-103,-39,-119,17,-94,32,-109,-116,-3,-40,-118,-107,29,-63,99,-47,93,-103,79,54,42,120,-24,-70,82,-45,122,-2,42,124,-85,-126,109,26,-79,87,-24,-74,109,83,114,11,-48,105,-43,-56,-112,-100,-10,86,-105,108,123,-77,-121,92,68,-121,15,-65,81,-5,-36,7,69,22,127,4,15,29,97,-69,-28,-12,-12,-107,-21,103,41,-3,21,38,96,67,107,-82,22,-62,114,42,30,-102,-90,-124,-87,-88,127,125,-15,56,-104,112,76,0,-90,-44,-63,39,-76,-17,74,-5,-33,-36,109,-114,-103,28,-90,61,-15,-43,79,-33,40,59,91,98,10,-19,88,-54,9,44,-33,91,96,-61,-77,-4,52,72,-79,77,-58,-31,89,11,115,-97,70,30,95,-98,77,77,-107,-66,42,-28,-73,118,58,-64,78,-81,21,74,-5,58,95,-85,-109,67,-3,-44,-117,60,101,125,123,-42,-6,-97,-40,-10,-74,6,-45,-113,-103,42,-100,84,37,93,-15,-65,-20,15,112,-79,108,38,63,27,-2,-70,7,31,39,-84,-40,94,-26,80,53,-44,-96,-50,-58,-54,-128,-44,-103,-98,83,99,34,17,-93,-92,88,-104,116,-109,-14,73,-95,-121,-125,-22,17,-62,72,1,-20,77,-10,54,34,-14,-49,11,70,62,22,-35,112,99,35,-35,75,-11,-25,-56,-92,-46,12,-82,63,92,-14,-28,103,82,-66,-104,56,-124,-82,-70,112,-120,37,-114,20,-89,-20,-103,89,16,57,-118,-113,-36,101,60,47,-96,-100,105,92,-40,23,-9,-114,-37,-1,28,-74,-38,76,108,-5,-71,-7,-110,53,112,-67,-3,-2,29,-116,-75,-15,83,69,-81,-37,57,-65,57,-103,-59,-9,-16,-14,27,76,64,17,-22,9,-124,73,90,-99,75,-117,33,-103,-36,-3,97,-17,-23,77,-24,1,70,-97,-107,-75,-87,67,-45,32,78,125,112,-70,120,-81,-122,-44,120,44,111,28,-31,-58,-46,36,-118,-123,-58,115,74,46,-104,76,21,-52,-36,-115,-71,-113,-52,-28,20,-7,-73,39,99,-32,71,-45,-78,86,-126,-128,24,-43,15,46,-76,-31,-54,-1,17,-2,99,108,51,-88,38,-34,-1,49,-120,105,102,-99,-113,-63,3,16,0,-9,-105,12,61,109,-7,91,114,58,1,-124,110,-96,-26,-111,73,2,-97,37,110,82,-57,-27,96,-34,-50,-37,-91,109,41,-126,21,-52,104,-89,57,-5,-61,-15,-17,-85,73,-72,-13,-103,-58,11,-91,36,-81,-110,-84,-84,57,-123,43,7,0,-106,45,44,-41,26,-29,-41,-100,61,-71,-60,47,-102,-72,-87,9,88,-65,19,66,-1,-46,37,-22,-124,40,-69,72,-3,59,15,-44,-3,-27,64,-104,90,-87,98,88,14,84,0,119,58,-59,-87,45,-18,-117,-123,-84,-39,87,-11,108,74,-81,17,-72,117,-51,85,81,-94,-53,51,15,-33,62,110,-63,-30,-109,-56,-40,-91,-11,80,-36,57,-44,11,-102,114,-31,80,0,-64,22,38,-22,-78,123,88,-120,-38,89,-71,96,-128,-7,-49,16,56,66,25,-113,72,52,66,54,71,-25,-73,123,29,-111,60,-67,-35,-76,70,49,-64,-62,-85,27,-92,66,117,75,-53,7,70,44,52,-104,-68,-62,-61,15,106,-121,-84,-26,76,32,39,-65,-37,99,76,-44,38,1,62,60,-64,-23,51,121,-80,-111,-31,105,113,-46,13,-2,27,-52,-117,112,-117,-103,-75,21,-85,34,1,111,107,-32,3,111,127,15,100,-72,-81,-113,27,29,50,-54,-98,64,-99,95,88,39,119,94,-31,55,-79,88,50,39,120,54,13,58,-117,15,-2,-109,-35,-86,-97,64,12,119,-95,-3,-22,-79,-61,76,26,9,87,-4,108,-95,120,87,-72,116,-6,-85,-119,-84,-97,-70,31,-100,45,94,-77,-108,94,95,97,93,-29,126,14,-127,13,120,96,-24,73,-59,93,-84,-50,56,99,91,74,-28,-95,-7,-95,-114,111,-50,-40,-7,-99,-80,102,-74,-80,-7,-125,-71,-36,-57,26,-95,79,10,68,-31,-52,106,71,58,8,125,4,-67,78,-81,21,116,-17,73,-101,-78,-100,-30,-45,118,47,-125,-8,-17,-95,64,85,-34,-57,-95,97,10,-120,29,-46,78,-42,41,-93,74,43,120,99,95,122,23,-96,122,-98,58,84,-114,-28,123,-128,-84,95,113,56,-113,-17,4,72,-55,33,-39,15,-43,26,-35,-111,-36,-14,27,70,92,-126,-97,-103,9,-76,-94,117,106,-71,-106,70,70,-94,-56,-26,-116,5,30,-97,86,49,114,-22,-78,-93,-43,81,-68,67,13,108,71,113,124,-7,42,121,-20,-18,-10,14,62,16,-44,-109,102,-92,37,-1,34,-109,21,127,-124,8,-10,-68,55,114,-30,66,-16,106,116,-51,34,72,109,-13,-50,-52,108,123,-40,37,-84,-82,-10,121,40,86,70,12,-81,-4,-25,28,-95,-32,110,28,9,-109,36,-13,94,100,15,69,13,-52,1,-10,-28,-6,24,-62,126,-30,120,-33,-128,-48,-3,-6,111,15,-61,77,93,5,-97,42,6,61,58,15,-110,105,-73,40,106,33,-121,-56,-107,41,113,61,111,14,64,27,-124,-83,117,22,89,14,94,-54,-90,98,65,40,32,32,56,-16,35,6,81,68,-32,-3,91,35,65,53,-56,-124,117,67,100,-100,-23,68,-110,18,92,-69,-87,18,-75,39,37,69,39,7,-103,126,118,-13,69,80,12,-36,-127,10,-98,18,16,-39,50,109,-77,52,-51,56,1,-119,-35,75,79,2,58,121,-35,-5,67,-63,-106,43,-111,-87,67,-44,82,71,-23,-18,-120,48,7,120,118,86,-9,56,61,57,-66,11,26,32,-39,-62,-45,87,-127,1,31,47,56,-68,9,85,-34,-27,74,-45,46,-30,121,-98,30,96,85,75,72,21,-78,-22,-124,81,13,109,9,-46,-117,17,-57,81,-24,-105,-62,-37,88,99,30,70,-56,86,-7,124,35,-114,67,44,-118,-101,-117,43,-14,51,127,116,-50,-124,-107,112,-56,-39,55,-20,68,81,51,-34,-100,-46,-76,85,-109,-117,-98,47,14,19,29,-50,-48,-77,107,93,-22,-15,69,-70,-26,37,-89,16,-116,-31,113,14,-1,-47,0,-82,79,94,60,89,-21,-1,-95,-60,43,60,33,-81,-38,-68,90,61,99,20,-38,-89,21,0,48,47,68,114,-103,-47,-30,15,64,21,-91,-33,-88,-121,-2,19,77,123,-95,-120,-107,-4,41,-128,108,-97,-116,-23,-1,52,9,18,99,-66,32,-19,16,37,-81,100,109,-53,-67,91,106,62,-122,32,68,119,-13,80,-105,-105,-65,31,-17,96,-114,-25,123,-77,64,62,41,93,116,53,23,-119,37,-33,-88,87,77,44,124,73,29,120,-25,23,-126,118,51,-22,17,-101,66,-122,14,66,-30,-23,-3,43,-101,-53,48,54,-7,87,107,113,-101,88,109,-25,-64,-91,92,51,7,-123,-18,0,-8,95,84,-23,-49,108,91,89,34,-126,44,-55,-67,-85,-22,-69,-25,-7,56,-68,60,89,-83,-119,65,52,121,54,-114,-32,57,-25,-21,52,-20,-108,-125,51,29,111,87,119,-93,-93,-47,-13,68,-28,5,71,-112,-88,-2,-119,20,10,36,35,95,30,-77,7,-35,19,52,35,-52,120,-38,42,-81,-77,106,86,-120,9,-75,-40,-27,-50,-125,-55,-20,-125,70,125,-10,-20,-9,-21,-85,22,-104,79,31,110,13,47,82,121,44,-57,-81,-62,13,-37,-65,84,65,63,-43,18,32,24,-110,-128,-73,88,-124,33,-70,-10,41,85,53,102,18,-65,47,-118,121,89,82,-43,-12,24,-20,-65,56,-71,107,86,-49,77,64,54,101,21,-34,1,114,38,54,-63,2,25,93,-107,3,62,42,-4,-22,-4,12,-42,47,109,101,18,-93,6,-10,13,125,-94,-58,39,-13,56,44,21,54,63,92,21,-66,-114,-116,52,-123,107,-29,-5,94,42,-82,-89,-43,47,105,18,27,-124,40,-8,-77,30,105,-5,10,-34,114,61,33,22,-13,23,53,25,-52,6,-58,124,66,-83,-57,-16,-63,-63,7,-76,-67,-78,112,-82,-66,87,-100,81,-61,15,77,61,-86,-29,2,-49,-27,-52,0,-43,39,35,97,-60,52,-17,-36,7,19,-90,35,10,55,-77,82,-73,-36,25,3,-62,-107,-104,89,-101,15,-52,0,-90,33,64,-36,49,107,-107,73,38,86,80,109,58,119,-98,69,-113,-113,-83,-83,-118,-78,41,54,67,-104,-48,-17,54,101,-26,78,101,103,16,-122,-73,44,31,-67,74,83,61,-51,101,109,10,-93,-111,96,111,-110,-101,86,-94,-45,-4,115,-40,43,114,-127,62,-80,-41,21,104,-29,11,28,1,125,-67,-17,108,123,24,65,78,-28,102,-78,101,-123,-85,77,82,29,-54,114,-6,-89,-110,-29,40,124,32,-54,54,84,37,29,37,28,-118,-124,-117,102,-32,-87,81,82,-15,114,72,-56,87,-98,-101,102,98,-75,-31,-38,52,-90,-92,48,20,61,31,-62,-57,66,-35,-48,-21,23,-10,-3,17,114,60,-48,56,-118,-120,-44,-50,-11,-105,40,-105,-93,49,-123,-116,-43,-64,55,121,72,118,59,112,53,-83,100,-3,61,-56,-46,-109,-67,79,47,36,66,-79,23,-84,35,122,-111,-103,-4,92,63,-33,78,16,18,107,-85,-82,-14,122,-38,85,-112,74,-56,116,-46,-120,63,67,-91,38,89,68,-102,95,-126,-9,123,-3,39,37,26,108,-99,74,-74,-86,-45,99,-12,113,73,-22,-94,45,48,61,78,-24,38,-54,92,-125,89,-62,-110,-2,115,-126,113,-19,-72,44,-53,-34,13,65,48,97,112,-32,2,-96,24,73,-84,13,-44,0,3,26,-48,-30,83,51,-23,63,69,-119,38,6,16,-39,-53,-8,123,72,-7,-61,-80,-111,-53,-118,-109,24,-5,104,-105,-81,36,-3,113,-6,117,81,-115,61,4,52,100,-78,-73,-7,-24,39,32,106,5,95,65,-42,25,1,37,100,96,-87,-32,-94,-35,9,101,-83,-42,-19,-44,-14,121,118,24,49,-97,-6,63,4,-82,-40,-35,65,19,85,7,-107,36,116,-33,100,82,-118,101,90,52,-83,101,33,113,38,37,-62,-58,-33,11,95,-104,105,36,-59,-8,23,101,42,-93,53,108,-54,-29,97,-119,122,78,-15,-28,45,-88,-94,61,34,0,80,-65,66,113,113,-18,67,-13,105,-25,-110,40,64,-41,32,-58,-102,-67,112,-55,55,90,125,-34,58,-27,-105,-102,-66,86,-74,101,-53,-118,118,-123,-23,80,32,81,-43,106,23,122,-45,122,-36,-49,-1,67,17,-22,57,98,117,29,31,14,40,53,118,-41,59,-59,-2,-32,125,116,64,4,96,65,-44,86,94,-112,106,-29,127,53,49,-96,65,-77,31,-33,44,-4,31,-20,-106,-34,92,-50,109,-90,32,-98,-87,16,-29,123,25,57,21,18,108,-20,16,118,-23,34,-74,-50,42,-2,-23,-24,-1,3,-1,31,-90,-76,33,44,-4,119,64,125,-18,27,82,-85,124,117,41,127,30,-99,-112,-1,76,-27,-46,-57,55,-106,78,25,111,-36,-26,46,33,-45,-8,36,-45,83,-111,36,-74,85,-29,79,43,-32,-73,43,-38,-8,-92,-87,-72,85,36,40,46,-63,26,-21,114,-85,51,42,-45,-50,-61,-63,-5,27,73,-95,84,60,56,92,-39,103,-122,-108,-124,-8,12,-57,7,115,17,-70,87,-2,88,109,38,-84,-80,-55,17,100,97,-128,-73,29,117,-103,-3,126,53,-99,-118,51,56,-116,-43,104,-25,7,7,85,-70,-75,-33,-52,51,-118,-73,26,-96,-92,56,-61,-100,-108,125,49,-8,72,-106,102,29,119,34,-48,76,38,-50,-85,3,-5,-96,113,112,-16,57,-44,-98,-47,28,-43,67,2,73,91,41,-124,47,118,-93,-108,48,-78,106,-47,-48,-47,73,126,22,-13,14,23,104,-109,90,45,53,112,47,-116,-62,-44,-19,-16,-39,-60,-107,97,86,-39,-34,-100,-115,-89,31,108,-56,-1,46,-75,72,-97,-76,-53,-23,56,88,13,25,42,-100,99,-16,77,-119,62,39,46,32,-98,-123,24,83,45,-105,-68,69,0,87,-6,78,-46,2,-121,97,48,-41,103,-98,122,-113,-41,-126,-22,101,-25,71,123,103,-124,112,-92,20,-61,120,93,30,-100,-12,114,38,-9,-30,101,-100,-75,49,-12,-27,-72,102,72,29,-114,-93,88,-25,77,-32,-23,-49,120,84,-44,-43,43,96,-98,-25,-72,-86,-64,68,-93,-32,-80,86,87,-54,116,28,120,94,-112,92,-55,-101,53,64,-2,-22,-40,32,-127,-20,72,-128,-34,-100,-74,82,123,-61,-106,63,-107,59,-33,0,23,97,-31,12,51,-62,-13,26,19,122,123,104,-39,-43,-110,-60,68,66,-57,45,-125,-31,-21,31,52,118,40,1,-86,-8,11,-68,115,127,6,-19,107,-106,-23,19,-50,-96,-98,-9,55,83,71,121,-31,72,-43,-35,36,119,-70,2,-42,-126,-78,-98,-43,114,13,35,-19,21,97,-81,-29,-125,126,-37,79,34,-67,-116,-46,85,24,-19,-27,-59,94,58,58,-69,-17,107,6,66,53,19,112,-102,-11,-15,120,126,14,-24,70,-40,-29,-115,-55,-79,32,110,-65,-111,78,-44,-106,-79,121,-106,5,-22,4,-122,-110,89,-122,-81,58,84,102,37,71,76,9,-75,49,84,3,49,95,-60,125,118,33,24,93,38,10,-57,-87,102,71,-36,-18,-92,82,-120,-34,9,69,-107,-119,-18,55,-66,-32,-60,-79,18,-108,80,48,-70,15,30,-122,3,-117,115,16,50,53,118,48,-127,-54,-57,-72,-107,-13,-34,53,58,82,-50,77,59,62,122,57,114,96,-43,-27,65,-122,121,43,-77,-82,-117,22,113,-104,46,99,-34,-93,14,-3,-10,-4,-15,69,-24,64,51,-60,22,42,67,-80,-27,-14,-63,-98,-21,108,17,65,-12,38,-107,123,109,-82,83,26,0,49,-48,-124,-125,15,-104,-25,-26,126,-58,-75,-21,62,-26,-12,-91,122,-40,53,52,102,-25,75,