{"acc_weights":[84,42,101,-121,59,22,92,97,30,-18,-91,73,71,-11,-56,11,-124,-113,-23,0,79,-14,106,22,15,-4,-37,27,105,-13,41,55,-120,-99,-46,-67,-122,38,13,58,27,50,-23,-35,-38,82,-91,70,-38,78,93,-94,-33,-111,-128,41,-61,-27,-114,-123,-5,50,-39,82,-119,36,-25,-109,119,-32,-112,34,79,-41,84,78,5,89,-68,-51,-97,67,-39,-67,-63,17,64,-124,14,-111,45,78,49,-52,71,-15,-103,93,-26,52,-25,51,-83,-106,-70,-36,84,-94,-116,27,51,72,69,125,86,101,-59,-96,-45,-97,27,52,94,-117,125,60,-97,-63,-109,9,43,118,-64,126,115,-47,22,4,-120,16,-18,-19,48,33,75,-42,-94,-11,-7,-102,-74,32,103,92,-59,68,-43,119,-6,21,1,97,-32,124,-39,-114,100,-123,-67,-119,87,44,-3,-71,58,-128,-112,35,-60,72,64,60,81,28,116,-110,-91,22,122,32,82,8,6,52,-77,122,45,-13,-25,-43,-94,-73,106,23,116,76,12,-106,-82,-42,121,26,-32,28,-25,-109,-127,22,-41,36,-82,46,43,39,-28,-120,79,-68,73,66,-35,126,108,-50,-22,-108,55,38,-70,44,65,33,113,-108,63,74,-71,117,20,62,-11,-77,-16,50,13,73,-83,-2,-3,49,10,-111,-17,-111,-60,-84,103,24,-75,-101,34,-90,10,-65,-36,54,-104,40,-5,-111,26,-84,58,-37,10,-108,-105,-22,65,-89,-26,31,-28,-53,-100,-118,-116,-48,-17,24,-119,70,12,-17,-64,-90,110,-46,-74,-50,-98,-109,-33,-46,-24,21,44,-118,-76,83,-67,96,123,122,111,90,13,46,98,52,58,-28,17,117,29,75,69,56,63,-25,-112,-97,39,-24,-78,47,-32,-106,-25,-64,-28,-33,-70,51,-63,-46,-11,58,-31,100,-4,-86,-81,-95,-68,57,6,20,-113,-83,36,10,-43,-55,-82,122,-110,18,-86,106,84,-66,-71,-118,-47,-11,-74,7,97,-105,-120,123,16,-39,82,107,-74,-96,93,40,14,106,-125,-10,-61,15,45,100,96,37,33,-68,78,-74,108,-108,-31,69,-114,21,-82,45,25,55,-28,13,52,37,-53,-2,-119,-6,83,-13,-18,56,80,55,125,-108,2,52,-104,-28,-24,97,-23,101,41,-34,-96,-61,-60,-22,95,-1,120,62,-22,-30,119,3,52,27,-48,11,89,-85,57,64,126,69,77,-110,-40,64,127,59,102,-2,103,-40,1,63,80,-104,26,-87,123,-33,58,-42,96,18,30,-18,-28,5,25,70,-39,-113,6,-75,-98,91,6,-27,6,-9,-72,-40,-31,-91,-94,49,6,122,26,-116,-30,79,-23,-27,-116,91,-28,-32,100,-110,-38,52,38,71,97,53,-124,72,-118,36,-68,-118,11,-16,-34,-119,37,81,23,40,-29,-90,45,-84,33,102,12,34,-26,85,127,-63,-115,72,3,-45,-73,-21,-30,126,50,-128,-79,76,63,-109,-42,-83,25,60,-104,-87,-89,-41,92,-47,58,79,-97,-20,-119,108,56,-49,-107,103,-9,8,-98,88,37,-62,117,-105,112,73,-81,-6,-14,-42,-42,11,120,103,-109,-98,8,-73,23,-45,-35,-83,-63,-87,119,12,-103,-38,-106,-12,27,-90,-99,-90,-41,-124,-85,53,-55,51,-24,11,-123,51,-128,-26,-5,84,-100,6,70,-123,-121,-108,-72,-111,-11,36,61,-109,30,26,20,82,-119,-78,16,-55,96,96,-48,-5,-27,-48,119,-64,121,52,6,-95,117,100,-120,-60,120,110,-24,67,7,-18,-76,-11,-8,-7,-109,76,97,12,102,29,-79,11,-118,8,21,99,11,-66,-79,-89,49,-100,-103,-117,80,3,53,-68,9,88,-96,-57,122,25,-103,98,30,-113,-72,-97,28,120,81,44,35,107,-105,-8,-26,-38,-117,-2,-68,29,-64,-57,121,109,-68,-27,86,103,99,119,-91,97,-70,57,-115,-84,90,-17,-120,-124,-95,-61,-103,64,10,-5,14,-94,-16,84,-5,105,63,47,107,-88,-110,-79,12,-46,0,-4,4,40,95,121,-2,-53,-65,-104,94,-26,6,76,-79,86,101,15,-116,-94,-58,68,-24,69,46,46,-41,-71,-78,120,-19,26,-96,102,11,69,-74,118,-20,0,-53,6,-53,-118,-111,-17,30,-15,-46,-45,-8,-9,1,6,88,-39,-127,-74,6,74,16,2,61,-2,-16,-21,14,-85,40,56,16,56,116,-26,-28,-21,100,-96,-77,7,89,111,111,61,-83,-45,26,56,70,87,119,13,26,87,13,93,34,113,-38,34,21,-2,-8,-22,-23,-56,95,109,94,-16,35,77,103,4,23,-63,121,117,-85,119,75,-35,107,25,-30,-116,-59,122,-85,-99,70,20,77,14,-24,-55,-49,81,-91,0,-24,58,88,65,-74,-32,-126,103,-104,89,114,81,95,116,-113,-117,1,-78,115,3,-89,127,-111,34,-115,0,-127,122,100,116,-105,43,-15,44,-59,-15,56,-47,-44,-1,-19,-57,125,-111,47,-106,50,-25,-107,80,-113,-62,43,-16,-108,-52,56,-98,72,-8,-122,-115,90,125,27,-44,123,-26,53,-111,-43,60,109,110,-4,-103,56,-76,-76,-15,-5,-87,36,-58,-122,-7,4,116,73,-26,50,123,-45,-41,29,110,123,96,55,-60,-1524959387,-663877124,-1857110382,1730189120,1095222088,-478456819,-1274458212,532507931,937042396,1967339967,1891048574,-540134,1281905530,611851723,-1414097999,1770748258,1839858808,1516686921,-1990351740,938824196,-131323280,2066490674,1389347327,-1605133543,-775755337,829987827,-2141555644,-1826984278,-1949395130,682552281,1311028504,-2003966019,-166635586,-950604960,-1090944565,-213089308,1030866212,22138254,-1904012463,1024458389,1773860400,1838747293,-1801100137,-660285033,-2128075918,-635062935,-933603987,-526875515,296411897,2136847701,-1931980081,-307896858,1854175565,619827378,1338769751,117714203,751996996,-912783440,1532160039,-624803546,1553958295,-997596149,-835958797,2035531572,-1744791290,719503217,-684296669,-323727813,-714902689,-833829339,851827728,-1534197336,-1181654784,-1692702940,-857676440,1130887461,-1445947917,1268163693,-1398576796,-1759328847,-245192953,-1668164331,1381519999,1183438491,839575097,1869232628,-764757587,1743880111,727046887,-1146481191,-352943833,824523582,-1337084619,1127560504,-2036735482,-1193240703,-1114825790,-1860225196,618606129,-1825430645,1429139472,-2134950221,157604628,514353259,1530064015,-851433221,1737216805,-1234937532,-2081355442,-598043721,1935038697,-1754204487,-901811686,-2034781673,1034810617,-625011389,865505143,-1739126050,-1510609489,1870569800,-1667970845,483979968,-867304560,2032056023,261686931,1503405249,-871518512,1988204843,965026828,417614636,-1219402033,-1739019684,-266394074,-2068563451,-116735642,-1379606953,-306775990,1186355753,-1589616069,-1379311510,1202331501,1612812043,-939648197,538291836,-177644890,-36698186,-1918959921,529539025,875933294,481407620,-1047709848,1513036682,438584926,1263968070,522260996,676758492,-469241232,186360747,-277089499,735547359,-168280240,-150886089,1789461487,-1404928349,-824464617,-45624731,353823805,-798323296,-1199671743,-573736390,87320299,-898735604,-1140309902,-935550415,-1373023441,-642964232,194060573,-90944824,-1269516436,-670804041,-164866357,126982942,1079326240,1352279854,2146874457,973022761,-1091999952,957547428,-545616785,1940671224,2140424771,-1858232634,796635247,-516410040,491870894,-975334061,-1761322103,400493457,301411514,976215586,-245595712,-262630502,-1062228013,871874912,1516308635,-1234285476,1379110371,2030317251,-84324104,1389771299,-375844691,-1245697503,-641414764,-903667570,-1676407385,434573396,-455319348,-1844026612,479841328,-292868769,1764220394,874278569,1935931583,-115628632,-180880604,-1340448071,-1771158471,-409108080,-435945994,1230236023,-963518073,-1670594986,462070883,-1836151806,-92045842,1561741274,1250706093,1728929724,1010729154,-45740603,-237434906,281282350,1672116794,495752500,1369233115,-175226075,-1580652746,-183498295,981579421,-257173136,237365972,1984730482,810098198,-1333635843,-1765085779,433288679,-2054102419,1424889487,145635694,-102805370,-103534864,1446884668,1046489009,-1107918160,-1355621694,-902150945,-1931958024,1970958021,510416573,1738347556,791058506,-384678932,814885876,-227397489,2108550478,-549662436,-1859915253,1613359278,-1978924828,-1883811362,-1449416266,1977842147,-588073350,-2076427405,180239862,-169179117,-1008534773,650572427,1188378941,1076262434,512320233,-47302004,1657490022,1913849959,-1819138072,2046203056,-1233370993,-1428121736,-847815786,-1238278363,-2046069780,-284010987,-955400989,-1602757687,-1169568457,1224996504,-1574997488,531864748,403899558,-1509372570,892287114,2019384350,-1983487464,1215529951,2038284567,-996342457,-1833146748,1623676309,-945226480,836482476,-2129645519,1751553722,-42905458,-629552613,1159102444,1501562230,-1576224172,829253424,-476625446,1720156067,-794080937,687802879,-1348814976,1683097060,-1790303418,-424100251,-680901099,-2134809279,-253691692,1542357904,138997620,-2063368281,1333572971,475287903,-794937364,428380975,610155123,-1813525052,166797867,-894028911,-29185359,1687892271,115679221,1409058637,475596607,248127875,1650067916,-1330187618,-1346526246,1621393133,1923263247,-1038185287,-108461288,-519448263,1049587304,-1464128515,-1912976914,818758110,542466013,398387830,-294521422,-1495285221,-1776711081,355628819,-1535711126,391572345,553823067,1625492804,376481446,-252740118,-1672797415,1832394237,1898713419,1645354922,1641876998,2128556787,712511257,104055705,-1186739494,1235203566,1577576340,-1009268183,-311132401,1337369318,385860245,1364221937,-1719522166,107096087,-64205480,-1057179691,670264961,205849774,-192859656,-655678775,-103849319,1568422765,1709173490,-1635787741,-628774004,-1328355524,-2129411132,1683470721,1423412858,-279463980,-1926152455,799093269,2053018156,303115592,1578416599,71528261,1350602884,1760245839,1060672326,1388918674,1989552983,558225599,582314470,-1571510166,-185047021,723262730,-1343157829,1791732689,1667981141,1453350894,-1619042768,1623474457,425389862,428579813,639766509,-1040637829,1417853972,-76261578,1260486771,-1908190537,-323876532,968077431,1221018250,810883250,2083366453,-1086224238,-1042776639,-513807211,-1749842879,349542253,-531023350,-476435837,1109620755,-1248905403,844864243,-1055977779,-777786000,1049185215,-191317203,89504831,-1449160239,-2048987071,1230742628,-556856381,-772227094,1467482683,422511521,-2043128649,-936932264,-566124592,1027892828,20385352,1119680988,930575095,1595180077,1397473852,-254958779,82264774,-1867867045,-562365244,1703016548,1324568827,270787933,1299468946,2072055493,-1485826332,-79417342,-1176482548,1267667636,1300068778,61062721,1725132559,-1726438111,-1321565684,1913923138,1246858870,-1203571811,1671553092,1752587759,255047918,-1391866530,-424332441,-1326717592,812646781,948930584,-147493154,723893598,93373546,-1126249042,-761440797,-131790846,-521510022,-978968472,-317979638,182547028,-152669206,1283288030,1257297137,981658603,-1753734592,2129502262,1923703936,1364722031,1337615459,1335153891,-768741710,175614049,981165650,2006947128,1706604229,920410073,-1608258283,491979600,1441227068,2029723288,-357266271,1004426843,-1695861701,-1253222027,736878350,858826249,-676115713,-495777890,1451298391,2098402620,-153377538,-1486871903,1610235682,-1864780520,47727822,1773850514,-878854888,-312400369,1220047031,-1106117967,53736896,-2132790965,1574568656,-1623114523,-1690841162,858928091,1189746371,606668059,-1692695221,2072743879,1863653641,686042740,-998430630,-886918726,-657324880,2109213859,1026982735,-943273528,-1808021526,-324138263,-1322323306,-87784307,-954379283,844430598,-518346711,415205587,85089473,-886182728,501211315,-1905636659,20255943,-245619247,1578825381,-1598098245,-896825773,936112540,-1222253641,263461526,-910679610,-1257897535,-2078930070,1343833316,-99085164,1365173008,-1261361678,-1336069683,254756391,1551103239,1967159175,-684890852,-1303720961,-1815850072,775233949,1457499518,554248515,1099007428,566633437,1348998676,-698814570,1268785069,1888342305,-251634164,-1955899157,712354223,51756896,-276418902,-1312205120,-1379942034,988383831,21529682,1412114612,-369189079,-375269714,1101518998,1254462330,1484917308,-2131821916,717293013,-1465402119,1632228383,-944112073,571683971,-2113638723,-892295434,1667082737,-1131228128,1522781107,-1096857824,947520135,1686331986,-261277984,1105900881,158242236,86981816,-634172625,545853747,1357209852,59437970,140852474,1165771513,1355920773,755673742,-1956425812,511380376,1661423330,1699377223,1946552901,959897387,6069311,-1801328660,-1948070525,-263224689,1477602262,-959748647,1230429909,-490164892,-1795701586,1791175996,-1535089695,-75306765,1797111422,508755932,-2091204518,1573776692,1697205274,1000389807,840299071,-1006293805,-113197852,883571868,-1122916990,-812425996,823508368,130809885,-912290407,1592250535,1161746841,-960459081,-544060680,1297439557,999182656,-1595115030,-1237996328,1251157257,-1317695596,-1479488398,-1480165449,-1683237009,2145161228,1171794199,1459000125,820316662,620655140,923308986,-1674656690,1544318069,1343554666,-889899928,1043390989,1832613933,-997436135,-2145327923,-1992925549,858094061,1163352728,1443291896,1024744801,-793099732,2058521294,512032466,-909509782,-519851502,-2087892030,1806527256,1398772341,-33931336,1251084802,-1054699587,-1815895108,792468148,-102071258,-366369969,870314546,49717009,2128231290,2117145414,541950447,1358137432,-854085438,1616494485,-1010964224,-535808953,1069761677,847495377,1264354700,-1036769360,-542743323,1588589497,-797441412,-509994705,-120963181,1490281767,1624695761,1648343041,1289857713,1655839937,1859457169,-1851308496,1374645332,1893747194,-346588582,-390125203,1876037491,-1460297699,1622026179,-116677506,253065025,500886237,690601832,-1567141817,188653043,1671591029,-720900738,1169379293,864121567,-2016958137,73877571,565746972,-1371776381,-1389655949,1577269675,-1432036777,1336044654,-557318062,-697051646,-1165820697,-742664643,693452156,-428590359,952326847,-1862476437,1653788067,668549285,-756141635,319724140,-208485593,-2082957897,-501873034,-129310072,-1682132894,213993940,1510390077,-1954814349,1278043834,1865455769,-1190262674,-256186538,1312365651,-47032345,1235397474,-1037775830,429119006,-1776354331,1856107263,-472316395,134530645,50610374,-1986290946,936728494,1974961525,1315887534,-120927337,1283394313,-433386629,-1683574572,577017534,1265976720,-228964631,2086627095,-401993746,-687857389,789439622,-548932418,224974489,1837811834,576036296,1644708996,-325635518,175641958,-1270118533,2078636459,-589194496,-227136460,-1567575420,-806321075,-1708567211,-738787387,1539568778,-307826446,1661265694,628276822,-1718972385,1670225165,-1333006451,-1226599294,1311424377,294859491,1180640590,-2052265817,1826147455,936619763,194215627,1428077574,463020175,560687984,-825583611,437782377,-1261731760,1034459534,394672894,221618261,527905678,605520112,-1542070789,-1962542134,-1384347728,-1924967756,590985666,2107960762,-134592586,-816702323,-1022973252,720545707,1166301917,509157115,248738293,-1027526360,-359553764,-1412520672,-887800767,-1205917613,2026254062,1334165943,-109565987,515181516,2055358359,847488951,1699765194,-1329090853,-48925167,1790844805,-118791793,-1712976631,-1715131702,261235923,-1617522777,126254024,-2106482006,-557349787,1152221526,1609343146,-599286943,-179771180,-845479109,1094768196,-1173840586,-579334492,-830555499,-337395052,35897415,-1886458435,2072429365,-1004096736,-1708296901,-1103358274,-670370,-1641265687,-1576878576,615692424,-1592922327,-1903263260,659296553,501574925,-240712203,1784268656,225119275,870387106,-1233543441,-440376471,1649290419,-448179592,-1902331885,-73137534,1330856792,-2077907315,161814873,941553390,-1498946035,-211030080,-766519074,-956686375,-357301243,-648083977,131661451,-174805010,577126447,-1860653422,-1917807280,-519952932,-893662578,-1372860607,-1574196936,-1792437757,-997289079,-996427249,-1945053936,-561163154,1710100459,264026559,1173246468,568962643,907885502,-1730231845,-467937933,-559154269,-1968001141,-770806962,216181611,1598877117,-1502740257,-1319529493,-1919470515,-454451936,-512604064,208541504,-998952119,-1630745585,-1205054097,746209250,-180667543,-2106312237,-693557267,1130967570,-403649464,-891627969,-1010422713,1085546506,1208856474,522508600,-335753855,-42809530,1392945490,-223639120,44461491,-1022911979,-1820864925,-1306250376,1535631397,-163229722,-773487026,-394962172,-1655189072,-514900152,-1349194984,-1178099896,111941066,-1286787869,-1260056788,1226234213,1899963060,-1722462696,1721781195,-210581179,-1302318931,223132225,-330016767,898358831,-1263004258,-1174275697,-705130455,1189412951,289721235,-352531454,-1384467963,1009969850,-376628858,1991698150,-32020472,452415113,-1955398739,-1066467838,-1295974929,-946269409,1421499652,1474681588,1661390986,495344220,267877345,-2091902224,-139401788,-1229729645,2044641130,-1077157762,-1789526009,-2078487238,1785863497,1149397083,-1678406256,1206048092,-131667779,700251492,-2046365810,263238247,-498278448,-2134111171,999451930,-56888380,-1049470273,-1450274639,1279824563,-1635799594,1234202425,932340004,765842026,-1207267544,-2142905464,-1360382786,1272775007,-243318735,-1983661527,1896056241,-1336769674,1999094892,-1839874824,1568925570,-1485425880,72813188,-360994666,954638762,-253841035,-371199892,-83203096,-1862417507,-1909837787,-1528222978,869082597,1408205502,1215222557,173348626,2015033096,1885209709,2069861853,1878250594,-578029787,2135529532,979066821,-1392169172,-2140775407,1216733016,-1870453005,560844932,1051178802,1100257849,-1863422000,994951662,1148264459,56455087,106318987,1408178642,-1383768022,931102976,-2144560857,1862864036,-544315627,598847092,-129807424,-270433892,-2104581249,110659792,-1597108560,258946047,-59530511,-243771336,1315733048,1652149191,1786993418,-306085601,-1944778807,961325910,810803056,-508708294,978710981,693392681,1189131307,-303268388,29733457,-1125118743,832020532,-1908585696,-2031335563,-545880347,-269609728,-479750131,689430831,-1037861878,-1951832065,-2018566265,421584637,-850008921,-2104780182,-239430884,-1131917516,56433330,-1934950519,969535735,2027479587,492377813,1635815593,-1670907164,-1932917292,-82718868,-1425468127,1214937411,1070970141,-88117340,697769462,-1919494797,-1418995667,-225598816,1863550210,-1057129808,-1623924444,-714730790,-1973891463,1615978981,-1789960164,1358780096,1106709352,-378947788,2015083114,-228460381,1384180339,-762180673,-1970348641,-238942015,1401186653,1954202916,473379867,-1861163926,-1756010967,-1484755038,-381616529,876746091,1667310404,-230782064,851253425,-1396613235,471482185,-281228706,1831564797,-770504944,393940763,528445200,-1623317835,1403699071,-754795547,1954067504,-961935723,-394279504,-2113883439,-364754886,-514241106,17258208,33651444,-576113719,1684568742,1881312088,-2067521302,1792254254,-1484219179,-151137749,835228040,768969979,-2140001052,-1812230156,458415005,816886153,911064825,-1240321291,-1683512415,-1044258613,767909693,-1168898758,-118723726,-1439367625,1132417541,2005811159,1950889159,-946239225,883381396,107115045,-1278228418,521185909,1475924455,570555704,-822328162,303123304,-511362909,-1068786208,-1218740004,489819171,664187371,-1031110657,665294129,-1133452405,-282239631,-1869626740,319499118,-445402195,-1297399357,542078102,215961657,2017609128,838321060,-949665372,-1405913152,-905571529,1158397271,-1061185212,-1998192347,1679840833,615866179,1181885812,1249369046,1897925582,1644146330,-1239654415,-1186374084,-296468055,-1574790650,-1326575176,-915634885,-1303126981,1735735381,352965766,859109499,2115334753,-1148261087,1655074173,1528466250,-728471349,634991642,-600318915,-721056193,-324897889,-1106029579,1556854378,-1354665265,289352306,-514928000,-448522516,1233363442,1104450596,-1919491221,-1756904335,412941079,391020601,178930900,-1263307689,-1430184873,-276529270,-1575057281,-1762106592,2121567627,1788195015,-2050005725,1487730389,-1779862078,-1734972888,-710436207,-2069578220,-2111212525,-966843522,-1486592092,872975459,679519811,-980770996,36858179,-712462515,-1500683017,1320496752,878008089,-35180758,-789830380,484221112,-1251881351,1961760494,107331463,903694375,119640978,1444372652,708798861,2077477184,-1659065217,1887057822,1623798578,676850170,-1032568021,-1919749466,2045133960,-1716971958,-423429450,-637155016,2123994754,-2047472295,381943292,1080208262,-662124620,-859893185,-1629362915,1243514139,-647573753,-2084046934,-1949762250,339558168,241133008,-1788895155,-1375170104,-1908581497,874222253,617813175,-1309339361,709840017,-1876416292,465170841,-233001827,1961947948,-335989712,-1742058177,275897662,805024056,-1789287841,-977149935,-720910033,1490920744,-984832849,309953730,419221956,821650524,-751761492,-1561530277,-1210103062,761096767,1593834187,1379076230,-756869093,422601960,684809306,443271979,124560258,-914420379,-902455885,2128840773,-188120259,-1655232441,1370778233,-579440333,2014997604,-1146534610,556650486,-449633643,-673550564,130727770,-1656923560,-2143190101,-1980513777,1735491845,-594624877,-1373152639,1759554429,-100627091,-201778079,-1546962978,980486920,-2045180919,2062312835,-1022292669,875483369,358393864,-1630077,1204965659,1026661038,-582261236,264347682,776772968,-1793066463,-821794067,-572630003,512781695,379520154,-1566049294,818545472,-139193387,1723046591,263643386,-1448990902,121410989,1458023674,-890105521,728416706,2134442958,277348476,-332442176,776293726,-1629928909,1272580546,-1636371410,-661540914,-292822991,1200164338,-1475636601,626479453,-1938152023,885648200,-1020328233,35561726,923375939,124875889,166149306,226228455,1759579039,914194387,-1583746229,-888534340,-326150400,-646131083,-939266225,941210389,1254860621,938719417,476419608,-1217721492,-1999787976,-1323193758,212495640,2112656667,-1338211359,431222382,-1592692208,416588640,353644472,1861186198,-381356505,783784752,-1708726505,391660334,539584090,-369991345,1731213649,752257663,-832788795,1813691847,1467851937,49418723,93980180,-31391313,-581022948,853735091,-1235096016,-1583942497,851640719,1613265135,-1670246514,-1557917993,-53673364,1287100985,484051363,-20023710,-1816261916,1197972697,-1344388316,-1715135798,1123700774,605474122,134924112,1720050938,881895476,-1249090320,2119184333,-2041751863,2110492554,-1043620081,-2094324394,1824389048,-1734369558,164743918,687884053,1436120714,-940567433,-67499424,-2119979834,200356840,1572082817,1612717086,-1841888845,1507874270,271648715,1933304649,1174797359,-1007847919,431984393,-995006683,-697408775,987631023,1253925171,-1035745674,-1844384446,1235517400,-2104702516,331210380,-460645260,697101806,398921928,1171864667,-1095744820,-1676742239,1134643318,2006650094,-485168446,-331826130,-57220865,-77109357,1094564153,-1534871882,-1918112251,-1830557961,651309981,2121655654,1603385625,1252589402,874140363,664349207,-314733499,-1910972060,-1454845454,1219590243,-1990847015,1823775620,705631003,-218572110,-109389108,88285239,-79484559,509409260,-2005272347,2129006345,-34914999,1532235112,-137290352,-1273575113,-504033633,-1010035471,-115256058,-91202393,-2062974867,661165489,1809955013,1413978870,113506736,-565432435,-596439358,-1916623465,1919366998,309406204,941459868,-974231271,-2093364239,1644976615,1484201264,693150635,-630755397,526848099,1842761175,-2035663767,-1541794795,-1455184847,196532096,-1080084610,1851993397,288805953,1633643793,1098348444,852661447,-1769325245,-1681822638,-498253276,124410817,1234004600,-418509241,32213404,-407624461,-903551635,230999938,936645912,819919691,1245374815,-2040117767,1330701116,620498375,840038046,483424581,1868544691,-1160522229,1906834987,-1946912795,1333875829,905972481,-563406053,1741811803,1318654369,186249179,1990861816,88866112,173453343,82964281,-439204976,397883838,-156927732,-1414562656,-106061817,-1257829110,765949367,1141691994,35162694,692152085,1223970525,-1503614320,1300116788,-773665835,-1754041509,1190029784,853618829,-1798195835,-1206359670,1621810278,1415078547,-1311159230,1407330515,697061825,99603767,817416587,1934993595,-930073558,-505145652,470965249,227069710,-974910939,2130100070,-1240610556,-1842149428,684157353,-1958736509,-687124476,690501732,1431102995,-234221107,-1958061045,1424967230,1602286040,1804288460,-1895528325,1405018077,2114676543,611328454,284639114,274830303,152977665,-1937035026,-1258428556,-465203460,1581799922,1682187838,-2060167987,-1846504393,1525278413,-160166831,-1713916525,1712723906,-1984952834,347144673,940329830,359837048,-605403985,-361720117,-1612217216,-2017300849,1140298567,-33877640,395288310,1820642859,-1232487590,-891409628,-1614028478,1485212259,163012725,1787251192,1896740330,135493090,-2056364434,1062353720,-420222958,501997631,203555690,-1378395478,-1899191748,497006381,-1981507878,1072573559,421990342,-2122879088,1455716317,39112931,1607557357,851119613,-1739742221,-553114213,-1487384532,-1121530456,-1579982038,586208354,-1878667370,1654372020,1222937042,1429002409,-818362650,586037295,-1794453633,-397932626,1978615595,1022268362,-187222061,1788834867,-1235439638,-1262026983,-1772981842,949297017,615407651,1946652881,174683418,456394925,-993848552,2061312332,-1616446524,813151063,-1074661371,-648563764,-713593262,281634400,1326072532,1504383146,-1324922273,-1595301161,1908246916,852155354,1295754364,-34017526,-2134615988,1787054226,2125958668,458443701,-461164589,-1527550281,2122242801,-701820202,-2010684875,207018895,-804708446,1489829206,-1260597704,682880777,1260404146,-629168009,1220613187,1508434047,322480646,-1995640749,-1375116598,1822896100,-1722208450,-1618796821,1879217749,1046325665,258015578,784098036,1560591490,419472690,1663603839,-1498489250,1915349498,-453548142,1280882230,-1379350495,-221521093,170220404,425521306,33521611,1344388638,1373150433,-659571871,440276352,-2039769116,655860275,-1562422208,1071092828,195450449,445175207,1127668443,-1738796616,-1234969829,641163906,-421222654,-2030607964,1198097986,113313552,774324917,-1812059073,-1423169422,1253148382,-385416965,-1030801699,479591821,709890701,1340647998,1780377854,1125319743,331476570,-915015947,-905825108,378452687,1876959626,-1802649311,-245986566,-1576368406,96187655,1729624713,-1034018356,-1038808127,1702097227,-2058133364,-1666935334,-1628430672,-19555289,1534012177,-726689049,1608556351,1795337413,320052962,-264242155,455547579,340971609,-1520188134,-1983253934,-1224297132,-453355602,-107714618,713734680,-28028591,-949115920,-163196431,1526331812,-1617673123,1878508631,43472198,1024976074,315995430,2064955281,1764186583,-933796282,-233044150,1898686813,-705038258,-1544717449,-1681061444,575305215,-1620139353,-1053732128,237085462,725768141,-1581799128,-595847532,-2083717281,507832806,1057841941,-251826123,-1955445571,53153089,563039960,1706714648,-915187572,-1252651875,559129496,-1440543445,333298092,196567610,-956587778,-2125376815,64587707,73080724,578928597,1782990524,1663682868,-218392987,-866726804,660894417,-466811681,275185930,-1692880420,910512412,773241474,1037647144,1764993397,1290587241,-1429849607,-388491170,1542231316,1667093332,1614179739,1911168408,983719734,-1893386324,-53515356,678062344,640187699,-1245361450,318454662,-372738800,119787191,718669531,698277709,-1245166795,-1728422342,1473154438,780374067,-1256460052,691487822,449247045,-1237429566,1978471461,-834172092,296176379,965394867,524925009,1371180351,1613992344,956847750,-471089248,199639108,-290171119,800394937,573082129,1562702606,-338616849,256038133,-1534471922,-874990283,-428432673,1894937406,1383630067,1792788837,-1465236906,690697830,792127208,-560033974,211419253,-1898282686,1838959054,-183778293,901145419,-91452,1801987167,-284032282,-299496312,-559722716,-1241666184,954113386,-230089759,1164504523,-2073593464,-973809857,-555581904,-1226870514,1266414480,-318911325,2066960144,-830349091,-1870534658,-1083514622,-944005148,-966370611,897609766,-922415692,-246323988,672515977,-325908659,1622109594,-496502379,-1222737610,-970275348,503198563,2116823182,-10556416,1921376339,890396836,538860801,-1453983994,104688226,524065573,1375273994,1473307844,-583766584,-2004817644,-707249878,990200623,-671301684,-153706624,547308038,-1487380460,-716498449,1434914234,752244677,-1934387285,421142743,-1738821616,-182761681,-1917526613,906711163,-1287104727,1484970647,1892237443,562935632,-1362344067,212319601,198959550,1737492328,-1820573138,413612175,-890780086,1311302269,-1720539427,596881043,-1686499149,1368080286,-84111632,466798553,1625166057,-1768678703,146676419,-1524870004,1854268769,-1604997947,1925612705,-2142659725,1958241428,-28904449,-1788651558,-1614664750,-921171115,-1904669034,-1575484225,-998338883,-1022945133,674985348,211066447,586869478,1041142655,-387497513,-90033461,-1745688705,937105939,2135779418,-1742928929,-1772675005,-1683200822,-2090005777,-1870409845,-1117309902,-152547406,628134146,-320477638,1036346505,249585451,-570413807,1247270165,1556578866,647545231,-189386681,-484875604,518526838,1467304239,-2076392756,271762519,126734649,-1377134056,2127601377,-1892582049,2080550413,263662437,1488370667,1611936197,1139686787,904062405,-1276762278,1812769960,1100798375,1040461051,603979670,-1068441436,1783040588,1140231950,2117861224,-2022234990,-84036076,-479224993,-2112993442,1339674616,854839484,-1639389858,144178372,-2092715115,-694165756,878415575,1758423247,290263433,62081444,-697682231,1153465821,129815163,-840925354,641250259,1535486570,-1679385893,-1508181458,1264281149,1124641455,865298103,-211897202,-435948178,-361319096,-957827410,199313449,1403581969,683499121,1897693022,809968401,-817672793,-791090233,-1193402248,-969954776,1234309645,1344433076,70379150,1071106153,-2053993471,868328151,-802540512,1717085820,86510834,-1214003648,512592622,1555134741,400444847,646311499,-401808070,-1696421463,556161082,-1855982963,-262243274,1732008273,-1298977891,-36877160,-777901780,1666633229,-1267003212,-908162002,-479656838,47057762,-1096256236,-331261950,1005334896,-1552018172,472828374,586428768,71415494,2047325785,1370919168,-2133138838,-1973394666,-788518814,1666839486,1135784467,1309936779,-572977615,-1273620163,1068657154,-485631847,556441713,-1386644601,2122594598,1191943451,716914573,1461173925,1604763881,-1952755743,746852941,1250527859,-1102075939,-555164900,-470525704,-151415006,-267439738,178215536,743114767,-790646152,-1455903154,1699661252,-1455145073,1868346403,-360362179,-696267137,-104176908,703289752,-515900047,1042519511,-216288153,1138429674,88889965,1659943226,2120697933,852470489,1334858409,990362400,-2118484886,225709089,1844856834,-1558160364,24698843,-251399415,2079266665,-41910729,-1156524085,850536358,246211605,844610711,-1384571302,-548187151,-1265919739,-1286256675,-1873692098,1934456566,-985744092,1138029350,1442863923,-2133995380,2125454597,2072599034,-617546100,1727061596,1526407783,949897067,-1373471213,807686295,-1746022559,1465618054,1952239409,-1903977696,-349551839,-545978162,-1166278703,-2095400446,1782141861,247944384,-444617141,-1208097685,-1926526445,2048137320,-1935039899,-1703290826,1220177399,-1274545521,339349813,-1803253083,-1803189280,1625453472,986515626,1612608685,683282656,-1874125376,1003314069,-1763414927,1151253811,665114982,-677075708,-884767054,2134562360,-607738785,1961687203,1234651228,361130711,1203011256,-1000415134,1993458053,-593152329,-2009529070,-1031339555,-248399779,1355314275,218949841,-1501647757,191991202,418515551,1457306339,-973508225,-1162792549,-1426634725,-1187220053,1624876124,762023069,558253202,-1437498713,1114727352,-1805026037,-623566517,-1705099395,-1725518475,-1374761285,-1263807701,-1800732249,-1811983775,1025667671,784120483,1498874477,669009196,474348714,-510459882,1862379719,1420971588,1732356180,881444464,-2094625451,1118467764,2141316794,-2068479454,-516160486,-1177991200,1686229259,981497747,-672786667,-1146853603,599024511,431109820,380113969,621052879,-1442712169,-1923367702,381278495,1539708755,-1481027287,1983812540,1088918215,1822608317,-310054447,-1178758241,1167588812,-213383340,-1173843109,285406985,-605657933,1520832181,1213124407,706315650,1518934018,2052647764,2091323195,-1202717129,1232276686,778207880,-750828198,1439848804,851245778,-1471390532,235319377,607633307,1039446531,792674828,-60352551,130908534,-597391583,-715340576,108075095,1532374195,-1029707376,284381296,1220351877,-1156374031,-868314091,-625275122,312936282,1413572692,1685293714,139013239,2049723,-1337393226,-791375008,-184134061,-981872244,-695289890,-1760057061,1151770961,-1202330037,-1929310869,-1306823732,-1953274505,209124580,-6400196,-1394506932,-880178548,-942739618,1064896656,1280745618,557894747,-1009816121,1976937167,-1268384432,-882745645,1169955373,272432472,-1168662752,-577803118,-2124587621,-455771116,-823408954,-448795741,-445859369,742022300,-730818305,1394076881,1102682378,2102729209,-1152112198,1503747952,-197754524,1324186325,-1104878631,-1264606648,1955841437,-1826062963,-814289518,-1134126403,-27033232,1638710447,1420566316,-1812519899,-1329808546,350288731,1288822442,-419807577,1792150481,1969535893,-1440011835,-2026671484,82650967,959198941,609485894,-2005789245,-1518320894,914892996,748631752,907134511,-1199874520,1901579681,1130608450,1264558058,-1701754301,873156849,-2135741722,-1404566746,-250317841,-1314977712,-1634979332,738925969,1625797297,-112318973,-1977224619,1093329952,-414868588,-548053851,1457385669,1416800601,-1042113212,965737930,-179190967,118599131,-73449451,-273828532,926652908,-1111769663,197030128,-1869963740,2119851895,-1713510264,-802908144,-796236021,689818855,-1657871892,470809124,1192733456,415501883,285512891,-892658925,-2073630806,626321011,-1946990812,1380985600,47155068,-1247781061,-1207500116,-2131431327,1110100698,-1220925560,-309117842,-1662618235,-898911795,1715012173,1705805753,640276052,-186536652,-198093428,-1383859980,466516484,1834370714,-1655746065,104353387,-1300353777,63414423,-1928422782,-1852531350,1905115243,1595643394,-121942755,-1716267666,-1980437083,-793998664,1717698546,2037659469,-999361469,-1438365779,-1597294830,1936659067,942426465,202096379,1046406672,202489482,-1621570107,434340395,794928386,1993603227,-1350937194,567246616,1994047596,135214569,-1333709716,-1816345769,-778201702,-306100767,147140359,800493913,-1393816642,1846840225,55409994,830856722,-967652871,746543666,709988392,18115672,689588764,739695558,1492819774,1022190875,168141149,-513480897,-832451323,-1340721096,-477286269,1273987946,1503624199,178571282,-530816375,-584007933,1697444542,-749384745,-28006687,-328407729,-623088447,1964417210,-901672553,649321286,-2066298659,1712990434,-209193447,309554123,-572630185,1971342621,587699125,-1604972152,303726325,1266173566,-1185729764,-1618069392,1980830075,-1362325927,896064609,-1637337075,257061221,315262770,1960802921,-1699432034,1937546291,-368445541,1992055145,1725698753,-957498746,1871246043,-629745292,1420541079,1971520940,-1686195652,1449879770,-712098974,-1697012343,1893651301,-1428308861,-395100882,-2010595550,-2003236067,-1277682288,757031541,-328355922,-1502897372,54257643,-1991288781,1981271776,1064398141,1547657810,-462143205,259964421,1915194477,1595879443,719300002,1468039056,2080811308,1033207647,-1275460078,2098958177,-1759336163,-2144452713,-819436991,1488007027,1891894304,1022037482,355958030,-318158503,-268476672,-1591739077,1372793236,1063335,1313049613,-177513507,1528048243,632846709,-415367872,2122452083,-1331583792,-1985745417,1374318864,972217911,1605213494,756188801,1177946207,1533268661,643396159,-1848318834,1794614840,675491085,1013476724,405108711,-1502070568,-266683179,271147507,1994052736,-760979376,1443438783,157613086,-388977668,472429136,-412874111,-524269795,-1395501822,-1974600343,93263920,1524349574,-2026078720,486890294,-972365309,-54410233,-1969325858,-1269237224,-1877358806,215391675,-1630932173,2126724244,745790225,1563359082,1196531588,1431173559,-425191839,-1036361408,59078842,2083937588,355265168,1266989414,1010923591,1697284137,317101676,-1889186350,-1673620457,675205948,-441050314,-756468599,115143739,1271951296,599042586,-73112147,-1162422136,-2003166418,689205427,-1674151934,625203652,-1774195136,1934335930,-409224793,-1406929872,1067507517,1659342657,2068605216,121693730,520999426,1437152535,-269920384,-1621691448,-1036739315,-1313881667,1254256125,16507773,-1011899200,-787019074,-775735400,-1594203759,558012747,1468742479,-1262744232,-1242465959,-1500345986,-2098729038,-1018619457,1325461832,2081132362,215069825,262516902,683468091,-1769707192,1483672159,-36848845,1350439739,-1861844740,119873312,-1282502590,-223905295,1153262410,-638446630,-216665719,2063859512,-1934088859,-619447721,897181624,-1612252451,1261771316,-446335453,281085384,2109956091,1448077696,-85369207,18761703,148183145,1667565209,-154525300,-1051354539,1883989309,-311164917,847581639,-1940049538,149433717,-284093262,-1780414522,-308037972,-540471644,648765663,1334350007,-48465576,-1175521444,-288266505,1987022546,-1804987480,-1234620415,-1012628116,1903599507,1060641759,-1696817384,989088998,144955168,1318670868,120430637,1300005547,-1922196162,-493007761,-1108881476,-402394763,-486117389,420003427,838954491,1869211551,1593065517,528518793,1856492584,256304994,-500904750,30680393,1454911117,-2095602576,858368138,1508305958,-1242553503,-1763662420,1508668203,-818332843,-1589768303,1541016463,854437967,1485796300,637936660,-1071417097,1904669926,1762174922,1217626720,-1748155436,-1852442217,1045492847,-1438480900,764441904,-19372415,-935883954,1120588378,-1503546455,-961324456,-190738243,-805191150,2024852003,120921570,-2061264487,-860927140,1037185826,-1586968756,-886554774,-1220111273,1509478415,-1543228052,1328857623,1860638132,1538841656,-374936852,-355811920,2004127731,1786513985,-1869746028,-1472680364,362024545,1937412118,508986310,1112578141,-1653376688,-244795004,1722559089,-394396758,1933579433,-768233185,1330109793,-1920395803,-1418035189,-1635864458,-670007248,1714560269,907956009,452740940,-640084767,1578282201,-2071431089,-2067524535,-292833269,-1791832100,1968007061,-61313269,1691658596,2004821749,-1613554506,1829057741,-1011338194,-1478006974,-31656475,595498860,1519409651,-1929683461,1333674530,1307168738,506040433,-266773984,-245426063,-544314519,-455210077,1593305866,43701841,-1451127782,930783118,940822726,1111816177,1775771258,1434228494,-1248898107,1431529402,-1325335811,285765659,-1199866338,-749563569,687638805,-300495932,367781425,1670085951,-139582345,-1245323305,-842965893,-1645093853,306009339,988124204,212867746,1695924731,1143626316,1407660142,-332112939,-346595736,912226005,182123963,-1656432655,504991678,22123369,-1732153183,1732336133,-962879000,-304526797,-634839663,-1322411253,-1809150851,-2007388250,883129663,1141227868,-2135700075,1394619010,-1427649474,-1255588658,1356657686,-62616231,1476463190,13094987,212759314,1381292662,743792548,1076366256,1109555159,-379725403,130023319,426025633,-1972965356,-1495294962,-839175621,-607307417,1077223300,793742521,-1520404094,1650681843,156310176,-1223962815,-1582512388,-542698639,1133615765,142099772,1311547868,682829864,1769004736,-1085942075,89145724,1949000052,-924939330,1093595424,-1533410628,-905818416,-592633963,236114952,-151569,-902966520,100119823,-888159503,214793986,-647341943,829382581,-1789298726,-895146537,-1255598823,964768366,696596088,-1288031982,-1570353110,434860883,229771187,1000500458,539716184,-1802264914,-933174694,-503860780,-1731636473,-716393371,-201326421,-50643951,-1994055291,1281934242,-298808761,-923036854,-492004008,77334878,1606016141,1312242399,2060667735,1058385602,-1695561454,2140315172,-764310424,1270771591,-49145628,-298239972,1512651688,-957185595,-1892802727,-1484115700,-529847616,-14414699,1553334021,1428139077,-1467185675,-1654906897,-1825674233,1145239675,1018262816,1384724153,-1993657292,1747595358,-1229875360,-937499041,-1281619586,-1928245047,376461163,-1946917436,1421096147,-977896458,840481807,1743555137,-149446998,-100375575,905301354,55448007,-1914985329,-1780332922,-991719515,-2007559754,1385616433,869695996,248530705,-807671037,1918788075,-541312773,-1531639734,-4411335,1146958137,-1888716796,1533299657,-2029903300,581820763,1387905675,-66666285,493556753,-232059403,2081375218,-1039679802,2033562238,-1785953792,2116509785,-112500627,1608209578,626823824,1598210983,268562984,1688116040,180665089,632605671,1757826551,1814280918,547616074,-1083580112,-1454129739,1365259559,1151399149,1772137788,-1111783994,-1798719718,2139938225,1206161542,-1461866193,-802324572,-1378507167,-94983783,-979093648,-1514313011,-1964208816,662631707,177739847,1456595441,1554698288,-754511107,47212273,-1955012375,-318232970,-522225725,107191300,1792389578,-1405838729,-372348548,177171340,707273846,-684132539,-5122396,1665304812,-384444895,-585780723,-386272291,-1862695178,2057160619,1142623311,-155709431,1160545445,-1149947903,683942999,-1387342289,1639885061,-2088086912,-1278173216,-1640728053,1343373562,753480348,45088502,222487736,908215237,211088975,-693950096,-739957956,196696624,840730687,1248490092,-1071380257,1036304976,-795904362,1736305416,-1016254561,1337416842,610231838,-1135088491,-2110256061,-1059394234,2763559,-1254630930,899579339,191891395,1438614605,418100664,682256375,1654296326,-500552115,-1472913740,-172719213,-17082861,-496029131,1398495192,1040226140,-156027197,-1025164355,-1174179848,-1774309832,648748728,-1519596152,-1005408040,-367372766,1541641918,-1481640131,-1320916266,4838696,-1664294636,-933232889,-696577998,558632703,-410826654,2118230265,981324590,-1107505958,1907764322,-1760493454,1334439832,1590487422,374331769,804824953,-1111909,-159961380,-1358300293,-311389430,2035405478,-1510818149,-1041260109,-1234099185,1950226216,2111969131,-1287770826,-1304634754,1726391571,361607132,1684318965,440793158,1892584036,-1395381495,-1063794141,865166674,-1591502597,-719177229,-216449070,-1773419052,925089824,310460874,-160771664,-714690701,919846219,-2105121619,-1791579544,1472905136,1151325572,-521902205,1724971326,-1603698633,1299853976,-498590631,624720095,-798406504,245983589,1587068269,161647035,1288689755,1914719418,901022529,216611410,704569211,-1027102202,707813545,608591351,1444095419,-1256100214,-639128847,-564308690,1499442016,1076191302,-83993655,1647075852,1580927504,-1286982339,301234209,-349434373,-2012499627,506609803,-599473341,-108545704,1731475062,515478161,183863208,1607186040,192738919,-1086039087,-763459851,-2088426134,-1989892306,-704835403,10516504,-824842827,-1765254680,-630509918,-1414052191,-686668741,-1590092564,-1665375711,461712092,-1249994716,698411805,-865263111,1229185298,-17067178,-1287506319,627003553,591662778,-128100055,-1785517265,-1089838889,2144585147,-276942888,-428055241,1933579552,-1436348175,233868195,1869934278,2038780879,-85658877,1539123889,1788991670,-13522602,1299926423,-45552548,2072970522,-1715742517,1440966593,-589790167,-1540899714,-1947569437,1186709124,1319600284,-135585817,-516238923,-508893322,-2139569966,-758038485,1288596347,1314518628,-759115324,592612386,368368450,109922832,58250958,-755876649,739929190,-11927124,-878034847,415408554,-1170607327,560534074,1914910346,-509784651,178570177,397586125,-1633025270,-600570862,1112581128,-80704841,-228601447,-1758609191,1828374907,1179686325,-1599109045,-1042531976,-641122061,-565653517,-1021575024,-1344251613,-1082653855,953015236,-513369361,-1895516973,1154773022,-1589925227,-1782542667,691741456,-793775457,2052018474,172702989,2049336260,1368704985,-1280468783,-375169631,631856937,1022326216,-2102827985,-407584624,1384803523,-1112466713,-802437209,1479964018,394374021,-541262366,654304417,1038085495,110376038,-1767749101,-998277734,55460193,489541396,-361018137,-1643053461,-656107662,-1615840150,-295806229,-1995501264,-57313831,-1015111063,-278857330,358010674,-976193633,-1346528982,1495195105,768000605,-520500944,-1049010227,-1604699567,-2087179709,-887726122,-1958038388,1846939040,-1777488307,-497783700,-33504207,2077915091,-317414293,1877884452,264730573,-1167992977,1916274087,927383134,-1441601877,1329909668,1809998707,1229456375,-1525339255,26311819,820723298,-278544806,-864698179,-904155150,-525022055,570839913,-1237657495,-1615472042,-915863201,-296001919,391110895,-459038904,-1108709493,1771167197,-112941910,-468218889,-15721003,-547109043,-1026478974,-1472309862,-1592994161,-230887780,-599771626,228184511,1523917231,1898970771,-1285954196,26396235,766805838,1070574142,321299503,1440324407,377252467,1511501852,940239135,-802046557,1688119773,1430981642,-494163629,553862698,-156529835,782374474,-385809749,-1351524606,-887120775,100146726,-391956395,654233421,-681961736,854824802,779526427,336425573,-1360352619,867557648,444418545,2145486293,-726657099,-1128159120,-1892639254,56255158,1486548168,-1663261989,-290847060,1806913744,1163651269,-2071398871,300967113,-349765188,115457805,1166395349,-486705964,304240324,-1797759825,1691208036,-1881357255,-2056063912,1986331307,-1805968679,375539466,1564754016,-1758345820,-1393845868,2055539756,-1366568465,858009357,1889687109,-1078942578,1953234587,-910101210,307380042,1001822336,-1609855023,1719885861,412831540,-596310266,348738611,1040809219,-368534348,-302498743,-433313346,-150177562,252060247,-661851823,1018960569,-1676003693,492433215,-771273295,448011972,1361375263,-1280819046,1777964525,59356531,129583127,-1464685287,365448328,-1083396983,1520693480,-157591976,1905554198,-1073379033,601572881,-1849024652,2048644839,1416398910,-609840295,-533871485,1113691626,240129675,-1574786228,-610068996,643065171,1578352095,-354755362,267192544,-1151682976,1609781831,1325443541,-32422151,1336763911,786250506,-1127986227,190347151,1126314522,262038343,1955019202,248048144,1835737314,2090044228,893184919,-237312647,-1587271309,-150363660,402404419,-833677719,-1465377764,-214850397,-1389786491,-1255738747,1474100746,-659661776,-756636399,1434499047,-1220782911,1148116906,1377531713,-1964053822,538939379,1096126870,-825020786,-733722039,286139329,1537201070,-277174608,-1412792882,-1016104109,24307109,-1763098520,1396474794,958214927,-1728060432,-713814022,-1123847360,-1340405038,20506028,1750717653,-1221806977,-741997260,1773258405,-788169482,721066394,-781989299,739605898,1465758633,1742309407,161647769,-693601498,2536885,1992907892,-1781799069,393383326,-1055690356,349539741,1134305794,-1196184784,341735593,-947099341,-1584959376,1750144822,-1801903504,-738554669,1621310014,-255874741,316594762,-1812481457,-1505084952,-1870647674,550106770,905874080,758521342,-736473087,-1051487344,1742659738,437268692,1426832234,-1644998707,-815405126,1900051003,925543162,-580909909,1757566121,831702228,-1403706018,1225926054,-1032313685,-1700642894,912116251,-283192163,1563023027,78531985,283265683,-1849106571,-1059395150,-948345328,-1655064362,610038144,1898334347,-1052857643,165735790,-1871887584,932509077,-630168103,-2131151685,-1063937852,420267487,-1412963672,579391431,-955125831,1613880280,265014835,494051237,-356048372,846173183,-2089009521,425132543,1101445563,-1487301928,-1846040698,943246281,860680252,-1429391585,832016192,101652819,1654410196,-994437081,-1824309846,1844719219,1494831583,-1844500220,-2001546938,-1838589645,-713262015,-450103665,1916604145,908478861,683474688,1819377632,1895878978,-1041179380,-2060124171,755902538,-1775960557,364020122,-416608450,-685215318,-1407853924,1828393547,1221232787,-153661522,-704810803,-789495091,-1585483387,-2139338329,-831085442,-1143873582,1486088730,992051166,-716543575,539780089,1205151862,281750554,-601408469,-1605258018,-1359625067,1832275131,1370560961,-545840333,-747639744,-1924633785,1806908483,-808853272,1922417917,-1499427144,-2107878271,-481463341,2141064741,1913832671,-1735168701,-940902412,2041054880,-449905232,-31258243,-706821415,678642335,-1110249885,67450626,1385973563,629088942,607920673,1433659506,280810109,-453337750,-720627089,-90730996,1313725721,-1385567405,-281317853,70719540,1500562788,-943047885,819618585,-781972854,625000844,1116596581,-1248745081,-748848417,-1188385094,112218362,832508297,1577761740,-1531302805,536768876,656195164,309822193,-1782621685,719618768,298875381,-1364678027,-54277897,1741105121,1591653357,1962094812,-2018080422,-878956925,520356082,-1091832360,-1046585041,1859889663,-692058464,-494534643,234660449,-1760983959,-1836043451,2074720116,1531461277,1314999415,-1052597020,-1905298710,-1506137519,-1953468142,354000247,1394130730,-497289222,-1794766184,1364166662,-288745456,411100171,-1253572259,-1997319826,1209261086,743086795,1343587349,-427161000,-476882716,-1919332978,1487296309,-1738128204,-1093649764,-1663079315,-605456575,-531364278,562345895,-1435985465,1845599145,205163260,736208342,2127133383,2025535593,1997666010,721159780,677006795,-780184801,764347645,-1316908318,-1104125740,-1376044951,-433887424,-1952917423,-1477506596,491065420,1547895999,-1848616070,1043090764,152295343,707148446,-761260890,968257001,-2033720953,-739633561,-1181034656,-1275370306,1125084457,-520869884,1786484352,-281115935,983001647,-979503483,114259248,-1932018637,-518944158,-971864826,-1337608421,857349268,-2012393037,-1611765787,-2072997200,1968206917,1678839223,-2137030322,1252236802,533944703,-15108274,16125933,1282759850,-1312379212,-1284609470,224800780,-1380327259,-1674735198,-282981084,-580360392,-1925167774,-227608971,-1153898357,1459100721,1418776233,1185119941,1203114180,-2073479706,1355024234,996969994,-633000146,695927529,-2104243982,-1087226069,402781065,1855606243,1857672132,1151045188,1549437770,536822683,-1405428558,1094675192,-1081523001,20508047,1089049800,-719435187,-223083414,-1494813224,1892353261,-1209050659,1720048577,-1292223620,754723161,377590765,-1290212702,1643455894,1394008712,-29050975,-825222546,1648251296,1124521553,-1162727191,-798035800,1596935394,1151253387,-1466880290,-1264314877,123904610,319433334,139089406,-600236037,-1203299581,769129971,1269239743,1963383597,1415012796,850467020,838199386,-1668482492,-268748888,-1541895512,-624281566,1658664353,1980887740,609285660,-389513988,-1738704986,1893811564,-1563355560,-969939249,-391719956,229800544,1662380302,-320652567,847434671,1057365276,-714475176,-2098637374,-47507060,559618842,-1887235063,-785198862,-674030531,-1595233138,-1396762771,-1495334265,1586989906,-1872190379,-1941777142,1229245875,1039289549,1825508536,-2068212248,1154820620,1778758861,-1733954184,-670505908,-1862865663,1116846300,1025809694,-1919957188,1654426484,-1749679469,-1894435657,-804069110,229140461,-1292710085,1700591942,1794412634,1255279726,-162055949,-1000644647,558711248,-1790065362,-1929479452,-1790809275,1281696241,938960286,373849356,-1935306922,-2114502281,120917382,1660828830,-1890660662,-1349438637,-1656753126,-50078498,889330348,31713787,-1686503419,-35770360,-388802536,919367607,-965088463,-1210423976,2032128947,-70755483,-899731092,-829975365,-1160313363,-15817853,-26167423,2007700790,-671795761,1250895005,2023803782,-1634172019,1994016989,-1428719314,-1639403864,-1518250825,-827147753,-436132872,-1079019481,-796846381,-429117928,-1794024410,-537360064,375179613,1784209704,1237168586,-299861645,-938429230,-1267753234,-894620782,-109119076,1611320612,-1018095128,624442635,1136382100,-563875785,-601093418,-500164849,1927690501,84163688,406865546,1912871697,1947652521,-377095729,1842981056,511003073,295245573,826748319,1651495772,-862002203,100238827,-954420752,576044952,-861606192,-1939613200,433151757,-802224191,-1329018424,1353245730,-1515854022,545978892,-1120044545,1542969154,-363222257,-1753057430,411728026,-1599079028,-1544003257,205290548,-511397645,-984587796,-242745498,2134826263,1891726015,1882369679,-12568769,-1591952855,1283606495,315068158,-636922122,-1566012302,-1510223800,1158352590,1818463325,-2116490589,-989372871,-1907839547,-1015634552,1400631523,-746148354,2109241062,-1122961226,559445592,-1644754284,136329563,-1093848234,-401560975,-1640188843,-528987698,1798717558,-1177555154,896352843,99258071,-2064138716,69191286,-100381509,-74470629,1966850872,-1962459523,1147035099,-108270075,-265151424,921859665,-1183021374,-930297293,497072455,1164788389,-753571961,2036106260,1196721790,-674785641,-1417690550,368738831,1751569274,-737683839,-2057259059,1009705317,1038619440,1616955409,-290052829,-233414454,-404871262,2043989367,2007422775,-1492464348,-1615909992,690954472,-931712238,-1697716013,369581354,-1065506842,-1897747550,-1330208076,-1511201825,1009699864,703072608,2053075858,545074185,-2102933960,117168868,-1268680173,-1770863743,-707466133,1698269810,1533616535,1801161441,2093539052,-1599320601,-1017670415,-1510816646,1699689956,1123888741,-2035470891,-896075477,1491070120,1733196954,927861304,-899586768,868985110,1284933432,-622001426,1031532641,-674573161,-597286835,-1939451738,-2124039423,-1547419882,2055952039,-1879236262,-683439719,318906142,-793082890,-1660800493,-784993047,-1639628715,-633568461,618733288,437456251,-2130167913,515033689,218518393,788046908,1451774461,-2056235852,-2096113132,-1775307275,-120177584,114517903,-957583741,1783682608,1880191993,1655707910,-866687081,1066063022,-1404581957,2089370495,512584386,-1558247339,-267921031,-1862057869,1223706174,1391430222,-986488339,-636873440,109784219,-1225492828,2060072128,1419122350,289787497,779565652,1401504328,-1281908749,-1570190962,250717899,-1999087037,1579168674,1556516775,1969358474,-20306396,-2123144545,202764204,-1402448634,1642637117,-1917481862,288875967,-1977928905,637224241,-1610103484,1008310206,2006235958,-1810972165,164418613,-363127211,556774958,-1836991454,-1878486922,-408775113,1654325909,-1171179469,-370228123,2088695577,1698250326,811837926,472293150,1858615642,-536748321,-873224824,-166663642,-1193451040,1041156568,1535863523,-111795898,494842463,451454094,-41795805,393251566,-1553659399,1585504672,2029236662,1412468727,962883698,-1350796423,126616380,1040278999,-1159075106,-1275738020,-1112649211,545543077,-974271208,-1511348295,-37174316,-846384987,1354154829,-2110810053,1747825339,1441751406,1722613366,-123282993,1147398430,35250095,1282589969,552148679,2034931894,319092254,1316401233,1791595574,-149190856,-2080868070,1755488278,1138196325,423248622,-773224189,-1976031731,-1823489698,222796710,339095102,-1956015257,-989816589,104620399,1141685690,464207080,167538228,1602613833,-2137669168,-630774878,-1847816691,-1724374992,-1260451062,906523045,1997288717,-443990122,-1843639677,-487806304,895525020,1934518178,-1678707767,1360664728,2119325834,-1367345509,-1600203375,-1720213603,253164356,1042791149,1269990092,1059060819,-819654309,1086123184,-207351135,79503891,261852156,-1315858237,-764451712,698378047,517390223,-1316723426,525863461,-855033903,1216460435,604119665,-807879230,1272769207,73325336,-626943330,1115275310,1645535682,674381279,180885105,-591817791,-724707884,-204663801,670295340,576706459,162678061,1285798354,2032022210,1274337899,-1122757283,922121469,-1329472580,531547812,2087466024,1905906081,-1554381300,-36136035,873780511,1622285779,1494872968,937596472,-1434858939,1692542467,422765876,1380803052,-1685762823,663181909,220466592,-545375395,-1782591500,436254230,1174362310,727593357,-419511974,-229252793,1913970085,1471712114,1896356798,-13815371,-427173314,-219808943,-1040193054,1505952971,-2083881148,-863359841,-1654557218,2140056414,-254603626,-1386239472,-554160392,96795330,2021640575,1381736036,-969740438,-481498206,-678540292,-847929188,183791570,1007639814,-130084650,-31869477,-355783709,-1398646986,-1993742830,-354240646,-544022719,-1363318827,-1960168807,-1853281036,561258829,-1011249632,1860651835,2139190140,1863491466,1097670276,1613569884,1589579530,261752142,-2021052895,-2133779660,-1836650846,930399892,989244257,-679647547,1223585761,-294456265,204814535,-307256003,-2034231387,176451040,798737476,-586821574,476720089,-880770837,1511183970,2122881719,-621254252,2015360510,-1169160383,1652927240,1568220211,-1531123056,326204043,207153868,-840958073,2083859304,-1556512452,988178037,-748631819,-2045685864,-72644358,-1722730050,2128009402,-153980768,55684269,-1007407148,-753007488,-1185289057,1085452750,-2043188951,-451742861,219042664,-109194174,1249230258,-1657160231,-441453741,-1169865485,1795337508,-1575202968,922828360,-1520249293,1354988469,-1589049738,-12073374,-1145457950,681817787,-1510496214,-1633181758,1200288802,819383796,2022038668,1776890840,1487467180,190786138,-1067986029,-164670012,2058515898,-39423492,1566659222,-1121560009,-1054347821,978066137,-1884268222,-1618426224,1307854031,2109055774,922310569,925056589,184227240,-29448118,435001488,-668075992,1505357478,544862105,2088698620,-583410467,998282032,-1920768168,1236656450,-1485877874,-713846637,1804379689,-1655791413,-2045666026,29042001,491118421,-1705200254,-136825886,-278863552,1242976827,4500184,-948204769,541321400,-1310385324,-1580100006,504046769,516776492,-1481561886,778593014,2122348078,1306160632,-657221942,384126548,-261633000,1359026657,581730430,217836515,-1383919609,-1533607775,1092321734,-878506588,-858790470,-843766543,-1052866809,-755735508,-1534560885,-1117921435,-1179253443,-1987983437,43851807,346162602,936918994,-1583616465,-1036105317,-1029734888,-2096330359,1421032426,1306138110,176735382,1823021185,2093921695,1007599494,-1928100426,1975922689,-413936920,-657488495,-113730303,-899709023,-1364760001,-913706186,-547866374,-2032620623,-2043827000,1378462226,-606421596,-1511899830,-958258994,-1156556558,1688021737,1113415951,-1911443125,-1036381574,-1404917542,666514662,-1576248640,-1442512998,-1567754793,1820332359,-2386290,-1270838176,-1527941045,-719548008,194811059,288350580,1296209678,812282456,602229595,1659700058,1357666109,1574636741,605595473,-433286828,-1763689657,1297948150,138522828,830753753,493885690,842980162,28313672,673093956,87343666,-672361926,714159371,548327177,-696159858,-1635752565,-703648240,-294382437,1558790823,-672900070,-568220222,847680590,-1367049693,642064199,-1789909724,-195269357,-673294967,-919702554,142800782,2146136021,-1403996651,2001187813,1579987281,921258181,-1607572371,1198042350,1869867203,-1497547430,592685277,-97140975,-1811740043,-1848226475,842042960,-699870461,-1350701762,567041164,1351407920,1598776542,-1939950883,-1139355486,-1999741438,-1060310052,334629491,11416177,1859482764,642974578,-524445733,-21922996,232101996,-874575792,-555138909,1300917243,1754410772,2137921244,1936202918,45597187,753788182,1363376323,-2036279891,1115576974,-103381422,626662986,383381661,-321183856,676335357,1005488551,355464350,962762325,-1918538346,-1138124040,975923811,560679752,1131179303,-1446390773,-2002238749,2107462358,1655696288,233790437,1155553732,-1823311849,-740860279,715870436,-421675801,-1052819444,-1829868492,584634568,652822212,695600367,-403446148,-1334540230,-1051049043,-820376965,93749995,-1523850530,1216458803,-1496031533,470320646,-1371323098,584129230,-1029419011,1073682673,561894122,1846140921,-1499992614,1335842701,-764420631,1690506615,1425293271,1155305357,162040858,-1935308862,-2066479584,-1428646,1213264017,-1250504490,1470402334,-1046171181,378937040,1556401386,1425767191,773030386,2073891437,-1769604898,-2107171278,-1602366575,1761178451,863298839,777409806,-1836804371,-1986544055,316834827,1618876133,1052362719,-1585453099,-628498276,-1973817058,873259447,1179169950,1485137928,27897528,509250720,1272840741,788212431,-1057165003,808165977,673709459,-428201631,-1943099673,-1837204911,1011800378,-1109804622,2064650907,-1262443576,648798103,1169314994,-211195858,-1256791566,1442215856,-217590060,-185471882,-606138571,1425129329,2067712568,-367627928,1628902680,786882138,-1106135707,-290856994,-1133745653,1084279346,-1155533850,-1688890327,15359103,1301052350,-912971815,92833809,98030124,-1443838283,4922222,-316534729,1606922536,-1386620690,299478256,1903521848,1990251021,-1248303713,1050092934,-197641175,-1854982101,1560466599,-247153085,1674605135,1825111179,1750934643,-1701944175,-500801806,1134001876,-1653865396,-1716960224,2046334086,456363219,-599998538,98789282,-11875480,-234606382,-107908936,1268184037,-397516946,-1351501256,-166725557,-1279256628,225905542,1452445230,1431359123,954303607,880262354,-670883308,-1784113140,557477009,1463335332,-1421625174,740911862,-660526504,-1010618838,-580223820,1820364318,224942379,1300798640,-560183667,88303166,-465838557,-1448457434,1286450836,-1782379795,1783763627,-161530263,-1276091885,761795968,-742152253,-1909998005,-1672060555,546772519,1578036941,-566449694,609399119,-46903992,-79635585,-1238649679,-1838682083,-1536413940,1596758699,-474560171,704308588,965749106,141748770,-585961130,1154863325,-286011774,1505789299,1125408301,-226871154,410777418,821061409,725395448,-417689860,1852942529,1571418244,-1320857161,200076583,343600066,1822595771,1987266801,-227962543,-882197413,334438076,1101873388,-2089018249,-47940078,-1847926437,-1383873034,-2143750626,455699136,-1797743170,2057190404,-2083029281,465388445,-1009739829,-1401132478,542787479,663949406,542524390,551555748,1931784726,261532510,-1628229236,1333602024,334352595,2072451349,-802267441,-1972311705,-1726014261,593239179,1932546113,2007975475,-2045602914,1541815065,-1396848481,1763090455,-243109294,1199791137,-950268289,1475635872,1003295862,890409845,548472471,241779549,1526707713,30651157,-407988273,503454303,-1331037585,451771664,822893251,62898077,573473265,1999103866,-65445193,-1641669025,1479824610,2134528766,-134576667,917973492,-1391004488,-1459469532,-79993610,-1821737949,714543873,-1674463310,1568288329,1421159401,415403093,-84473050,-695412663,-600365061,-1203586014,-1533024168,1470394312,1661182988,-405764420,963779339,692771657,1913735934,1020205926,-582725180,363979457,1280659454,-2095029867,2048585023,410733582,-1937281909,1527455724,631894451,439599894,435968068,453512799,1458702610,1809603080,572163440,-1816301437,-875986817,-585883171,-367129294,1169788387,-1022872078,-750966669,-201102552,602595834,265393536,232678037,-27901867,297904758,53976613,515189783,-1323125512,-336364387,-718645625,-1909187419,287985154,1557540289,-718547742,477403897,1662763412,-1838891892,978199646,-1876523112,-2128747317,1043455231,843315456,844803354,-1876907628,600953352,-1651359185,1823453951,-857330014,-648702075,-1881323027,-702792892,839313428,-909647032,1245049431,2100083413,-1968461357,-1784474537,-343182463,236332570,-282384706,-1769141018,365178669,422328559,-185108570,-946925726,-277426574,1705643950,1862860364,670223950,-1040501238,1583550769,-154831783,-247260974,1980696957,-886876234,1279358988,-1512909581,-114363011,996057442,492104804,-1197768061,1889965784,-1772143548,-1658611658,-1451000247,-1647533033,-978532717,-1062084231,-29853710,-1147081210,1568820049,401098180,381068274,-762897782,2046154592,-411623833,-2067936377,2009950115,1095638566,-1897159600,-1850964007,-1545042320,-1861748258,-1681005629,2019117386,-1663308703,-1584216260,-917462195,1739165206,348685320,-837614286,-588876770,-1261530826,154937925,-1218936033,-1780456617,586165958,-1604415779,487836456,1009982110,1866187977,1694741649,1905284331,1339899276,-558017448,-1386298583,1167311909,2050813305,-630658135,2134143930,-1372975992,1736849491,1552819965,1639455655,-1123439886,1718916933,954808196,898716837,685965293,-289194144,729601554,919986710,-1352360597,1923439766,-2004075268,-1557062402,442855190,-1832584407,377234042,166616223,581202924,-404857236,-1882204093,2054305714,-927649553,981720437,29719384,1097566894,2092911837,225949100,-2106499691,-633108704,1877478242,39015471,1333373664,-889622272,-2011941199,438460330,-992643646,-2097982683,-926765359,1884163271,748886675,-89555101,1962708919,-1511701347,185106177,1993131108,-1898571620,1005801770,224388780,1998409901,1030901055,-1128503073,99355446,1855239417,604480424,1015497599,-1617936760,-140015202,276644112,1884351452,969440020,-1331619685,399434580,-1711874838,772294380,-1054917741,1616383487,-2041866018,-1770920659,1261474844,-703508461,-1748488120,-2002929297,136446752,-295999233,33297300,-1332163999,2031885975,-1767718518,-1734291538,-1092600072,-1080649374,1197671586,-491294819,546520995,-1473568277,1657912279,-468374183,1378452365,-1781033156,-18322613,-653223272,-402485933,-1366540187,-883925339,1155647005,1522247528,-1017784328,-1046749715,-456325762,919759097,-220577576,-1996888716,-2012242211,-1518007233,518825371,599832074,-151853708,873595841,-1582418478,203307846,-1238331629,1510385032,-1874240864,473726762,153690947,-1583192858,-1041983199,-421137505,-2144855013,225246587,840257991,975565904,-78615934,-1997010515,-1412702790,645204486,1638931172,-270419851,2023101114,1051177706,-1977497312,575612946,-1628873223,-318954850,2002204457,1242188939,-1941509529,-324225214,351516762,-317069282,-1710315382,164008098,-1878493613,246715358,-1740157282,121489203,-1355661197,1904904975,-1604594075,-1648183584,1940835406,-987552082,1904645879,1387860683,-1355607569,1812755213,-1640597920,-676897479,-913117876,550864931,-103304664,-2021001047,973135068,673633585,1524187065,-1337401540,-1833691284,1092682747,108264709,845647718,709407784,-1190062531,200663503,416990727,-483438046,-474176368,793873424,-2017274456,1882664242,-1468750134,1529634718,-1889257636,450675777,-445707799,-1938267725,1473385272,1787566683,-2040318248,1504762053,1014525263,547303751,2044792372,-498271649,1531649634,-557634223,-844567600,-1137671923,-1326601381,-1607192667,-102213467,-294382861,119730789,1986301170,-624627512,-1161659994,-1168708244,316326816,2066332811,-1331767103,-2084631451,-573649540,-1354647936,-2086202248,-1096122939,-1784594173,-512183875,1438180709,-430773220,-72426992,605182145,1678058953,776436155,246698951,1800933955,684654898,887975352,414587787,1178400303,203605201,-1159000209,-1804257702,2067325783,952052835,-306941705,1579617987,-632895181,-1735690362,-1693004788,771529885,52501482,532353709,-388690129,-1100781822,875248656,21339612,-424306750,1015400139,525389409,-1452369081,-502184261,1132293974,1932119139,1694217268,-1735720345,1120928640,-1444137785,460116526,-2137344107,2104141532,1770865058,-186444888,1647658174,-1608504858,-1429929667,2058024312,1468366786,2031414642,-911620064,-1429042779,-749578187,-1736447903,2120288539,316581811,-2057742895,-418212552,1201609769,-654261184,-1849062646,693019065,-536450007,1715240051,1003727763,-1630450306,-691200578,1743199127,-2121699534,884091791,989488414,635385044,-50487209,-1325793342,800437554,-326576163,-1159214546,-1570656373,-577101929,-1591453142,-1906973697,297386731,1862385367,-1039867909,-1833760693,-861658333,199715554,437510276,1824449727,226409326,1133514578,-168077699,946291811,2103710765,-565139813,-2088514727,-282129392,-63639048,-1058906725,1791673619,-1555246966,258364078,-2140762358,758641499,408556989,1522486275,1808233355,1199537234,-1615339167,292295158,128615507,-1422510450,-2069758024,-1457250135,-751587142,-591646592,1861534587,-1888230544,-31475546,434636258,-1178806440,283359887,-940029681,-348382196,411968618,-2060392843,1074149746,-638855991,-758706162,-108200270,1599269450,466898972,898638607,-719012617,1564343559,-215053779,-1940655642,-501700934,1134634009,531953707,-1276229618,1391259455,-87149107,1332776055,-843229165,490952727,910553952,-1885676000,154750649,342695177,-265379221,555865706,-107683371,1403482869,1589228280,661076679,-2084453400,-101731279,-950887977,1075113272,395377004,793317158,-684583717,-629421003,2087975089,1748220609,142280721,1847627271,681305700,262683650,654903408,-1777897004,777444845,408913269,430973313,1114207116,657063027,-1519708670,-1405712575,-602904117,-611181313,413434794,415613976,1826857754,1402905885,737933682,-1190728080,409294532,-1809368329,125566068,91966763,-621596028,-1115938581,-546728008,-1316573160,354882621,-1802945243,636821901,477776838,886182138,-1704725061,862974191,1705085684,-1422201117,-1979352663,1276245900,1455681309,-151876096,-1954966683,1560036388,-1271904878,-1170185514,-922099631,-1308491849,-556951361,560430835,1348708031,-1274966785,-1737802715,627445994,-2117628619,196507409,-1484596686,-2095297974,-1965725051,579464845,1689884765,-305568540,398686089,-1798476075,-1866040876,-277335233,-885105442,-979578838,1585508099,-771271650,679903686,-8802680,500742901,104780389,1453285047,431766709,973372187,-1975471496,-1641060221,1533626214,-1291064983,-1743989005,1829971368,-1000882172,-2064152499,2002629213,582915728,-89740428,-1764529966,-2089282508,1555887720,777483219,-1559372947,489003492,2025526561,-920611992,1744144570,-2006195334,-1506068860,-884583681,-367437168,832155791,-1177438673,1041950696,-502778564,779494420,-1434167799,640008249,-333210497,-804317140,134434505,73599048,-1413123890,-1742703399,-1083380714,-1701543922,66838003,-1580036410,1747835057,-806540723,-1479126890,1621680676,1869138976,-2017939312,-942430664,-1227910574,552622227,1557280456,-1647839779,-1940797311,322980797,1428424405,-754304531,91919777,2095841028,-1421543773,-743271236,-324903291,990658974,41813786,-1264166081,-2011102481,1561434387,333065014,105509386,-1868276278,1327284961,1046636321,637047504,-720131473,-1926173074,-1928986388,260004910,-1277639963,1801655402,-228419007,-808518763,1327200734,-538238424,358488997,1446859202,-1093129222,-964720334,-55192342,604976213,-1374481757,2102910950,-1813251265,-180075466,186663203,-187412641,-1708512129,403624349,-653913107,190897270,2080412260,909987349,-1719743214,-1842575083,1600526704,-1394423487,615760061,240281591,120608811,-1473951581,252002798,-654370904,889595095,-1600452317,-1455518749,1980114099,953591149,-1195249610,1256948703,-1520115285,52869706,-273725975,2119608604,-573295097,-1489852086,607341648,-2098750006,-21525814,992686672,767645871,76043656,1214620917,797129544,788089775,-948078416,1137305283,-604264075,1701544417,808448746,-26107036,-474413521,287826563,139504263,316148191,-626155937,220046801,1623739398,1338771064,985115052,-336545805,745925282,-2110838935,1138552117,-465160083,1395911815,-805130484,761595181,105398534,1738176690,1360475608,-1798385203,1441181638,657082672,451937826,-441677279,318402782,-187290851,-33461891,-1891686080,-642000130,-1819415027,1629034389,1112801326,1455808595,-1550736629,-829879115,1065660500,220125750,1337394395,-1574029198,1429909261,-788382583,-1674208343,-242069186,1584228205,903003268,200514594,-1313163156,-1352939621,546973374,-22027469,-971334762,770880901,-1931929554,967284834,1101939323,30532626,139878239,32394686,1410099729,-329265627,1700017511,-116308466,-1135569266,-116335289,276158373,-120647877,41049624,-608170880,-1648705422,-1639780665,-1895843990,224497943,-1070230861,-731102059,597209596,-810693761,1790423892,1557403928,435698744,745918751,-1861284667,456874174,1974955305,-1359142716,1028603732,943706947,-363965303,-1063021062,765736293,26837285,-1077190582,262589211,-2096035966,-299174101,-1237091514,-314343925,1562898493,-2085340989,-1323084932,1247950902,2113945276,-407104566,-772926122,-946410503,-1348017300,601138252,484161250,677903582,-2052560568,1796509448,1592686628,-1262618471,350110534,-364060163,752298663,1537075239,-482289696,1772756372,-1745848571,1647283470,-831431928,1108283434,-1499405489,445739847,-668175169,-2001518467,85688439,-463443596,-1953821760,-1430089236,-1890315655,-2057108422,-928775427,-654460520,1142504445,-754449048,1119829067,1832058374,958616283,842668042,301960123,1844371701,-745399920,91980386,-1077192747,996954961,-227000036,-1299693802,570856501,-825147106,257091716,-1861599820,1979887112,-1527793007,-36624148,-524762658,1042341733,-309195936,700643450,11215049,367165727,-882878479,1332607137,-506503743,-384351428,434896593,-541270793,-1372756450,320329301,-1134063432,677658752,990939499,-479390915,1852705325,959035022,-859328079,-1577695628,138294395,-1909214370,-380958902,-1531517272,283229276,-1675631373,672495518,24349724,-870129356,-1107105444,-480827218,-1467017585,-241627093,403239765,-1343619616,1337466780,-862980852,-1034453595,374712598,-165099118,2038599306,602495110,2041539559,-1136059644,1418124782,1433804707,485845880,324842523,489477455,954814864,1271695571,-643242936,1795403314,1126683197,-1424818261,881878913,564899800,-1545532993,-586909998,-502674912,-1165649571,-2011678014,-1923786521,-964509549,-229018363,1283205692,88868661,1196837314,-1749845848,-1770825400,50793709,1377320844,1699903296,2071746845,-1790992895,501076512,-845057257,721269824,1235532130,1952997869,-1089165168,2000830449,-1362935491,-108810111,-1705827063,-1932849267,-1760617686,-1094672588,1664069839,1060816320,-1163320609,1124537398,-1581563030,-1726351170,1929542934,-6042356,607085918,245657834,1690648089,-613421640,-471808461,-778490283,548284082,-1419578388,537011166,-1868255146,1380489894,79493588,-1092993775,-1632013834,56494437,1316200376,-71756115,589759607,-1828934062,-751192107,-2078740118,-879915860,-367453899,-645401051,-877611757,-1046758242,1180564269,-609128127,27057461,2043535898,504692934,-649407937,-598401262,-1407144577,-1778940949,-857865921,634978242,-142603310,-1887178339,6360205,742448977,-407206284,1648062541,-1625779769,-52,112,84,-110,37,-90,-45,90,-83,77,-78,-97,-83,-16,20,5,89,-6,53,-50,-54,-72,-127,22,-32,12,-10,54,43,-42,-82,-39,15,98,-100,-102,-71,126,-79,-39,-79,53,-121,-6,-92,-121,-68,-96,85,121,-64,-53,95,12,61,37,-55,-125,-42,-3,98,89,16,64,-117,-53,62,-125,85,-113,54,-74,113,-50,31,40,87,51,-54,-11,51,27,19,2,-55,-25,85,98,82,-125,48,-2,64,69,103,-10,-29,-126,36,-111,118,18,83,-27,107,7,-32,98,2,78,-90,2,-14,-91,10,-2,-71,49,-24,-40,81,-22,-13,-28,-50,26,122,-114,-95,71,-61,67,105,63,21,91,6,7,-32,8,-49,45,71,-107,-84,29,-31,95,47,28,121,11,-74,-78,-115,-3,-64,-103,87,43,-102,-96,92,30,-93,-102,-36,-55,25,121,-50,97,-91,117,12,-121,32,77,-12,28,85,-22,-57,95,123,-110,-47,4,-7,-31,0,23,-62,1,89,-36,-108,-95,-121,-98,7,-9,-52,14,50,79,42,-90,6,40,-93,-78,-3,-102,-30,-118,126,-83,-87,-4,74,-106,43,-60,112,119,-20,-20,99,-77,43,89,37,-79,15,52,97,60,126,22,80,118,73,-82,-81,66,24,-5,-114,-113,108,122,31,-54,-86,34,-16,-79,37,-20,-58,-7,-74,-125,-12,18,-20,-56,117,-82,123,117,-74,-125,-12,-4,-41,-67,-101,-123,126,82,-2,-19,71,40,-110,-105,103,-42,17,59,-96,-41,-57,75,125,69,-65,-21,-104,124,68,-1,-98,-108,68,-6,-85,75,105,6,109,21,-4,-31,20,62,49,-16,26,68,-55,45,-81,11,-18,-29,-125,-60,-31,54,-118,11,36,-111,61,-50,60,-118,28,71,28,-89,-33,-10,41,-101,23,6,-123,-28,9,108,14,90,120,29,-3,-28,-68,-111,-36,-59,41,-49,-36,-62,75,-61,-64,105,45,-44,95,-10,-123,-46,86,34,75,-87,-67,79,70,45,-26,26,39,-33,96,-57,53,86,-110,-81,-23,78,-11,-112,-46,66,43,20,58,-121,-15,113,82,111,127,32,-110,111,-87,-44,-103,4,-55,37,114,71,16,96,95,48,-15,-42,69,43,57,73,-33,-49,-73,35,94,-9,-106,15,-66,-81,-21,-5,-8,28,-20,42,-28,-83,70,70,21,-74,48,122,-7,59,29,-4,-128,73,110,119,-60,125,-107,81,16,-52,94,-66,-123,48,-66,-50,-56,55,74,47,-112,124,-99,-124,-32,7,-128,-53,-32,-122,121,-18,-113,-102,-98,-5,67,101,15,74,1,-6,-59,8,-66,-66,-105,97,-48,109,41,-84,36,89,-11,103,-88,-115,44,32,-15,0,-12,17,18,-54,-13,-92,88,-21,-34,61,29,19,108,-74,104,61,93,-45,-4,-102,-88,66,-52,-7,-61,-16,-35,32,-33,-1,-30,-26,-30,65,65,79,30,-71,-91,-15,113,-59,28,1,-62,-19,-110,-28,122,90,21,109,-13,68,4,-47,-44,67,73,101,89,-65,-85,126,123,-14,93,-112,-96,123,-114,-127,-112,36,-4,68,-54,-121,-58,121,64,-22,4,-59,103,-128,-61,-9,97,-94,5,-101,-19,60,10,117,7,87,82,-84,-60,62,-80,-17,-46,85,-102,-61,59,-35,-9,-126,69,74,49,96,114,-14,75,39,49,84,-83,109,-85,69,-82,107,-65,-19,-126,51,96,2,26,-60,-70,-18,24,-45,-1,-67,-39,84,127,-123,-7,-49,-19,-43,-18,34,46,-4,120,19,104,-42,21,-47,81,85,-42,94,42,80,-97,98,14,-78,18,106,69,7,105,74,87,43,5,-37,-1,-32,85,126,113,69,40,25,39,-91,-16,5,-53,-87,-89,-17,-107,-63,-6,127,28,-95,-29,12,-34,-116,-5,-86,-29,119,-42,66,107,-25,21,-86,1,39,-48,-125,-126,26,-65,48,24,127,-99,-106,77,99,-54,101,-89,-97,-42,13,-30,66,-27,65,-78,62,-117,-118,29,95,5,45,-60,119,-36,72,69,5,-44,53,-106,-79,-84,94,-38,91,104,78,-67,51,-101,110,124,23,46,127,23,115,-7,-69,-60,-55,-100,4,127,-104,114,-82,83,108,-65,-54,74,-40,8,83,-93,-68,48,29,-36,-105,-59,-40,36,-20,-46,64,-34,-119,127,-44,-77,21,100,-113,-85,15,70,-48,-63,-7,-105,97,40,99,19,-69,83,82,81,-50,4,120,16,-13,-85,88,19,92,-117,-89,70,30,108,99,-1,93,20,44,119,18,80,28,84,-76,-108,-75,91,-48,8,-117,1,-10,-81,68,-90,-72,-122,-44,21,22,-52,51,-8,86,-29,48,7,-23,-39,66,44,45,-55,126,-41,-98,-100,-67,29,-21,86,-13,15,-52,-128,39,54,-93,93,-26,46,90,-9,-43,71,-125,-23,-120,17,-73,58,17,-17,-90,8,86,7,88,63,-32,-29,72,-72,-110,8,62,100,-90,123,-13,-17,84,14,-77,5,-68,34,-23,60,-21,22,-67,-18,39,-124,29,-8,33,80,-2,-32,-24,-34,90,-91,-96,72,-1,-86,-77,-119,-41,26,-62,-118,124,71,-10,-35,-51,73,-128,-114,-84,-20,50,23,-82,-30,46,15,-40,62,42,113,-20,84,-116,-9,119,93,14,34,-56,82,69,-24,71,-34,-6,119,-127,19,-113,-157600434,553559587,-202238323,-1765235568,791721514,196658234,-840294893,1155081981,-1802867128,-1467440804,1858824254,-2052887468,1162669761,-1074486546,-2088080917,1424515389,467643995,72399129,-1233651460,1468534345,1524278747,1810650521,-1335147585,1403036068,-164119925,2133075455,1273313568,556438566,-962525650,-698381049,-286915658,-66985161,1827171571,1062770240,-908325114,-1484695281,1551764232,1412024691,142757645,821803856,1413516542,1800186186,373171098,-384396814,-256359067,-593250316,1916804124,530261715,-277445649,-1039772611,-2070665623,1531989616,425365019,1036134958,1475359136,1267341557,1509636501,-486167428,-393155928,-1272915066,384989638,594671529,-579195184,1773942882,-1008922018,-821602752,2052133985,-1047069589,1671632716,-364993203,724989440,176932584,-858837275,-713995302,227544710,-1384300322,409270712,945076873,-461344099,-1084419963,839647213,1703861723,-2091274356,785400620,-511299648,299362960,-955011731,1034245087,-1132574392,139512263,1978185219,-1913498664,1542998992,-563245571,-1845555441,1376638072,1720509357,-1239839991,-1953926504,868260429,1786216162,1028756415,23546796,-1464870389,-19000533,-621125796,1437211665,273934254,1652403163,1196494109,-1630961205,421360812,-957717495,-516218029,-1146901735,52368775,-1757754492,-618295127,2004987137,-1367954694,1202400011,-773101373,-1134715547,-1197257327,93853757,294507147,-411449539,-1886207360,725189582,-112239006,-1082964641,361875402,15948571,-1299991760,929302201,-1923174230,-1745796995,100279601,-117902931,-1860028833,1524544899,1678018200,539575620,218081983,1382807609,-1848057207,57361978,-650976933,-1118102532,258010857,680446089,-829893753,-1667361388,-615899719,-2027685800,32924810,696836287,1301457810,1691855886,683202626,1879188943,-348255611,-1701433483,-1049729087,-684155139,-2002950385,-1788928106,-286831976,525187160,1773667074,-1976021571,-937800475,1266233131,-1557034423,-15100061,2053827275,-968723882,-1700112815,-163064184,1312335350,-2117747248,1192174086,1215460531,1002759302,1762516326,1053200958,-1671130008,1987415015,-1336363167,873187564,570555811,-1984254600,341305267,-841658810,-509561332,-1676407965,753325118,73086667,-1852065030,1167338403,318375746,-1183639456,-1182143395,1294331931,-1755601462,-2074413190,350159552,-484153003,-1059050542,1573596443,2025706270,-834985080,-502571712,1974557932,109640280,366871131,1662967423,2141601246,142610252,-2063854813,-1896368187,-547791610,1962431214,-1170735090,864383721,-451680242,1693757745,-2002424959,-2006826153,-529250988,-2120715439,-1369559846,1569429082,-1041006466,-904925056,686618802,1847755336,231459596,1905819257,941143866,603644844,1364905221,-575684741,-994670313,1619346342,-1637866411,1704222783,976173441,1659886734,594798077,1896168253,208576720,1547375488,-591400590,1108571207,1744838266,-521467682,-231777464,717537152,-739616251,563140628,77962986,852903004,141510926,1159799508,-1093033837,928947005,-1457738179,-567091923,259845230,-858472332,1085743872,-559460441,242609869,-1511236340,-308625596,1403804942,-515003395,-1889753499,1576290338,-1392337615,-1868738976,1717009286,-479655925,-1115601757,-387198898,-1665505880,-878721115,725869262,-1409841534,1479778751,-959820942,662623694,823478386,1008476904,-1480028994,-885987269,-218662687,-982939339,682193866,-1216257282,925182410,1459124213,1436025479,210630414,207353609,-1448151525,-1084854147,-426892276,1519473198,1292806535,900896094,1808020854,-792303628,1262160220,-1342848154,-1087175425,-1838216069,1150108692,-1248148559,-1500238245,-2028050514,2091730108,-1731070741,-1600194950,448250088,-993737291,125507729,-1648318688,983621188,385599483,1315464300,-1359857970,-1047756963,197846843,642205801,-1146512753,321537963,-226316099,157914728,1934265911,1065527315,1230187574,-825751797,-1942652986,-710731227,736836084,107662291,1082893586,950930637,1663592539,-1254050408,638723619,-393629884,-1455297422,18190500,2064643952,13566290,-920581161,750388628,-1156120518,1675334222,-266666629,1310052938,1394727253,-1251964466,2143842152,-997065430,323274743,-1035637571,292578046,-409443932,-1335433645,-449355029,-1105048044,-1171485514,262943385,-71416885,20561119,1421570919,368787306,-19058632,58638111,973326509,2133869035,-120185944,-614902550,417413521,-1763239574,-200565857,1633257311,-1074409996,1746309221,986499238,2110232396,-747638534,-1552041757,-1711552831,157317460,-844780548,1664939970,620707179,875950332,-188408279,1672818985,367349496,-1873033096,-672072151,-1895633871,-877595919,1500862207,282341672,1446667024,-2048017337,737367042,-2017317436,-452060692,895696137,1749720637,-668921900,-1373381776,1009009500,851431147,1022384407,-773308789,-969050420,-890716549,-652062798,-261574661,1044658048,-2129185577,1701790355,-139896587,1719684125,-154465335,-11967344,1265796,-1669132624,1900159561,-2105284733,2059962812,1406104958,-1834027539,-2062001998,1733721001,-1236711675,-1833803354,-1204485926,-1931639677,-1072872408,-356315609,-1332604113,1926946874,-2042205598,-339159801,-1155972338,-2024807916,1831345257,-442766730,-523301648,-1971562969,-565448760,19318593,-442753310,911027740,-2083303934,1700522044,-1375138550,-353907412,-438254019,1697844238,361353261,1018623532,-1970408107,308071756,892162552,-1558158035,1643329845,1629933175,-1039944645,-1349771687,331121492,2038528703,-1633478181,-132103328,-1329827530,1299757841,1254150314,1354848001,-1630502595,537241944,2074270043,-1359739302,417721103,983347711,2135511377,478486124,-922720959,-2094161909,555008588,-2146501228,-1257424269,-1177711554,1340901214,-12778589,1066836796,-1408443178,-111539586,654986128,-1160410288,235881895,-367767387,638470110,-1057730149,1582576192,-894709205,-1097428688,2023194286,1458101818,471770352,710093750,-1447283876,-505647839,287137799,1500188912,-954427534,410745036,816385529,1017145612,1474642344,1018641794,-1247321786,1309420393,-479060095,-1515833284,-203131518,-283307877,983735144,1806119761,-1342216443,1700146939,-1880067524,-509109384,123367035,1764141704,1305965434,-1528280016,-554375546,1658823059,633968717,2135832322,209266239,1371099092,1814433403,-1379182296,1110679482,711971317,-817124790,459006850,1876122946,1126528966,-1128550702,1780089477,917036598,607542133,1876289270,973265497,-492088502,1506441971,1740042215,1896946066,2114930983,1215421487,-2079333502,1891580329,-318943207,517045077,-2051950254,320171637,1775301143,1787449258,-1183554102,1470492479,-1673722857,-512448245,-1178628325,749338927,685489803,-882353864,-1039273541,-2118742895,530590746,1368481164,-1914336990,811575525,1849791953,166524314,-1487580770,1948251993,-89166972,1428159639,-404325033,735303743,-1414752062,-503780424,661576849,-554779269,770810123,2100802906,467904570,1123050044,804335869,260718009,51648671,1233033264,1501302662,1884262720,-657350037,-13681999,1146369793,1218643954,13980669,1212540067,1792141401,2122015754,-1898221753,1035212148,918383557,1521886384,-64778747,644712157,-847567678,-143816224,-541132827,-448311665,-341876084,903640761,-728965972,-688727439,-845571121,2018175954,-1566234271,-708829620,-298141816,-773494071,-142251656,-1812025985,-1927207387,-1117695242,-502809946,-243976178,956981360,798587254,-1958832110,915876613,79710482,-145133491,-1986443185,1603502473,-1343178582,-270483562,1474127903,701036850,1963616028,-1958737949,-1246199181,1212502793,182015511,1589305658,1202918879,-28812524,-1957706485,-1231109528,-2119970155,1629751332,2092798601,-970977711,-6838606,-771924959,1831436348,322659275,-25096514,-1871280718,1349514453,1034546709,-1652354714,1082758266,1563857056,-351580120,1620081531,-1205144214,-1082768924,-409079610,2113119559,70757465,-2049031806,341942119,-1452529777,1689861196,-716174856,-1867978411,-1297433786,623723021,165357637,-1808173211,-1844285246,881067249,-35208738,-102024378,928334760,-633436383,-1815220404,-545603555,-540061345,2013726151,-2053596818,282794108,40632270,2102783805,-1159970322,-1569513557,455342926,1966268721,902565730,-1581386438,904664646,-2060560576,210194834,-1338596591,-1335240350,-82659532,217136053,888948697,-1095450431,461926957,1906422757,174846481,-1776537236,-468088443,281791101,-235853168,1483127933,-1129596714,-1271468123,-2002398216,-969911223,1687587726,1883673730,552812121,95938460,1233074592,6697760,-1045125454,-2106155507,-2022081086,-1038281695,1567982792,-393628177,-895860296,1307358665,-712305882,-1611822857,1060803459,807460663,1564904905,978920640,1962617396,-1675819606,165230020,2058801457,-427348535,-14134963,-616897492,-1441554305,-1088147646,829973568,204257299,1496399568,-626010935,-995400390,-1831630271,-932862215,20113594,391122603,-245209840,1353150062,1042295454,801532750,476223201,-2075983418,1320536548,1950858049,-705043813,-1504586253,-638683074,-981450499,360651448,287436300,586236188,1764937084,1546948230,-98431350,-482051868,-703476251,962882365,1242069640,-132683065,2111916374,38651034,21022361,289611702,1526654425,1467096349,-1531946960,1281865592,2005907779,1373127571,-1308482760,1072734448,-122996796,2133416729,1243469255,2091105482,-1779165006,-1107040039,857712597,1592130425,357466812,1616911436,-132728689,-1121048612,1036885624,-1700037776,490132921,-478059645,982556314,-1502255662,1405547142,1236456301,594229777,-2075823551,396327633,1702942376,1884503482,-1169710254,61387367,1241556739,583977680,-554260846,1489315811,1522350284,841780567,1483124080,1735803925,-154071120,-889500329,-1191231643,-827400312,643170163,-749431486,-879712924,-702162210,-812862715,95787814,-969643403,-1925550222,521704810,-1299767780,-1329794127,-1312851739,855905639,-1970312052,1592150973,-619126705,-458522459,-2110284111,-585418299,1444663499,1327429339,117127843,-996426078,152475839,-1891731064,1442053655,-705703218,-861679960,-1023126777,948641068,814249472,2071138815,-1821844796,5190984,1413695925,-1156169726,-907286938,2071103079,-2129954496,-61174372,-1146453486,1413155406,1981887752,-52567011,473672074,-1508942523,-1745456682,-500793049,-1702837724,1291008295,2119517658,-1618598348,249155583,735605495,1741399198,-1624361864,1247081657,-325945489,1388054358,-158116363,388958485,-2100470052,1083312563,506751696,-1632201124,-786880388,613767779,96973939,1526432066,-736385904,755931162,689796269,1814880160,-2086065451,-1938953535,-321156367,-574249992,-1282334401,1023127044,1143094854,-1927598023,1980810245,-2099842424,-1696851073,970049992,-1103540496,1103984271,-1042531464,-116599348,1444676852,-80450254,-1301234816,1433561272,37997009,-488291733,252479413,1276504256,77149044,1184448491,-1024256287,-1172651554,-1467069800,1720575553,1070668362,169911801,796412892,-70015109,-2122664270,-1171570933,-1458903721,-1733688157,1416329267,-782005948,1830390791,-515281972,-1431621929,-1058067259,2088213889,632907842,577159364,-184362564,-1108176989,-324230575,-2101250242,1500977380,-951713154,-500539749,-1920147962,792671685,-1307279219,-769222197,2104427315,-521508682,-2036355890,497897466,907053847,224733577,-825906094,-390244828,-385018049,-384835547,-2120281264,386844724,-725258383,862579459,-1733435750,131607566,-292954582,1093999774,693831610,1575697804,-1593224200,637788468,-1469295179,-1294299724,923704163,-288527557,435518266,-1076772897,564608653,-1332772320,734134867,258069525,562665894,379087553,1632744902,-2104315356,383907677,1258869143,1944491198,-978093397,-1817706840,-1442200730,-977239028,1652288624,-659581415,293923189,-391309948,-6308794,-1949586462,1075486061,182099804,932844640,-157406957,-1949933048,1130997497,-1650625916,656605669,-423447740,160568,1848310251,1557132955,1082953582,1773089302,-193127819,-2098718728,-939114181,-1436265559,-1543073300,-1205606257,-1525203424,2037317447,323409293,-1229764198,-64274395,-866513549,-46778435,-627155991,441066137,-1176253105,491170221,-2122007129,-2138141448,-441387974,800678249,978673254,180857144,904226424,-1052284409,-1832952306,377924741,1031748866,1984499584,-111895843,125038611,1667600302,-314626387,1671190592,-1460812157,761839370,1718874436,-399500193,-656430411,-1726314110,-1139467061,2014471400,-1791236858,613705236,-477694928,1824952214,-196908589,574803770,-196217392,-1685735090,1048955908,-1711411069,1961424642,1479088264,831280084,-283541550,-909130558,-543947252,1713695425,-2050697235,-155963515,521352981,2102828048,1070767764,-1610901304,-626599329,204205237,157813332,-1088298406,915992700,75603112,-1553735430,-1325145076,1288967652,235743494,-109761403,-1909913527,1629121444,-6894887,1225751505,-588476659,1536396190,-1189799742,-946788386,1134092579,1891075709,-1384081211,-370174385,182559846,1602270984,-686747708,1215563968,-2085422356,-589946617,-1621051905,793488678,354773509,497774639,1554599527,31335469,369372896,1610862825,-1623206811,-1221382412,-1033016947,-1998501226,1887376126,-391953649,971579183,494539933,-1996480736,-566632411,1312949479,-645387101,-1767827169,1452401927,2119486513,539646885,-495827651,-341835576,-1714480125,2007062066,512049540,-646012922,2052265526,-507919058,1615881935,226002778,-335143034,-195593337,249028423,-772817975,418453004,-707664717,1696648725,-708367873,1008625537,1119266975,-1926182039,543634533,-59537570,-19562496,1284790453,2143885926,373541089,-1192739309,2008340124,2024539177,-1999929197,-1769388856,540151883,1879125630,1738404568,328134264,-324055896,2076725575,774037384,-58002947,2084419344,763227063,788792335,-1412139950,1915736877,-684760365,-459967321,-1078573424,451006512,-1962208177,-1396965925,1237023633,577067541,1213907310,1450170213,479920246,687986916,1631665716,-1482499418,-1882268739,595841690,-821704926,236334435,-650152375,2125904134,-607745206,-239340548,-1043673488,1289712226,-1089612945,-1699693240,713863672,-1157703491,-175242665,1180001167,-1056909851,87827514,-305341785,-745396653,847036404,-1159035556,1880614371,706867764,-608339999,-2033149293,326165099,-1155051387,-1811266161,-1016717750,-1613280922,1608620342,1347365335,688638436,2081333611,-951523052,1659498902,332920510,368081424,-2068990784,-1207863218,-1346132618,-1427997531,-533397659,1105254720,-923274694,-482288181,-61218402,-7930584,-314581540,-732898862,1939995388,-49783926,-1729180558,-2136478384,-1941012237,1646851336,-1120444526,1466098288,85559879,193387207,1506182113,-534807257,-14124980,-1576440036,-1023071395,1495211150,-1557344058,671744054,-1376691386,1269131095,501200126,1219510296,452798092,443873562,1046480348,1330087961,1851655465,-48761935,-1704888370,-1606110651,-465318110,1995732289,1317500812,-1893235922,443250649,-1184553286,1263426257,-408745622,-840436776,946963892,-356989591,-714021417,1622093498,1407229844,254461160,1532302484,-1696359094,-138625090,1988523489,-720700050,-1330121163,1866927307,-1200467274,1429802221,1418506299,771616059,-543788565,-204496022,-495134684,838855136,770193097,839571503,-1284466874,598136137,1261560620,1552777191,1621741029,605823705,-6162047,947809902,1460915407,-1180880930,-1235892166,1962127091,1878236382,322450228,-583542683,1754761373,771344216,-1786234205,-1698327813,953749737,-132037915,-1480032295,546616911,571777712,2060919527,1416227093,725675800,1161397223,-286637053,1284858361,-451892322,-2110260960,-1330664570,-847111712,-1412414777,245030228,1263452845,219582078,-2113261762,1662103595,-1061664992,424316855,1629670515,1531598690,52762453,-968689568,-1781984382,1364771149,-320763958,324455525,-1067410947,2146339958,2104647011,201679573,-2123967946,-960211762,1016462361,757822819,-326720298,369337765,707926040,1461144801,-1185901248,1262536036,-1171666635,400633305,792975489,-1741599928,-1782106684,1062725309,27725883,-1134264673,-577437943,-2144034256,-952116887,-1934541175,-413131980,1370823083,309556779,-1088118956,286203566,-1741863715,380009092,1998975790,-1520381800,1122548090,821159836,2039242566,1735248958,1418410001,283796550,1171107234,1110382678,-804260695,887113380,-1487110845,1231292569,1806626880,1436109056,-1602722147,1106532927,-1608260595,90505196,-1700654436,1397200130,227221037,-1175767380,720458040,-1092667615,1823395329,-16041521,-154258338,-654333860,780160613,-792170014,750813284,757406028,-1510948006,-30148704,97579391,-2118096581,-738689324,-641455770,-469355091,-1326913735,1762209238,2095238863,-684282329,-911191956,-205733040,1185743711,-852223889,-936213923,865841950,1576815579,1167177368,-1595431926,-1612105695,667914426,1092470308,1575966362,230607791,1947185541,-1151903525,678106404,1461954,1060926076,768714283,857876320,-1676463371,-2120972494,-821277787,-1207816716,-331651584,327598774,-638702044,284111768,181869498,564247950,-347829930,-130067396,321963657,-1033858392,991022291,1725995294,-86818248,-257815442,-2143590600,652193024,886873562,-1113298455,-2022082785,1929900905,-1859183605,422218799,172920183,-1347220917,1613087223,-2054110593,777549027,-468890292,-1139410137,155601594,950697582,-1020453854,917190029,1234483595,-1667239936,-1710133320,1949648499,1847026789,-341323989,1269807490,-796415671,-931891036,-1919166802,-829598926,-1817767051,1387695126,1260696210,-693460756,-847650756,505572020,482188970,-416550017,-1854341508,449732940,2105425004,-1837863193,1486419143,1411518226,-1428052879,1240236659,-1351082598,-403974148,1190251017,-1933591341,727665952,-320097806,1249126563,-2055782786,903269649,-818093231,-339269865,-1775032391,-677778272,907220555,1670216632,2101591735,362716284,298418661,-1350663331,672054698,553740237,-1556428513,-896168283,222760061,1162420563,-1981714702,-362181723,998114868,1967594048,-357915506,-885637823,1109508902,203291441,-1792807036,-114792091,1976205335,-398205134,-1932288472,-579683821,1855972605,1242851158,1746323143,175189874,-1468463420,-1966066195,507089701,292982365,1126478381,402727169,1817913026,722662938,-917281080,515196545,173131649,-1097773794,-1969281510,1853713228,1599134850,235144757,1213779257,-1839690671,1122196431,-1971011979,867563852,94927200,-2146251094,-582152150,1933518271,1945637254,175375343,-1417704085,1534035102,1317834904,1151110637,-1343935882,1985789941,1442491942,-415585150,-1625640282,1095453033,-1506716764,46058903,1952459621,-655803922,-673739690,-31726892,-1802876106,-1557889578,-980908088,1856120503,-1691438835,1627087265,193588699,755021289,-1739951911,-1651293043,-832698565,80858834,-337411410,1132570807,1468478860,1900387189,-1711375068,551877986,1152101087,-888387722,2047432390,1753893729,267471711,121115775,546845825,-2120365650,-1250810954,930928455,35987540,1336775204,-1969168038,957563583,-1999883160,1093105813,-1700187846,-1648098757,1686669775,-1718225646,-776021017,-1421291511,1911221430,-654973908,1523269856,1870806071,650512843,1432798148,-224427514,1528709078,1011938319,2012742607,2042899108,-479251503,-883078203,1754261641,-1786930250,593062090,-1436703635,-1902097889,-623348941,-2135771751,-513750119,-1224681564,1577962049,-1119268202,-85843919,-2082285541,684269022,-109609325,-128557888,-1559339286,-1407775876,1408301181,1426356544,146493735,-1478130969,-1533977363,462219764,-46030617,-1896529435,1401879724,-1417701962,-1544843075,-326500633,-498039593,-1905756045,-876494705,1295220153,1955918893,1724274920,-1080767427,1477965920,1050376217,-358643136,-391219710,-2017064461,1271812138,-1880797118,695077598,-2052352330,-1428236974,-1717348459,1395416892,-799732386,-945327414,359011776,-704188983,902842202,-1311441823,833885534,1414884268,-694259582,1776407887,-190274300,-1479449788,1977603489,1158149144,1937649055,-1564423910,997139152,-2018365557,-816777089,15181815,-217030375,297731958,-1967548241,-509339635,288890734,558829340,17998486,-1256523183,95924045,-1946900964,-652168037,1826976944,224606016,-2033607137,-1625276003,981161758,-1168295420,-774707619,-1187811962,725940508,-1504548837,999689142,770516763,-1307250306,667830338,439864740,-1440360049,2007689358,-1312327783,1199516001,176430617,845102291,1741267890,-1606446286,1893446895,-355515574,2119981953,-1943843714,-1007263564,-1531988656,-639683365,-171385371,-432593574,-509011360,1352498719,-1041056857,928004840,-1850132319,-1562701732,-993543049,308801631,-1053554408,1822208328,-265404361,-1716972212,1027786324,606717713,-975802028,-836650948,-1781964770,-2116961810,-1455687315,1807684656,-1759182635,1152240333,-1041339076,-1157126568,-1029855625,-772032555,-1350005684,1807345793,-1092832122,-368860651,1856964670,487719445,1063269905,-1346118230,-1567350937,-1847246672,1604838256,-1647989145,-932267525,-1606889101,-1459392477,-366256861,-199729771,-2031851155,472332763,-1071429850,1601485078,-1069077540,-836919816,-202521205,559526862,-652886579,-1643062157,-692351989,-359473945,1127612563,-380314427,679508104,-500099755,1363745934,1714608346,-1478550840,1073131099,868988722,648365567,-1098498445,-14514408,1675539053,583165432,569663060,-81147910,-558769843,-26059597,-671687385,4682352,-1158310133,2058462385,1575993030,-1896352562,-575195121,-1125323353,589176893,-1414459874,1636584517,827923193,693410658,-1394266550,9729750,787259398,-2060984412,-1117576461,589871328,2060015380,-1890496927,-905445107,-1289301992,-1287043240,-1957956733,-1473049037,1741960353,498353238,-36361806,1924376788,-1930041629,303704487,-1329519646,-1970892582,-613537723,1516870157,-1148736414,-1250004061,1616313402,-793163406,1445194151,1386218296,1545694636,1093728590,-1973682630,-52145220,-1957222668,-1738329427,-1984501075,1722091492,-44208536,-1590402448,173583280,1648990235,-1953020251,-890158409,-1387953542,1878550853,1924189895,1460168711,1541848867,2009502904,-1833453461,1084368487,-545480828,673803885,1797515853,1453258484,-919741493,1455215827,927679891,-2007807081,-1900029710,1731117457,-743184645,-2028300604,-1683309144,143163754,218705861,1507469471,-42160060,-622460871,-1653810479,754865911,366568196,2075915589,-769072866,-1182184602,-366459290,279863980,-947533457,-1265746025,-15869952,-386872094,361853846,874519865,723338665,598103306,-1377386472,-1855677314,949799778,129001888,1010710938,-903189771,-40019435,319188374,1319589166,1597367620,1745410117,969158247,551412510,-2067074531,-2074348218,-1204164459,1728459707,-1581297365,1978996395,-1586368122,943753801,669143122,-279053061,848520243,-676534132,1009459077,-863366015,-1910215335,-609458680,-2049342492,641885915,-193780622,-1579634357,-706406501,-301755444,-768986645,1964794547,-1273884739,-675799417,1839320173,658753041,-318053760,1122538078,791959102,-1190380696,-167947501,-508512986,-1907926519,1985824124,319291592,2010992175,-1599394151,1859847085,1685610298,-131034811,-684895703,-75455087,2112492361,-1143533062,1802579047,-1115704118,1094408988,1478892459,-2030907998,-1966639899,2045585896,-944620428,-390903277,-1232496308,-1512400488,-1122502440,-1158655708,-2023244654,81806920,492860760,2092002783,254662260,-741924808,92773527,1079606335,-155802745,-661477451,-1114160115,1667646585,507263430,-1814005315,1556522789,-1080623057,-609477389,798111875,1468567093,-1263043048,-862043936,-1830448884,-2064897710,1625077683,589071243,-1720218131,-678909603,-880827677,-1740246800,-2030638396,1926229533,849841606,1674873195,-1689706306,804896907,-88284012,-2091139455,-742783997,89910382,1709994692,931915435,1395462039,-228705571,-682315906,-1611904063,24064850,-867503869,866518964,1402445964,2017517470,-975425557,-128632842,168127841,-369469212,-1553201704,1919616602,1743852021,1670779610,-243825890,-526365250,-1781106768,1991269058,-350127236,-1195597590,1062002783,600430580,94537609,-1132014331,2007727927,673731164,-986501856,48705726,997920567,-440409736,-2078139490,77632107,1217567928,-1019016110,833474534,297981290,-1429555082,-78783960,91520794,334319842,-368740297,-412808318,-661516603,412957737,1367203092,1775228259,910115407,1099392474,-1105063528,-696952917,221501674,660474162,-170945223,-478703846,-557864700,-441168204,-723173644,-825133591,273374817,-784350039,220500055,452536282,839439084,-1281387362,2019399394,1432998956,1994618873,-1935089635,905135775,1589717398,1141833795,-1518538303,363666042,-1001828986,-847352050,1948773964,309028071,-1439339540,365408201,771042,-666306306,-2025908516,-916728992,-1505874446,1558558728,781463458,1028972113,-1113859058,1945719228,1154744440,-1580299071,1084190687,-1440174202,1140028241,-1258802446,-58838107,-192259235,-787052208,1944152912,1390996951,-1073925065,-753456262,-221532168,1135187833,1182162258,-1984940250,-36691688,-753852006,-133744361,663709504,-1662277581,-1772129849,1362287432,756254614,-671869025,1510103668,721323804,-12578416,1602985194,-770220978,-797104298,-846774644,747847179,-252281768,-1104590472,-1142039203,-1035696134,-852492367,149998312,1927627662,486237094,775941997,-1564460255,-662517875,904769491,1248293865,-1167837796,-680151069,-1449585745,-297930753,2071479876,16842589,-2070117142,-2128115532,-998909901,1399401789,-1992312057,642807985,1717645012,-1442882948,-1232176351,2032891205,-1982335474,459641451,1430654317,1715844216,630297006,313002070,-833072001,-826548664,1977450562,395584381,-269885742,-1230183921,-659550852,-223494609,-1445541880,-80421186,-1493465542,391537781,-80692755,-1850136340,2099028456,-149717001,487474706,-1036101789,-1763869283,-1739239328,194980878,-1819087300,2007837758,-1511634877,-1301502109,-1237771157,-1463437109,506781180,-1859921246,1861147291,1426426306,-971344066,-1371569580,-806979720,2123694269,1865547494,1857597989,