{"acc_weights":[31,61,39,-30,25,-90,48,29,-15,88,36,61,-84,53,68,-19,-104,6,19,89,84,-81,115,-114,94,109,87,69,38,66,124,121,-56,-81,-47,23,37,-122,119,29,86,112,-79,-8,-35,-5,47,-18,49,-74,-76,103,-70,108,-59,48,69,121,115,2,-101,-31,120,-101,-61,118,8,-107,113,37,-67,-89,127,-97,111,-17,-72,-100,26,-58,47,101,-35,-4,-77,-94,-12,95,76,18,-89,-40,-123,-77,-73,-32,-51,-1,114,-101,-11,36,38,-2,-94,-89,-62,-118,-15,74,44,69,-9,-49,88,-51,-73,-17,42,-27,32,-13,-53,-87,40,98,-29,-6,-66,-9,-70,-121,-47,-53,48,9,-114,-103,24,33,21,16,-36,-95,-2,101,-91,-39,109,114,102,-125,-64,-109,-33,-61,-128,12,-124,-45,-121,45,-47,67,-4,79,30,-19,16,-24,89,91,-10,61,55,-23,-101,-37,7,18,1,67,121,95,0,-73,115,44,82,-98,-99,52,76,-34,-103,33,80,-10,-40,93,92,-23,57,-28,-127,78,89,102,-53,102,-66,51,-88,-10,-8,61,-16,105,-36,109,53,-23,124,72,51,-22,83,-110,-10,-74,-48,-81,-14,-30,-97,117,-111,62,58,27,73,-44,-57,-77,31,97,20,-7,-47,-22,80,-24,-13,-115,125,-85,72,10,11,106,27,-100,47,26,67,-46,54,64,-2,74,-25,-117,-52,104,-18,-109,121,-71,98,42,115,48,-11,106,-92,-35,81,-72,-114,-95,-69,-63,-29,-99,5,-37,-88,-67,-29,-98,-81,108,-128,-110,104,-25,27,-62,111,30,12,115,-5,49,40,-34,93,67,-2,19,93,-81,93,-21,18,76,113,40,20,113,46,122,12,12,-63,-125,-127,127,23,-6,95,82,56,-57,-88,-37,-68,99,-39,-76,67,79,92,108,-42,-11,56,-91,44,-54,33,-84,-15,-122,-30,102,-64,-126,-33,-93,-40,68,-93,53,99,28,-96,0,-15,-60,-120,20,-73,30,-17,72,-14,-120,-64,-86,51,74,-24,-114,-1,10,2,55,-14,39,77,-11,30,-59,-11,-30,98,-78,28,-33,-57,-115,37,17,71,-98,-121,-24,18,95,-17,123,111,-75,-120,-24,39,-51,86,82,-8,-124,-17,88,-97,-57,-28,-18,-124,69,-46,-94,109,-48,4,22,104,-108,-30,12,126,86,-74,-42,-103,76,-74,59,-6,104,-22,-80,-33,85,1,-45,-103,96,85,-62,-35,-85,-20,92,-90,-61,-72,104,81,15,-46,64,-112,-71,-99,-104,-60,54,109,-124,70,-109,5,121,117,0,-7,101,-128,-85,14,-123,26,26,-113,-112,14,54,97,-23,-102,-44,-105,-32,-16,-48,28,-101,-32,49,35,85,31,34,110,-86,-41,-70,-3,-43,33,82,-37,72,99,-90,-24,7,-122,-32,-80,42,55,-35,-40,-106,-24,-15,-54,-96,14,109,-80,-2,-128,-47,-50,-2,108,-91,-67,-6,-69,102,-15,107,-58,76,12,-106,-97,49,120,-25,48,37,70,-83,6,-43,111,-38,-27,-51,91,58,107,69,-58,-16,41,127,6,-90,66,98,-33,-55,46,-73,96,-26,75,118,120,-21,-14,39,95,110,86,14,53,108,-70,-41,38,-81,54,95,-114,-60,69,5,-6,104,-29,-5,101,83,16,34,-124,22,-5,10,67,-101,-104,19,-121,61,-117,-30,60,-61,-35,85,-33,1,3,-12,20,-61,-67,2,57,109,60,101,-27,95,-104,51,-10,68,-125,12,35,50,79,-89,-37,-71,-50,-108,-16,-48,9,-62,-98,120,-54,-81,87,55,64,-26,40,58,99,56,-26,127,-76,116,-31,10,-81,20,40,-6,72,24,71,99,35,20,-100,103,-126,42,-79,18,-63,72,-29,96,-107,-41,-11,-53,43,49,93,-50,118,-47,2,49,-23,-36,120,-66,-123,-103,48,10,22,-42,1,-106,85,-76,-52,14,-10,-17,126,20,-88,-111,33,-79,70,118,94,-39,-5,-70,-93,44,108,-47,-68,-32,-16,-76,95,126,110,-38,40,-2,-31,-125,75,-111,10,-81,98,-46,45,-17,7,103,-10,72,-33,9,26,116,-124,42,61,95,-65,-106,55,-43,-52,121,118,5,-14,-17,83,91,-68,-48,82,-64,-85,80,66,-107,-128,24,31,70,-50,-66,-47,-84,54,-82,-66,-16,86,-8,41,-50,-111,35,100,127,16,-43,-97,-47,-122,-62,-45,61,-26,-45,-10,-84,-33,22,89,-126,-45,98,54,109,-104,-24,-39,-66,-113,43,21,-37,106,-71,113,87,5,76,58,-65,-111,106,-9,-21,42,-52,71,64,96,74,-73,97,30,-79,58,54,17,-10,-73,29,-48,64,112,3,-88,-76,-99,56,-70,46,53,11,64,86,119,57,-102,-86,-23,-94,54,124,-90,-12,121,36,-95,-97,-64,61,-96,-80,122,-49,-128,-63,-89,48,48,-4,56,113,87,-17,-38,-32,-110,41,19,51,17,-106,15,89,-31,9,-24,88,-118,74,119,42,110,-51,-92,-14,-59,89,-54,73,-89,75,-84,-25,-35,75,-30,-86,1,-68,-37,1,-105,52,59,-30,-54,5,-91,-9,104,-71,51,7,50,-48,18,94,45,75,2,-77,109,-47,-3,35,-100,51,83,-94,93,-50,58,118,29,6,53,90,92,29,-28,-86,-61,24,-34,35,11,91,-77,-124,-76,114,39,87,-18,62,-26,-63,41,99,46,16,95,125,75,-80,31,62,-89,108,-53,-50,52,-88,-120,-50,81,-59,-10,106,-71,-76,25,-85,31,-32,-61,-18,-89,-15,37,-26,27,-68,-11,72,-44,6,34,-57,24,-101,-65,-10,-77,123,-13,78,-19,-10,-90,20,-4,71,-102,91,56,6,27,67,25,-74,107,78,-95,101,24,-92,73,29,-86,55,118,80,-81,-88,-3,98,100,4,-127,-32,-51,-36,4,106,21,-118,19,-36,-29,-35,108,34,-112,-78,-19,82,103,61,-114,103,-42,109,-72,-65,-80,32,-3,77,32,15,40,46,69,84,76,52,3,-111,-50,109,-28,-77,28,0,113,-113,-4,84,-40,-71,-62,111,-108,52,-20,114,61,-93,-81,-36,103,30,30,35,-47,81,-33,-125,32,13,-124,108,63,120,-24,-8,-120,-56,23,20,52,23,-89,-117,36,122,-112,30,37,38,44,71,-81,-82,-86,-107,-77,6,-111,17,96,-70,42,22,31,-93,-29,-43,-108,37,-61,-109,46,19,39,126,-89,8,-106,28,12,-82,-76,14,-79,69,83,14,-74,63,28,-5,-15,-123,119,-27,-119,18,46,-85,99,-37,65,-55,77,-86,64,-83,58,-46,59,88,-81,-104,-20,-75,-59,123,103,-122,20,-42,29,-126,27,36,18,-68,44,-87,24,78,91,-128,-76,86,12,-109,123,-97,22,-42,13,-69,-65,-35,39,121,104,-71,31,126,-75,119,-125,125,121,-72,-39,113,-112,90,-73,-80,-27,32,-90,13,16,-93,-42,-91,112,30,70,38,-89,99,-128,41,-59,61,112,-56,-33,15,-1,27,3,-101,-20,-21,-122,127,51,121,-111,-121,7,-1,-95,-27,-103,79,117,-97,-54,-69,122,20,105,120,-36,-76,-107,-11,-17,111,-123,-110,-96,40,99,-97,102,95,66,103,-29,-111,-24,-56,-80,-47,-77,-66,-89,-84,62,45,42,36,-45,-78,-83,99,99,48,-35,124,83,23,115,-90,-23,113,-85,-125,2,-7,123,-50,35,57,97,100,88,43,61,-97,122,-117,88,18,-6,83,-100,-11,40,-8,-91,-79,-24,-32,-90,17,53,-71,76,-103,-103,65,125,39,61,124,-17,80,36,-63,-20,-105,-96,-85,72,-128,-107,18,8,120,-30,-94,-113,-74,-122,-38,-3,124,74,-114,-94,-74,-78,4,-44,-119,-69,-36,90,-110,7,-17,-94,-85,111,91,61,-1,111,-121,56,-106,-45,62,39,-50,-43,62,-17,72,-120,105,-69,-76,-12,37,-97,54,-27,-95,-3,-32,-126,-115,-35,101,-4,112,17,65,-119,86,-107,-93,-39,-86,0,2,-16,10,105,-46,-101,-9,15,60,7,-51,-24,40,-25,-42,-93,1,78,114,-18,122,-25,-28,-21,13,55,87,-56,-58,71,-11,-78,22,30,105,86,82,9,120,-61,-100,-74,48,-28,-34,-81,97,-47,-14,-103,-68,-101,58,105,24,-65,-93,-124,64,-86,32,123,113,28,-93,-61,-24,-45,50,109,102,-86,-82,96,-69,-43,72,-53,-124,5,92,19,25,-105,-110,102,57,-32,28,-73,76,29,3,-70,-64,16,109,30,23,-95,-17,71,-114,27,-54,-128,111,-97,-99,-54,96,-49,-46,75,74,-78,-38,-105,109,19,-38,91,-63,86,31,-41,-32,70,-1,114,13,-28,-83,88,53,109,70,-46,9,-36,40,104,-23,3,-30,-92,99,-100,48,107,-11,95,29,8,-66,-120,-114,-76,-27,95,-120,-125,-59,-84,67,-118,-2,56,71,-114,100,-42,-39,41,50,74,103,62,21,-75,73,-87,-47,65,-118,80,-61,-102,61,88,-58,30,42,-70,-44,83,19,115,-76,67,-107,-82,-10,-113,-62,94,115,-72,-57,74,-95,-28,70,-20,-110,30,-49,-20,127,-112,-2,-125,-39,56,41,-59,96,-33,-61,-51,55,-57,38,15,32,114,-8,-47,125,-113,-11,-15,-106,48,109,120,53,-58,-61,86,-50,-5,-111,7,52,97,-63,54,-120,66,81,-128,-60,-8,-46,68,38,39,-13,5,60,53,-84,66,41,-32,120,-19,-103,125,6,-70,-56,70,78,-45,-106,23,94,65,63,46,-6,18,-96,-73,93,72,-47,63,118,96,-75,-12,-41,-67,14,70,-24,50,-16,121,-112,121,-33,48,-45,7,-77,98,84,-42,86,-85,86,-23,-113,81,-93,43,99,71,-75,35,50,-40,-128,-85,-19,-61,-18,119,76,7,-48,49,-76,-82,-69,-56,26,93,64,-41,-39,36,-86,-3,-118,53,-13,11,-57,-28,-3,120,35,-3,-56,-88,-60,-80,12,81,78,-44,-25,19,34,-102,-61,15,115,-35,56,-8,15,-41,93,-19,29,2,119,-67,-44,47,67,61,-67,-82,44,-75,34,-91,83,90,2,-84,-75,-27,-12,4,-50,-119,-12,43,37,-92,-117,115,62,-78,13,68,-52,-47,34,-40,-66,-113,-72,-116,-114,-105,117,19,59,112,98,120,3,-14,57,-123,12,13,-125,6,27,-41,-104,-9,-111,-113,-19,-68,-90,99,-12,59,37,-29,-89,-85,-70,120,-21,72,72,-46,-82,-21,101,75,-122,50,-111,85,121,95,107,125,29,-54,-98,-125,63,61,99,-88,-19,-100,108,5,26,39,-80,-104,65,-69,90,23,-109,61,73,12,104,35,-106,-68,97,-106,-125,-41,89,-51,103,96,-96,127,-84,-42,90,39,74,42,0,21,-60,30,-21,-73,27,113,-84,-22,52,98,-84,10,72,-62,17,-32,73,72,84,110,-90,-13,126,61,38,-118,56,-79,113,-55,-24,92,-13,-31,66,-13,60,-115,43,112,104,-35,107,74,94,-54,-87,-16,-55,-35,-88,-77,-26,30,-94,-112,28,121,-122,-7,-111,25,15,-93,85,-97,88,77,-110,70,-17,-1,-57,111,24,-83,94,-119,-34,127,-12,-24,20,62,33,78,-18,50,-14,-39,-85,-124,112,42,-117,34,-6,13,83,51,-28,96,102,-83,-6,77,114,103,-100,116,-29,-86,-4,70,-17,62,-49,69,121,98,24,4,56,-92,-25,94,92,-98,-62,15,-1,46,-7,-60,-106,28,-58,-91,-96,-39,-112,62,-26,-98,50,-5,-121,-68,-107,54,13,98,32,6,79,-79,39,41,5,-116,39,-8,37,-108,90,-98,58,122,-66,-9,57,-22,92,-30,113,-51,126,-36,78,-72,39,116,-20,-5,-92,-25,11,-62,-61,-48,9,34,116,34,-51,87,42,-27,121,46,118,-79,50,-54,81,-109,104,46,-26,-26,-23,-108,-99,-65,84,-51,65,-94,-108,-71,69,17,15,-117,-106,-2,60,75,106,54,107,-35,28,41,91,61,-99,-16,-45,-63,-1,-121,66,-40,101,96,-26,78,-17,6,99,6,-104,-8,31,91,81,81,114,25,39,114,-9,-20,12,-11,88,-39,86,45,-121,121,-28,-127,23,29,-26,-116,-55,-80,-37,-72,-8,125,28,72,-114,-102,-18,-90,-26,-28,-44,-112,30,-69,-14,62,63,115,-118,-87,-41,-25,-25,112,-91,21,59,-27,-75,115,71,-87,-119,-62,2,-94,-105,66,108,43,109,-98,113,120,-23,-84,60,61,56,-47,86,-54,27,-82,90,-52,-92,-14,71,79,-57,18,-99,15,36,-22,-92,-109,7,19,106,29,11,15,102,43,-112,95,75,-62,-42,-48,-63,-108,-10,-87,-94,108,92,-15,91,63,13,-12,-106,-7,-51,108,-86,-64,35,-17,55,-87,-35,-13,58,16,-22,82,10,-105,-52,-115,-21,-19,-115,61,-9,-87,-92,22,62,82,-52,-79,23,-122,-15,-44,95,-127,33,-11,-79,-49,-53,95,-42,33,-112,-53,-33,-72,-111,52,-116,-12,-113,88,-39,96,-48,107,20,-76,96,108,34,-27,-120,89,-128,55,-85,63,125,75,3,108,-96,35,-39,24,88,-3,-7,98,68,28,9,-21,31,72,-37,-39,54,27,-75,16,4,-37,85,88,1,-112,34,-82,95,-54,-20,-81,104,38,-88,21,58,96,-3,-43,-74,-62,-128,-54,34,56,-67,-3,-125,107,-17,74,-39,122,38,83,-70,26,-50,71,-110,-33,103,95,-81,-42,106,-86,73,38,-46,15,89,112,-60,-89,-70,-114,31,-16,-10,96,92,-85,1,66,-34,-62,-101,121,38,8,82,-23,73,-92,-71,-82,-1,87,125,-26,8,8,-122,0,92,40,60,84,123,102,125,-53,-107,1,-30,45,73,96,-114,-86,105,59,90,47,124,-13,-119,82,18,127,-94,-104,94,42,3,9,-28,-46,51,-36,-76,49,75,53,-33,-63,-22,-42,-19,10,34,-4,-39,-26,-71,-33,86,-106,1,114,-70,117,46,93,81,-110,41,103,92,33,-52,-96,-128,-64,13,117,-117,-66,-121,-21,-107,-98,-28,-112,52,-93,-115,39,-68,2,-4,-20,-55,-74,-41,-75,-111,84,110,68,59,-58,34,-97,-65,24,72,-122,-65,87,-107,-90,53,-78,110,-97,1,-31,127,-33,40,65,30,91,79,72,-103,-26,112,-4,56,73,-79,-78,22,94,20,-74,-53,36,42,-110,-88,-8,-36,-8,24,95,38,-98,49,69,51,106,15,-120,123,-19,-29,-12,30,125,21,118,39,84,49,117,16,-111,-70,-6,-92,-112,-70,2,103,-66,66,-124,-28,122,-100,-28,-77,109,105,15,111,-81,15,-121,-92,108,-70,-74,-123,-37,-62,-15,125,17,76,-98,-6,51,-61,-26,-104,39,-126,77,-109,-38,-48,108,70,-119,-38,22,-58,-31,123,74,-100,85,33,-51,83,-37,88,-71,58,100,-25,-14,115,19,33,97,24,-13,59,87,40,23,87,-67,89,69,-22,-39,50,54,-38,-66,8,-22,103,-107,-97,77,126,-41,117,66,41,-98,87,95,-13,-20,79,-15,-92,69,-116,90,-72,105,-75,39,-25,76,-108,-63,-20,-82,38,-96,10,-54,82,21,-42,-52,86,3,-124,39,3,-113,18,126,-95,-19,59,35,57,2,99,12,-16,-59,119,19,-104,-26,-49,100,92,-46,113,-108,-9,-50,81,51,44,5,46,-89,85,-104,125,81,9,-25,50,86,29,-42,115,6,4,-31,21,-42,-51,96,47,103,90,-81,43,-123,-39,-63,-55,-81,-87,-67,-94,40,21,28,-109,104,-76,-49,-125,-72,-64,-70,127,-62,-1,-54,-105,20,15,-113,99,112,34,92,74,93,123,-5,-77,-111,-39,15,107,17,-27,102,-78,46,-100,-118,85,107,27,65,95,63,-30,-21,-88,-92,127,-48,112,71,-112,-55,103,14,8,-98,59,-44,63,-127,124,-24,2,-28,85,-13,-19,-83,-3,-21,40,-59,-8,100,-16,-31,-31,-11,-32,45,-38,121,45,-115,115,-124,-88,10,-3,-53,111,-128,-52,49,103,1,112,93,124,17,74,34,-116,72,-105,8,30,-75,-92,-20,-14,-68,111,87,-118,-29,16,-43,-114,1,-51,-84,29,-31,-40,-64,-89,-55,-56,-128,-69,-52,-79,10,-7,-40,-29,101,35,26,38,-85,1,-12,85,-25,47,24,109,-5,32,43,37,122,-23,-77,-105,-62,57,32,76,-77,79,-121,22,89,-126,91,-43,-77,-50,2,-52,-61,87,-71,63,-51,113,-91,-12,92,67,-118,-60,99,15,13,55,112,-87,86,81,62,14,108,69,-96,-14,31,-87,-108,16,-124,-49,7,-32,19,105,77,-3,127,-13,-102,65,8,-34,60,-80,109,-126,-79,-78,-7,0,52,-16,43,77,18,76,-8,-59,80,62,-56,74,-27,-4,55,-112,31,-106,-72,-10,-3,-21,121,27,47,59,-80,-112,-123,127,-38,13,127,-100,37,-106,66,84,101,-120,-55,83,88,9,71,-128,-89,-101,-53,-38,101,-68,-70,35,-54,107,-50,18,-63,88,10,-67,74,1,-75,-15,54,57,52,-74,50,-118,-99,82,16,-12,8,117,-67,35,-36,-83,121,-79,34,-78,-84,-70,-96,-100,105,86,-119,-124,-103,97,-128,-38,13,109,83,75,-84,98,74,93,8,31,89,60,-74,-67,98,-2,126,-98,126,-59,46,10,-66,118,-86,19,114,-17,92,96,59,55,-35,-4,-79,-100,78,-34,40,3,18,8,-11,-11,-23,-94,-36,-77,-90,-12,-7,-128,-91,-25,-39,112,-27,112,-65,-71,-126,119,-13,-89,3,-89,-87,51,40,116,-77,-105,-44,11,-3,2,-56,43,30,42,-20,-97,89,-95,49,-4,-47,78,120,-112,93,110,-78,33,-75,23,-83,-91,97,-65,-102,120,-51,-120,35,-104,-87,80,-58,-33,-106,-82,3,75,55,56,53,-23,72,25,-30,9,95,68,-108,92,36,106,85,95,33,-107,-93,-87,117,-29,-112,126,-8,-53,56,-7,9,-67,-128,-15,99,-45,23,-69,51,13,43,-11,75,9,67,49,64,-4,45,-109,69,-49,44,-37,27,55,64,-103,103,38,99,-109,43,-37,107,-128,-12,-27,-76,83,79,-9,-27,-35,-30,-76,60,99,-38,-63,-121,84,78,29,-11,89,67,-106,-112,85,-52,54,1,-97,83,-19,64,-119,29,-26,28,-43,-50,-43,50,77,-34,-72,48,-39,-120,27,-128,106,99,125,114,-102,-99,44,-36,-111,78,-31,-43,107,56,-61,-78,60,108,103,75,84,-108,-42,22,-51,-23,-118,-34,63,82,-11,124,116,66,-47,-29,93,105,84,-58,-107,-39,119,10,-59,21,-2,13,-8,106,-127,-81,24,10,-111,-58,-64,-11,-62,-46,71,-45,-97,-72,89,81,-125,-2,-40,74,15,67,-127,7,-93,-99,-115,-17,40,-80,-16,51,-55,-91,-95,-120,30,-67,69,52,-16,18,-27,-10,95,104,-80,124,-94,-55,-117,67,4,-14,1,126,-26,-10,-108,47,-2,126,45,-76,31,108,27,-48,-68,83,-22,17,119,6,99,20,17,84,82,11,-88,118,-97,31,-52,-76,64,73,-39,-10,36,-7,90,-113,-101,-22,-54,30,-58,2,55,127,-30,-95,-18,13,-101,-1,94,-37,54,-49,121,105,-106,53,85,-117,-81,-43,-18,57,4,85,-32,-42,-5,31,-31,110,-25,-115,22,20,85,-123,-118,84,-47,-106,-5,99,-72,-84,-72,-22,-102,28,-99,96,-5,-20,-41,-27,29,-30,-60,79,74,-101,-38,59,90,-53,-78,-44,-107,-58,88,-115,29,-107,-39,42,-67,89,-108,-107,-98,126,-68,-53,-79,-95,109,39,94,90,42,17,-35,-28,19,27,1,89,25,-43,77,42,-89,-119,-52,-115,5,-107,98,-111,50,43,1,14,-63,-127,-57,-87,111,-118,33,111,-70,19,-76,46,-56,114,87,96,-41,105,-92,46,-33,105,59,-4,21,-86,119,23,-57,-117,-86,60,-60,69,19,-68,-117,-39,-62,105,122,59,-48,-56,-28,104,-99,-21,35,124,-110,113,-37,59,-21,-27,4,-126,-17,-80,47,25,24,37,-85,-119,97,38,44,-73,21,-54,110,-96,116,83,102,-41,119,-69,72,-11,-60,-18,70,3,-18,10,86,-110,-22,50,63,-51,100,27,6,80,-48,-53,-73,104,0,-111,17,-32,-46,-35,-33,-40,-83,-99,120,-27,91,44,12,-59,120,-119,-24,-35,42,9,82,3,103,55,40,-51,-57,-114,14,-117,119,-6,-44,-76,3,110,-19,-91,-97,-38,-94,-50,-62,-88,-57,-51,124,96,-63,-30,-67,112,0,-41,102,-28,42,71,35,50,-79,41,-50,39,-91,-72,-100,-12,34,63,62,-4,13,24,-24,37,-22,127,-11,-61,6,61,11,-88,112,7,51,56,-116,-96,105,121,-103,109,-84,-117,121,122,-58,-78,-48,57,-81,95,22,22,48,-116,29,31,87,-38,-9,-81,74,-92,98,60,38,-13,-117,48,112,29,-15,95,81,-85,-23,-52,116,66,103,-69,116,72,-56,-101,106,-117,28,-40,-86,-66,74,-4,-29,-111,-103,41,-119,-19,96,82,-3,124,-112,36,-18,-76,19,-125,-27,-119,15,-24,113,-93,-94,24,-118,110,2,-104,-85,6,-94,-115,60,84,75,-86,42,91,-78,-6,73,99,64,-6,54,42,-120,-6,75,33,-3,-92,-108,32,57,-20,-12,-71,-30,49,-70,127,81,82,100,88,116,4,82,-108,-121,5,24,99,56,-48,111,123,82,75,-107,-95,-66,4,82,-91,52,107,62,-51,54,-100,86,4,-30,51,-75,-15,127,-26,2,110,-118,-74,126,86,8,-118,41,46,37,61,116,-52,-74,32,-40,-68,104,49,27,74,-122,40,90,-120,88,118,-71,-63,-60,49,-46,-89,74,89,-106,57,90,113,22,112,101,118,-42,-54,81,-19,54,110,89,-122,28,61,-92,-125,-128,-71,10,20,24,84,118,-26,-4,34,28,-17,-59,112,48,-38,-104,-63,24,39,65,104,103,-3,10,67,-41,125,50,-117,32,42,-107,-113,58,19,66,116,-35,17,73,-117,-81,-39,-81,89,-114,-52,62,54,-115,-75,50,64,-81,91,-6,-69,-54,69,-4,-85,20,-6,65,-2,-87,6,-50,29,127,-37,-87,-15,90,-77,-15,115,-17,-74,-3,-127,-79,48,-56,23,98,-2,-52,-12,25,1,28,25,-69,-11,-88,18,15,-3,99,-102,-123,94,-18,-92,-76,95,-8,78,-71,-43,-69,105,-55,98,-43,-49,35,-117,-74,64,-96,-84,-46,83,-51,-104,-96,101,44,76,-64,34,-39,-99,59,-18,103,62,-6,-43,-68,124,57,-48,57,-19,-89,83,114,27,-54,-94,67,43,-113,107,-13,106,76,50,-15,-5,-8,-42,124,124,75,22,-106,50,117,-35,97,79,36,-61,112,103,8,41,118,-87,-85,-19,83,-112,27,-92,85,16,126,-106,-127,-122,62,-35,-103,-7,57,-127,-9,18,94,122,115,91,-32,-24,108,98,-128,74,-101,89,32,22,-72,0,94,59,-98,-90,113,-58,75,123,-87,127,-62,-35,-26,74,65,96,24,61,51,-12,35,44,11,-37,30,112,32,74,-114,-33,6,-126,-77,14,-41,-68,16,-3,-47,102,111,2,-47,-126,60,-72,-127,-67,-90,105,-18,-121,-16,-10,-57,-86,-16,53,-42,-23,-84,-63,35,-59,-3,90,-51,78,-66,-125,62,-53,117,122,-63,-68,105,-110,-30,122,-127,-86,-104,21,-113,60,81,-108,3,124,75,-126,-97,-3,-25,-58,-26,-27,36,-105,122,101,-60,27,-45,-4,-34,-124,-119,-11,-109,83,83,-60,110,-101,103,-101,-20,51,-115,-14,125,-106,-19,99,96,-20,44,-91,-17,-78,7,76,-52,47,-23,-112,-80,-30,117,97,-42,85,46,86,68,0,-18,-123,103,115,39,-84,-23,72,-67,114,64,88,-45,-30,37,-83,123,81,82,-22,20,107,71,-121,-82,23,33,65,67,82,49,-21,-16,19,-41,-99,8,31,-10,-122,5,82,-112,-127,-27,-26,-36,56,90,-67,71,54,20,-104,-121,-12,-94,32,0,-10,-1,48,-93,107,98,-4,-86,3,77,-54,-14,46,-73,-45,-91,5,98,-81,-17,-61,-124,-27,-111,4,-62,-67,126,81,-19,60,-118,-43,24,23,96,54,-95,84,7,-67,-105,-98,-125,-88,20,44,49,37,-68,-119,71,-69,51,-7,-23,66,-14,65,-77,-110,-25,106,67,-20,7,-24,47,-73,-33,-123,103,-21,-62,-111,76,-73,-119,80,-120,40,-42,82,-51,112,20,126,44,20,-39,15,-92,-122,-78,-75,25,8,-119,-94,-98,48,-58,-15,-19,92,-123,-103,92,-26,-6,4,115,109,68,-90,26,-58,47,-50,28,111,-35,-51,119,52,-6,-118,-60,91,69,62,119,70,109,60,-112,-95,60,119,103,118,6,85,8,-81,-74,58,58,-24,7,35,-41,-94,-118,51,38,73,-74,-65,56,-87,-31,86,-79,-27,-12,-93,-27,2,43,0,5,76,64,114,59,38,70,41,-124,88,-96,-83,-112,33,-70,-47,-24,-108,33,50,88,-72,118,-36,-79,-45,-122,-95,62,-119,108,101,57,-40,-80,5,48,-67,68,3,105,-8,62,-67,-52,71,84,-102,98,-84,-81,-102,-61,61,109,-108,118,94,57,97,26,83,-86,7,-79,-97,102,-43,105,122,122,-53,127,109,-2,-86,111,-42,-2,-37,59,-31,-94,78,12,-36,-62,4,-68,-61,51,119,-126,77,94,-54,86,-66,-38,125,2,-68,32,-37,21,27,-45,-12,-73,104,-125,0,-78,6,-45,-21,-125,-67,30,63,69,72,89,42,-91,-10,62,81,65,101,-30,14,65,118,-4,15,-6,-101,57,-92,12,-9,119,19,-26,94,-67,51,-19,123,64,35,53,7,-4,-42,-7,17,108,-84,-70,-8,-107,127,9,-24,-121,59,51,-68,8,-56,79,90,93,-73,-37,-9,-78,-126,82,25,-74,101,2,-124,-17,-81,70,49,-113,58,72,47,-22,114,-58,115,-113,-127,40,24,-90,-43,-106,28,-77,15,127,70,-53,-31,-11,125,114,-71,-5,51,72,84,65,-6,55,111,93,75,-7,-58,1,13,94,111,31,127,-88,57,-54,44,116,83,-79,118,43,-89,-44,-49,-42,-50,-55,-33,24,125,-31,5,26,36,-4,115,20,-88,-72,-107,31,76,-53,-60,110,27,-13,-49,-63,-22,-104,-7,-18,120,-7,106,32,71,0,-118,13,-119,103,99,57,122,-71,-50,0,123,-120,67,-73,-109,24,-39,-59,99,-100,-30,-70,-20,-55,63,62,-72,99,-113,119,-88,41,27,15,-98,-90,-112,71,23,52,2,-56,57,110,-52,93,-72,-5,80,80,-84,35,-14,-93,-9,90,22,21,118,-117,47,-101,-117,106,-88,-123,39,-57,78,-39,105,19,31,-55,-29,-1,44,-9,-59,-121,68,-112,36,-10,39,89,33,-123,40,-58,64,24,-123,105,-46,-35,-28,-24,55,46,-74,-112,97,-97,-28,58,-29,-45,-52,-63,-52,-68,48,98,-91,-55,-56,9,49,-11,-123,-41,-36,125,-29,-40,9,-70,53,88,83,45,65,126,94,65,-52,-120,-46,64,56,92,66,-38,107,-6,84,-96,-72,-106,9,14,85,52,71,-7,-5,44,50,-79,-18,86,121,88,-68,0,-23,-9,1,17,80,74,-44,54,106,-42,-9,25,54,-104,32,-16,-119,-109,-125,-58,-62,121,-41,-91,-91,-95,16,-31,-66,-91,-43,72,88,1,123,112,-70,-77,13,2,-64,-36,-23,14,-105,-48,61,-113,6,-39,-14,-15,24,-128,-69,-90,94,-24,-29,-7,-60,103,31,38,30,6,114,-6,-42,57,-93,-37,-7,119,-99,101,-62,37,53,127,102,110,-57,-122,45,-51,-105,-80,115,31,34,96,-40,-92,-125,4,25,-119,87,-94,105,73,-20,-101,100,61,-78,15,35,-59,22,29,-109,48,109,-96,50,-28,-122,-33,34,-110,32,103,-57,-1,-56,46,-48,-87,-60,7,103,108,-47,-86,107,88,61,-72,-35,87,-17,-12,-111,62,93,-12,-70,-25,-97,-64,-21,73,85,26,43,118,-68,-111,20,-123,-33,-33,75,-4,70,-43,55,68,16,78,-64,-28,-13,-9,-49,-84,23,-5,65,-106,82,-90,-45,58,66,78,-2,-62,73,113,-4,51,-94,-31,126,-38,5,87,83,-86,8,61,28,-24,9,17,7,28,116,36,-11,38,-78,24,110,72,-113,-94,78,33,-107,28,-90,0,-57,41,29,-95,71,-27,-13,66,17,-40,-116,-14,35,-79,-86,121,18,-117,-23,-22,78,42,61,-29,-96,-63,110,33,-43,47,-82,-47,57,-96,-86,67,78,105,-51,-36,106,74,13,28,-3,-76,46,-67,120,-5,17,16,87,29,-123,-1,44,-30,5,-124,-11,36,94,104,43,-70,20,-41,-28,-30,6,109,27,-125,-30,-72,34,-76,53,-115,86,23,-108,-50,-58,-9,110,-106,-70,74,-60,-52,99,50,14,61,65,-68,-21,89,-92,-104,-43,-21,91,-64,45,-78,-113,-125,-24,119,64,0,-55,-27,75,23,38,91,-23,-106,25,-81,-18,-63,-108,-8,53,15,30,-38,-5,120,-110,-30,47,-73,-29,87,53,80,33,43,82,22,-14,118,115,77,-53,-76,56,113,82,33,121,-35,103,-80,59,-52,-106,-5,-112,77,-89,22,23,46,85,108,-60,7,-103,63,53,31,46,63,-33,-113,-12,58,102,101,112,-118,-46,83,59,-44,37,123,-42,79,-3,112,107,-75,18,57,-45,111,109,25,112,81,27,85,-58,-90,-104,-85,76,124,-91,101,-45,104,-54,25,59,61,63,19,-124,-97,117,-118,-107,21,-46,-78,27,-54,15,-41,-38,51,-9,-107,46,-84,12,4,35,78,28,-21,23,34,-12,-75,-20,99,107,-21,-124,15,-31,-25,77,-34,-57,49,-29,108,-38,52,-34,-122,105,29,-16,25,10,-88,-115,-65,-23,-86,-57,-36,20,-43,-72,-38,-51,35,-26,-127,-91,42,-116,92,-100,-44,46,68,12,48,-71,30,86,-45,-57,-46,52,-127,73,-18,77,-55,-9,-126,-62,-5,97,-126,-92,75,-89,57,76,-94,68,-49,-43,82,-60,-47,112,56,-34,117,-7,-79,52,-12,89,-42,-3,116,-5,48,-63,-55,44,51,106,50,-73,-80,72,63,71,-99,58,-105,-18,121,-80,120,17,-12,-16,25,-68,-26,72,-99,-29,-32,2,97,-27,-109,-81,-70,-17,14,-38,-91,-9,-99,109,-75,-39,-43,3,82,-17,69,77,-72,102,60,11,-104,115,37,-36,9,49,-12,-72,92,49,-111,105,8,-48,-5,-122,-124,-46,72,-33,113,-28,-24,126,127,-72,17,45,119,0,-100,-26,-10,-78,-21,-6,-31,22,-24,-47,55,-98,-15,122,113,22,25,-107,4,55,-11,101,2,-4,-46,50,-115,91,-112,-119,-28,-46,-66,-76,-1,38,46,-113,-26,55,64,115,88,52,26,-13,26,-86,111,-47,115,-90,-50,113,-5,25,-88,111,-68,75,-61,33,-128,25,30,-35,16,48,-26,-69,55,88,-31,122,-103,-43,31,52,22,104,24,8,103,38,2,103,76,60,6,61,102,-91,28,0,-26,-15,-102,-123,-6,-52,73,-90,-37,-93,-53,41,39,-110,72,104,96,47,100,-16,123,-26,32,-66,-40,10,79,116,15,109,51,-114,4,-119,45,96,-30,-4,11,89,-108,-18,5,-120,-69,21,-27,41,24,-34,-41,-56,1,14,49,81,-67,80,63,114,-22,49,6,-98,21,-82,43,18,117,3,16,-89,-11,55,-77,122,115,121,-37,26,71,-4,15,-7,-116,73,-62,38,101,117,20,98,-75,-118,6,70,15,20,20,68,-90,-81,3,-109,-78,-81,-46,-1,-56,5,-57,53,3,-72,-105,-107,-63,-18,21,-12,-107,112,-103,2,74,-21,-78,32,-40,-54,-62,113,-24,-112,-103,-64,62,-73,73,-38,89,40,-71,114,-89,-37,113,-107,-6,-81,-71,-93,-49,48,-71,-122,-20,-124,-30,-51,-75,77,-19,-102,61,-11,-27,-89,-58,125,-23,99,-93,45,-125,-114,-81,-52,39,-120,33,76,-41,-68,87,6,83,120,-104,67,-9,-97,27,76,-76,-107,-66,-80,5,-90,88,-118,-62,90,97,-61,57,66,-42,58,-73,73,-56,-17,71,49,-104,19,22,-112,17,79,-43,-51,-12,29,41,-75,62,120,0,-21,84,99,-51,116,32,-65,-53,-102,-68,99,2,-75,37,-23,95,-96,114,-63,33,-118,7,114,73,-5,-110,50,26,-62,-20,-10,94,-125,-110,27,45,-56,94,-38,-103,76,-31,-50,-18,55,-67,70,-116,85,-91,46,17,47,13,82,-115,47,-60,13,-6,4,-60,-57,-77,-104,3,-9,-35,84,-67,24,-48,55,-104,-18,-11,5,-26,-65,73,66,-36,-124,12,-22,124,68,114,-35,-103,55,-78,105,-43,-117,52,53,-9,-60,-109,45,-96,-71,-98,-45,-87,-86,122,106,7,96,59,-86,-31,-96,16,-16,51,-26,-102,71,-32,118,-87,87,-17,-101,120,23,62,-103,-4,-47,-34,-100,-107,45,-72,106,-108,-28,51,-29,34,103,57,-110,-110,59,-43,-30,72,-11,-19,-74,-101,-119,16,74,-19,-19,-62,39,-30,55,40,5,63,-35,34,5,30,-112,-122,-63,-76,-111,-10,6,-88,-31,-119,51,38,2,50,-73,112,96,-46,-21,86,-50,62,-110,-113,69,42,-61,11,-87,-21,72,1,-12,-34,37,-37,27,-8,-80,65,-61,87,101,-53,44,-127,-74,63,-61,-13,103,117,-17,27,-82,28,14,26,-109,-50,26,9,-75,-19,124,65,12,72,45,-101,-15,-44,38,124,-78,-115,114,75,89,-57,89,61,62,35,67,10,-29,-25,-95,34,-106,6,121,7,115,49,-115,12,-44,65,59,76,-83,-82,45,-17,118,30,-64,-19,21,-12,-1,37,-89,-31,14,111,-13,-114,-42,-1,120,-27,-29,114,-82,110,70,83,-41,38,91,-96,90,-40,45,-96,-117,48,60,1,-95,-77,85,79,-37,25,-97,69,114,15,-80,-94,-38,59,-45,111,115,126,96,-126,111,-26,58,-79,31,-108,-31,115,-33,-104,-127,51,49,-63,-92,-57,127,-44,52,-20,-127,2,80,82,59,-42,-62,-99,57,-45,-100,-76,-60,-91,-112,14,-95,-108,124,-78,-75,-124,81,34,-111,-94,-55,61,-87,-41,-107,112,-88,114,-125,-56,48,59,89,-80,-28,-107,-126,93,-104,-109,-89,-125,-81,123,-33,-110,-16,-36,58,119,96,-8,63,66,-104,18,27,45,-42,-121,23,-57,80,33,-103,-117,-121,-123,1,-101,-80,108,44,-16,-119,22,-33,-20,-22,6,113,-35,-40,71,67,88,9,-80,22,94,-55,83,59,89,-52,119,99,118,-8,89,92,-30,24,-112,-67,111,50,-56,-30,92,-63,-105,-92,44,93,85,102,112,22,20,123,64,30,122,65,89,48,115,-93,-116,100,-3,126,3,78,6,-7,43,-111,126,18,-75,5,121,-86,-76,-18,-66,-25,-15,-48,-80,8,-90,-15,-34,12,-117,-100,76,109,3,43,79,-2,70,-38,114,-25,89,-34,59,-83,-29,125,-128,28,1,-41,-73,-51,121,-43,69,24,33,10,66,-48,22,-57,-50,42,107,65,26,-18,84,-121,-19,52,101,-105,106,-76,-37,-55,-7,-127,121,114,88,-106,21,96,-79,19,-61,-30,-78,15,-50,-38,15,119,78,-101,-76,120,-85,-43,-128,51,73,6,-116,-123,4,-96,-98,44,71,-62,-16,38,-103,-76,-5,-63,32,-115,121,13,-57,-29,91,-12,69,3,-114,77,-118,-2,87,109,-76,-28,-18,-45,-65,48,-23,55,28,-113,67,85,-37,-38,5,-18,-62,-109,108,-88,10,81,-82,-79,37,-40,87,0,-53,-109,15,121,-27,77,46,-17,-59,13,-109,49,93,16,58,-74,118,-100,-26,-102,-43,112,-1,12,41,-37,47,117,87,37,-123,-122,-68,105,23,-46,54,-74,-76,62,49,-37,-5,-7,30,-120,-24,24,-2,32,-25,-76,104,-34,49,-60,51,86,-78,-67,2,-49,-73,84,-102,14,-22,-113,-85,-64,127,12,-87,71,109,-81,114,15,90,2,65,93,-48,85,-119,-63,-49,5,103,-100,-126,92,-38,-58,-122,-113,-16,-40,119,-125,-33,-98,4,-53,17,-42,-107,-77,110,-126,111,48,-36,-6,52,21,29,-86,-121,-30,-44,76,-33,111,-27,57,-62,-91,-55,-42,-53,29,101,-87,75,-17,-119,113,63,-74,-72,-16,67,111,20,19,90,21,120,103,14,-80,59,124,-82,-36,-51,75,24,-124,117,72,-17,37,118,58,61,-6,58,126,-81,122,26,35,-119,72,70,100,53,46,39,-102,-119,35,-27,-47,-18,30,20,-9,-74,14,-99,-18,-17,-56,71,127,-108,-21,-124,32,-37,-49,13,-16,-65,37,-13,88,126,-48,123,-111,67,25,-85,-124,30,-24,127,-80,-101,-28,14,19,-49,80,117,15,-22,66,-103,-63,86,100,73,84,98,-77,68,113,55,56,99,-127,16,100,10,-105,94,115,111,-125,-119,69,-12,58,-83,89,-6,-11,10,8,-96,3,-67,55,73,92,3,2,-90,67,-118,33,25,0,-64,-104,-101,78,61,-91,50,-121,-103,-98,104,46,-125,88,-2,51,-1,-95,-66,77,-61,111,-79,-59,-101,76,113,-100,75,-35,68,-86,-82,97,19,-29,-58,-91,-85,126,24,48,-28,19,-61,124,-12,15,-107,-21,-24,91,-112,50,57,73,-22,-107,-79,-104,35,50,4,107,1,-112,14,-40,-33,-120,7,33,85,24,-50,-57,48,-10,-54,-98,18,32,-110,-56,-117,27,-17,-99,-91,-43,85,32,-29,27,-41,124,-21,-103,126,-71,104,-31,126,54,-6,-32,-28,20,54,54,30,87,108,-57,-42,-94,6,-109,-44,-49,5,-81,10,43,-92,34,-75,-3,-94,89,88,70,74,83,62,51,17,-69,-91,1,101,-90,0,125,-46,20,-30,101,-98,64,115,-29,-18,-88,78,45,72,-61,-76,110,116,-28,18,99,-42,-113,61,16,18,16,-77,-64,86,25,83,91,-39,-77,76,-121,-115,4,-6,109,-122,114,0,3,31,-76,99,-7,29,-54,-69,38,-87,-98,-125,-32,37,-117,32,9,116,-26,69,-83,-125,80,-29,104,-101,-61,79,-31,-3,22,5,10,33,78,100,55,123,-44,-97,23,120,-5,33,-59,-23,-118,-51,44,119,-60,-112,-127,25,-121,-69,86,99,102,-22,76,-72,107,90,75,127,-90,-126,-79,-73,79,-23,-109,76,-79,-97,54,28,20,-88,-7,-81,-67,29,68,33,99,-21,17,-30,-114,-58,-90,87,35,-12,88,6,20,106,11,-106,-74,-98,70,-80,77,-40,-80,-28,85,81,44,60,74,13,124,-35,-16,4,-49,99,73,-125,-127,104,-66,-64,-69,55,-43,-121,13,-22,-54,-33,9,111,6,0,-114,-59,-106,56,122,-57,-95,121,-41,-123,107,62,-12,-40,-73,-107,-12,-53,-7,74,-122,-71,93,97,-120,-95,89,-63,71,-83,58,107,-17,-82,111,54,-49,-2,81,82,84,77,-18,-6,-36,-45,16,91,31,89,115,-126,112,26,-5,-64,61,-2,-45,72,31,-65,119,-123,26,63,-51,66,-62,59,-56,66,86,125,-1,-64,-33,-86,34,95,-84,-72,-78,36,81,-77,-103,29,-110,59,-87,79,-36,-82,116,84,21,-103,-72,84,34,-11,-126,116,-23,-114,101,31,18,-16,-51,-27,35,-53,20,108,61,-87,-3,-112,-17,-39,-107,76,85,4,77,89,-27,-122,76,75,-13,62,-35,64,-33,91,-6,44,-55,-8,107,46,-81,99,67,52,59,70,-2,-91,99,-43,96,-92,76,21,24,92,-113,1,11,100,14,53,96,90,77,-76,-1,-6,71,-8,-64,-45,6,-13,-21,-108,-120,119,-19,46,-49,-54,-82,3,-56,-25,48,-108,-80,-113,123,62,19,59,-23,30,121,52,-1,78,-94,8,-111,-122,122,-94,109,90,74,58,13,97,-111,-64,-74,-61,-36,-41,-101,32,-29,75,-126,-102,78,98,-64,13,-3,91,37,-97,19,-80,43,-47,125,10,-4,-64,-52,99,2,-92,-96,-42,-17,-51,-43,17,110,-11,-69,-67,-110,7,31,125,89,-51,-58,-94,64,101,-39,41,106,-117,104,11,58,-57,110,125,-67,-19,92,103,71,-19,68,-110,90,44,-28,27,-15,-39,4,-56,79,16,113,121,-85,-85,26,-114,-106,-77,12,-31,6,-115,102,32,42,-58,-85,-26,125,-50,-125,-35,57,19,-66,45,31,-120,17,-38,98,-7,-56,110,-109,101,-39,-52,43,-20,48,-34,117,-80,-104,52,75,-11,-110,32,65,80,-125,14,30,102,61,-103,-28,-122,121,102,69,-44,-126,8,-101,-126,-73,17,101,7,64,35,61,121,-54,-85,71,-117,55,68,-97,97,51,115,29,-31,-107,-69,-109,-93,118,11,-73,-81,96,32,-27,122,-31,-105,-42,99,30,44,-29,-38,-33,87,-15,22,-4,56,-69,100,38,21,21,42,-60,45,-101,69,-16,87,37,-22,-32,-11,45,-122,-102,-126,53,101,-63,-51,-33,48,-82,-97,40,100,-41,118,-46,111,127,57,64,40,-6,-119,102,58,-23,54,-101,-36,-38,-118,-103,-19,79,-95,13,-111,89,37,-4,113,-72,29,-14,50,109,-99,126,58,-47,-51,-11,-102,-45,4,85,-45,-44,11,1,-55,-2,-122,-122,94,-10,-85,-24,124,31,-3,101,-98,-26,-72,25,-122,110,-57,76,122,-29,6,32,13,73,121,-44,118,-94,-22,62,85,78,-84,105,114,125,57,12,-6,117,117,100,77,-126,103,84,17,31,119,-21,54,43,25,-64,34,-94,116,-75,69,-115,40,-5,-51,124,-69,-91,11,99,-32,120,80,-31,115,-48,5,-49,-28,-121,-61,-39,7,109,-53,99,-37,8,2,-90,47,118,-49,-15,59,2,-5,104,9,-50,34,6,-47,45,125,-67,-103,-18,-34,-110,13,-123,54,-41,-59,97,-12,42,-42,77,59,-76,101,-93,40,-127,106,-11,-2,3,-84,-39,22,28,-76,-33,-111,-60,-6,-19,58,-119,-111,35,-96,73,81,74,-91,-111,-124,-35,18,-123,50,94,-96,-74,62,-48,-93,-33,85,-108,-26,121,-46,-14,124,-53,-93,-106,-10,97,19,77,-110,97,93,106,-126,-29,115,43,-95,9,98,37,-20,73,-123,-74,42,-31,-12,114,-41,57,8,97,-125,-76,102,-30,19,101,70,10,-115,-18,-70,69,-116,-116,-5,-94,68,-88,24,65,-26,78,97,13,7,-87,69,96,113,0,52,57,101,15,84,123,-42,-110,96,-68,84,-24,98,8,-40,-2,45,-18,56,0,109,-81,70,55,82,-56,114,-95,-97,-53,-68,87,68,-74,-18,-128,37,-21,-109,-8,-52,73,-20,111,-25,37,89,-87,34,-48,-3,-25,-78,-78,-126,90,84,-3,-49,101,30,-86,25,36,-10,36,-6,106,-122,86,-54,-27,32,26,61,-86,-106,-122,-84,55,88,-19,98,31,-34,111,10,-18,-99,-12,12,22,69,98,88,84,98,-128,41,-123,-85,121,-48,-37,108,120,-15,22,-113,122,-57,-27,-38,-33,-111,110,-99,76,-103,105,-32,114,-68,-28,-75,38,-90,14,-55,116,69,11,33,-33,67,-114,10,-24,-84,127,29,105,-15,104,-51,-31,-105,-40,-19,102,46,-126,-79,-33,-120,-13,13,61,108,52,-92,-31,-32,113,22,-7,-28,64,-99,-23,-66,31,122,-25,-118,62,-95,32,117,47,-40,-70,-122,102,-24,32,77,81,43,84,48,-26,-120,-64,-63,51,89,70,-60,61,110,11,-7,-109,-97,-56,7,-23,-8,58,-37,-31,-104,-12,-72,110,-29,-2,-36,1,-15,0,-41,20,25,105,28,11,-78,-115,-17,112,49,-119,-10,35,27,-120,55,-38,-41,62,53,-16,79,-89,-89,50,112,58,-44,24,-98,109,12,-34,-90,81,61,-5,-89,71,20,6,0,38,3,112,-93,52,81,54,51,109,53,-74,121,-20,24,-35,96,-50,108,-102,-75,31,-58,-3,-121,-2,-65,-114,89,16,-36,-88,-34,-33,-66,61,61,-102,43,-83,-48,82,-86,-82,107,-99,-111,-116,113,-67,30,-94,-101,-12,-77,-70,-98,66,-87,-114,-96,72,93,-3,13,126,120,45,3,-122,-45,121,-59,67,111,-100,62,-92,54,-8,21,114,68,19,86,-32,-58,-7,63,-61,124,-115,111,-34,69,69,-84,-73,118,32,50,-86,-74,85,45,52,-66,44,-125,-91,79,115,-40,-57,-118,53,-87,-37,-84,-81,58,-92,89,-89,17,96,-9,-69,-113,-18,-77,-1,-43,-87,79,-10,-13,-81,47,-1,48,-62,91,-75,115,100,-19,15,-60,29,58,-15,123,-105,117,-78,-16,-9,76,-75,78,125,38,-61,119,127,66,122,-60,-46,37,55,-18,52,118,15,-61,60,-120,89,89,-19,47,14,-98,32,-69,-11,-64,-91,90,-73,-67,-99,-13,98,37,-126,15,-14,94,69,-66,105,-84,-118,58,-47,-60,-5,114,87,115,-82,63,65,-28,106,60,49,-79,78,-93,55,-104,-121,85,73,-25,-15,-39,-16,115,23,-91,-127,86,-101,-58,-4,-25,-60,-91,117,29,-44,27,104,-40,67,75,33,100,11,-14,-7,-84,-124,-29,-4,-115,121,83,97,61,-79,62,-119,-128,65,-19,119,-115,90,83,38,-43,-3,-107,-98,-65,-7,20,102,-44,-108,-20,-38,112,-41,113,106,47,-71,32,82,-44,17,-63,30,63,5,-8,82,46,-45,-124,-27,91,-31,-30,96,-10,102,95,119,-48,-40,-59,60,10,93,-69,-75,118,113,-67,119,-15,101,-33,-106,38,4,4,82,31,-46,123,15,1,84,108,89,44,38,51,44,-71,-12,88,63,43,117,-99,40,-111,-95,42,88,71,-18,123,14,33,125,-67,-122,-99,-80,14,27,-19,80,68,63,-95,76,-67,-78,-47,-86,-89,-2,0,11,86,-119,62,69,-65,74,55,-117,104,-28,-101,56,-2,-128,60,7,-45,48,-16,92,33,-115,86,-87,72,-17,-78,28,-16,77,89,26,119,-36,-90,92,-17,69,8,1,-63,-65,19,62,-31,-71,-27,-33,61,39,87,-14,75,98,104,24,62,-8,-77,-18,52,37,-104,-84,-19,34,70,-17,-74,32,8,-7,-46,14,41,40,-104,112,-39,89,-71,-51,22,-52,126,68,64,14,-14,-84,-121,-109,-1,-57,17,-61,22,5,-6,-49,-103,100,-66,-54,-71,84,-20,-51,-110,123,126,-63,-18,-23,-74,-99,31,31,61,-20,-127,42,60,116,48,-102,-94,56,114,-58,-46,-68,-109,67,107,-43,123,108,97,-109,-71,-98,-27,87,-9,-48,-114,97,-78,74,95,99,65,64,14,-45,-77,-117,72,-128,-28,-7,-113,42,-90,-41,-106,4,44,-104,-116,53,106,-123,89,121,59,116,38,101,87,-66,-19,12,-28,30,-53,-98,114,59,-1,119,-64,88,91,-49,117,-12,-76,120,-52,62,106,104,-60,120,-59,51,-62,-71,5,-43,-120,-128,43,46,17,74,57,70,125,77,-8,12,85,-92,12,-88,77,-31,58,127,-91,-84,3,78,-95,62,16,-97,-81,69,-101,-83,-8,-28,-99,-17,-51,116,71,-117,-90,25,-126,62,-56,-18,-1,69,-71,21,47,-41,-79,-63,90,-58,-92,42,-119,-78,70,116,84,110,-40,82,-32,-15,118,-94,34,-40,12,25,79,16,-38,30,-4,74,-92,-114,63,14,96,41,-58,5,-73,37,125,-41,125,-31,-15,85,-90,-119,125,-90,-23,31,37,-50,-124,40,-107,-30,-119,77,-61,39,-108,89,-46,20,-59,54,118,24,-32,23,72,-103,93,8,-80,-62,67,-51,94,121,-1,-23,-15,20,52,-4,32,-106,-46,-28,23,101,89,96,-43,-63,-128,-128,-97,-55,-42,-109,-38,-103,105,-15,-34,-117,-121,-62,-88,11,-98,64,107,5,-53,-112,85,-19,3,-88,-7,85,0,106,61,-27,-47,-101,-127,74,-83,-119,73,114,94,55,-62,69,3,-18,-12,92,-80,-28,87,74,111,-56,122,28,-114,-81,58,68,-34,20,-76,69,7,127,80,-59,-66,57,-93,-39,125,75,-119,-10,64,-4,-14,-124,-100,50,-55,118,-16,118,29,-106,117,-75,99,81,122,-10,-88,-110,-39,3,52,57,-106,-128,78,-31,-70,91,-63,-30,-69,-42,-126,31,15,-110,-3,-108,74,-62,31,-85,-80,-56,-54,15,-34,-4,-109,-11,51,68,-116,-25,69,-16,52,34,89,-85,20,100,92,107,-68,114,-2,-56,32,-74,31,-74,122,-52,28,-44,-10,-95,-16,32,-89,113,111,28,79,21,64,112,46,-60,114,-27,-86,-118,-55,-104,101,70,81,-114,-72,88,-77,24,96,-4,-9,-113,110,125,-31,126,2,-20,-111,-110,74,62,108,26,94,33,-70,-94,18,94,-8,-44,-3,-37,-82,-50,101,96,118,79,-123,-12,22,-3,-127,8,23,114,2,-105,70,28,11,-18,114,93,126,38,-115,-41,-49,44,-33,-33,31,-76,113,-83,-83,39,-10,67,126,97,127,65,79,68,13,-75,18,116,-30,-42,-120,96,-108,53,66,-93,-35,-113,62,110,33,-27,65,-82,55,76,-113,74,-117,65,89,-123,-93,101,108,-102,76,-27,-60,-23,111,100,-30,64,50,-115,-19,70,71,70,64,63,-76,-19,-17,-79,-32,-60,18,122,-116,-4,-51,-56,51,36,-41,-15,24,63,93,-85,-67,-62,10,-126,105,68,12,-65,-111,61,-24,54,27,116,-59,58,62,-3,34,-98,111,-73,95,96,-97,74,-85,-84,-80,111,25,37,-118,-8,-124,-117,-51,-10,84,118,68,-26,-121,74,-85,-19,26,-15,-100,102,-128,81,-121,105,103,-113,95,40,-94,93,-76,6,-26,-32,104,-108,-39,9,2,23,4,27,-42,5,-69,-43,57,-112,-42,-10,-88,-94,-2,-100,54,29,40,26,-101,-6,-28,108,-31,-107,87,-66,-51,-55,82,5,-94,-78,-121,-25,97,49,-8,-84,-83,-122,39,-76,86,23,-112,-66,-27,-102,-66,-53,-72,-13,117,-84,42,-25,-45,53,2,36,69,-88,105,69,-45,64,-10,-52,-5,-121,99,71,-73,-42,-8,-24,38,-38,105,114,-28,29,111,-30,19,48,-106,-59,31,122,96,-56,-19,-51,-35,-1,117,44,42,58,-18,-128,15,2,-40,102,-64,-73,-93,-107,115,-30,22,107,13,-78,94,-32,36,-29,-17,-65,114,-37,94,-93,-2,-18,-126,-117,100,-8,29,-63,17,52,-58,44,-117,-44,52,-99,103,26,-48,-56,120,-100,114,49,-79,16,84,-110,-34,47,21,54,-18,-2,25,-15,-83,57,-47,-113,93,2,66,-27,114,-89,-127,64,-53,78,12,36,-93,-28,92,-9,88,90,109,-73,118,-46,121,-89,-115,54,-112,-23,35,-67,46,57,0,-88,-43,15,-64,-33,-46,-113,-67,40,124,-120,-7,-4,119,112,-68,-69,34,2,-96,124,75,-36,96,79,117,-32,-93,-83,-127,-88,55,-6,60,68,-18,-17,-123,107,42,86,-35,-72,40,95,107,-121,-115,-28,-72,32,3,98,-106,-24,-27,-20,-71,-61,112,-74,114,70,-27,5,116,4,40,93,-42,63,57,-93,59,-106,50,-65,120,60,-16,-54,-49,-3,82,-103,-52,-41,-124,92,123,-102,62,45,-40,116,38,-56,57,50,97,-4,42,-16,101,-22,-114,-80,-123,-85,-77,10,17,-102,-14,-76,-92,6,-113,-34,-116,-60,-24,34,78,38,-64,97,55,117,122,-58,73,-100,-6,-3,33,-60,-77,3,-54,75,69,-101,-47,-47,66,103,-39,98,77,-87,27,106,-47,102,107,57,-20,-31,27,-81,-118,-74,102,107,-76,-64,81,49,96,-79,16,37,-9,66,35,28,-119,54,-108,-98,49,-21,73,-55,-57,33,-90,-112,-17,65,15,-122,53,-81,12,-124,55,20,15,-128,74,19,-84,-94,-127,5,-125,124,-66,-128,-23,-52,-10,-2,124,72,104,-116,35,-45,-91,-92,53,-114,7,78,31,80,-45,30,-20,-92,-2,35,48,-77,-59,-49,55,52,-65,-48,-96,40,33,34,120,27,-117,74,50,-121,61,-128,-37,76,88,45,6,91,18,123,-10,-118,-1,16,-60,94,-19,87,-19,107,-11,62,-64,-61,13,72,-99,-80,4,25,-79,-65,-4,-52,44,48,-112,40,-54,-69,97,51,-36,100,26,-1,-118,13,96,127,19,79,-52,109,100,54,-45,-23,18,-95,-47,-56,127,47,120,76,-109,113,85,-100,-90,-68,-8,-97,-86,-31,69,34,5,-52,123,-69,65,102,69,-70,-27,-13,-81,27,-38,20,118,126,87,53,-96,-117,-17,33,-16,-96,19,31,84,-95,7,53,-127,-93,47,34,88,38,-19,-127,-38,-101,-47,-84,35,-46,-60,45,-106,95,-111,45,-108,-96,62,-19,-128,-43,62,34,-69,76,18,-7,-98,64,27,-109,108,-120,81,18,52,123,-98,-5,-51,47,38,-22,18,-12,102,-41,-51,-89,94,45,-15,15,14,123,44,-95,76,-68,-87,-33,33,29,-101,74,100,99,19,9,-124,72,-73,78,-71,23,-106,-7,-52,-88,17,108,19,53,19,-38,-43,22,-101,68,-112,-96,-73,-118,12,8,107,40,-120,69,-91,87,32,-70,-120,-19,-15,56,-95,125,-118,-30,99,-57,38,-48,124,52,119,77,87,53,-118,127,34,66,-30,41,103,-122,-21,32,15,-3,-72,16,-56,38,-108,9,-102,108,-70,-46,-59,95,-92,-42,-105,-3,-23,72,14,-78,115,-65,43,-71,-58,34,26,-36,-47,124,-86,-111,111,-11,50,107,-115,32,-119,-104,45,-116,52,-101,1,-126,80,-128,-94,-5,-114,0,56,-102,61,35,79,-16,-33,-16,93,39,66,101,122,-68,116,-65,-106,-7,-103,-28,-52,11,125,69,-72,-98,-2,-35,-53,-116,2,-59,49,-112,56,90,-48,-112,120,120,79,-102,76,88,-99,-83,95,55,86,-97,-90,111,106,-63,-57,-27,-103,120,-122,98,23,67,17,-27,-88,4,92,-110,100,7,125,28,-22,55,82,90,-61,-114,40,107,-56,-56,-4,56,-42,-100,51,-99,93,-119,32,115,119,124,-71,-42,24,104,-84,80,86,91,35,30,-5,70,27,127,-76,78,-76,103,-11,111,-61,-63,32,-20,81,124,122,77,-87,-116,17,-40,-108,39,98,-17,-20,-105,-87,-93,-5,5,99,100,-20,39,-61,83,81,-66,-30,-9,-114,-11,-40,112,-81,78,-40,61,20,-56,21,103,99,96,-67,-7,86,112,-91,-58,86,50,-20,-49,-25,-102,123,-82,25,-42,17,-84,24,14,3,51,46,27,-88,-44,107,80,-110,73,48,113,83,-83,-32,1,-103,-103,-22,75,-22,80,8,-122,-114,101,45,-125,5,-8,75,-8,118,-38,59,108,-19,-116,-115,-65,60,-5,61,15,36,-59,-90,123,76,63,-64,-120,16,89,36,15,-39,69,17,-17,-84,-90,0,-126,63,-25,32,98,-69,11,-24,-27,-125,-46,-38,113,91,-37,57,-122,-51,-116,39,-65,41,-99,14,116,111,-47,-24,0,103,-6,-120,-28,-36,-67,116,-16,125,-45,6,-94,-100,115,-107,-13,49,-56,-69,-47,36,-17,85,2,50,-76,30,64,-86,-29,127,-26,-4,96,-114,34,-112,-119,104,28,-35,119,101,62,45,-16,-128,-10,-64,-87,38,-50,11,96,119,99,-40,24,-22,-44,3,105,-74,-6,-69,-61,39,40,-36,-90,-56,-24,86,-13,-17,71,-10,-24,-123,118,-5,38,-91,-64,-90,-124,28,-84,50,-46,93,-37,-118,-72,-37,21,-126,-88,99,-128,22,-51,-79,1,127,-74,-108,88,-120,-124,69,109,68,-115,-52,-46,-56,-44,85,-95,127,-76,83,70,-38,33,-15,-95,107,-85,-95,-27,-121,67,18,60,6,19,33,8,-122,70,34,-103,-71,-107,-32,21,39,73,118,115,-37,-26,21,-87,69,-44,-18,63,113,-10,-53,-108,0,23,-37,-18,54,-127,-25,98,31,-27,-43,-63,-100,-31,-89,-25,-40,95,32,37,42,-4,-27,4,-85,10,63,-118,100,-75,95,-77,-51,-31,-37,120,115,25,-100,20,-72,127,51,72,-67,-7,111,-117,74,-106,-125,-122,69,9,-81,-106,47,-121,-58,-41,111,24,79,-38,-8,39,61,11,108,41,-44,82,-56,-17,-4,90,-55,34,39,23,-126,46,10,96,-112,49,31,-37,60,61,-87,29,-43,-39,87,47,97,127,-47,-26,12,28,87,-23,-50,-22,-79,-46,17,-41,-40,56,-61,56,-118,-96,-59,24,5,-39,-99,102,56,108,35,55,65,-109,-114,15,-80,85,121,-25,-57,18,126,-30,-68,-117,7,-121,-118,117,10,43,58,77,-80,61,59,-96,44,-118,-69,-30,120,-90,105,-109,-42,-49,-37,-31,-48,-51,-36,24,119,-122,-116,-109,81,1,53,-104,46,26,12,-60,113,-40,-96,-84,-31,51,-87,-53,-26,102,52,-113,-102,-37,80,-48,-31,-2,122,25,-59,98,10,-68,63,35,6,4,125,-33,-63,-41,115,-67,4,21,-56,88,67,24,-111,71,27,-53,69,-98,-124,43,-20,3,-2,7,58,46,24,90,-91,30,-1,-15,121,81,28,-89,-58,91,100,-35,91,-21,95,-15,8,33,66,-39,-18,-1,72,127,-117,-49,-79,-65,-61,-42,-3,23,-67,-86,-16,56,-8,18,107,-35,-16,38,-33,16,73,83,-58,-100,-75,-77,39,79,83,-12,-82,-25,-79,-119,-14,92,72,-99,30,59,87,36,-70,-118,26,84,-43,-31,65,-126,12,-1,-114,20,-55,-52,-57,63,11,101,14,1,72,8,-4,81,60,6,-92,52,-50,-16,-56,-92,-11,-86,-59,65,113,118,-60,-23,-106,-119,-24,-41,71,84,-106,26,-67,72,-109,-115,-46,-19,104,1,68,63,82,34,83,107,40,-124,58,13,46,-60,118,-92,-99,-10,-73,-10,28,61,70,5,-11,-83,32,-77,0,-92,73,27,-117,-85,126,-111,-1,-49,-2,27,-17,118,43,123,-68,-73,5,95,-53,116,-121,-63,-65,-45,108,-85,-69,-118,36,45,49,-85,47,106,-99,99,-48,49,25,-9,98,87,50,59,75,-32,80,-15,-8,82,-15,126,8,-16,124,-85,-51,68,74,38,55,-74,-15,-107,-52,65,46,-41,61,57,-32,-7,84,12,68,80,9,-128,-53,97,-28,-34,104,-59,88,52,63,56,-22,58,-106,20,-23,27,89,-77,-56,-1,120,108,-24,-53,50,-39,42,118,29,81,-40,43,104,-75,62,-111,99,87,-88,124,-117,-115,-24,-79,-43,31,21,113,35,8,-5,122,-52,66,117,-58,-71,-1,-55,-124,-49,91,-115,81,-47,-52,113,-18,-76,15,19,95,53,39,-20,16,21,40,33,-21,-89,82,98,122,61,95,-16,-107,-118,112,7,17,-75,-103,117,13,44,119,-84,71,46,119,100,-27,-5,-114,-68,34,14,-98,67,-75,11,16,-107,-73,-98,53,-86,11,0,58,19,-54,62,98,28,55,-72,59,46,101,-3,48,-113,104,70,-83,57,63,34,-32,93,-8,78,-88,95,86,-17,-43,-11,-80,-22,71,84,24,75,-25,45,-11,115,-55,-127,-84,126,-85,105,48,-44,-62,32,112,-98,124,-106,-27,75,-104,108,32,-128,-48,-34,-79,-58,-58,-3,-125,-93,99,-94,53,-125,48,-15,-86,-94,-98,60,51,-71,38,-73,-106,62,40,58,43,83,-78,9,-69,113,-117,114,-125,-122,-74,-94,-43,6,-32,86,73,-77,-111,-122,83,-62,36,119,-7,118,16,93,9,-49,-69,20,23,-108,31,-31,34,-17,-30,-34,92,-107,-4,-60,-61,-46,-58,-78,94,-36,72,73,68,87,-104,-47,-47,16,1,1,101,66,56,29,81,-84,-2,-56,56,-41,106,105,-117,-77,-59,-118,-113,87,127,-31,60,114,-68,67,110,-3,2,-77,-17,-120,-83,5,-16,-54,126,-36,90,-104,10,-49,84,50,117,-1,79,16,125,-16,-65,114,97,47,-99,-117,21,30,-113,21,48,34,-23,99,101,-120,-51,-116,38,-121,-22,113,104,40,4,29,114,35,-38,-7,55,-42,-10,40,-7,-16,-92,121,107,122,124,-60,-70,-6,117,119,-10,-91,116,-7,-125,109,75,88,-16,-123,33,-14,-128,94,-89,-12,95,-116,105,-26,42,72,49,-7,-43,119,89,-85,58,52,-9,19,-27,74,-6,-118,-75,-123,-69,122,-11,91,109,126,-101,31,-73,-123,24,118,-43,-114,-127,60,-124,116,-38,11,-16,-15,-30,6,-101,-66,-49,-71,-76,115,-36,-43,-20,-96,19,-32,-114,113,78,-72,-9,3,12,102,-105,-58,15,-45,-41,17,-98,-15,17,-77,43,59,64,87,87,-98,84,-81,-80,-119,-71,-79,53,95,-11,98,-69,42,25,87,65,50,-8,113,56,47,-1,104,68,-9,-10,-102,61,-40,62,-69,-18,113,36,-118,107,47,66,-117,-126,120,59,23,-17,41,-5,-35,36,114,22,10,97,46,-20,-126,-107,118,-47,32,31,8,100,-56,-12,-66,-9,-21,-117,-74,-86,-46,47,-62,8,-109,36,-88,40,48,-113,-85,-84,-61,-40,7,114,-77,92,-128,60,-63,-127,6,-105,73,3,-14,-128,21,-127,-94,68,-53,-81,-65,97,-79,-51,14,-48,-75,112,41,123,-42,-48,-67,61,69,-8,-69,95,118,-26,-31,28,-45,-101,-77,122,103,-11,-50,1,-125,-101,-58,13,-113,103,-77,116,-24,42,121,107,99,120,-88,-43,-102,-58,-57,-75,-2,-65,100,73,78,-59,-85,33,59,22,-14,38,-17,76,52,86,-82,118,-114,-102,-95,19,123,61,79,-35,67,-118,80,-86,67,68,1,-101,-12,-76,44,-25,-115,-11,126,-16,-59,-64,-17,10,25,-46,101,-83,-119,61,-69,100,74,100,62,-108,72,54,106,-69,-14,42,80,121,0,57,15,-29,-58,38,-58,-90,-119,-80,118,-99,-32,11,112,124,-98,43,-80,-23,-88,14,-27,-66,-39,-59,47,-84,67,-25,19,48,-48,34,-50,45,113,51,-24,-7,67,-12,-36,18,-119,108,9,58,-79,6,95,-100,60,-58,102,-91,-120,-81,30,2,-96,102,-108,-84,-107,120,-59,-78,-29,-43,-96,-125,11,112,118,-67,49,95,-10,-83,40,17,-64,-4,37,30,127,-58,-25,-49,94,-48,-69,-82,56,-75,58,122,-28,68,86,-84,85,34,21,90,49,119,-109,82,-58,91,-116,-124,48,14,23,124,80,77,56,-19,38,-2,99,-27,118,51,16,70,-57,56,-32,-1,101,61,114,127,-70,-12,45,-64,-105,-125,126,33,8,78,-82,66,97,-10,-109,81,-108,114,94,-103,1,-103,-122,-100,63,107,107,-40,80,97,-20,51,-96,-38,127,103,-128,-18,70,-92,-3,123,75,29,-42,-2,-123,45,-44,-41,-86,57,-61,98,69,-47,90,-26,25,-25,61,37,-65,93,-67,54,-61,-13,-22,45,73,89,64,-113,-101,116,-15,-114,-124,-61,-58,-62,82,71,2,43,-9,4,112,-83,55,36,-62,-47,-96,52,22,24,114,-27,60,-99,108,98,-80,-44,-85,-44,-65,-23,105,4,58,-7,92,-59,-116,17,-70,-91,76,-43,-105,-3,-124,51,34,120,-22,-31,-107,-38,1,-51,-121,-81,108,-84,-58,-21,-94,-78,-97,83,-31,0,103,7,-32,-37,6,30,28,-73,67,-53,-56,-109,-53,85,43,34,5,-87,62,2,59,100,-70,55,38,96,124,59,51,55,-29,-13,120,105,-13,76,73,-127,-69,-42,-119,70,113,-120,118,8,19,8,15,-77,35,27,71,113,-19,7,-35,-57,-39,88,0,50,68,20,-30,-36,-53,61,-12,101,93,68,-60,82,-36,-104,-81,45,-11,-30,52,-124,103,107,-72,-73,15,119,-87,25,125,-94,-48,118,55,-71,20,10,-32,-14,-23,80,-28,59,40,8,-35,34,62,8,57,-54,-2,6,7,48,39,-97,29,73,66,-63,-18,34,83,36,-47,90,-44,96,-57,-121,-74,-111,-122,-90,19,89,81,66,104,-52,51,-70,-80,96,-107,-14,92,-62,-88,-48,34,-62,98,-111,-17,99,-57,119,-90,120,20,87,0,-68,114,67,72,-84,-72,-121,48,47,48,-52,-98,-56,111,-37,25,11,100,50,-108,76,-21,113,-4,19,14,-68,-12,-118,115,97,-26,60,68,11,-30,48,97,-14,-25,-31,50,-43,81,64,63,-5,91,-14,-51,-65,121,122,72,12,49,37,-13,-125,69,-44,-25,18,108,-57,-22,57,-9,56,92,-32,-104,122,62,14,52,-13,-57,-19,12,-76,64,-20,94,-48,-54,76,103,-74,3,-23,46,58,54,4,20,77,69,-26,56,47,-65,107,43,-38,-110,69,93,15,-66,-80,-23,-1,118,99,51,93,20,-42,-79,106,-96,-6,-21,-52,-99,-126,-27,98,-16,82,17,78,38,-31,-78,-114,-93,-45,-127,121,-79,47,-1,121,-10,-32,-17,99,-95,-59,39,25,21,35,-13,11,127,26,33,-41,111,-77,93,41,-3,-77,31,-120,91,-14,-28,89,123,7,116,12,-6,-103,46,115,-31,-14,37,13,84,-10,49,92,7,48,-31,-45,-85,-55,39,-108,15,40,103,65,81,11,-41,-12,-112,-80,18,20,2,125,89,51,21,-8,15,-6,-59,-1,81,-23,61,110,-126,-32,105,17,73,-36,-104,-53,58,-13,54,-77,-120,-86,-14,124,-72,126,88,30,-82,111,-112,-106,-128,-117,-14,69,80,85,74,-37,-67,72,-51,-9,28,-64,97,87,-17,-128,-62,111,-96,18,-74,-23,75,-53,99,64,107,14,-3,113,32,-118,99,-104,56,-22,-119,8,114,-20,-124,-89,-4,75,118,-120,43,115,-57,20,7,-83,8,77,-17,-52,13,114,36,-1,-73,-55,-14,-98,-22,114,-112,66,120,-9,-40,-31,54,-22,-78,28,85,-93,-106,115,-37,-124,74,58,-96,-128,-78,-116,-81,-37,-94,0,16,9,61,108,75,-87,-103,50,-8,1,-24,-75,-14,66,-61,-53,92,-128,-77,-56,-20,3,115,104,124,64,-21,15,112,-62,-114,126,-123,-99,-127,64,-104,-111,27,-103,-54,-9,105,-42,40,-68,61,-70,90,121,-89,-80,55,96,-49,-126,-118,-59,97,115,-46,118,73,39,95,-42,-28,79,63,-100,-113,-38,27,97,-116,-76,-37,-28,77,68,17,-90,85,-59,127,49,-92,69,-93,-114,57,-32,-74,86,100,41,-88,39,-2,2,-24,127,28,-30,8,124,2,-16,-120,-65,-66,100,-121,-66,54,119,21,94,-84,-110,-44,-78,21,44,90,87,8,-117,-104,-21,-4,-39,90,79,29,-50,55,-44,-106,-90,-65,-78,35,-114,-128,67,-62,-15,-111,-16,-26,25,88,97,-15,40,46,38,109,-30,-58,19,-96,-107,114,47,-53,-46,28,78,22,-86,-74,39,-50,53,-124,-119,124,-26,-32,-43,-68,120,-40,-99,-109,-117,-91,-100,-17,-45,98,-25,111,121,103,-44,-25,-18,89,111,55,102,70,-102,48,-117,-106,49,-121,6,126,73,-127,13,29,78,14,-98,34,-125,-118,80,-29,80,-22,-105,7,91,78,-101,-126,-3,-66,47,85,28,-104,91,-87,-74,105,-54,39,61,35,-82,-21,111,100,-119,112,-85,110,104,110,93,-78,36,-73,74,-95,-21,0,67,27,-27,-96,-122,19,24,-119,2,-23,34,77,60,-32,107,46,-42,-25,-29,-35,-105,-60,-23,37,107,-49,53,90,123,-14,74,24,69,-100,-33,-57,-124,-93,-82,-19,41,-10,-23,-35,117,-9,-41,-73,-122,-8,-94,102,-21,-41,-76,103,119,81,60,-76,39,-114,-90,80,121,76,118,89,-128,-56,-28,-128,63,29,-53,127,127,49,55,-54,27,71,55,-123,-71,88,120,-125,-44,-75,57,-69,-116,24,-10,-1,18,4,-42,85,113,37,45,-52,22,-104,39,-83,16,33,-96,33,-13,111,-112,-110,-30,85,121,-73,-95,27,-58,27,-76,0,-108,-66,-26,3,117,28,-22,70,40,-63,45,-38,98,121,-90,-26,18,-52,-119,58,-16,89,-53,51,-87,-36,-83,100,91,13,-82,91,-45,119,88,-13,49,9,-19,-95,73,26,-24,122,55,72,-96,-8,19,13,-54,-33,108,-91,100,43,-80,1,107,89,-62,100,-36,13,-57,117,4,-63,-60,-82,-70,-41,-70,90,86,-107,-109,88,-84,64,-3,-23,-77,67,79,113,24,-1,23,-86,124,75,67,54,-120,-73,55,-32,8,-86,115,23,52,-111,-16,-17,-83,54,-4,72,-119,-57,78,-115,-14,39,-84,-62,-119,-70,55,77,14,30,91,105,108,-29,-58,117,31,97,105,-112,5,-91,119,-34,111,91,-8,65,-12,6,15,-7,91,55,96,104,-122,-116,122,-95,3,81,-63,105,107,60,-64,101,115,-102,-18,-38,93,16,81,34,-9,122,-30,114,88,94,46,-120,114,-128,-95,-2,39,102,60,-13,-122,-89,114,88,90,55,114,57,-122,82,-62,47,-7,40,29,-74,-90,-5,-99,-64,-71,-86,-66,123,-117,13,71,-32,-49,114,86,-91,42,-38,35,58,75,50,-70,-62,-16,86,-41,-107,-65,-42,88,-81,56,28,42,99,-49,7,-127,78,23,122,-74,25,-85,86,-49,-127,123,29,-35,-122,43,-33,105,-115,-14,25,53,5,-46,50,39,126,53,-82,-98,17,-54,-92,-71,78,38,-82,20,-20,7,42,80,106,18,-34,-47,-9,114,87,98,-19,-62,-52,-112,-67,-80,-79,64,23,73,-32,-40,16,-43,-26,-88,-84,-17,56,52,-122,78,-60,22,34,-79,34,70,-127,101,41,-41,-30,15,67,-44,-16,-61,-43,-74,-55,-31,22,68,43,-31,34,96,113,-55,122,39,-46,-42,-107,-60,73,60,-69,63,76,25,-21,33,-97,110,10,-116,14,57,-96,15,-77,108,-95,-34,-10,85,46,-68,58,-78,75,26,122,109,11,48,-2,101,-104,110,54,81,19,21,66,-95,-128,-69,-86,-60,45,-58,-6,82,107,-2,55,57,106,-52,120,-65,21,-121,-109,82,72,-95,72,32,-25,-100,-110,46,-92,56,-20,30,-32,-100,103,-110,-18,-24,-46,35,107,5,-87,17,125,-64,-114,-103,-36,-10,40,-49,94,-14,123,-78,-56,-33,-39,-32,-117,111,-16,-21,0,-106,100,11,46,-21,91,81,-82,-8,-86,-45,-55,-62,-10,-79,124,2,118,33,86,55,106,23,-46,-92,38,8,117,90,104,-16,65,-110,118,-114,33,-104,-59,122,12,-49,124,55,72,-17,-38,-128,45,108,64,-110,45,78,89,-92,7,18,89,67,22,117,-43,102,122,-51,-69,45,-112,-19,-118,-85,3,115,26,-105,-5,-6,47,-98,111,-105,-89,-107,42,-65,-14,-125,35,106,43,125,-31,39,108,-67,11,2,65,-81,-41,24,-53,34,-26,126,-43,-38,-85,-54,-105,121,-98,62,-67,33,23,-107,29,69,-14,39,113,70,82,-126,43,-54,-101,111,-85,-5,-46,96,-114,74,-69,-89,-90,43,1,-91,-6,-56,48,-74,-17,38,-106,64,51,-60,52,4,-77,-113,-110,96,6,-119,-64,-21,31,110,39,-30,41,-96,37,126,-108,-27,119,127,102,-82,81,83,53,-10,79,-25,-29,96,-123,90,-123,-118,-75,44,-121,84,14,14,38,-73,83,-8,52,78,-61,-81,21,-114,-60,-54,-8,90,47,62,7,-122,-121,70,114,-21,-119,-74,89,107,-106,5,-105,117,7,48,-109,-115,-122,126,-4,88,73,121,98,-120,25,-75,29,40,-108,124,-5,20,87,109,2,-44,78,-99,-29,-87,124,17,80,-89,47,-122,88,-17,9,-13,-47,126,36,88,26,56,50,97,118,12,56,-87,-35,-119,11,-15,119,111,97,19,-4,-9,20,106,37,105,-111,-32,98,17,-89,40,127,-86,43,-4,69,38,0,-66,-17,62,-36,-85,117,-72,90,-19,-108,-113,46,46,-10,118,-98,-33,-122,81,49,27,122,3,-25,-58,39,-13,-21,-21,-107,-9,10,116,-84,-75,30,127,-61,89,-8,-117,14,101,-16,104,-28,103,-10,61,18,71,45,27,-16,-8,61,-59,63,-42,-119,-100,-36,-50,-97,-23,-40,21,-119,-96,54,-91,-57,-74,5,-69,100,38,-90,68,127,-51,-62,12,64,61,16,50,-88,-118,-124,-116,46,125,-31,-58,-15,-42,106,89,-85,74,-42,66,-34,-94,-36,35,-98,124,50,32,96,26,21,46,-39,-75,-26,-11,-119,-85,-99,44,-115,84,52,-21,4,-109,75,-9,40,24,-32,105,-39,55,106,25,11,20,97,59,-29,108,-123,88,-121,103,-123,30,-32,31,-33,89,95,-19,-45,72,-84,-42,20,-93,-28,78,-55,-116,109,-45,-33,-51,31,75,60,-49,44,107,80,88,15,87,18,-51,100,106,75,-118,13,-42,17,34,92,-8,-18,79,-95,110,-6,119,-27,103,124,-126,76,-77,75,101,-42,-21,28,-104,-97,68,30,71,-20,-67,-125,-58,-123,-31,-35,-107,8,-98,22,122,38,55,-4,70,-31,-65,103,13,115,74,-112,78,72,93,-76,-31,50,-28,-73,-59,38,-105,-90,84,-99,112,-90,-8,58,32,-116,-105,-63,6,81,-102,119,-59,74,17,-26,106,-110,74,68,-76,107,67,45,-8,-111,-122,39,71,-37,17,-41,63,-43,-78,40,96,-97,-103,-89,-80,-37,-77,-56,-40,-124,-92,-93,-86,-85,-27,-124,-65,-84,-51,-20,-61,-27,-126,79,-38,-10,-54,-4,125,-5,-33,-108,-103,-95,-38,-17,-35,-56,38,14,70,-47,79,21,-5,48,-69,119,-97,-12,113,82,86,80,90,94,63,123,112,106,109,60,-41,110,88,-16,-91,11,-127,-122,99,124,109,59,68,-19,48,-128,125,-22,-26,27,-28,-14,-54,65,-88,62,-44,-98,3,-83,102,-78,-96,58,106,103,103,53,-60,124,-101,-21,-87,-30,-57,48,-1,37,-85,124,-25,27,107,-97,-109,10,-14,78,100,-93,-119,-21,119,53,103,9,-22,77,91,-37,-36,-91,-42,-50,-112,63,77,23,-93,-4,-125,-40,-111,73,-16,103,70,-53,-1,-127,52,-47,101,-79,52,8,-103,88,70,-95,-78,-82,64,102,59,-13,-29,102,109,6,-30,-28,25,65,-2,56,125,-5,66,15,109,1,-98,-100,-68,88,-81,-113,-80,83,55,63,116,7,-42,-8,85,-66,-78,-18,-9,84,-93,-61,22,-21,27,121,32,39,0,-45,85,-15,-27,-103,2,57,-64,-13,11,-5,9,-25,85,-76,72,-14,-96,-108,-33,117,-97,-60,66,121,-72,-81,47,-29,-45,14,-4,-52,32,-109,-32,28,-40,124,69,-49,-102,47,-39,53,-85,-43,-109,89,-53,56,71,73,-18,44,8,-31,6,108,113,-96,12,107,-67,-23,-76,-83,113,-66,8,77,-81,71,70,59,-49,109,24,90,-116,5,-40,92,59,107,-98,-117,44,-27,-22,-95,-114,-96,-36,123,-71,-33,50,-21,1,58,-88,31,70,-2,-13,-14,95,-51,-98,106,116,69,74,28,-8,83,123,87,123,-120,-38,-45,-119,31,85,36,-73,-109,-49,-52,31,-39,52,-87,-101,-53,-1,-35,-88,-30,4,-3,33,-59,-122,-104,111,-36,-52,109,39,77,-4,-107,78,-58,127,17,-31,116,18,94,8,103,-10,25,-79,-81,74,105,5,42,-125,40,127,-56,-9,27,-55,-40,36,-63,-55,-5,12,-40,10,-21,77,12,87,83,-63,-30,9,18,-127,75,-41,-35,125,-53,-37,-103,-116,100,-9,-1,72,82,25,-75,56,-18,-80,12,-10,-113,-122,107,8,63,0,42,-35,-52,60,-78,-105,41,99,79,12,36,120,1,-79,-126,80,-103,12,-39,-103,41,-118,113,3,112,67,-27,-31,-46,-118,26,-118,-102,4,-25,-2,102,-69,-72,-15,7,-37,-78,-83,-36,74,106,-67,63,110,43,-7,-92,-59,94,-71,54,-30,-123,-51,-39,-126,-17,108,-116,59,-29,-58,91,-59,107,-103,-32,25,-33,84,103,118,-65,-75,-79,-23,-17,104,35,-27,-40,90,117,77,-50,10,-9,-75,32,-36,-105,-109,40,72,-9,54,-83,-60,-39,43,18,-21,52,86,-26,99,-80,82,-70,-114,40,-8,78,-92,-95,118,-64,59,-56,-121,-42,60,4,-59,107,-61,15,81,121,92,-75,107,-11,-119,-76,33,-36,57,-29,-75,16,-8,102,125,90,-34,2,64,55,-7,-104,-28,76,-5,109,-83,-51,69,119,112,-24,-39,100,-77,94,20,-7,83,-126,-48,-38,-2,114,-120,-12,-63,1,88,-93,-81,62,95,-107,84,-84,1,44,49,15,32,53,-116,-117,-88,-6,69,69,-51,-117,12,-78,5,-97,-43,76,105,25,43,-90,79,9,-115,-55,85,69,66,-45,53,-34,49,-11,96,-97,65,121,-87,106,102,22,95,27,46,17,-117,123,-76,-30,19,-14,110,-84,56,-114,58,-11,13,41,98,-102,38,-14,-51,-30,-56,1,-123,64,37,-9,23,7,-13,72,-42,-27,-39,14,-101,-73,70,126,105,-72,101,-104,67,9,108,-50,119,-89,125,-80,117,-16,84,-19,109,7,121,56,-89,89,-91,4,-61,98,70,-19,1,67,-104,34,-43,-5,-106,121,111,100,70,-53,13,-1,87,-15,98,-117,107,96,-70,36,-81,127,-122,-121,115,91,-11,-19,13,43,42,74,119,119,-88,-65,16,-19,-60,106,-3,-98,45,96,-114,96,12,119,60,111,-37,-117,96,75,111,-99,4,51,-33,-40,-31,-27,106,73,60,-116,-113,43,37,-17,-51,74,65,25,-32,104,-110,-31,-18,-80,2,-5,-61,54,104,-6,-99,-58,33,86,63,38,-1,54,120,66,-49,-60,98,24,56,-128,-3,67,22,68,-51,-27,62,58,8,-16,-8,-29,-66,8,3,71,58,14,-99,40,-31,62,-94,81,31,99,-104,-43,-57,-32,-21,52,-5,-12,29,29,61,125,47,-74,116,90,76,-97,-116,-66,-90,6,-6,109,18,-37,92,-102,91,56,115,68,-50,81,-85,-94,-75,-98,101,-37,7,55,-31,-118,-29,78,67,-67,6,-36,101,-47,-18,-89,-127,78,-27,80,106,-122,-27,-12,-89,-124,-46,14,98,-5,-100,125,45,-78,-126,48,-49,-81,-58,-74,9,-31,-85,113,-125,-98,-81,115,108,117,-122,45,-64,53,-107,101,5,57,-56,-34,111,-78,64,-112,56,16,56,54,-60,74,-30,5,-74,-87,75,75,-105,102,-56,37,57,95,-58,-88,-36,-69,-75,66,84,-50,-45,40,9,122,18,11,61,-36,124,3,-77,19,-91,-73,118,0,-8,-81,-38,-37,-14,-57,21,82,-18,-33,31,57,-46,31,-80,104,-116,-115,-28,-123,-7,-119,-42,-105,-99,-11,-13,-86,-21,-1,-103,91,-1,101,32,-58,1,-21,-111,86,-100,-20,-117,50,44,55,-86,-2,-79,11,-107,-23,8,-73,86,-38,102,-91,-107,118,-114,94,-82,15,93,-86,38,79,122,30,75,-58,64,-41,81,-68,19,0,-105,70,-5,59,-87,-87,-53,114,71,-98,-98,-126,-112,5,-64,116,-76,-54,72,-50,29,-23,-111,28,53,-72,-8,34,-41,12,38,42,99,-97,57,-59,-70,55,-54,45,17,-17,-16,-99,-87,-41,122,34,14,110,-32,-70,29,-72,-102,12,12,-28,-46,14,66,107,-1,89,125,33,-92,3,101,108,-118,89,125,104,11,23,-64,-85,-35,-120,43,-102,99,23,-107,-57,92,-18,-127,5,-113,107,-61,102,96,-47,125,6,4,-16,34,-104,-107,-73,-6,64,-14,-48,-95,51,-47,58,73,-10,-106,-108,8,70,-41,-54,-6,50,-60,-18,-29,44,51,117,-78,54,65,46,-41,66,21,45,32,-2,83,125,-35,-16,82,-51,51,-115,78,70,-25,-7,108,-116,60,-20,95,58,100,-68,23,72,-128,48,48,-39,-44,-34,104,33,103,62,71,106,21,-101,76,-15,76,-36,-52,124,2,111,-120,66,55,80,-45,118,-9,-124,48,-30,50,20,-108,-116,121,-93,3,75,-87,-16,-70,38,-9,-121,-62,-107,97,-26,126,-125,36,-6,30,125,-20,-61,1,60,95,-115,-63,80,1,-103,126,-31,57,-76,-107,-116,-78,80,47,125,118,-54,-61,-88,56,86,-105,36,64,-96,-59,-24,7,73,92,-84,93,105,-114,-67,-17,23,-77,13,-126,-23,9,-12,-111,-28,-2,-111,-9,72,47,7,80,89,63,-13,-52,-114,116,-113,115,-23,9,-73,96,14,-95,119,-52,-128,53,115,27,19,67,88,-107,70,-27,36,-122,-48,54,119,-108,-122,-102,-23,-103,-22,-92,-15,-3,35,30,10,64,-92,35,-36,-17,-64,20,-93,127,-61,-41,83,107,0,-88,26,35,-71,118,76,6,-25,101,73,39,-35,88,121,44,48,48,14,47,127,66,52,54,-128,-59,-63,-6,95,60,57,-118,9,-71,42,-103,111,85,-16,64,-34,-111,-116,36,-108,-34,-45,15,63,-119,-45,-7,-108,31,-21,29,47,30,-126,-50,-11,-29,-123,125,-104,58,43,-120,-95,-3,-23,-44,112,-17,-81,81,-26,-53,71,-37,6,-13,-59,22,39,86,-33,102,7,116,-109,-42,-99,32,-100,-84,74,-11,-114,-11,-95,-19,-49,120,106,-46,-9,-78,-119,-50,-65,7,48,79,-105,20,86,-54,-120,4,-94,52,32,-126,-63,-125,48,-33,-95,106,120,25,25,-50,-56,-112,86,59,49,64,-56,88,-86,63,84,-52,9,16,36,-60,73,-39,120,-52,113,-21,52,88,-84,-12,73,-46,-37,79,-28,-3,8,-76,-23,125,-44,-79,-67,-3,72,2,39,-42,47,93,58,123,-100,-106,79,81,-25,113,120,-7,-74,65,-72,-99,121,114,-88,18,-91,89,-30,93,90,-93,-98,113,101,92,-8,106,-28,-40,-2,15,-21,126,7,40,-9,-115,-98,-116,-69,-121,90,126,-39,-126,85,13,37,-127,105,-21,-17,54,4,-100,-20,117,64,109,124,41,103,124,-122,102,-10,-103,37,40,101,-56,-27,59,38,-39,118,75,74,-53,72,-126,-28,64,-90,121,-72,-42,29,59,-90,-63,-35,27,24,108,-123,-40,-17,62,-119,100,-10,-11,-55,17,71,45,-2,-39,-24,99,-75,-81,-100,-123,-34,34,57,42,114,44,125,-76,-40,-128,-11,-79,55,-28,-16,78,98,-119,-127,73,-27,-113,93,66,18,-68,91,21,9,-44,-79,-112,90,104,-54,102,17,-108,55,-78,11,-60,-79,94,62,-122,17,48,-117,92,52,50,-103,123,-119,90,-104,-9,41,-37,4,89,101,58,58,-90,107,22,-72,55,-111,65,66,41,0,-68,-124,31,43,72,48,33,-108,120,-59,-101,72,-29,35,-9,103,118,-91,42,-83,-121,93,88,-83,-23,59,-18,-19,-22,89,48,-77,123,-100,-16,-126,-52,126,-25,65,124,50,22,-43,90,-126,-72,36,82,-116,-64,32,-29,-24,-61,-22,126,-103,-89,-121,-103,-117,-65,103,114,-71,-121,-64,-63,-92,-4,20,113,126,5,-13,-33,41,-97,-11,-75,-39,116,125,-101,-77,-106,-7,21,3,-58,0,17,81,127,-113,-4,89,27,-123,-74,-116,-51,125,-40,-125,8,-10,113,122,8,38,-104,39,36,-106,68,86,50,76,105,100,56,-102,95,-57,-62,85,6,18,113,-78,-82,86,-48,-5,-35,28,109,114,13,45,-79,121,-11,-87,25,-66,-4,61,26,-78,100,109,88,-48,-26,-113,-124,18,46,-113,102,17,58,-3,-67,112,68,13,64,-15,54,-4,-50,-61,92,43,101,-66,0,32,-78,-6,35,32,-111,23,-39,33,-104,-15,122,18,-14,91,-77,-119,-21,88,-36,-91,-15,56,-34,-5,-85,107,-60,-15,-114,-39,52,-120,126,40,-9,-80,-112,-5,64,41,123,80,-24,41,41,-85,106,84,-125,111,98,125,58,-11,99,26,59,-23,58,-58,70,19,120,-6,-56,92,-87,15,109,75,-49,-18,-22,95,22,-93,-4,60,8,28,9,38,67,-122,-60,-30,6,-78,-78,42,119,43,23,52,-28,-123,75,12,-105,-50,-35,-120,-97,71,79,-51,-82,-42,-40,69,47,31,-106,1,-16,-4,-35,67,26,79,21,-15,70,87,-42,-124,-112,69,-107,-24,-98,40,94,61,-34,79,97,-68,127,20,-121,-124,-36,-117,41,92,-13,-102,-123,-64,122,-66,-99,57,104,3,120,22,-80,-97,24,-1,-67,-51,-31,60,57,-95,-104,-84,-42,92,119,111,-128,92,31,57,58,28,88,-68,90,97,65,-3,92,75,-106,-127,-102,-59,-24,-30,-45,-29,-108,-78,-46,-1,-7,-5,-32,17,-58,-28,-128,-104,26,35,-69,113,-19,20,-36,98,-85,-93,78,-47,-45,120,-47,-81,29,-12,120,-54,-120,83,-96,114,-28,-91,-72,-40,14,76,-116,-23,117,27,105,56,116,28,-110,-21,11,-17,38,-52,68,61,40,15,-32,47,52,96,-36,-39,-115,5,107,24,-22,105,74,113,49,-121,-26,18,-86,-21,-79,-25,21,-69,92,-115,-83,-71,98,-16,-56,114,51,-67,-91,50,0,-7,114,83,-127,99,64,-23,73,105,69,117,-119,-5,121,-21,-100,48,18,-100,107,75,-60,-85,-76,-2,114,-119,126,119,60,-11,-53,-118,-62,43,44,-54,83,48,-87,-24,-35,-109,20,-48,-80,65,-99,-123,95,-110,50,25,94,-13,-51,49,75,-75,60,101,123,43,15,-43,-107,-115,-78,3,-56,-67,71,70,-110,-43,117,-94,102,-58,-70,55,3,-36,-52,104,-52,-8,120,-89,-73,63,85,-104,125,-25,-123,79,-101,-13,99,56,-118,85,-116,-14,0,124,49,90,121,8,34,-69,-39,-55,-21,-59,12,-20,85,87,94,-63,-63,100,109,89,87,0,29,45,-78,107,107,62,96,-28,117,-42,-50,105,-58,-28,-106,45,16,-47,-52,100,33,-74,45,-29,99,73,79,-98,83,121,-52,-62,85,-128,-59,-102,-30,51,34,90,97,-27,22,-103,111,121,96,110,114,81,-88,-60,19,100,-95,55,-60,61,120,11,114,-55,63,-51,-86,-94,-22,97,114,-64,75,-21,-21,17,-63,-4,93,-64,-91,-113,-91,62,35,-95,57,14,91,53,127,-34,-41,-99,6,-40,114,-44,27,-113,92,115,75,-24,96,55,127,-77,-73,8,-17,-68,-118,47,-57,-116,-123,78,-120,-18,53,-5,72,-55,-103,-52,57,-36,108,-22,-109,92,-31,-119,1,-126,-22,-1,28,15,-108,-90,-36,-105,-77,-47,40,17,-33,-38,-13,-68,-113,-14,-98,-7,12,100,30,-36,-37,-78,-117,-24,22,-107,-39,-63,-76,-54,53,126,36,-100,124,95,-16,-95,-62,95,55,-125,-71,95,2,83,-4,49,-4,109,-103,-121,108,-43,27,0,-122,105,88,-51,100,54,88,-28,-108,62,-102,-5,93,54,-38,109,1,-87,-1,-93,46,6,-6,-30,44,7,17,90,10,72,-24,87,-20,47,-126,22,-53,-84,96,53,-123,-55,-61,81,75,91,-113,95,-80,23,114,-109,17,-21,-68,95,-9,-55,-17,20,-102,-22,86,117,54,-69,-71,120,-44,121,-110,127,-42,73,104,-18,110,-89,55,-32,121,-22,-28,44,-22,-98,-8,-98,-68,3,68,37,-18,-44,14,103,-41,-25,-25,-100,67,-22,-112,-69,-8,-123,-46,-125,4,-48,52,-15,-81,17,-52,-75,-55,99,71,-102,-67,-20,-19,-127,-91,-96,2,-100,124,98,-41,97,64,-45,-24,-104,7,32,-71,-25,-17,10,3,111,-104,-118,-11,-62,-26,-70,-70,-66,-15,-40,61,61,70,-73,125,99,14,-43,-121,41,71,-39,93,-62,17,-122,107,49,-6,-119,107,99,-69,-26,-88,-36,31,-125,-79,-85,24,85,-103,37,84,-12,-105,-97,-9,-91,-40,-110,113,-66,115,91,-47,-42,-116,-31,96,68,102,-19,-82,108,109,-121,26,43,-87,26,105,-25,29,-79,-32,-43,-50,46,75,25,-11,-36,-12,-113,-7,-40,-86,100,-40,30,75,1,-91,-125,109,-75,-25,122,29,32,104,-7,61,97,26,-9,-94,-98,-120,73,86,-29,-59,19,-13,-68,54,13,77,-41,-25,-5,85,99,-112,-32,52,13,92,-61,34,-96,-64,-73,119,67,58,56,62,90,-14,56,-42,-91,-13,-33,-53,-120,54,71,-6,-52,90,55,-70,62,6,-36,26,69,-110,62,78,80,-114,-14,-84,108,71,-1,105,22,-100,64,4,102,111,127,33,113,30,-74,120,107,-108,-127,-105,-4,52,-92,-30,-9,85,-122,56,-39,1,65,-79,86,6,107,87,-20,121,46,14,110,29,90,-108,-15,-76,-122,91,-76,41,-98,102,-90,96,52,-27,4,-71,-23,-14,-25,-95,-116,-85,18,-99,70,-68,13,-42,-104,-4,-11,-81,-6,69,106,87,98,-23,-40,-43,117,-104,-50,3,-102,80,58,43,45,-124,-88,47,-53,42,-63,44,-4,99,-33,77,-37,-30,53,113,-110,77,-61,-115,-18,-81,109,13,89,-90,38,-8,-22,-126,79,88,-70,14,-76,-93,65,119,-1,-123,-39,-98,110,17,66,17,25,40,124,-101,-96,99,105,-106,-98,-119,-45,105,122,119,34,-7,-36,-30,-18,108,74,-31,-27,-122,-21,117,49,85,111,78,-52,-20,-44,111,103,89,-54,98,31,77,6,-79,-59,-48,-103,14,-113,-52,94,-13,72,32,-73,-75,-98,-29,23,-50,20,84,105,-125,-18,54,-57,-26,-62,-26,103,-22,117,10,72,6,64,-110,-36,43,-89,-91,-26,-80,-70,-28,-39,-82,-23,-118,101,36,16,20,56,98,116,29,-128,46,-3,-104,21,81,76,-61,-78,93,-37,57,-87,-32,75,125,-113,-110,4,-78,82,97,90,93,-38,-112,51,48,-4,14,-122,73,108,-7,-108,-110,0,8,0,28,-50,27,-103,112,18,26,42,-9,-124,46,111,58,-18,-113,-2,-102,-41,-84,-112,28,15,-121,-98,-119,24,-73,-47,110,-63,-29,-82,45,-76,-3,29,6,122,-97,-46,49,84,-17,31,121,-53,54,-79,-110,-14,63,-114,89,109,60,-7,77,73,-57,69,87,-26,-11,116,114,17,-56,116,-104,59,-67,-13,2,27,69,-80,31,104,60,48,-114,-99,68,-13,-94,94,-4,3,99,38,76,19,-122,-116,-49,8,-94,0,-116,123,-103,7,41,121,48,-34,116,-54,15,-67,-48,65,-27,-46,25,98,-1,98,18,37,23,-86,28,-101,103,-128,75,26,-59,54,42,-32,27,18,14,-66,44,22,-49,79,-124,125,-77,-67,43,-19,-48,-14,38,126,-28,-74,23,58,-17,93,-35,99,-46,-115,2,124,-94,-23,100,-26,-128,-71,88,-78,-42,-42,33,-81,76,1,-37,-70,-126,-70,-79,-50,37,-41,-101,36,-58,15,-105,-76,-15,-59,35,-23,111,126,37,-123,94,-10,-96,-93,9,-97,-108,34,-41,18,28,115,38,-120,-81,35,11,83,-44,69,-17,-40,50,-17,57,-56,-117,-10,-46,27,14,-79,52,-82,-122,120,-51,-32,41,-20,-89,-47,69,76,-77,120,-86,47,-31,-44,-85,20,-33,77,52,-127,-3,98,-33,23,-108,-2,-119,28,-121,-74,-29,112,124,-8,-66,69,105,64,22,-118,124,77,-62,55,-95,-99,-77,43,1,125,-6,87,70,-12,96,-109,108,71,31,39,-103,-17,97,106,114,-82,75,-36,110,115,54,2,61,-115,-75,105,48,-25,5,94,53,52,125,-28,-113,50,-105,36,99,-74,28,-7,-29,76,-110,65,89,87,50,-95,116,-126,-101,-51,-53,-70,-58,-119,-122,-78,-6,97,54,120,59,-42,82,98,-123,44,-41,99,-10,93,-71,-16,0,32,-113,48,-103,-70,-29,-125,-25,38,-5,-109,71,-123,56,-81,8,-70,40,12,43,-63,76,75,-43,-103,71,42,116,53,115,-43,89,-33,-108,-50,-105,-127,0,52,-107,-30,-21,-6,8,71,118,-69,-99,99,87,-74,67,46,-64,-46,-128,32,-25,4,-45,-20,64,108,-16,85,-75,-105,-54,-120,-113,-87,90,0,-40,46,59,62,-111,106,-66,-38,75,-12,-81,-96,-64,89,-81,10,-13,122,-95,-87,0,-24,-77,13,12,-86,-72,112,114,-5,-40,-99,58,-125,105,-28,-70,49,61,70,-12,86,3,-61,-122,119,35,5,59,-44,38,15,-79,-7,102,104,-46,-98,47,40,31,-60,-53,-49,-56,96,-116,-3,-126,-69,-46,28,12,73,-54,44,-105,68,88,116,-15,-44,-85,-43,-57,123,-3,-120,-112,-17,35,59,-32,-97,-102,26,-102,-55,41,-125,-34,60,52,55,11,83,60,68,57,11,68,108,-46,84,-69,22,59,-7,-35,65,-113,15,69,32,116,5,-94,117,-107,74,-42,35,31,-122,113,-24,94,10,-82,110,79,112,64,-36,-98,-80,-90,-125,-76,-119,109,-13,26,-27,-81,-111,79,-21,1,-122,57,106,-67,-128,-99,-85,8,51,117,20,-34,-43,-127,18,-89,-29,-13,113,4,-97,-68,-50,32,78,23,52,-5,-41,39,-87,86,-29,-74,-124,81,-23,-107,89,-39,7,-80,-73,-75,41,91,53,2,-119,-65,-114,-121,-88,44,82,-112,-2,-19,-98,-73,-35,50,-79,37,19,-69,31,-9,-118,117,-37,-116,-46,-24,-33,90,77,109,-126,94,-109,72,-50,-9,2,58,1,35,-127,-84,58,14,-59,1,-57,-123,-104,34,112,96,-117,-10,70,-86,-77,12,57,-107,-75,78,70,-127,-39,-32,44,-82,72,110,-116,-75,-90,-56,-72,-68,-29,-23,51,-15,106,-101,-118,6,-79,13,38,-82,49,27,-33,120,70,-64,111,-51,39,61,-90,9,-92,-90,22,24,-48,55,-47,62,-19,-114,83,-89,-104,-85,-16,115,76,63,99,-39,38,-89,-49,-104,92,-93,125,-25,65,-78,123,28,30,75,-55,-34,2,54,69,-76,-72,-21,85,62,-7,83,105,-34,73,-39,-45,-111,30,-22,-80,19,-20,27,12,106,93,-39,35,-113,-83,54,119,64,-10,74,-1,60,126,15,41,-24,125,40,111,40,-69,117,-79,-7,-13,73,93,86,109,-106,-38,-109,-68,-104,-70,-47,4,119,-105,51,19,-7,93,-124,104,88,35,-16,-38,-98,111,37,-76,-48,105,2,-13,57,105,6,30,-97,70,-125,-53,-22,-25,81,-33,108,71,68,6,93,-43,77,81,33,93,-32,-22,12,-56,-76,7,-96,122,55,-43,13,-66,45,-115,-77,87,-16,-123,-55,91,96,-62,-37,-55,-44,-76,-6,-78,102,86,123,43,90,102,113,123,-92,7,-24,13,-37,11,-104,-127,83,-30,-121,19,-24,-5,-122,-114,-20,-77,-25,35,-109,-95,55,-11,123,-98,-26,88,-100,-85,-85,-105,-88,120,-15,-107,-128,-43,93,22,-21,-114,-113,36,-21,106,115,76,42,-88,-60,-72,127,-11,-30,81,74,127,-26,71,43,43,78,0,94,75,-115,60,81,92,52,-93,-82,119,-106,-49,67,-30,-64,-42,108,-87,30,43,-93,104,-33,63,121,-30,110,1,-13,-19,55,-36,85,-112,97,77,-59,-86,113,-20,62,-111,-8,101,103,90,-19,-62,57,-55,-22,-108,29,-33,-112,-47,-87,-92,47,-125,42,-81,-22,-50,-84,71,105,-38,-74,108,1,83,-81,-17,8,-122,62,-88,127,-23,84,39,79,54,14,-108,80,86,105,6,-69,-109,-20,39,30,-51,38,66,-94,-84,34,-119,-105,99,-121,-126,8,48,31,-37,58,-24,-24,-128,5,-99,21,25,61,101,-68,11,-18,-20,120,43,41,29,-49,104,-120,15,63,111,-7,86,52,119,75,-112,123,-92,-47,17,81,127,-15,-123,82,52,-103,71,-99,-12,81,-40,-55,-51,25,76,-10,118,70,-16,-81,108,-65,82,-85,-76,-7,97,98,-126,-76,12,-91,-4,-107,-63,57,-124,-125,-84,-122,113,25,72,99,-15,92,-51,-54,-81,-67,37,96,73,-43,61,53,-52,-8,46,-67,14,0,-60,23,1,-108,-3,94,-17,-17,-96,7,2,93,-68,87,-66,-48,-106,48,73,-124,115,28,13,21,54,37,122,-4,7,-71,10,-106,82,-47,38,93,-29,-58,61,-86,-16,72,96,-4,105,37,-10,100,-69,5,116,-90,-76,64,-120,106,-36,-49,-61,-25,67,125,-78,-35,-8,102,-50,-103,75,76,-17,89,-74,-86,10,-9,6,49,114,-63,-61,101,50,-115,30,103,28,-46,70,32,-4,71,-5,-7,98,58,58,-54,-23,43,-83,-41,66,-11,-89,10,53,76,-108,47,-11,35,-73,-58,69,24,52,-37,-36,-122,105,-71,124,125,-51,32,-63,-109,109,74,-117,-56,39,24,-16,76,27,-7,-73,-49,42,-60,-99,117,94,-122,-17,-100,59,-122,-31,-14,114,104,70,46,-49,77,-38,94,42,-45,-32,-114,-105,127,95,-124,60,-116,101,89,30,21,-77,10,43,-128,-71,-19,-68,-118,59,42,-34,-40,112,-88,98,39,-45,-104,57,-15,68,107,82,79,73,115,3,-95,-26,-52,38,22,67,75,-126,69,50,-57,-42,35,58,-122,-59,-110,-9,107,33,-65,-100,42,-88,94,40,-29,-44,-97,39,1,-37,-60,-124,27,-76,-32,80,-21,-25,53,52,-88,21,3,113,17,-97,54,1,-103,78,-23,42,49,42,-96,-75,-50,123,99,-45,24,13,62,-9,-114,23,-11,-113,-30,-122,-93,-85,52,82,62,-78,-10,-112,3,99,2,-35,72,104,-85,-33,-26,11,122,-3,106,12,-79,-100,97,-95,-86,-37,-115,115,95,57,80,-114,-24,-40,93,45,-8,-111,-3,-51,-119,-93,108,-61,-111,112,-61,103,-36,-7,54,-15,52,1,112,60,-84,-99,-84,75,-27,16,0,-41,13,50,-73,114,-2,-76,-8,24,113,68,100,-26,-7,-103,93,120,-69,126,-104,-55,-39,-127,-100,-24,-87,-67,-103,-24,68,81,-95,-85,82,-23,12,-42,56,-94,-113,71,-57,-83,-10,-67,10,-111,-63,-81,-72,59,65,105,-119,-75,120,-44,-52,3,-23,-89,-46,71,0,-42,31,-80,2,-65,82,-53,126,-80,83,-73,29,-123,120,-3,-35,-47,99,117,19,-74,-88,-51,106,79,44,-12,-6,31,-95,-110,-7,-66,-112,112,-100,75,62,-108,-96,-107,91,-60,103,-37,17,-100,-101,116,83,-87,11,97,-46,99,-115,114,-24,95,78,-94,-128,-29,76,-52,-126,-52,-111,63,67,-23,-70,-88,-72,-48,-63,-5,116,-123,-126,54,46,-39,66,-18,-114,34,127,-60,40,15,-65,127,-38,2,-14,-51,-102,8,117,-120,-14,-120,14,22,28,-70,105,-119,-92,42,49,-18,-70,-73,-13,127,3,29,-10,25,-88,-124,-56,92,-58,-105,-61,-110,23,39,-74,56,-103,103,-5,-14,-42,-66,33,-66,-95,112,65,54,22,-80,-101,-68,79,12,72,-92,-11,-103,-17,119,47,-120,60,-113,-48,116,86,51,40,-41,11,12,-63,-10,77,-35,14,-68,122,49,-113,-23,50,-116,-15,-26,-65,75,22,-119,-117,-101,-85,11,45,87,-55,-108,-83,-125,-42,-4,127,-120,-9,62,-98,-32,109,-110,87,-96,104,4,-86,-2,19,116,46,91,-19,17,-113,94,-1,-83,98,72,-26,-96,-79,-83,-32,-52,-67,-81,-120,-50,-45,15,-81,59,0,80,-8,18,104,73,-57,-77,63,-66,-96,-107,45,-63,-55,120,52,25,-66,-4,-41,108,-70,3,-32,-65,12,-41,15,-82,-104,-102,107,-72,18,12,93,43,7,-99,125,-91,-90,-8,90,-45,127,37,-59,-25,-68,63,50,-102,68,-91,-27,-53,-39,33,-113,95,124,-20,-74,49,88,-36,52,26,-56,-57,-29,-108,106,-27,70,105,117,-64,-112,42,-69,4,66,40,18,104,52,-86,43,32,-118,31,123,49,-18,29,32,107,-52,117,67,65,2,120,-80,97,1,126,22,96,-104,-128,30,93,-61,-54,78,25,-8,45,-83,-108,29,-98,82,-65,-17,-26,37,118,-80,-4,115,110,-51,-46,-96,122,93,108,-90,-122,-120,49,-89,-67,-27,-67,21,-112,80,87,-73,-88,-41,55,1,3,85,-20,111,15,108,-115,-109,-106,-74,22,67,-96,-20,21,-127,7,-21,-55,76,-38,47,46,20,-33,16,12,-56,-91,-126,-80,19,-4,3,80,-99,-111,92,29,1,-96,59,59,-114,109,43,-2,69,4,-38,-77,-57,124,16,93,-19,62,22,82,100,-7,-42,-47,90,27,8,-34,22,82,90,60,69,81,-83,-14,115,87,-35,6,20,-48,54,34,125,-81,-58,-12,28,43,54,-107,32,85,-16,-21,-61,114,-31,109,27,81,12,-84,9,7,2,-31,-11,-123,49,71,24,-25,-39,70,-78,-106,4,94,-89,8,-111,-104,35,-107,9,-74,-20,92,109,64,50,-9,-68,-40,-89,-71,-31,-109,23,-48,79,-57,-90,29,-93,108,7,-76,-15,-19,97,76,-31,110,22,86,-121,-1,-63,-59,-85,-110,-106,-72,83,124,-56,-70,-73,89,-80,72,47,98,112,126,-34,-26,114,-60,123,-88,-41,52,-86,32,22,-36,21,-119,3,42,-25,-81,-63,-10,-15,71,124,-14,-109,-11,77,-44,63,59,-96,-63,-48,22,-4,-30,39,-125,41,41,108,-100,-85,23,117,111,32,-87,26,-48,-119,-128,26,52,46,106,-78,-29,-16,10,8,-61,-97,122,109,-1,70,101,-34,0,-35,103,-119,29,-83,-100,26,-59,3,2,8,-61,-38,74,-14,18,55,-126,-107,-70,-27,-103,57,92,101,18,-12,82,-65,116,-69,-89,79,-11,-105,-31,-89,61,-57,-126,-78,-46,48,-52,82,-108,-85,96,-105,-51,-78,-41,-60,112,-54,-93,86,-57,74,-16,79,-121,92,-72,-114,-62,-97,-53,56,-108,-118,-34,-49,58,-35,35,118,-98,11,42,-107,79,29,19,16,51,-55,-54,-31,-18,-118,88,116,-21,30,-28,-76,-106,73,118,-118,35,13,23,-53,-110,-66,-53,6,-53,-27,-126,122,112,29,-59,-47,86,-11,-53,-79,111,-96,-128,-75,33,64,-60,-66,10,-13,-9,-39,-40,99,96,89,-96,-83,-118,98,-95,-99,-90,-3,72,28,-46,11,100,118,86,83,35,-59,-45,-32,38,-107,104,31,-6,53,-12,21,-5,-63,-12,5,105,26,-40,-128,-15,-1,-8,28,-65,96,-18,-97,76,-62,-90,-47,41,61,-22,-12,-44,4,2,-65,112,-115,12,63,-83,100,-1,-63,17,-102,119,-36,-70,-106,93,72,57,39,39,54,-33,107,-27,-65,52,-31,-100,-19,-51,31,62,20,32,-18,13,-98,121,109,25,-110,56,-54,-61,-71,112,-2,-108,0,113,75,78,-125,-17,122,-43,-112,67,-14,-106,-36,67,23,-5,-45,120,117,57,-74,-113,7,-125,89,-125,1,-127,54,26,-120,33,-78,19,102,94,-5,45,-18,-19,-31,38,-119,-117,-102,-89,47,39,-88,-100,87,-90,-33,-74,-9,-40,-96,-67,-48,-104,80,-107,-65,121,-73,4,72,-104,58,19,15,113,6,-90,75,113,-5,20,-115,112,78,-62,106,30,10,38,48,-6,67,-11,127,-12,64,-97,21,-79,-60,66,-59,107,-90,-69,-2,115,1,49,-47,62,27,122,45,-67,80,-90,16,-39,91,-98,100,53,91,108,28,-75,-45,81,60,15,-23,-52,-55,41,-124,102,71,-2,-100,70,-31,29,42,-62,-115,101,50,100,73,0,-61,-125,-23,123,-26,-127,15,-85,83,-26,-82,41,-98,117,78,-116,-94,-27,-24,-73,-98,28,96,71,-105,-75,-105,-65,-40,-47,84,60,85,-127,-97,34,100,-58,84,-31,118,-102,120,-120,-13,-118,76,-66,-15,88,67,60,5,-107,51,125,47,-119,-11,26,-112,64,94,32,-52,6,-44,-44,107,28,4,-74,70,-90,-29,-49,-127,-78,-109,-74,7,-72,29,-125,46,91,-114,12,-112,66,-110,114,80,17,-26,-7,1,-104,20,-79,82,82,123,-76,99,127,55,-89,109,-100,100,-38,93,8,-46,-53,-79,30,21,-13,70,-52,53,-4,-1,123,69,-119,95,34,-5,-14,49,-65,-35,-10,-116,-105,90,41,-32,48,-101,123,-50,79,-85,-27,26,-81,80,-95,-37,32,-123,-77,-100,33,118,-114,-29,-62,-66,-110,101,-53,-128,-94,47,-95,-67,36,-122,-71,-35,-14,-25,50,-120,121,-95,-60,40,-93,104,70,47,-19,42,-5,116,-117,95,-38,25,-50,54,-35,-83,-42,-120,-76,78,-63,-87,101,48,-23,98,51,38,15,124,5,-12,-122,-8,-74,-84,-51,-28,-17,20,-21,-54,-41,-12,34,-47,95,35,-41,-23,109,-42,117,-22,107,-8,108,-43,-5,64,30,65,-11,2,21,-35,38,-50,-38,68,-17,124,-25,-94,-28,-124,-43,65,124,44,125,-89,24,17,18,96,121,59,-38,12,-106,-55,-111,20,-54,-47,-93,-90,17,67,-99,25,101,-56,-20,67,79,-10,67,118,100,84,-70,9,-47,80,-104,-60,39,-7,-109,115,-21,73,84,-125,-82,-75,114,109,-7,-35,-19,-12,-34,7,127,110,73,24,-61,-90,-13,-77,125,98,-87,-29,86,-70,-40,-45,66,-52,126,58,-79,9,38,-128,-13,-10,111,107,71,-25,-115,-4,71,106,-84,-26,-38,-101,107,-122,-118,62,-10,70,111,51,-64,-63,-60,-116,60,57,-31,-14,-110,123,20,110,-86,49,-10,-98,-59,-5,-90,-12,9,-88,4,37,-21,-24,40,25,-88,-113,84,-114,-12,98,-82,51,-76,-75,91,121,-84,63,36,43,29,62,29,-117,-73,-51,-36,-17,-47,-103,117,89,106,84,84,-121,48,124,25,-40,62,-118,-26,78,-30,116,-19,-68,-30,-61,62,-2,-92,114,-83,-47,81,97,124,-40,-98,-4,-47,-61,103,107,-126,-86,42,-120,79,-127,39,53,111,-68,80,89,110,-120,-123,20,-71,59,8,121,92,-53,-97,-25,-90,-69,-53,113,-120,-111,56,-22,-70,109,34,-65,-70,22,86,26,-46,-99,32,-32,-40,105,-47,32,54,-5,-22,81,60,123,-22,108,-106,109,-84,-17,-88,-10,35,-66,16,63,-35,4,80,-60,-25,15,-85,-35,121,29,-122,-81,69,81,35,69,-19,-107,18,42,42,-50,123,-26,113,104,-42,-115,-50,21,-69,-123,99,38,-102,-120,-22,-114,30,59,43,103,16,-101,-53,72,37,-17,105,-51,-97,-102,-67,-65,-39,-46,-75,-79,3,14,-125,50,-83,-101,-100,-121,-76,-1,-66,66,9,57,-119,-114,-6,41,112,-3,96,-99,53,15,107,8,109,-127,76,-80,99,27,-38,50,50,-127,-89,64,-111,122,-42,14,-97,-15,-120,35,-87,-124,121,-23,121,-109,52,-55,-1,-12,-82,106,-106,-68,-76,38,65,24,69,-13,-80,77,-56,-27,-59,-11,-95,124,118,78,12,4,44,104,26,50,86,63,-102,20,-69,-10,98,91,-92,-125,29,-42,-75,44,-62,5,17,112,41,26,43,118,88,31,3,-55,103,-3,56,-108,88,-91,-105,-110,72,93,75,81,-80,80,-51,-79,-56,-108,82,-108,-90,-109,55,-16,3,0,-6,-38,122,29,-35,-66,-82,121,111,110,86,90,-32,-59,43,126,6,-116,104,25,26,78,-80,-66,-73,33,60,82,90,26,-5,-24,92,50,-126,-32,56,-29,99,-16,-89,103,85,-1,-111,-119,71,-64,101,-37,51,-55,-96,93,99,91,-7,31,88,-83,-91,99,77,-40,12,-121,-97,103,-98,-55,-111,-86,-29,-67,-97,3,72,-65,9,-62,19,-91,-10,-65,108,-58,-104,33,112,-124,90,16,47,65,53,-57,110,24,-56,83,69,-8,-96,48,-93,-38,-19,-113,-96,57,103,-84,-86,49,48,97,-123,-115,126,58,-34,87,101,-56,-44,84,98,102,-68,-41,117,-73,-46,44,-18,31,-9,-59,120,-96,92,-2,63,-120,72,70,-117,46,78,74,48,25,45,32,-82,17,-10,43,85,-47,82,-51,-42,-107,12,30,-6,-66,-65,32,55,59,-111,-35,-45,57,-7,44,40,92,-112,39,13,80,-63,-17,66,-114,-78,-33,82,-1,5,-106,-54,2,50,60,73,-55,90,93,-59,-62,-35,-6,-36,106,39,-35,-19,-122,41,51,64,-102,-28,40,-35,34,-20,-61,106,-60,124,-9,42,65,-60,-107,-35,-76,-69,-72,-52,122,-62,115,41,59,-72,-111,-39,-70,-21,-56,63,16,38,-101,74,-108,-120,-93,47,97,39,101,50,-126,-107,-83,65,-36,-74,46,67,-48,63,-52,33,50,-68,4,-65,-124,120,-15,-62,-53,77,16,99,-58,-84,55,50,-5,-125,55,-79,-20,-122,8,-107,-52,88,-75,-77,-59,39,29,-127,36,-74,30,86,-68,-89,4,-71,-11,-100,-63,119,-61,53,-53,-90,96,-128,37,31,124,4,61,-56,-111,99,-120,113,87,30,-80,48,-1,10,-38,45,15,-80,30,-68,87,89,-125,100,-78,54,-108,-122,-6,-66,125,-18,98,84,-125,-21,118,26,-34,-72,-101,69,90,-28,-120,22,45,67,-28,126,72,-65,-27,-86,-114,-75,-122,-70,-111,-8,65,81,123,1,37,58,119,-70,-103,-10,91,-31,-30,61,-111,-121,-70,11,53,117,55,65,47,33,-24,76,50,-50,-111,-120,29,10,44,-106,58,50,62,111,76,30,51,39,-53,94,-52,-85,57,-17,-29,127,15,-12,-124,62,-123,-41,-53,106,-78,37,59,-80,-23,35,51,48,62,-124,54,66,7,-44,-43,-12,-18,71,-86,46,84,78,48,-70,119,-57,-122,41,-18,-111,-93,-18,7,20,23,-13,-91,-20,88,83,9,-77,1,106,123,29,98,-107,-75,-74,10,-28,-79,57,-46,60,-7,122,125,-58,-14,117,-31,-51,108,-23,8,-83,-113,1,83,97,-3,-103,-114,63,29,99,101,-68,-89,114,-103,104,28,80,89,72,123,-32,17,-105,0,61,-35,70,-55,-92,46,43,-65,-98,-84,23,70,106,117,-57,-55,-59,101,70,102,-45,53,-61,106,-92,125,20,119,106,-57,-28,36,-114,-18,68,-70,85,-5,-63,74,-38,7,-46,-119,-66,66,64,-116,36,-61,93,1,-44,-120,3,92,-49,-1,-22,-34,127,44,31,108,-24,26,-3,122,-24,-126,99,-61,-62,21,-82,-38,-42,-26,8,91,118,23,-44,75,-42,-45,113,25,-123,108,-22,-124,-16,102,-66,11,-77,61,21,-29,-40,-122,-84,-27,-108,91,43,-79,99,50,10,58,-23,2,25,-6,81,-85,96,-122,-4,24,82,-100,90,83,-119,127,-24,-34,104,48,115,-44,83,73,92,119,-126,56,2,-87,38,-100,-27,107,35,118,16,100,10,24,66,3,-55,-115,-66,65,76,52,42,126,31,-45,-8,-87,27,-40,113,-18,47,-117,-105,123,-77,30,-101,-55,-97,114,-103,57,-34,65,64,-58,-71,49,-38,47,-105,-113,-111,12,57,-19,-62,20,-70,74,59,94,-96,72,41,6,121,7,7,45,-13,-114,-60,114,-64,13,103,0,119,-91,-108,23,-103,56,-123,8,60,-30,-121,96,-82,46,-111,64,-49,103,-54,-15,121,65,-15,4,-80,52,-18,96,-43,57,19,-128,-115,32,-54,91,123,28,-6,95,-45,-29,-88,-124,-8,42,-37,99,106,-83,19,-3,47,-104,-24,-19,-58,-57,-90,-100,-72,64,-109,110,0,-95,-4,-76,41,6,-115,-13,-75,54,-121,-41,-118,98,-118,-76,80,-67,121,-78,-9,-48,34,-54,46,26,-53,-32,43,-33,85,-26,-69,-109,-60,90,-1,91,55,79,31,-69,-66,-81,-22,-102,17,1,125,-14,-68,-127,-59,125,80,-124,72,60,84,-79,3,-10,20,45,-18,-42,-43,28,-95,-39,5,20,1,-30,112,4,10,-54,-73,-103,45,-6,-20,123,-90,-1,-13,-64,59,-54,-123,12,-63,55,75,-80,57,38,-42,-128,74,108,101,-125,-66,-39,108,-75,-6,16,-38,-41,-45,53,-38,-102,-99,-66,88,-76,-53,126,22,-18,5,-114,67,-103,-83,-42,-45,-65,35,-52,34,32,14,-67,-28,38,-88,-60,55,18,-54,75,-71,-83,11,-16,40,71,-3,-107,110,80,67,-49,-61,-7,111,13,-55,-14,-76,-6,11,-32,65,-108,-3,102,88,49,-13,115,83,80,22,12,-36,-38,-51,11,61,-16,-127,33,57,24,-113,117,96,92,116,106,-76,90,-105,43,-63,38,-108,120,82,-101,65,23,39,-16,-11,111,0,-31,95,16,-114,-17,-30,16,2,98,5,123,-18,18,123,89,-91,96,-101,26,-16,-116,-6,-22,120,-79,-13,-128,-22,-66,72,-47,126,71,-57,38,24,68,-28,-114,105,-11,-99,-99,-59,33,34,52,-41,-20,103,-11,117,-57,113,-125,80,-80,126,48,-120,-20,11,121,9,-2,-63,114,36,-93,-3,-25,-36,62,-78,-1,-68,-94,54,-64,57,-126,101,-48,-25,32,-82,-1,64,-31,6,-9,101,-50,-106,93,99,115,-59,74,35,-83,-53,-122,79,-64,111,81,-85,84,-36,-85,30,-18,-69,-27,123,60,-78,-88,101,-6,-39,-25,77,-111,-25,121,-85,83,-88,-30,-81,-32,-36,-122,53,-43,-120,-57,62,-29,121,39,113,-108,110,-56,-48,-77,-30,29,-117,-38,-96,-34,122,-59,-84,55,-59,-32,-55,-115,54,-105,42,-98,-115,-56,85,-117,60,38,115,-118,125,-38,47,-35,100,-5,23,-41,79,-71,-123,-11,-44,-116,86,-31,95,-107,56,-48,-63,85,-98,98,-26,-112,45,-24,-44,116,-31,29,84,-65,-28,54,0,89,10,-99,-18,-118,50,40,-12,102,96,84,20,52,27,-72,101,-111,42,-99,-100,-102,106,-63,-96,32,-77,101,103,-18,-116,-97,42,-126,101,-4,19,-128,60,0,-116,-72,-119,-70,50,45,76,-96,22,-92,52,-9,-25,106,17,-120,-84,36,-7,12,-18,75,-57,-29,7,-73,52,73,-11,74,-102,-127,-58,-103,33,-53,24,8,-87,105,-117,-70,124,-75,114,10,81,-43,-112,115,111,-118,-26,-17,88,30,-19,-29,106,-113,52,-53,68,-127,81,-23,32,-117,116,42,71,-3,109,-88,118,41,-66,89,50,-72,-43,110,15,-109,106,-52,54,-87,102,9,-78,48,-40,97,-94,-48,-103,-114,45,77,39,-87,57,-110,-29,-110,-61,-116,93,-41,93,-9,50,-42,37,-29,-76,-29,-49,-88,-122,-35,67,-57,101,-124,-93,-55,99,99,46,68,-70,91,37,47,50,97,-100,89,-79,75,-102,-90,-42,67,-84,10,-17,29,-121,10,28,95,54,103,-21,-16,-38,-3,-80,-73,95,-29,-41,-116,-92,-88,-104,37,-41,100,33,-77,75,29,-21,107,-51,-18,-122,3,-17,45,1,18,-54,102,98,56,-27,42,-9,-105,38,-117,-32,97,26,-97,-112,21,48,12,76,50,-100,104,102,-105,-101,-73,-109,124,28,42,39,-20,96,-117,101,4,-19,0,-94,-79,-78,-57,17,41,81,-57,123,-76,-107,-58,51,107,11,97,-52,70,36,-13,60,-110,0,17,-66,-84,-70,82,52,-56,-96,61,-36,-59,-43,50,35,61,-11,-8,-64,-119,125,54,111,-62,-18,122,-12,-95,19,-103,82,30,-119,-95,125,-6,-23,-4,-61,-112,-11,94,8,123,-105,-101,-27,43,-73,-119,125,35,121,96,97,-13,73,-37,-32,-97,48,125,72,93,-75,-87,69,123,51,78,-41,-28,126,-28,-63,-80,-73,17,-102,4,-57,-126,-96,73,-109,70,-3,43,3,62,39,-53,104,-48,-30,-104,88,-23,117,83,-111,24,-113,39,9,58,-127,-98,-93,104,-28,38,42,-87,-41,-6,-80,77,124,-1,-13,-17,112,-41,116,111,50,-65,-93,63,94,-110,85,56,37,46,-76,-39,125,111,81,-111,-64,81,-107,42,110,-95,-68,114,-4,80,51,-127,92,68,68,117,92,69,-77,-84,-120,69,62,-32,-27,-55,10,-70,110,97,42,-10,124,29,40,52,61,-34,-16,-113,-12,-121,-70,-71,66,110,123,97,75,-103,1,-98,-98,-113,48,72,17,115,-58,109,-109,67,-56,0,114,49,99,52,-124,110,21,123,23,61,-107,-3,-121,52,77,-41,-80,60,-102,94,-102,73,98,-108,-48,-33,-41,122,60,112,90,-122,-3,-86,36,-78,-46,-29,-51,38,92,-20,43,93,14,-114,45,8,-68,-77,-83,-49,-122,-24,125,101,-12,-14,-70,-118,83,-15,-116,-42,-21,84,-4,68,39,-127,-85,11,66,-13,107,96,-80,-72,-107,-19,-115,-110,122,-19,-34,56,46,-108,-69,94,-116,16,72,-108,-68,26,70,-114,-88,16,-54,-110,-40,-75,-5,69,-83,-110,27,-122,-88,-82,-24,-39,-105,-114,-40,-17,-115,77,107,-20,-58,-122,124,51,7,-31,105,12,74,-77,-100,124,43,39,-4,12,-109,-76,78,-3,-85,-37,-89,49,-26,-97,13,35,-90,70,71,82,13,13,25,122,58,-16,39,105,64,-13,1,-29,127,-72,-63,-3,55,-80,-78,-103,-106,-101,90,72,-118,-127,58,21,116,-29,33,-83,-127,66,-73,76,-63,97,-49,49,6,-10,109,-2,-22,49,48,21,-47,123,97,120,-102,64,-39,-110,119,-7,59,-61,14,-124,-51,3,35,-28,120,-48,109,34,-14,41,-124,-118,23,118,45,-24,-63,89,24,-80,45,66,-54,-119,63,-1,-55,-125,78,108,-64,-86,-110,44,-49,-58,-74,-4,-60,120,-86,45,-52,1,65,23,83,15,-123,112,-52,9,-112,0,42,87,38,-41,-126,-105,34,-21,-17,116,14,-9,97,71,0,-97,-94,92,-76,57,61,53,-85,-93,-32,83,-81,113,-1,88,-88,87,-112,-117,-78,6,-34,-127,-42,-67,-66,-36,-121,42,50,-69,-71,-9,99,-47,-106,113,-71,66,77,-107,52,-93,-62,62,17,-23,20,-121,-109,21,82,-74,-29,-33,-61,40,65,75,77,-108,44,91,76,-68,111,-42,32,109,10,8,64,57,62,84,114,87,33,124,-54,-33,80,-122,-55,-51,-49,96,-3,-81,12,-104,38,-91,-118,-68,69,90,61,49,54,57,91,79,106,-127,-48,-37,36,-57,60,-30,-26,109,-17,12,-76,-103,-32,-92,-38,22,-123,-40,-109,58,26,-41,-106,25,72,-99,-117,-110,74,-86,63,-47,-87,79,112,-103,-19,-87,-10,-15,-12,86,-84,49,38,116,-63,-118,-16,94,-14,89,106,102,-91,-66,33,-125,-112,8,-112,95,-127,111,4,109,0,-68,-59,46,46,90,24,-105,-51,116,102,25,79,-8,-102,81,26,-7,-37,-108,-4,-7,41,-28,-120,102,19,-69,106,-36,88,-24,-113,29,74,-104,59,89,-15,-89,-74,-122,55,2,10,-56,-127,-72,-96,28,-114,60,88,33,75,102,78,-88,74,-46,33,-118,-74,-94,-66,-62,-84,-68,-114,-104,82,15,-120,-49,62,42,124,-124,-7,118,-3,37,-82,-69,39,86,-62,1,19,-105,-6,94,106,11,28,-74,50,-21,-30,79,-112,108,54,37,115,-38,-88,-57,-118,-108,17,-51,-37,112,70,-45,18,-119,36,2,14,0,-94,70,-36,-21,57,97,114,69,-120,-64,123,-3,-84,87,35,-94,-117,17,-87,-27,-95,107,-118,77,-113,3,60,98,-80,-92,62,-13,94,-33,-85,-25,34,-59,-47,-104,21,1,-65,-63,92,66,-104,-3,-24,-108,11,-7,-78,-30,29,-18,31,-107,-111,7,-70,-77,31,21,-52,-9,-16,-102,28,-88,35,-7,-34,-58,-71,-9,48,74,103,104,-79,78,-66,-105,-55,36,37,-61,125,16,-68,-94,37,10,53,-56,47,-83,124,-128,12,65,108,-55,-126,-32,109,113,-29,-81,-38,22,57,46,-15,41,28,-5,-77,123,-120,114,-42,-14,85,-17,-43,-39,2,96,65,33,19,-34,92,61,48,-78,1,37,-90,54,24,78,-105,-27,-15,70,31,47,9,-2,-106,-85,-86,108,-22,-38,21,-113,3,-55,107,-89,48,91,12,-32,98,34,44,-90,1,107,19,26,93,82,80,114,4,106,-1,-110,55,-94,-111,126,-59,-50,-84,-98,60,-57,1,41,78,-100,54,109,83,5,-112,111,-42,-6,123,60,6,69,-99,13,113,85,0,13,88,-15,-25,94,108,-93,-81,48,-95,-10,60,-51,33,-74,119,23,-115,-22,39,67,62,87,-107,79,-4,-91,28,85,40,86,14,13,-54,-89,-121,35,39,16,-56,48,-32,-127,59,123,84,-117,88,-40,99,-65,-70,61,76,46,47,101,-107,-82,33,-7,10,-126,-126,90,21,-81,-20,15,-28,59,122,-68,69,-46,24,-24,69,111,2,-96,-108,82,26,50,85,-14,-26,-112,45,-100,-100,-92,63,-112,47,13,-23,-24,-85,52,18,-103,91,93,29,37,64,126,-80,115,70,63,-116,40,-49,-86,4,43,-31,-21,-128,58,53,-106,88,-78,-59,-6,54,94,-48,-39,117,58,-68,-28,122,-69,-35,-11,25,-26,87,96,46,20,121,-79,-122,-3,108,-62,-23,-44,16,-71,19,125,-30,26,1,-89,103,122,52,31,-17,86,-50,-111,-45,-76,-25,89,97,-109,-95,72,114,-107,59,84,75,-92,-36,51,-70,-73,-1,71,79,102,-113,5,-1,-86,101,85,127,83,40,87,120,71,-122,43,-9,118,-34,64,-103,50,-90,-87,17,-125,99,115,-19,-42,-30,60,-67,-103,-113,-9,-84,18,114,75,-2,-50,-109,96,-53,58,-4,-1,15,-122,-113,48,-82,107,127,36,-100,22,73,28,-47,-26,82,-61,47,-28,77,-58,-92,-49,-124,90,44,-88,-37,-28,119,-122,-112,-41,6,127,-31,-90,11,-113,42,3,-53,-88,91,-21,120,-116,-65,-114,101,-121,26,93,-101,124,5,112,-95,65,10,-31,-7,7,-90,93,-60,24,2,-94,70,88,-93,-18,-114,74,69,25,8,11,-64,82,123,-61,6,-96,69,66,15,-14,90,33,-34,-29,0,83,-80,-22,-58,-102,-56,-76,-31,-62,-66,116,-92,-13,70,-101,95,62,21,62,-55,53,-60,100,37,-75,4,-81,-105,-42,45,-54,81,108,52,89,74,11,-79,-85,-72,88,-122,18,-1,125,-4,-72,-119,-63,44,14,104,20,-35,-86,-99,-27,96,-117,15,-8,88,23,-106,65,-112,-1,67,124,-18,-66,84,50,-88,-116,-116,-82,58,-105,-9,-50,-6,118,-26,55,-105,-79,100,-17,56,-14,53,7,-65,16,-119,86,51,-82,86,-29,101,-11,36,93,-37,64,87,-92,-84,-30,-12,-54,93,-123,-26,-62,101,111,-30,17,-1,27,123,-107,18,-28,-31,-27,-20,-59,37,-77,102,47,68,71,64,-7,-62,-82,49,-46,-70,-15,-103,-59,123,-68,-11,-62,19,-50,-27,61,-94,-122,-120,52,119,55,26,-19,108,62,-68,-31,123,66,118,65,9,109,122,-55,10,119,58,-70,-112,34,18,-29,108,-53,-92,-32,-80,-80,-43,36,105,-102,-47,-96,-16,7,-80,99,71,-36,20,77,-118,-67,-50,43,45,74,-102,68,-100,19,119,-29,42,82,113,46,90,75,117,-110,-11,-100,1,-105,-61,-48,-112,45,103,-51,-6,-17,43,-109,4,81,110,77,-39,-96,77,-26,-89,14,-125,-90,-106,42,127,-113,70,21,-62,22,-96,-100,-104,52,77,82,-96,-12,-64,-96,-46,-27,-1,-83,-56,33,-57,98,-64,31,-8,-3,-105,62,68,74,-90,24,-87,-97,-33,112,-46,-65,64,97,-79,0,96,45,-19,34,104,120,-60,-86,98,126,-98,17,23,-19,-11,-85,-15,9,111,-46,87,-117,-51,-2,-110,-45,-127,-102,-23,37,-128,6,119,124,-118,34,-26,-37,-118,-95,-109,-126,18,97,-97,99,96,81,86,7,82,99,86,4,67,-78,25,25,118,-40,26,-11,96,48,-38,-37,114,-14,72,-122,89,17,86,-5,-21,32,119,-86,102,88,123,-94,-62,30,-120,-22,31,74,120,36,81,-105,-16,13,74,88,52,-115,102,51,126,4,-70,-1,38,-8,56,0,63,15,79,66,116,-52,-126,56,90,-10,35,77,-53,55,-124,-14,-84,50,-78,-71,4,95,35,-83,-120,37,-3,94,-110,-102,64,-50,-64,-56,-69,11,25,-3,-101,29,0,-77,1,-38,116,121,38,89,-38,27,-26,61,-31,32,50,73,71,-102,3,-62,81,35,-22,19,-2,-22,47,49,-101,-46,-96,127,-35,-116,20,8,105,-100,68,102,-23,109,10,-100,-18,126,-49,122,56,-72,-118,4,110,-118,44,-115,61,-87,60,60,90,117,-16,121,-26,-127,107,100,-43,-29,-60,119,74,-60,116,-29,30,-114,57,11,-88,-4,-76,27,-56,25,-7,-98,40,-29,76,90,92,-37,35,-45,-47,-57,-53,46,125,-75,107,-100,74,98,83,-6,23,18,36,-53,127,127,-5,122,-85,116,-27,-18,-55,89,-28,52,75,36,124,-126,113,-111,11,44,-9,87,55,86,-123,108,127,-85,73,23,-32,74,94,63,117,16,-21,86,-10,-77,54,97,55,-126,93,-63,-127,-104,13,-79,41,84,-63,-87,105,-89,-97,111,-89,-73,-1,-30,42,-16,-58,-64,-97,-36,-48,-20,23,82,126,-41,13,31,-101,-74,45,120,-41,76,-22,6,20,-25,87,-5,58,69,51,-108,-53,0,-70,109,-66,-111,84,-45,-91,62,2,44,-98,-13,58,-46,-106,92,51,124,-87,119,20,11,118,127,15,28,9,-90,-93,24,67,-100,89,-74,-105,-56,-78,-28,-48,-83,-63,-57,-57,34,-7,-21,32,61,-13,-71,9,-53,63,124,-83,2,28,-90,-10,-6,75,-35,-112,-114,24,-1,64,112,111,-93,-59,19,-49,88,34,76,-22,96,60,-96,-72,105,-119,-83,-70,0,99,-20,70,27,-82,-61,-8,-101,24,2,-98,39,40,45,-123,121,29,12,41,86,-12,-110,8,-68,76,-52,-81,-112,-69,36,-22,86,-97,9,98,-64,117,-1,-119,90,-39,-107,-41,-114,100,-16,83,-120,76,118,-115,45,79,33,80,30,-46,-46,-52,73,61,-64,21,106,-112,55,18,-65,20,16,44,-119,90,-103,-98,30,-49,104,-7,99,-125,-104,26,13,-121,-26,59,-46,58,-68,-39,-8,-114,38,-87,-121,-93,-77,-67,29,63,-11,9,-1,-73,8,-64,50,56,-87,15,-32,0,-117,20,-42,45,84,123,55,31,24,22,-92,122,-45,-82,14,-2,112,74,-124,94,18,-18,-39,-102,-95,-20,71,-58,116,-54,-77,-116,103,37,97,74,67,-114,-52,-109,116,-65,5,68,-57,70,34,-117,87,-65,-59,-14,88,64,3,-109,25,11,-82,122,-104,0,70,-6,-115,105,76,-113,11,41,-76,97,-56,103,-78,-87,22,-93,-101,-1,48,-52,51,17,116,62,18,-102,-51,61,-2,125,8,-117,-40,-100,121,-49,-77,-46,-38,-99,14,101,-25,111,39,16,-96,-4,-95,21,-96,38,-70,70,-128,-3,111,-73,84,-2,-92,7,118,58,5,-111,-17,45,-79,-28,22,-127,-61,-8,107,-97,-8,-1,6,84,-60,52,-15,23,-92,122,52,116,-65,5,127,42,114,121,35,2,-55,-63,9,-121,3,75,-99,15,62,-125,-108,-126,126,-28,69,-29,-10,8,-101,47,61,-40,21,16,55,67,127,-58,-23,-103,-113,-22,3,-42,-68,-86,-86,-60,115,-52,-40,-74,54,81,-112,-55,-50,123,27,-117,-3,-117,-49,101,-40,47,17,23,67,-29,127,-3,114,34,62,-73,126,13,111,-18,-6,-24,-95,-63,113,105,-79,125,-7,-119,93,125,43,-51,-18,36,44,-86,92,-60,-42,28,14,-31,47,-121,-92,89,73,-111,-102,38,-88,32,-74,100,101,55,-126,68,33,40,-23,82,-22,-103,-32,-57,57,-99,-53,-87,-68,85,115,23,-41,14,80,-44,127,27,-2,8,122,-89,118,-19,-31,-43,-98,98,108,-6,114,-29,-61,78,-12,-9,-77,41,22,60,-54,62,-116,121,-69,5,22,-85,-18,-74,-83,108,-125,-116,-119,97,-115,100,27,121,76,-43,10,-109,90,-16,-103,-124,-110,-8,16,8,13,12,-41,28,-14,-102,65,8,105,82,-44,-64,20,11,-94,-22,99,69,-88,-76,8,85,-9,-67,86,70,-59,80,-19,-79,-17,68,15,3,18,-92,-63,-44,-78,-81,28,70,-57,-65,-71,-119,106,31,-24,82,-15,-33,122,-55,-77,4,-53,-121,-57,-61,-7,54,26,-71,125,126,18,-108,-84,-55,-85,8,-45,-43,117,-51,-12,-44,-37,-3,-88,-76,92,-19,78,98,-33,4,69,-21,74,-28,27,127,-126,-45,52,38,-111,-84,-8,-3,-2,-96,57,37,53,-81,-77,-21,-44,-120,27,109,-28,46,121,42,-26,-5,68,-77,78,114,-41,-9,-24,-19,-60,42,-66,-119,-42,-94,-23,103,80,98,-98,114,30,-88,-88,-29,-115,38,-43,15,-46,30,-15,9,101,-111,67,107,-77,-80,-76,49,-52,-90,52,-116,42,49,-43,92,45,125,-98,93,-107,-16,45,91,80,-15,99,-40,26,127,-108,62,91,-87,91,88,-62,121,93,81,-17,-82,47,-72,-34,-116,2,-63,-43,-73,49,3,63,-66,-61,-13,115,-115,111,-50,-127,-49,18,54,-96,-28,-68,65,-104,82,97,47,127,-2,-55,-126,-89,-29,81,72,5,-107,-5,61,-30,22,-38,-56,-4,-73,-58,-84,-69,27,80,-32,47,84,62,-10,-18,99,74,18,-44,-117,-86,-27,64,14,-71,-69,-49,-123,-98,31,110,111,-55,104,-15,62,22,52,-128,63,53,51,-79,1,6,-42,113,-110,-18,-11,-115,123,108,101,30,121,70,86,107,-123,-38,104,73,-14,-90,-82,121,64,-1,120,-91,84,58,119,-15,100,-110,-39,38,-42,78,102,95,-19,108,-9,9,-121,78,42,-29,77,37,-97,-98,-79,64,65,-105,-24,60,85,-74,-105,88,34,-1,-32,-96,103,-108,125,-91,6,-16,108,108,-106,-108,-97,-41,-25,-82,24,-70,88,-94,-72,-54,25,-58,-76,-21,-84,20,83,-42,46,48,-89,15,61,-92,127,-117,-96,2,-30,83,-122,34,-108,54,30,-15,-62,11,-95,-116,-41,-123,64,75,47,79,73,41,-10,14,-95,-49,-73,-20,-55,-105,97,-29,-12,42,-113,35,-97,36,78,117,-121,-41,127,112,-41,-57,-55,-32,35,13,-94,-43,16,98,-51,-12,123,110,113,126,-78,70,-49,-38,-3,76,16,-13,112,84,6,72,116,82,-113,122,-119,-56,77,48,-75,-2,52,-84,-48,75,-57,-76,99,-3,-3,121,-29,82,96,15,-22,-24,19,-82,84,-74,-18,53,95,16,-91,-125,99,-37,113,-95,-49,33,84,-50,42,8,76,30,45,65,69,26,78,-18,9,59,-65,102,-15,35,119,76,-36,-48,110,8,52,-51,-74,-63,-31,87,103,-80,-127,122,-20,70,-114,-104,100,118,50,43,9,-108,106,114,-81,45,80,55,-47,125,-48,99,18,24,112,-97,123,19,6,-109,-20,-37,26,39,-39,110,62,84,-1,-44,7,-45,57,16,-29,98,104,95,87,-125,6,-125,110,-114,47,77,63,-33,-2,46,27,-2,111,-111,44,101,-66,-20,51,-16,5,-112,91,-86,-26,-86,103,124,78,-79,61,16,-34,41,52,93,23,-89,-120,36,114,53,34,51,-49,0,119,37,-14,54,-45,-32,120,-94,31,-98,-51,34,-80,-5,120,-28,-107,-56,-127,52,13,79,-1,-37,-50,-76,116,125,-102,-128,-48,-74,31,90,-125,-35,109,16,-78,-107,-113,26,-108,-10,-58,97,62,22,-58,-60,126,19,51,-91,-71,84,107,3,115,29,-88,-32,-1,1,-19,-33,120,108,-66,61,93,-109,-99,-34,9,81,-128,45,-1,-79,-97,-63,97,86,-28,-99,-10,-11,-65,-117,8,31,57,-19,3,-31,126,117,-88,48,-107,110,-44,67,39,65,120,-1,-31,-57,-38,79,8,-110,59,43,32,-59,-6,86,-63,-13,-22,33,-15,17,-44,-122,-18,65,109,79,1,34,-41,-73,59,-65,15,-52,-68,-125,-62,-100,-106,42,90,61,41,120,104,33,115,22,-7,31,49,-30,-34,43,95,-128,33,122,87,70,-125,-71,-94,74,26,105,124,-86,64,60,-36,-26,51,63,-36,8,93,97,111,-109,24,13,113,76,58,117,39,-58,5,52,104,-7,-105,121,-41,98,-5,-47,-105,70,-66,77,-109,42,-21,5,4,31,74,48,-122,79,54,-52,-86,96,38,-66,127,-39,-107,-79,71,40,46,52,-106,69,-107,100,-17,-117,-121,92,113,-118,82,-29,75,-17,1,22,-81,54,-50,-51,61,100,-23,-61,15,-30,90,81,-54,-120,-31,-102,104,37,30,74,27,124,20,-86,124,71,-59,-23,108,-64,22,62,15,69,79,-36,-8,3,-26,-52,-46,90,101,118,-41,-88,21,-118,102,-44,16,-14,117,-101,116,-40,114,-108,-67,-116,78,114,-91,72,2,-65,-75,-105,40,-123,117,45,118,-17,100,-63,52,73,92,121,103,90,-119,-38,118,91,29,-102,-23,69,30,-107,-12,-36,124,91,-85,76,-86,-37,122,-120,-63,-20,114,46,-37,-57,-83,34,83,-123,103,-69,-26,117,75,-107,61,15,30,-84,59,-103,125,44,52,22,39,19,-31,-53,-112,81,42,-18,-86,65,83,48,-114,94,-97,-85,103,79,26,-8,86,-98,90,93,-55,110,55,-89,-119,104,-56,-118,-90,20,110,114,-20,-80,109,-26,-20,19,15,-100,-68,-70,42,38,-21,107,35,40,79,41,100,22,-51,-25,49,33,125,70,33,66,38,-93,-97,-34,-47,-49,-23,120,95,120,47,6,77,109,-70,-13,-1,84,-109,-36,108,-83,3,38,11,40,108,106,-94,-86,25,13,-15,-101,-51,2,7,112,-99,116,-35,-85,-46,79,-24,30,7,75,54,-115,16,-86,-97,18,-22,111,9,7,-66,-8,-36,87,83,63,65,11,-80,-19,95,95,-20,109,-32,-60,-103,-98,-113,-75,63,59,-110,-74,87,25,66,-38,-82,36,100,-52,-66,-91,118,77,26,-7,76,-21,102,24,-45,-84,85,-120,47,20,-95,50,-77,54,-103,87,20,-123,43,-10,-48,82,25,-124,-121,42,-68,106,25,34,-21,-103,-33,-22,105,-6,-51,-15,-60,28,-56,-69,24,-9,91,-95,85,70,-116,44,-8,61,-48,73,-48,82,-5,17,-85,-57,-3,-46,-39,14,-20,-3,-47,86,28,82,-74,-6,51,-28,54,-124,5,46,73,100,125,1,114,-61,22,106,32,56,62,46,-51,97,-73,-91,-5,-10,82,-12,-17,44,91,-24,3,54,126,-84,-25,100,-14,-69,43,17,-49,68,30,-46,25,109,-60,51,-24,-59,15,112,113,88,-91,-18,-115,114,114,-50,92,-120,72,109,-41,-68,-68,-65,-17,83,48,46,-48,-87,-72,22,2,-48,-55,47,-25,112,-56,20,127,-109,-128,87,-115,-102,-110,-50,53,82,-72,-126,5,-72,-97,124,-52,-78,43,63,-79,-5,38,68,-18,93,122,43,88,5,100,56,-101,43,65,65,-25,92,-61,20,61,88,43,-30,-35,-54,-28,-1,66,57,-46,-113,-28,-126,62,-18,9,56,-52,-7,26,5,-32,13,-42,101,113,89,58,-104,-112,89,-1,-8,-93,-37,-62,93,28,4,78,-69,43,-104,-114,92,72,-62,-62,-44,-109,39,78,-13,79,32,85,-108,-50,-66,31,-46,92,-97,67,102,-8,0,14,-121,-102,-120,-67,66,125,-25,24,89,83,-78,77,36,-20,-25,1,41,-13,-13,-118,-76,108,-19,56,-117,55,68,119,50,-17,-83,-99,1,20,-38,-23,117,-9,-81,17,57,-11,-53,-59,-42,-25,97,-117,-74,30,-24,43,123,-78,84,94,62,-69,-78,121,24,-68,-10,49,76,28,-116,-5,-114,-124,94,59,-109,33,-65,-63,-107,-87,-95,-108,17,-26,48,-2,-128,-63,44,-85,-60,-50,-32,-80,-67,-77,-95,18,-126,-99,77,5,-122,97,-25,-64,9,-110,-104,114,-41,-51,-120,102,-109,67,65,20,3,4,90,-11,67,-114,-55,100,26,1,47,24,84,-99,113,-48,-128,-82,-89,-38,-40,24,-99,-3,125,127,-5,47,-114,25,7,49,-13,-14,-45,112,-73,-69,75,56,-70,71,56,-59,46,-72,-20,64,120,46,116,-56,-18,-55,60,-36,70,-60,112,72,34,-119,-7,115,92,85,-56,-38,-46,88,69,86,106,53,-9,-107,19,-19,-122,85,67,-50,-88,-50,83,14,112,63,108,58,-51,-115,113,108,-19,-80,14,-6,63,-22,112,-123,34,6,-4,111,73,-8,99,-28,26,97,-31,-105,-114,-21,-5,43,124,111,102,-26,36,-119,-58,64,-62,-74,-119,-65,121,-63,-49,96,-24,49,-88,6,-8,-29,-22,11,57,114,50,13,122,-110,79,-20,74,104,-66,-15,56,-50,-45,-92,-118,-77,37,-104,-86,-78,-95,-114,75,-9,114,10,14,80,101,-95,65,-24,84,-29,71,-58,20,70,-108,65,82,95,-8,88,54,83,-2,62,-42,-72,81,-37,98,-108,-79,66,35,82,-117,-52,50,-36,-124,-60,18,-12,77,30,-74,-74,-104,-111,43,-57,108,43,70,52,-67,28,72,72,96,-120,93,125,98,107,73,39,81,-38,-115,77,-77,53,-56,39,101,-53,-113,-118,-57,106,-60,-93,18,-44,107,109,-39,63,-51,94,-94,43,115,15,-67,51,-21,30,-22,94,6,126,95,-38,22,106,23,-10,-95,-80,-102,-46,-98,-84,-3,-37,58,44,69,-8,-124,35,32,-2,-74,-19,101,-118,-88,-30,-106,-41,93,-29,-25,98,-96,-111,90,-37,-15,55,47,-42,-31,-5,-111,-59,61,-52,40,-114,-77,-36,-76,112,-73,-63,-62,-96,115,-90,-45,-3,-19,-7,35,-108,-58,60,-107,15,-121,20,-53,95,-53,27,11,-103,-108,122,-85,83,84,125,-60,-109,66,-3,35,127,-119,-32,-86,-92,55,-18,22,60,-97,-68,-1,-66,-66,-80,-12,-19,-52,19,53,-75,106,-25,-95,-91,12,41,102,-74,-118,-73,3,77,-29,32,-69,-45,-86,-112,85,-55,50,81,56,-29,13,-18,71,101,84,-51,-11,57,-88,-79,-65,120,-32,47,59,51,32,8,79,-65,-16,-126,-111,-116,16,-4,127,-59,111,94,-71,110,13,0,57,-108,122,-92,9,-5,64,67,73,-38,-120,-26,101,-110,23,-55,-12,-33,-18,-78,62,6,-59,-103,64,44,6,-99,59,-67,59,104,28,-93,-13,-58,-12,12,71,111,-97,-62,-24,-45,64,-126,68,22,89,51,-39,-93,-123,13,39,-128,103,50,92,-8,19,88,1,-60,-114,-50,43,16,-25,58,-59,60,-99,69,-35,69,82,24,102,49,28,30,-118,89,89,-42,-54,-108,39,-52,113,-38,-80,25,113,27,-37,74,-60,14,-117,-39,-90,-24,26,-8,-61,12,84,-44,-30,-36,-121,-110,-121,-101,52,-69,-83,-116,-14,-116,50,55,-85,97,-90,-47,-30,-42,-124,-53,85,-89,-22,30,-89,38,-125,-60,80,103,21,6,111,-48,124,118,66,71,4,-21,-46,82,99,61,-4,-25,-43,-32,86,-61,96,-55,107,6,-60,84,37,39,4,-66,-14,7,7,-61,1,47,70,-107,-44,61,-17,-69,-21,4,-39,55,-96,2,-19,-112,20,99,102,74,-118,113,-4,-75,5,102,51,-25,110,-69,-106,-61,-9,-115,-74,92,99,67,-49,-60,-67,-73,104,-22,21,-70,-18,-103,-119,-75,11,-118,-81,65,-53,-40,40,101,6,-106,-54,-124,30,-71,78,-77,31,-39,45,73,-38,-1,-82,17,-3,49,-76,-16,120,-90,-101,-68,53,-112,84,-35,-94,78,-2,84,-22,-94,-38,-71,59,126,-71,0,-71,-65,7,-29,-30,13,-77,110,-48,-128,104,-99,79,-100,-43,53,23,-18,-7,-65,-119,-104,-7,49,113,59,-10,3,66,-16,93,-42,5,-128,-20,-102,-51,-21,72,109,92,-122,21,-18,122,12,-95,40,-116,-67,16,120,-47,52,46,71,-33,-50,11,111,-72,87,-32,-123,-38,50,64,-32,115,-7,-108,-90,-3,10,-93,115,52,-50,38,96,-60,-55,-35,-100,50,37,-58,-6,-45,-65,95,-47,62,-91,53,6,-3,87,70,-120,-36,-40,-112,69,-25,0,-59,84,17,-116,-40,52,-127,35,54,-123,-10,-28,-65,-32,-99,-23,76,61,-125,-47,76,-65,25,90,5,81,-110,51,127,-76,-117,-39,-116,-2,-119,17,98,-16,-48,-3,9,-116,80,-126,54,40,93,-126,-5,72,81,-23,83,-82,113,-62,-10,78,104,110,-65,-103,-50,-90,-30,74,-121,42,-29,-117,-4,81,-69,-81,-64,-80,-63,-56,-16,-87,35,-85,-37,60,-25,43,91,91,-105,-38,-51,-101,-42,31,64,26,0,-97,45,-4,-14,-127,38,77,-72,38,-115,125,-114,-103,104,-6,-39,-13,45,-13,-82,-70,-112,-77,65,-110,-87,6,-76,-68,-41,-48,124,67,-36,1,40,-76,-12,-114,-58,-67,-58,-7,106,-88,-41,54,-32,-71,-68,-83,46,32,3,-33,-65,126,-114,-123,25,57,87,-81,-2,98,33,80,-26,37,-24,6,-10,-55,75,-42,-50,88,-98,110,-80,100,-122,-2,116,-31,-62,-51,-126,118,-81,-126,-55,-26,110,63,-48,-111,-13,-26,-17,15,-51,-44,76,14,95,-33,-12,-127,83,-43,36,-109,43,22,37,-55,9,-5,-50,-26,13,-99,-71,117,55,51,110,7,7,3,45,47,-37,103,111,-7,44,-1,99,-62,69,43,8,-103,127,27,74,124,-77,-62,-43,29,-126,26,65,70,112,82,-124,75,103,10,35,1,17,-106,-111,-51,-36,-128,-47,71,-27,-70,10,-87,34,-77,24,59,25,119,-93,112,56,71,-61,-36,23,11,-125,-56,-88,-6,-110,-92,-45,7,