{"acc_weights":[-28,83,-90,2,-104,-108,103,97,49,-66,60,120,26,33,-78,7,-126,-91,-27,21,76,-43,112,-75,-32,-71,-65,36,12,-120,106,-84,-93,-91,-14,27,-42,-2,32,-96,21,55,34,44,-11,36,-115,-108,27,-125,-66,34,2,-29,-24,-97,-58,98,-116,34,82,-88,121,-74,-105,72,-123,-87,-5,-115,82,83,-34,-112,38,108,-43,-69,71,-93,125,120,-42,111,-55,-35,-109,-20,-119,51,-62,-77,7,-33,56,-1,-68,50,78,-46,-42,-53,30,-48,-98,39,-116,48,75,-120,58,116,119,45,94,41,-120,19,-121,43,-76,120,-63,-85,16,-76,-60,-19,-59,50,126,22,38,55,-15,-88,32,-54,8,-30,-18,97,-11,-51,78,5,88,-30,63,127,91,-24,103,85,-105,-126,-14,-54,21,-84,68,45,21,-21,-114,-49,-32,-37,5,-63,93,19,-35,48,110,-64,-112,47,-80,97,93,37,-99,30,-11,113,104,123,101,95,-45,91,-27,57,64,-51,-36,14,52,-90,1,91,5,4,66,54,103,-86,-105,-42,110,-20,44,79,57,-20,-25,115,-104,8,98,67,40,72,94,88,80,119,18,106,-64,7,-71,-120,-8,-11,85,116,-26,-71,-103,-32,-106,-72,-85,7,54,-110,-101,-25,-106,67,4,83,-16,-126,-92,44,-99,61,-6,-67,-47,127,39,27,-86,40,91,72,-99,-30,-49,55,-46,62,-90,97,-23,-61,47,-60,-78,17,-8,50,-12,-54,11,-66,65,-23,14,51,-10,-127,122,13,91,24,55,60,2,-3,15,78,-69,116,83,7,-43,37,-89,-84,-76,-100,68,31,-12,-55,115,80,-120,61,49,-48,41,55,-64,-15,114,89,-45,-13,56,-60,-94,108,26,-39,-93,21,-106,-80,-101,-73,-18,3,116,-16,45,-46,-83,96,-46,110,41,-56,50,38,66,-16,93,25,-18,59,-22,23,80,86,-41,85,97,-102,-87,-10,4,-19,31,120,5,90,-101,41,-1,-69,-122,86,-52,28,-64,56,55,57,-1,-43,-34,116,-125,-125,21,-23,30,113,0,-46,-95,-107,-38,-73,11,-81,102,29,-69,-40,-105,-102,24,-66,-97,-49,105,-71,119,28,107,-67,21,-9,45,33,-6,76,-88,12,-124,16,-7,10,74,2,59,-34,78,96,71,-45,21,46,-35,46,-70,-112,64,-16,-119,-77,-42,21,53,106,62,-93,125,-2,79,-110,-70,-116,111,1,-71,69,-65,-70,-7,107,-80,-54,1,17,31,52,-101,38,-93,-48,126,-41,10,32,-38,-51,2,106,-70,115,-38,-92,36,94,-28,-31,46,39,81,-20,-99,66,-87,-66,13,-58,-59,69,49,72,-73,32,-63,-79,109,26,-73,62,95,-37,9,-108,127,-105,54,86,-72,90,-103,-1,33,112,-87,8,38,-58,-40,127,-51,32,90,124,48,22,8,-40,27,126,-107,-119,29,21,103,-2,54,-86,-50,7,-121,31,94,47,76,51,91,-17,-87,-13,69,-72,-49,-39,-96,110,-98,41,99,-30,-117,-16,-48,53,38,64,-87,-106,6,33,-98,46,30,92,-24,-15,118,76,95,84,-25,39,16,23,-97,-105,-31,119,-42,15,-105,48,91,118,48,104,-76,-70,-89,89,-64,-40,-74,-56,-98,124,80,11,121,-12,-120,12,15,60,-36,-9,-121,-34,45,82,28,-32,-84,-78,42,87,-84,81,106,115,-36,79,57,120,103,-99,32,-100,-100,-74,-32,1,-90,-1,37,-75,-46,87,106,-79,29,-15,88,-116,-96,18,124,14,59,-110,-10,35,-28,85,-61,18,113,34,62,-57,-87,66,-88,23,50,-61,95,-48,-6,-11,60,-65,-13,109,104,3,-88,-90,-62,27,-99,-10,4,67,27,-92,-93,-3,16,2,0,-117,-127,30,79,4,-53,-76,122,-26,13,55,-24,-76,98,73,-78,-79,103,6,-23,-61,7,-72,-110,-63,2,-36,-40,-94,91,-10,-42,84,-100,96,61,-57,-123,125,-3,-71,46,97,-20,-24,-37,-22,91,31,-10,-43,123,75,24,-51,-29,22,120,13,-96,-123,75,0,-110,109,53,88,104,-91,-89,70,-57,102,-69,-39,-8,71,-53,34,89,-40,11,-33,-105,-32,-73,117,89,0,-112,54,92,-80,-59,-11,-2,80,-18,-28,-107,26,121,5,100,31,56,62,-5,-28,113,-19,15,-106,55,79,-49,-72,-71,60,111,12,-25,70,-80,-50,-44,-57,-18,-115,101,-90,-118,-115,120,-54,-61,-65,-13,52,-58,76,-2,-64,-20,48,-108,1,26,-76,-15,-42,-69,-55,-88,-115,16,36,42,110,119,110,-30,-59,-6,-49,82,-5,5,-114,-125,-47,7,65,65,88,-27,-70,60,-96,42,43,-19,-108,64,124,73,-73,-88,-50,57,-8,109,-37,39,6,-60,-86,57,0,57,64,114,30,-33,-48,-58,51,52,-12,-8,-62,-108,17,78,59,-111,94,112,-22,-64,29,-96,-14,66,-83,66,-36,90,-102,65,-26,122,-20,-111,-86,-55,0,-93,119,-36,-22,-86,68,-72,-59,10,28,-31,36,19,-82,-110,-25,-105,117,17,-114,-13,96,-66,108,-70,50,-68,-87,122,21,3,-85,-52,-89,34,21,-94,-12,97,84,66,16,120,53,4,80,27,98,-107,-44,7,-1,8,-107,15,-72,-43,-53,71,-115,112,85,-107,-58,5,-87,100,7,108,-90,-52,67,63,13,111,126,4,32,-112,119,96,-81,-48,7,26,-56,13,-78,87,-84,-73,-33,9,105,2,-124,-56,107,107,64,-101,77,-102,-43,122,-77,102,-37,7,-84,69,-38,70,-94,49,-61,-11,-87,-54,-85,103,-69,-79,-41,-84,-11,-94,-85,-49,-83,-79,-97,76,-25,-28,81,-106,-69,-84,-47,-66,126,23,86,-20,94,-23,112,-81,-36,-69,-97,-16,-13,110,8,-14,43,-36,-30,-117,-40,113,46,119,-51,81,-116,58,116,8,119,125,48,-82,-127,72,81,33,89,50,45,-91,-22,-57,100,121,91,-98,20,-100,31,75,103,-111,67,115,-95,79,127,-70,2,63,126,-90,-24,118,31,98,29,25,-56,74,5,126,93,27,2,122,32,-118,43,21,49,-113,47,79,-109,57,42,78,-110,90,69,-117,-52,63,-17,-65,114,17,46,33,3,34,-122,124,-33,10,5,79,117,22,47,-8,-106,100,-106,-73,11,-71,73,42,-87,42,127,-48,-81,76,-8,99,76,-67,87,97,63,-70,105,-60,-33,67,-4,-4,124,-128,110,-87,62,39,-66,36,-96,72,71,124,-107,-35,-41,82,24,116,34,-26,36,-115,-126,105,-38,-119,-123,45,-47,100,4,38,117,-54,-85,19,-86,-66,25,-88,-3,17,85,-1,21,-82,111,-69,91,-57,31,118,-27,-4,43,-105,-22,-50,-71,75,108,-111,16,-45,21,-101,-11,-68,-4,19,44,69,98,-33,124,74,-39,-30,54,-102,119,-120,-9,-3,71,46,-123,-104,55,97,23,-7,-21,-119,-112,-30,7,-56,-11,97,-57,-68,-109,-100,-38,-61,93,101,105,39,-124,24,-33,38,81,53,11,77,125,14,28,127,122,16,127,-30,-45,-47,-88,-84,-100,127,124,45,-16,38,-96,-89,54,-14,-60,-114,-76,19,111,93,92,72,-124,3,8,30,82,-23,56,-13,25,127,21,55,-65,51,84,-101,83,30,115,96,12,11,85,93,115,-44,50,-112,-105,67,19,125,-14,-28,71,-26,-2,-124,-102,-93,-20,-95,98,-48,-17,-70,110,-49,31,-35,-42,-111,-2,-67,-88,-128,92,-73,-126,77,3,37,-30,-3,-37,59,-23,-124,-72,90,73,72,-103,-62,-106,-64,-47,-113,23,34,127,95,-30,24,-10,37,-79,-114,73,-6,-90,80,-98,-85,77,1,15,91,35,65,-93,-77,110,-107,-95,76,54,115,48,91,-111,-120,36,-18,35,-65,58,-84,18,107,-13,-17,-46,-87,-20,-124,111,-99,-40,-33,-127,2,14,14,99,-18,-125,73,-109,-30,-107,34,-12,-58,-22,-110,-47,29,-109,72,-95,48,-79,-62,116,-14,-90,122,-81,-75,120,-22,-34,30,108,4,-88,49,36,83,-125,127,-108,-23,106,-35,-22,113,78,-21,14,84,117,97,-58,-95,50,81,14,89,2,51,43,-12,-84,71,74,-110,63,23,120,64,-81,-44,-119,-99,-28,115,-63,-84,-46,4,-97,90,-21,47,-81,18,87,25,-78,-50,78,127,127,-50,-29,125,21,59,102,-123,-57,-29,70,75,-21,-111,30,-72,50,27,-66,119,-35,56,-51,94,-48,126,-100,91,25,89,79,45,-62,-57,94,41,2,-118,-10,54,-90,-77,39,-21,125,-12,80,80,-34,92,-121,46,-128,-25,119,-40,76,102,73,-91,-84,7,-107,-22,-6,28,41,123,23,10,9,-60,42,19,116,-38,-111,-59,-66,41,-76,10,-62,-29,81,19,74,-122,2,126,-83,-103,-35,104,101,-127,-19,-104,121,-9,-75,-126,10,96,25,70,62,21,100,46,19,-18,59,1,127,125,-38,-105,16,98,115,45,-72,75,-83,-39,-48,-116,-82,-72,-61,124,-17,115,-26,2,-34,-102,9,22,114,59,100,-60,59,107,92,56,32,-52,117,103,48,-114,0,91,-23,33,-38,42,4,-76,50,43,72,23,-89,-84,5,124,119,93,-13,-18,-115,45,127,40,41,-26,74,59,65,-57,-23,-111,107,-104,-40,106,-14,-103,127,-107,102,116,77,51,-128,6,76,87,-87,-95,70,-68,122,-27,-45,17,-11,-107,88,89,125,114,-120,-90,-44,-39,102,-27,58,19,-90,-113,-24,16,-53,18,-70,-26,44,20,-19,-89,-25,-29,92,80,20,-41,-16,-32,-7,71,85,68,89,79,-18,124,100,126,-76,65,-19,110,62,101,26,-59,-100,-21,-66,44,37,-106,-85,27,105,88,-107,-32,116,79,-81,-14,50,79,-31,125,-55,115,-3,-72,-51,-126,-104,-2,-125,38,-11,36,-11,36,-48,84,-33,-34,14,98,-54,28,-53,-42,-110,-33,22,-43,53,81,125,-50,-118,-67,120,-3,53,-18,95,45,118,-68,118,53,12,-76,-96,-102,31,-58,-118,-25,-54,68,-59,-40,-33,24,106,-103,54,-40,49,29,101,102,-91,-27,42,90,51,57,-41,-95,125,4,11,-74,94,-105,-26,-100,-68,79,-115,-113,12,43,68,-90,-85,102,4,98,-123,31,-113,81,75,51,65,-39,-92,46,89,50,-17,-11,-12,94,-58,-37,102,18,-3,-79,100,26,87,30,-88,11,-82,82,87,71,52,107,-15,11,-110,-30,-75,-79,48,-43,57,-42,84,114,-120,-113,-9,117,-112,60,-106,-98,65,100,-122,-32,-46,43,91,77,107,98,-28,50,-90,29,56,-89,-51,126,13,21,63,-58,27,-76,105,67,91,51,57,-113,-34,-70,76,61,-101,-40,15,13,-96,118,-79,43,-16,-5,-45,8,-90,98,-70,-127,0,-25,4,104,69,75,44,-67,15,-40,119,108,6,-114,3,97,-112,122,98,58,91,75,112,-13,82,-82,49,-123,74,-97,-109,-120,-42,73,30,-88,-88,92,51,51,53,16,-52,-95,-59,78,-55,-92,84,-25,-89,-46,-55,46,37,-25,-127,-15,-6,-63,64,-45,-117,58,-71,112,33,-6,75,-36,-21,61,-122,-43,-93,-71,52,-78,-87,-116,22,37,-10,-112,-16,-123,-98,2,-28,-63,98,-111,125,-106,-79,-100,60,105,-112,9,-96,71,-59,-57,-114,24,-103,14,-69,-30,-23,124,101,71,88,86,89,-127,38,49,19,-11,102,34,-12,55,69,-43,25,-122,-106,-8,92,-52,-121,-27,66,-100,-128,-54,30,28,69,17,60,-27,-34,-19,109,85,-73,42,90,-43,27,-104,-40,107,-73,-69,-22,-76,99,109,5,-26,92,8,126,74,37,-34,-24,56,-75,-74,-121,-87,-10,-40,60,-123,-97,-52,-113,124,-4,89,80,-25,68,126,-33,112,-14,-4,-66,9,15,98,-38,64,-9,-117,1,61,40,48,-81,-110,54,30,-3,-65,89,-13,-127,-6,-44,30,90,78,-84,2,35,-59,-27,58,108,-65,48,45,-54,39,113,26,120,80,-126,-119,71,27,117,-22,122,127,-5,-42,43,-121,-114,39,-23,75,24,34,68,2,68,45,-18,81,-5,-3,-116,68,21,116,79,-38,116,40,24,-85,13,23,65,47,104,3,99,121,25,-99,-36,-40,-82,23,34,33,47,4,57,8,46,24,-116,-3,-29,77,27,-50,-75,-44,-37,120,-53,46,-37,78,-121,-29,-26,57,-50,-61,-127,68,-120,53,84,126,86,-83,105,-117,-80,126,-61,-114,84,9,-14,25,-101,-110,77,-69,-15,126,-80,42,-122,-12,-12,-97,55,108,-125,122,-118,-10,-53,28,-6,120,-4,13,-103,44,67,51,-63,-50,44,42,-111,58,-82,-81,11,18,37,14,77,-128,-82,33,37,90,-38,-125,-53,-96,-109,-12,-105,-6,66,-4,-24,-59,49,-68,-44,-39,31,-59,-98,121,-97,-91,-44,-66,63,97,81,-101,88,-42,-26,81,38,-100,-44,28,77,-103,111,-34,71,-9,-29,11,22,100,-117,-57,101,103,-100,-86,-16,-65,-96,52,7,-3,85,36,-22,-83,51,11,-18,48,-86,-70,-74,59,-72,88,38,-98,5,-17,43,-99,89,89,47,44,-79,62,-112,77,-23,39,-52,-84,78,40,16,-57,72,20,-37,91,69,-57,22,105,-64,-121,-67,6,101,-34,23,83,-74,1,-30,-118,-79,-34,-33,14,117,5,-123,-4,-93,-101,12,111,116,-126,22,47,-104,101,-7,91,-40,-3,-65,-46,74,-90,56,30,-52,-81,-93,116,-85,-14,101,-78,-17,-66,113,-47,58,-25,46,-54,73,-78,74,-97,73,126,-53,54,4,89,-44,28,92,-47,-41,-25,-31,-98,110,-110,-69,-121,100,-18,-29,-76,59,-107,75,-71,-110,-4,19,-85,93,37,-50,33,18,-61,55,-13,-4,-45,-96,47,-48,-89,42,62,58,96,-109,65,17,-94,-52,124,-87,39,-100,-43,-23,-92,47,-120,35,46,93,-9,-72,100,66,11,-85,-61,111,81,36,-101,-97,-55,-120,65,8,-105,-56,-45,-113,119,-25,-115,-16,-76,-84,-105,-53,123,-84,50,87,-105,105,43,18,-82,-3,-103,92,-111,93,45,34,-110,-41,-17,98,-61,-100,47,-113,-68,-70,-107,87,54,-94,-112,-43,-75,-121,-53,63,122,-19,-17,36,-51,115,53,71,51,59,-9,64,-56,119,95,-36,-81,8,-81,45,67,-112,47,100,80,-83,86,58,-106,-65,47,58,-114,42,8,12,-71,76,1,-52,-62,-18,-118,78,-84,-128,74,86,-16,84,-67,-67,-70,38,61,-99,123,92,-16,79,76,63,-103,61,-77,-67,112,87,-11,19,64,26,-119,-110,-31,12,2,-26,121,-5,-19,-99,127,102,-41,0,81,-73,103,-48,54,-115,87,122,115,26,-68,-59,-5,-107,-53,-59,0,-57,40,-51,-84,79,-108,-58,71,88,111,-70,-19,-95,31,-11,103,-26,-44,-83,116,-107,65,-14,-59,23,123,-108,-23,115,24,15,6,90,-107,106,-38,95,70,-77,-20,5,64,-63,85,-58,127,-95,-110,-103,63,53,-128,41,-72,113,-112,47,29,126,-112,56,-94,57,-22,77,61,86,94,10,17,66,-3,91,82,-120,26,-113,98,-84,-46,67,-78,110,-4,-84,-25,18,-111,111,73,24,1,39,-43,21,111,103,-128,-94,-50,83,120,-109,108,-71,-75,-97,46,-110,90,-29,89,-115,-44,121,-24,45,5,-87,-88,-31,-93,-15,-49,30,-78,-3,16,-22,98,99,-75,76,61,8,119,68,4,47,-10,31,-16,-8,-82,-117,-47,50,40,75,-74,-20,61,46,-26,-36,-44,78,-120,48,-47,-108,-25,23,-93,-87,41,96,-96,98,-54,-4,43,125,-98,16,52,13,0,11,-38,-78,-12,20,-86,27,72,75,-48,-99,53,49,-109,-78,-42,114,-33,-60,83,14,25,21,15,-92,-93,116,34,-76,-54,47,19,97,-42,51,4,-68,101,-29,-120,4,32,-117,49,87,-4,-121,127,-15,-95,-37,106,15,32,10,-109,-84,-44,126,-87,-29,77,91,11,83,75,82,58,92,-46,-44,-66,-99,35,-29,103,36,84,-62,-27,78,125,11,-47,-18,81,76,-38,13,-95,-105,-81,-16,-68,119,-41,-109,-85,61,-19,38,109,42,-77,-25,116,-63,19,-110,105,-73,58,63,-37,125,112,60,40,-59,123,26,-29,-99,117,-31,-15,32,124,-78,-108,-4,-73,-37,-28,125,100,24,-97,109,76,96,96,69,-63,36,-79,81,45,23,-37,42,4,-4,123,18,-33,56,-4,-113,-93,-20,94,-26,113,30,-85,78,-24,-15,-29,61,-48,104,-60,-36,-1,-84,-12,57,65,116,116,122,88,-22,117,-56,-48,64,-124,15,-122,5,16,101,55,-98,-128,117,113,5,26,99,38,-119,-5,21,-99,-21,-113,-116,61,-109,-40,-22,-55,-70,-18,-17,121,24,-43,72,97,-31,-36,-6,-5,11,112,-68,14,-41,-67,12,87,104,62,-78,87,76,62,114,32,-19,-94,-84,62,-70,-81,-126,81,-47,24,-97,61,48,39,121,-74,80,0,-59,99,10,101,26,-121,-36,-51,-84,78,46,-20,-5,80,83,37,-125,101,-80,-100,-14,67,-84,-10,-72,-95,9,36,83,-84,101,115,-81,-127,-20,-67,-43,102,82,4,40,7,79,-22,62,99,-113,-104,-61,-3,59,41,35,51,102,-109,89,-39,125,-75,96,34,-11,-115,-78,14,5,60,-32,-30,4,125,113,75,43,124,124,31,62,54,121,113,-65,-124,106,-79,-75,9,65,17,18,-101,-11,-73,49,98,50,80,44,79,-8,-63,42,-21,-20,-83,-112,-23,-112,-62,122,-6,21,-51,-83,-60,-26,-48,-98,-52,14,-86,-42,-56,-107,91,35,-59,-56,22,-4,-87,11,-113,100,-29,17,37,62,76,-77,50,-75,15,-103,33,82,119,-84,40,51,-65,-20,79,-83,50,85,-53,105,-85,90,-62,115,90,87,55,-103,39,-42,6,40,90,-88,-41,-20,-27,111,41,60,97,-51,8,-76,-64,-120,-99,-121,-28,15,66,-73,97,91,-40,65,-120,118,4,-3,119,-117,-90,-121,-52,-102,125,103,55,-106,-109,23,6,18,-6,63,-45,-47,106,-67,69,40,72,74,73,22,98,-116,-43,-41,-45,-58,51,23,126,22,29,74,-67,-104,19,93,-30,-121,-45,65,-63,-98,-90,9,-30,4,69,119,-91,-3,-87,-74,53,118,33,-118,-126,78,125,116,-33,13,-41,90,-31,-72,-21,-119,108,-18,-15,24,-45,58,-17,123,-61,-24,-66,-80,-24,-19,-86,-61,-103,-128,-68,-1,92,65,33,115,-124,-74,-47,70,92,114,36,-22,40,61,52,106,112,93,-67,-122,88,27,71,-11,14,-53,79,123,102,-26,-121,5,0,33,-109,72,53,43,58,-69,-36,101,105,-27,108,126,-110,-121,-65,116,-93,50,-75,38,34,23,-13,-109,89,-68,40,122,-103,88,-81,-93,-31,-87,-11,75,88,126,52,1,-84,-29,96,41,-67,-109,-29,95,125,-45,3,-22,124,-63,115,112,-8,76,-2,99,-75,23,-6,-77,1,-4,64,-10,106,-87,-103,-119,-71,-35,-119,54,-21,14,-27,-109,-8,-49,19,-53,-114,-96,-93,-12,-66,90,-25,75,75,-49,1,57,109,85,101,42,104,-32,-108,29,-24,71,-52,-14,72,0,79,11,69,45,-58,8,-57,32,-58,-46,90,78,21,97,-12,-1,29,91,-89,-72,-23,15,-47,-60,-56,94,-97,127,43,51,14,-27,-67,-106,15,24,-72,33,104,-42,4,18,-76,107,-86,25,-41,63,-33,-11,47,-69,-57,84,91,8,-71,4,19,-7,14,-114,-94,48,-98,-58,25,-77,92,-123,22,93,42,-21,-101,3,-119,-14,-18,102,52,61,49,-121,41,28,-68,-28,-106,103,-72,-97,26,93,-126,-1,-108,66,-124,-79,38,-126,56,-12,-112,-54,116,-68,107,70,80,123,-57,17,-106,82,-101,72,65,15,109,14,-1,29,-68,-32,79,-59,-19,-79,81,39,-10,-18,97,-16,-81,-79,21,-4,-88,111,-97,98,-78,-109,22,115,47,92,71,-33,40,-32,73,118,-104,40,-40,124,31,115,-103,15,-69,65,59,124,83,28,-59,70,11,-112,-50,-106,-11,-121,-27,49,-106,-95,-54,-84,-128,26,-69,-57,51,-4,-69,123,47,-82,-46,-65,-125,94,32,109,81,121,78,113,-7,32,13,-87,70,-35,38,123,-25,59,-33,94,-65,7,-125,-102,-21,5,113,-107,-20,10,17,51,-122,-78,115,24,-89,103,-42,-115,-79,-28,-114,20,-38,126,-93,-57,127,-56,-24,43,119,121,-41,19,-84,93,-47,-80,60,63,73,-128,-104,-2,-60,-43,29,-114,-76,106,101,92,-38,-72,83,19,-77,-96,22,80,-112,65,95,61,77,-70,-58,76,119,-98,70,103,-39,-26,-89,-125,-28,-95,33,-122,64,106,-91,11,0,82,63,-1,80,-72,86,-95,-78,-92,0,100,84,-31,-109,-46,104,-54,109,-98,51,48,117,-52,12,-58,55,87,25,-112,102,126,-69,17,105,105,-114,88,38,-11,42,-31,-84,-116,-26,-88,119,-14,71,-128,-68,-96,-22,34,-80,-42,74,27,-28,-46,-38,-57,-119,86,99,-14,-41,55,125,-47,-1,121,-108,44,73,6,80,-42,-8,-30,-63,-55,-76,-105,-15,-74,-81,-43,-100,13,74,68,-51,-107,99,-101,38,24,123,-95,-94,-25,-106,35,-89,-124,-31,89,29,-92,-87,67,-103,-2,-97,-107,-87,0,7,-25,51,49,-57,72,-38,77,72,-21,29,116,-106,104,-114,-27,-98,126,30,-17,-33,-23,57,2,-3,-23,-71,40,-117,-47,-35,-123,-80,37,92,30,-37,3,-125,70,-92,-68,-37,24,-60,97,35,127,79,60,-120,66,12,-78,46,115,-123,124,126,-86,-20,46,46,-7,-79,0,23,81,9,-58,-39,43,119,-76,-18,-46,-87,100,52,-54,111,71,34,85,-113,104,-114,-15,2,-105,101,-64,123,15,74,-76,-97,-86,82,112,21,35,-38,51,-101,88,112,64,-30,0,-25,37,65,-74,-109,-57,-96,-47,-73,-27,36,-14,100,-110,-56,17,-46,-52,78,-19,-103,114,94,-9,-36,-28,9,-4,126,-10,23,8,127,-98,-39,-12,-74,-96,32,33,-39,29,-85,108,-65,-47,-67,19,-77,94,-120,-122,23,-4,-63,-91,-116,8,-28,24,-119,9,109,59,-17,-110,-30,-123,-12,108,100,110,-122,52,-92,-119,96,-117,12,29,75,94,-37,-85,-73,-98,-25,41,114,45,-34,7,107,-37,-2,-77,82,98,91,-31,96,109,-121,125,-66,-47,-14,109,-108,-10,13,69,-36,7,-2,60,-125,32,53,-69,-38,-112,78,61,114,99,22,-16,7,-25,-9,79,-103,-106,125,70,42,77,-17,-118,30,-71,-113,-21,-80,-24,-105,-92,30,55,23,-6,-8,48,127,-94,22,-89,-20,-56,-82,61,-100,54,74,14,27,-123,-70,82,35,29,2,60,-18,-34,35,-53,-48,8,122,71,-69,-30,6,-39,-110,-119,-120,-28,-21,-93,-55,-95,-23,-48,112,14,-51,-89,38,50,7,90,43,-100,-105,75,112,-17,40,-17,-38,-124,108,119,92,-68,-74,-56,99,71,-74,57,-110,1,48,-119,58,-92,74,53,77,-47,-82,124,-93,-44,116,-123,-76,28,-86,-11,-128,108,94,92,-108,79,40,120,-125,11,-109,16,38,-127,-51,-101,-60,-51,-44,-87,114,111,10,-49,56,80,-24,-45,0,-106,101,82,-97,-81,-65,-107,-5,-62,-35,-33,1,-49,-55,-100,-63,-93,-109,113,-121,-27,97,-50,-66,105,113,59,-23,95,-126,-56,-109,100,37,-7,-47,65,64,56,123,66,3,-52,11,-97,-17,79,30,-126,17,120,-111,94,-29,-11,2,-84,-26,-75,-96,63,120,91,8,-120,-21,-29,-28,45,-56,-113,65,117,120,86,6,119,28,-88,105,-93,-35,-57,4,113,0,115,-3,81,115,-79,49,47,125,-113,-60,-56,93,21,15,102,22,-112,18,126,-56,121,-76,8,-120,100,119,73,46,-13,-108,-63,13,-94,31,-45,-107,-90,39,-95,-114,106,-90,-45,2,-23,47,24,105,97,37,53,112,110,-6,-110,8,-9,7,-118,86,-110,37,-25,82,0,-96,78,-42,15,111,-17,-1,37,11,6,-108,-103,25,-76,17,-62,-29,-59,-66,60,59,31,-75,-96,103,-64,-73,55,121,-65,71,-32,50,2,-69,-48,96,-62,54,108,108,-21,-120,63,-116,-68,-95,28,21,121,54,69,20,-117,-68,-34,-60,-51,62,65,-122,-95,56,-72,42,124,-91,35,-101,14,120,-46,-68,122,-50,58,65,-59,-28,-72,50,66,50,-46,-103,-18,-63,26,-82,16,-15,-22,107,27,-60,-120,-34,-111,65,16,-87,-6,127,58,-71,77,11,-73,-97,-73,-106,80,66,-73,-47,12,44,-74,-121,66,-71,13,-123,-49,-59,69,-111,-82,47,-27,5,125,61,-73,110,26,11,-122,-14,-110,78,78,94,124,46,77,-33,-69,-44,106,-90,-58,-80,55,27,85,-98,107,-90,77,-97,-45,60,-29,-80,-100,79,35,-82,88,-115,68,57,-36,-53,-81,-118,25,-40,-84,-38,2,86,-81,35,-99,-11,-57,-87,90,50,-32,113,-19,33,104,-90,-29,-20,21,-25,-47,67,63,-103,124,104,127,-78,65,-74,23,-70,-76,-78,70,72,108,20,86,65,-25,110,-83,-28,-112,-56,46,-38,74,-100,-117,-3,-5,18,-60,-122,96,22,-71,-77,92,-17,-100,121,16,47,-43,3,14,20,-126,89,-79,-46,104,103,77,-71,-118,-104,86,16,62,-37,-11,18,-33,-13,-8,100,-47,15,-23,5,-40,8,-75,-108,48,81,13,-114,43,-126,-92,94,112,17,-12,96,101,19,103,88,117,78,-99,100,-45,-119,126,-43,35,96,22,-14,-22,-5,102,-67,-59,96,66,-45,59,29,19,28,50,-105,1,-39,23,-82,24,-30,-33,34,3,17,91,-104,-10,115,-126,-59,28,-5,-118,98,-104,-9,-17,-54,58,-87,107,-53,31,-28,119,33,-56,115,101,45,-70,108,114,-39,15,-70,71,48,-71,62,40,88,-89,-71,-56,-3,-4,-124,-115,-5,-48,-97,92,10,36,-128,109,-115,-61,-91,-68,-91,-14,62,-4,-22,63,114,-114,6,-79,48,70,35,-2,88,-56,-78,-64,59,33,50,10,85,-32,-32,-11,90,-93,7,109,27,108,112,32,-116,-11,-10,70,11,95,4,66,30,68,-31,-38,88,61,-107,114,-106,6,-48,74,-109,-35,-18,107,-74,123,-60,-80,-66,-35,49,-90,-73,59,126,33,-74,113,-58,19,4,124,-97,40,-57,112,-87,-86,-20,116,60,-24,-71,27,113,-62,47,48,-68,41,113,51,-8,-67,26,-91,-12,-42,-92,11,34,-120,63,58,66,-69,116,-11,-81,124,-87,-93,-67,-27,-119,-71,91,22,103,-48,42,38,13,55,-44,115,-6,-67,75,-5,95,74,-59,86,87,6,7,-108,42,69,-51,88,32,49,-117,53,72,106,117,66,13,8,13,-101,-6,-80,29,82,-5,112,120,104,78,55,-95,86,124,65,82,-41,-55,-6,-101,73,-21,-49,-115,-49,-106,86,-48,-89,92,-108,-53,91,39,-42,64,-98,19,-120,45,80,24,127,-111,-50,-19,-36,37,16,88,66,-128,-80,-102,102,27,-122,87,15,-71,-7,-112,49,-124,57,52,-93,-10,-63,-50,-41,35,55,14,-33,97,68,14,-11,-5,-126,-94,85,-99,-101,49,56,-102,-108,-66,-75,52,-88,-58,-126,-11,86,-10,-12,-92,-122,-114,81,-65,-66,15,-16,-57,121,-32,66,42,-109,-20,-88,-79,122,115,-114,0,103,65,-32,95,-49,-107,51,38,-125,32,89,5,-26,-48,33,60,-51,-62,88,14,-4,123,47,72,47,-34,-94,91,-98,-21,21,-60,33,0,-71,61,-101,-109,59,36,-123,-45,61,91,9,24,-108,124,53,21,41,99,-106,-29,69,77,72,27,-124,-109,-72,-46,65,-113,-91,125,-76,52,76,-28,66,-37,-53,24,-21,27,75,-46,-43,-82,24,-106,-71,-68,-59,-11,71,119,-123,122,-63,-99,35,-84,85,-8,-93,-49,28,-36,0,-66,-7,-57,-106,-43,-15,119,-30,93,-67,62,-126,16,-127,75,59,30,62,126,-12,-27,-76,-21,12,33,2,-59,-101,40,-103,121,-102,92,126,115,-41,31,-111,-86,-102,-125,64,-120,45,-71,-111,123,45,-53,127,-89,-62,32,113,15,-120,98,-68,-103,110,-36,-35,5,64,-67,29,-57,111,10,12,28,26,106,-85,85,-54,-4,-76,-85,4,16,-108,-67,104,108,-37,24,127,-97,103,116,52,-59,-65,37,-83,88,-109,98,-122,-101,106,51,-39,76,0,20,-81,81,-31,-35,-5,-91,36,-112,114,10,4,47,-5,-30,-14,-118,-55,83,-25,-40,-128,-52,89,29,-40,-110,11,35,29,38,27,-92,-120,-105,-36,45,75,-116,46,27,-86,-71,55,-3,-96,-53,15,109,-63,114,97,46,-24,67,-87,54,-109,-37,-24,-58,-106,-104,43,-57,5,-89,-96,64,-37,-111,65,64,-70,121,95,-36,49,14,-128,15,56,89,-102,-37,-36,115,57,-73,-30,-68,-126,-16,8,-42,37,12,4,-56,-86,-53,39,32,-45,-51,85,15,-95,91,125,-2,-98,-39,63,-108,20,-25,-88,-95,-99,125,64,-80,47,125,-11,88,125,80,101,22,-5,39,-104,19,-27,-13,35,-98,-12,0,2,17,83,44,-11,94,10,16,-108,-61,107,24,-40,-83,60,72,56,-10,-114,37,-19,86,110,1,25,27,-66,-81,50,14,-103,118,81,-94,94,46,1,-41,-6,102,11,76,7,74,70,18,-87,60,-91,115,96,-83,-89,-9,-72,-42,99,-44,-2,71,-22,10,21,77,-34,45,-108,-101,-1,96,-119,20,-14,-15,121,-24,113,87,112,-125,-4,-115,8,-60,9,-123,13,-101,90,118,-122,-51,-41,74,111,-100,40,8,-126,-99,-7,-120,-48,31,80,43,-13,46,127,-75,-62,-90,-84,13,72,-113,-87,31,120,64,5,-97,86,-30,-19,-65,-71,30,-39,117,38,80,-101,52,-34,-34,28,-26,-91,95,120,-72,-22,-66,-23,-42,-96,-37,-122,58,51,105,-35,85,-90,78,-121,-8,-103,-117,24,109,78,-53,-26,5,-6,121,-36,-82,-100,21,77,68,-81,-95,19,-21,69,-12,-97,42,-6,77,89,112,114,106,-127,91,-62,-126,44,-29,14,-114,36,66,108,3,93,86,-100,-19,109,-101,-50,-126,-65,59,15,27,-109,-128,-40,75,-57,-50,-118,58,-1,86,97,-23,109,-96,-35,68,30,23,67,110,-27,94,-15,120,19,-120,3,102,-30,-119,-85,114,-32,31,104,76,109,113,14,32,43,93,-35,33,-47,-64,-30,-19,115,-83,6,-32,-44,-53,92,-52,-91,-50,60,-125,-107,-91,117,-86,55,101,46,70,31,76,98,119,-64,111,10,-23,106,26,-43,66,16,-6,-84,-127,-117,-128,-115,-124,-50,-79,-114,106,42,-97,73,-70,5,-76,79,39,-24,-73,22,69,-82,-128,68,125,-114,103,-52,55,55,-67,98,100,18,-107,24,38,14,-1,-64,20,-126,30,-78,-40,78,-103,63,90,50,0,-47,-44,-97,50,40,111,82,44,-62,78,123,45,-119,115,91,76,124,32,117,-65,41,39,-104,-95,-76,-41,-60,70,-89,-93,34,-9,-40,-123,-99,-7,-38,68,-107,-125,38,124,61,-79,-31,117,83,-123,-114,-119,-46,122,51,-20,110,78,105,-27,-20,-84,43,0,35,-100,-91,126,-38,-5,45,-112,1,111,94,12,34,115,-18,-30,-122,60,16,79,-127,-38,28,65,59,-69,8,-123,-111,-15,-50,46,73,7,-111,-113,125,-67,126,-35,14,-115,-109,-68,-2,-66,-105,-70,19,-47,-100,-36,-38,-43,8,127,-97,35,-2,92,-31,-82,-120,-65,-107,-53,21,-86,-110,-28,-26,-79,-55,16,57,40,62,70,107,44,122,127,119,11,22,11,-113,111,-65,-27,-53,96,18,26,109,-43,58,87,56,79,119,-56,-68,17,-44,-50,-64,45,-47,19,94,-81,-86,63,-88,-50,-97,5,-102,-105,-39,70,43,-112,102,-115,-105,-10,-35,99,15,-93,-107,77,12,34,-119,-62,33,117,-40,78,-71,-58,14,61,-82,-26,-31,72,-12,-27,-110,-23,-128,82,-12,117,-22,-97,-46,124,89,-38,-29,-74,74,-29,11,-65,-97,-52,12,2,-112,42,74,104,-42,108,-117,61,-117,-44,-122,27,80,-61,-5,-35,-74,-119,18,92,-74,81,122,109,-108,21,105,-122,-83,98,79,-53,-9,125,126,-24,-101,119,100,29,35,-95,88,-6,-33,-7,110,25,-121,-14,88,-72,65,-80,-79,120,-114,-66,-63,-3,-124,-75,-90,109,14,32,-7,-122,85,-43,-58,100,61,111,110,43,-58,-38,-42,-39,-31,-10,52,115,-58,-124,-17,33,105,-46,-13,112,-90,-111,-47,51,-84,-54,76,63,-75,100,101,-56,75,-114,4,44,27,-8,-2,108,-127,-128,-24,111,109,-105,-51,-80,-117,57,16,-74,125,-99,-69,15,-99,-26,13,66,57,55,42,79,-100,-91,92,-37,-24,24,-83,25,-43,-115,-7,-23,-93,-45,-114,-49,-33,19,73,29,1,-112,88,-58,-57,106,-45,-81,-17,49,121,-90,-25,86,29,58,10,93,98,-18,1,-103,-53,-3,36,82,-6,-40,90,-116,24,-54,125,116,16,-115,11,-125,117,93,14,-34,78,92,104,41,-20,-70,-53,115,3,98,-52,-19,127,47,-25,-100,16,3,102,-31,83,-116,96,93,-82,-115,-51,124,-75,37,-55,-89,-18,-38,83,116,-22,-74,-91,18,91,102,112,-108,107,81,-126,71,126,-79,101,-6,-51,85,-10,46,-44,95,33,-56,90,-105,19,-86,76,-45,-84,107,-62,-61,93,-18,56,-55,109,-114,93,-21,-124,18,18,46,13,85,-48,-100,71,-6,-89,37,-18,63,73,101,-87,95,24,52,-52,60,86,10,74,68,95,76,95,-123,-33,-106,92,-9,63,-23,51,-89,105,-34,22,55,-7,-28,-121,5,-117,-122,99,-41,47,-110,92,-70,-117,-18,74,-94,65,72,-54,-7,-47,-81,26,-79,7,-104,-14,-98,124,-76,-57,109,-45,-63,116,12,4,106,-10,-28,79,83,32,-74,68,99,1,94,57,-13,99,10,-58,101,-85,-61,-99,-20,-121,-2,54,39,-78,-17,111,89,-99,-110,-81,11,35,-128,108,18,101,83,-89,-23,79,-84,98,31,121,2,-84,31,17,36,90,81,-33,28,45,43,-28,-114,48,-109,-102,24,-47,10,116,11,16,-12,-83,77,-35,-112,-110,64,109,126,34,62,80,-7,37,92,112,-117,122,-5,13,65,44,26,-48,21,25,3,-72,17,-70,-61,41,-36,39,107,51,112,82,78,123,110,-33,14,76,-54,10,-43,-62,-96,46,115,53,82,-27,57,46,63,-83,-51,112,-87,-24,104,12,-121,71,-96,-104,-73,-19,63,-53,2,95,-42,-22,-69,-51,73,-59,19,18,78,57,-87,-98,79,-49,-67,-112,118,-39,94,-92,19,51,-43,73,104,19,28,-117,-48,20,-58,-26,78,67,-49,9,67,49,106,-75,-45,-107,-33,55,-13,-53,-58,-91,-95,64,-86,-127,-128,-89,-46,31,27,-34,-94,-104,7,-77,-24,-99,-80,-30,-68,-13,39,116,-37,10,-125,14,45,14,-21,116,123,115,-58,117,-81,105,-32,-93,57,88,105,57,95,-62,-81,73,-37,82,17,-47,-1,125,1,-43,1,-73,102,-126,69,-32,-18,-126,-45,-91,-54,-104,-25,101,59,74,-31,101,-2,7,-98,-24,-125,35,-62,8,3,-42,-28,-119,-71,38,88,36,-108,92,-55,113,-65,98,-128,96,32,-69,-9,-17,113,-98,-27,13,-51,61,-57,74,18,-85,-95,-46,-98,27,-13,72,51,121,-115,77,105,65,57,36,99,16,-51,54,116,99,101,25,-63,100,114,60,99,21,-37,-116,-52,-32,-95,-74,-93,66,-60,26,-22,-89,-27,27,108,-34,95,-53,-28,93,38,-110,118,54,117,-17,-91,-127,125,-21,87,97,89,-84,-98,-88,116,73,-89,-29,-115,-83,0,65,-12,-81,-83,-10,44,44,-11,-105,-51,-14,86,78,54,117,26,57,42,-58,116,119,19,32,-4,72,17,107,-9,59,9,44,49,60,-54,114,-109,-103,-51,-42,99,119,54,113,-18,-70,-101,-7,38,-49,-19,-43,-112,-94,99,116,102,-43,-68,-63,112,-79,56,77,117,-57,-70,89,43,88,-65,-80,-37,69,-5,63,112,-89,18,32,5,-116,-110,-90,-62,103,94,87,107,-81,56,-75,43,-32,-11,49,35,-63,-119,58,52,-46,49,-93,-121,67,25,106,-1,105,-121,-125,56,-123,-77,76,47,-111,-17,-108,51,6,-30,123,-92,-103,122,122,68,5,19,37,40,-127,67,-105,34,93,-4,123,-9,-109,-40,28,-40,51,62,-11,-73,56,113,39,-126,83,-85,-79,-13,-38,29,82,75,86,-70,5,85,127,68,-109,96,-115,21,-96,-1,-21,65,-16,113,42,-114,5,38,79,-85,101,69,-103,-25,79,-39,66,-29,34,-78,90,81,-60,72,23,-5,-72,27,-59,-38,105,59,55,-13,60,51,48,-10,-45,-68,-32,47,-121,38,19,34,47,49,-48,-82,80,-89,52,-56,114,-124,-69,55,106,4,18,-86,3,-8,-112,-122,82,-122,-78,-37,124,21,37,-79,-71,24,-80,-104,-125,72,52,113,-98,31,-22,-121,-73,123,-100,-114,124,-116,-117,-67,27,-103,-43,88,-95,81,122,125,24,28,-1,-30,-100,-10,12,-47,20,-45,26,-78,50,-59,-124,-20,44,-112,20,43,127,36,36,-105,-115,-45,-36,-17,49,88,-17,-75,-89,-112,124,-128,-86,-1,78,-53,-108,-27,24,-40,-69,-29,34,125,13,26,83,-47,-48,-113,-103,-78,34,93,114,90,65,-89,122,-9,59,-86,-63,95,11,36,-90,57,-12,-18,-1,60,61,92,-57,-10,120,-99,-34,9,48,13,71,89,46,125,-126,-105,109,54,-14,32,-1,-85,71,97,33,-128,-121,-120,-66,38,31,-87,18,71,8,92,23,11,2,-57,-65,43,46,-34,-103,-1,-35,-31,-12,-122,-40,-116,127,116,-22,119,-29,-20,-2,57,-77,-85,46,-122,-99,-18,112,-12,-77,29,80,-119,-84,-127,54,92,19,0,77,-63,17,-50,106,59,-32,-53,-19,5,-51,-10,-121,59,115,-120,63,-33,-68,54,85,-58,59,56,39,111,-90,-70,-76,-20,-80,-53,-45,-100,-26,26,-76,-80,-68,-49,-3,-115,-44,34,56,-73,-43,107,-31,23,-80,-50,20,-76,-43,96,-62,-25,-24,-108,-23,106,33,-10,40,87,89,75,80,46,-48,-105,-110,-30,76,28,36,-94,95,-26,108,83,-69,-19,7,94,-103,-87,48,94,88,63,102,53,-77,-122,56,-54,10,10,-87,-15,25,-103,37,-65,75,7,50,88,21,-95,79,-106,109,79,51,-46,-55,-92,-96,-79,57,-21,-106,63,117,-76,-9,-75,-70,-84,15,-120,3,-87,86,-33,16,29,76,126,-87,-95,-112,19,117,107,-51,97,-95,-93,77,-83,127,-128,84,10,-112,35,14,123,67,-61,-97,-114,-72,92,123,-53,30,71,13,-108,-78,-4,-93,52,14,101,56,-95,95,6,-9,-122,-10,-28,16,-29,110,57,38,66,-27,72,51,-48,9,-84,34,-50,17,-115,-57,46,-40,-37,-34,119,-29,-84,-5,-111,20,89,-45,112,41,-79,3,-125,113,115,-100,-15,40,70,-116,29,-70,85,-77,-80,71,34,59,11,91,-106,30,-62,78,7,97,37,-56,90,100,112,14,-7,61,31,60,-72,-13,-118,-35,6,48,-96,-72,-82,-44,-34,-72,103,126,117,-118,-89,-5,33,88,70,-16,-22,-30,83,49,-123,-92,-22,114,-7,-94,7,57,76,-84,90,-11,-85,60,10,64,-94,-34,-6,-31,19,-94,99,22,10,98,-42,-103,15,-45,90,-21,111,-63,-117,-7,47,-101,-43,108,54,-9,-52,57,105,-63,38,72,-58,-111,123,41,-74,86,-18,16,93,92,-1,108,-23,29,-1,-2,45,55,110,-25,-2,-102,62,-78,-62,77,23,81,-81,7,90,99,2,80,79,-22,28,14,53,112,-77,46,111,75,-114,-28,103,-85,88,-58,15,-115,85,-94,-124,-71,114,-20,112,101,0,92,-8,102,94,64,-36,-104,64,-53,4,18,79,124,-98,-83,76,-43,-28,-60,-11,-125,17,-65,124,125,-117,-84,-76,96,-24,-92,-103,29,-110,69,-52,-65,-102,-86,-70,-3,-112,-3,-118,-41,-50,-48,-21,-62,-109,52,-69,52,-39,34,-61,-124,126,-59,-57,-39,-69,-39,36,-70,81,-78,111,-89,-23,-76,45,32,-90,-123,11,81,51,-120,-121,31,-47,-97,11,73,36,-115,98,-45,-75,-57,98,74,3,92,-113,-73,53,51,19,-128,-59,-108,115,-43,-60,112,-28,12,101,-29,61,-43,-40,-35,-60,-35,98,-77,-21,-44,55,101,-103,-49,27,83,-24,30,-118,-52,-67,-19,8,120,99,-77,-119,-9,89,-116,-94,4,69,119,-18,-127,-61,109,51,-31,122,-51,-79,-124,-49,59,-96,-110,47,127,-66,68,-125,50,-31,8,-76,-87,-24,119,109,56,81,22,7,114,71,115,-5,-33,32,-4,-42,19,22,6,-62,-96,-29,-11,74,78,27,67,-55,-25,-44,68,-23,72,107,-64,74,86,88,-34,47,-114,16,-121,120,28,-122,2,96,0,-90,20,-109,115,57,40,42,-124,15,-33,9,-18,89,-106,18,46,-122,-66,-116,-120,-117,-78,-33,-66,20,-37,109,54,41,46,28,-16,35,95,35,-6,14,-43,29,-102,-99,118,-17,42,70,-50,35,-128,32,107,63,-80,47,115,-80,-27,-75,-73,88,-33,8,-44,-92,66,40,-20,-5,-22,112,83,-62,33,-124,81,-33,-89,100,-63,-118,-127,98,-91,-67,118,18,84,65,-42,23,-32,-90,91,118,6,4,40,-38,87,-126,-75,-36,-95,71,10,2,-60,25,64,-51,-86,84,106,-59,104,-50,17,1,4,-3,66,64,88,0,-47,-28,125,-95,27,-15,-75,-75,-4,-54,84,-79,-102,10,-98,28,23,-106,32,37,-63,88,-69,9,-100,-1,-95,61,-101,-98,59,-49,-27,-70,112,57,93,-108,109,58,-88,76,-111,-94,78,107,-108,-33,92,51,-4,95,-126,67,104,5,-112,-47,-13,40,97,-124,-44,-91,34,50,-10,91,-112,-28,110,93,-122,-93,-63,43,109,-29,18,47,27,-93,-20,117,38,-24,127,-19,-91,-21,-20,-45,65,70,35,-71,-73,3,-57,120,-68,-56,62,-63,1,104,-84,-8,39,-87,109,-84,99,26,-103,-97,-102,-128,-92,113,-44,80,-10,-64,77,44,46,73,-94,-63,32,-12,120,109,-7,-34,-20,-63,-116,114,-113,115,-10,7,-14,-95,-30,44,22,56,126,83,-117,52,-30,47,-126,84,54,55,-89,6,84,117,101,117,-111,-122,57,-15,-7,-13,87,-5,127,-116,-34,47,-90,42,33,-121,-33,-32,-46,-46,81,-34,-72,103,-57,-22,38,100,90,-34,-2,-57,-52,30,-54,-122,-37,-23,-47,113,-12,19,90,-72,59,-90,-103,74,-108,-70,-6,-40,-31,-10,-116,49,-84,-14,67,50,1,108,-87,-18,20,-66,119,-57,24,-126,121,-121,-58,-59,60,-110,99,2,47,13,-115,-103,-127,47,74,-21,-48,65,79,47,-87,125,-15,-40,67,-46,-32,122,37,42,74,114,42,101,111,86,34,108,-118,26,-67,-41,-48,46,5,-128,-101,127,66,-89,19,53,-52,91,70,48,96,40,126,21,62,-88,-42,-128,-62,-95,72,-102,85,9,-117,42,-25,48,-28,-76,-47,-39,-88,-28,-48,109,-31,88,47,-1,78,32,-102,85,16,-31,110,67,-42,60,74,-15,105,-45,-8,37,7,-35,127,29,112,30,126,-57,-91,-1,-77,29,103,-66,52,-56,82,-118,-68,111,-73,24,-66,-53,36,-117,-82,-18,121,65,-62,83,16,-107,99,-18,38,-17,63,100,-22,-70,-35,-100,27,5,101,-53,100,-14,-110,-48,48,-66,-8,-25,-10,-106,-25,110,-43,98,81,37,78,-85,26,108,-98,-106,-59,-11,60,55,3,47,-58,54,29,104,10,87,89,-51,-99,18,41,-83,93,40,-71,-13,-28,-78,20,-20,-43,-13,116,47,-29,51,-86,-6,46,63,117,122,4,59,45,-117,-44,36,-13,-35,-113,-128,34,100,-3,-60,61,-119,-57,13,-89,-118,54,-124,125,-4,-110,33,93,77,70,-59,-27,-57,117,-42,47,-127,48,-31,-44,97,-119,-38,42,90,-2,-44,-11,91,-80,31,-30,32,3,-60,-118,64,92,-58,17,-10,38,75,-92,113,-95,13,-21,-108,98,29,-91,-116,-28,63,109,-111,-105,11,114,65,76,-106,-107,-22,-49,-13,84,122,-82,69,112,114,32,6,89,32,-65,53,30,93,16,-56,-17,-118,-20,-24,25,-52,-24,40,-44,77,43,3,55,-20,69,5,124,-83,-99,-25,19,-61,66,-116,-9,14,48,19,-72,-122,-52,53,73,-88,117,-39,50,-112,124,96,9,-49,-79,1,90,120,-75,-23,104,117,-98,31,21,76,-10,72,-32,1,114,47,75,-80,-37,111,-103,-42,36,-89,-101,121,82,-81,50,0,-127,-88,90,89,13,22,20,52,-44,-61,25,112,-1,47,5,-67,94,-114,34,12,-4,94,93,100,44,33,-57,-23,37,-58,-20,-15,119,-85,65,84,47,-12,-59,126,49,14,53,87,81,113,-68,-63,20,14,-5,-40,51,92,-4,-101,13,-43,-113,27,-34,-116,75,-124,-60,9,-104,9,48,58,-66,44,-5,-19,-28,-85,18,-27,93,-100,-17,-77,-80,88,34,-25,70,-19,-10,113,99,-56,100,-115,-107,-31,-82,-17,-36,91,1,-123,50,-85,-32,14,120,-41,1,-92,62,-11,48,-20,-40,6,95,13,114,12,-52,-47,63,-119,122,35,90,-106,-45,57,-107,21,-34,110,41,71,-113,-41,125,50,-34,-42,-116,-68,-49,6,-25,90,-76,-58,-106,126,26,-2,-106,-54,29,-54,-59,-116,-30,46,-54,88,-76,-102,98,101,-63,-41,68,112,44,105,54,15,-33,86,60,-53,-6,53,58,-118,124,-10,36,0,53,103,95,57,-51,11,80,-85,22,-126,76,18,-122,115,88,-115,-28,-31,-33,-104,-109,-38,-76,-15,118,-57,-23,68,2,-91,-39,-107,77,2,123,21,27,-70,83,42,44,-126,71,-25,42,69,117,-118,-102,90,39,-33,-3,-38,-29,-13,-7,15,100,-10,46,38,5,27,92,113,-117,71,32,-60,-46,101,-40,84,48,73,-65,17,-49,59,52,69,-26,117,77,38,-77,57,69,100,6,-108,-88,-72,102,-119,-7,-126,-28,-53,91,-97,65,68,81,72,111,-114,-125,-19,-100,-44,-49,58,16,-74,71,-118,90,31,-3,-2,-118,81,8,37,-22,-33,104,82,-105,78,121,-56,-51,72,-76,-52,-105,89,101,-86,51,98,103,-94,112,98,8,-33,-99,-113,-1,-44,-36,-11,97,84,84,-99,-112,41,21,-80,-11,-19,101,-63,-127,-39,126,83,-104,-62,115,54,97,-73,-66,-31,28,-31,-114,49,-122,60,-45,13,-98,67,60,-104,3,-6,-25,55,-7,-54,-96,-77,27,-1,-108,13,89,113,122,81,-45,85,-19,-10,-98,99,42,36,97,-89,-51,125,-81,-79,-107,88,109,-7,-73,-79,51,121,-38,-4,47,5,-9,59,10,92,-108,65,-20,-122,-77,8,-7,39,85,125,83,77,87,34,0,55,-106,13,101,95,-88,91,68,121,-125,78,-121,-10,64,-43,-34,-100,47,89,-1,98,50,-56,28,-35,-27,78,122,1,48,97,-93,78,0,45,-66,-43,11,114,-34,118,12,-17,-44,-39,-76,56,-68,-49,-102,79,-109,-8,-29,57,85,-121,-59,83,2,29,-124,20,-14,41,-40,-68,85,31,93,127,-100,-24,-115,51,-71,-27,-16,-107,-45,112,81,124,31,-117,-60,110,34,-21,-66,-48,120,-72,-120,13,96,101,83,97,-116,-99,28,-74,90,-43,-7,-98,11,-43,-96,-112,67,-62,-1,-77,90,-45,21,-36,-93,-104,48,-33,53,10,-112,-49,108,96,62,98,56,26,-85,-9,13,-89,54,-71,118,-76,25,113,-71,-7,66,-34,-82,-73,-44,77,37,44,103,-79,15,104,25,107,-19,22,1,-31,28,33,112,25,68,-41,-105,-62,-20,125,-105,-35,20,-3,-65,-34,-93,74,110,-99,68,9,-80,19,-28,-12,49,-61,-21,18,-65,37,-42,20,-66,63,-8,106,89,18,48,-2,87,-47,-25,55,-72,8,107,-25,-85,104,-74,-79,-29,-19,-85,71,-42,77,-89,-8,96,103,-5,59,-81,44,94,-114,-107,-67,-122,117,15,2,-112,-61,-78,-117,96,-109,-104,119,67,110,22,34,21,-100,57,73,-88,118,83,-118,-122,125,116,-23,118,75,-38,100,55,5,-1,50,-99,-124,102,9,-93,-23,13,-27,-104,100,112,-119,-46,-123,110,-56,70,12,-90,119,-113,-65,-119,-48,99,-90,84,-39,73,-99,-112,-30,-5,15,43,48,11,35,119,77,32,-47,-15,-124,75,-113,56,-27,-28,27,41,9,126,-84,-40,15,70,117,-113,96,51,7,-115,94,-103,87,24,-84,49,98,-113,47,-17,-110,-2,-94,91,96,-118,-14,88,-58,24,-94,-81,-68,25,-75,65,117,-95,-15,-111,-64,67,-23,22,61,108,-42,-118,102,11,3,-55,-59,82,-70,40,-70,47,-60,-63,80,-77,-114,-27,104,9,9,-107,-3,-118,-79,100,-34,108,122,-121,50,-11,-15,-7,-57,12,-4,116,102,-111,62,74,108,-89,-105,-52,105,76,-23,-113,-91,98,-82,-79,77,-38,49,78,-85,88,66,14,126,-29,36,-53,-89,-56,47,3,-48,105,56,92,82,93,-24,93,121,82,-38,-87,54,77,91,-34,-110,-26,-33,-64,-30,20,64,-6,-76,-49,-100,72,-10,-117,95,-107,51,84,-1,21,-57,-46,-66,0,51,34,40,-78,-66,78,14,71,-21,-91,-53,-37,115,-124,76,113,-100,-14,-26,84,-14,-8,121,0,-3,-59,20,64,102,42,-97,-51,106,54,54,-80,-86,-68,-79,-2,123,28,-112,32,-98,-27,13,0,-43,13,26,-94,-89,14,102,100,-49,55,9,98,-14,39,49,-38,-60,-30,-99,-58,-15,127,119,43,79,-117,-47,-6,-114,-8,-118,-51,-73,38,53,-14,76,29,-81,-9,22,-8,-109,-116,-120,-19,-51,-30,77,-44,-79,38,-54,99,50,97,-23,64,86,-57,81,42,29,-10,-4,121,-103,95,90,26,68,-56,69,12,2,-55,-109,-97,-11,92,-32,-37,-61,70,-68,103,-86,47,39,72,-18,-121,-45,-1,60,-80,110,-93,90,-69,-87,13,-128,-74,27,-13,73,63,-95,49,110,-46,-114,-105,-7,-27,60,33,114,54,-102,-27,-128,-90,45,-5,-11,50,68,-64,51,2,87,-77,-49,33,113,4,-46,96,-98,20,-13,95,-103,-98,4,49,22,-34,105,72,115,21,103,-99,4,107,56,121,46,-6,67,119,52,-122,75,-77,-67,111,23,115,77,-60,-109,7,18,-46,-128,110,-71,-21,-84,86,84,39,71,-77,126,2,-87,58,-92,-3,-101,88,-126,-4,106,116,-124,-22,-8,-51,113,106,-12,57,46,10,-108,110,-114,1,35,-19,-27,-84,-41,23,-91,-94,-117,-128,-80,-44,35,-54,-25,-82,-59,45,83,-6,4,-78,20,124,-56,61,-49,-19,20,60,-81,-126,43,64,8,51,-119,-84,96,-104,-74,-55,-18,34,52,121,78,-113,75,-51,-3,43,-83,-87,117,-55,-52,-108,-42,120,99,-30,-31,-78,-36,24,72,-58,-76,42,-71,-4,59,-36,49,24,80,-43,-18,86,10,46,82,55,-95,79,59,-31,65,86,-52,-57,3,56,-79,-48,-24,-54,11,42,-102,50,-64,-128,41,-80,-123,-128,7,30,80,-88,21,-48,62,-7,-17,1,71,-84,116,4,-22,-67,-73,68,-119,60,-90,38,-86,68,-107,-10,-103,21,-111,-52,-41,-118,28,-80,-30,5,29,-24,38,66,-13,-106,104,77,-6,5,80,70,48,28,-49,110,103,40,-115,-101,81,-66,-18,8,-60,107,-2,116,-30,-54,-52,21,15,-40,99,-105,-104,-20,100,119,81,91,-53,-62,33,-16,27,-54,-64,53,-50,70,-47,-20,-62,-41,-118,-65,114,125,43,38,-14,31,12,-96,1,7,-42,34,74,-62,-111,-63,-105,-13,79,16,30,86,-52,-87,-68,-77,-56,8,-68,-44,124,67,-54,-47,-13,-64,-5,74,-121,5,63,-115,13,19,-74,-96,116,65,-35,84,77,14,-59,87,-63,12,0,-72,67,-43,-4,-53,-65,-70,120,110,-111,-118,127,-96,74,-80,56,15,63,91,80,90,78,126,-19,5,24,-97,-78,31,83,-6,122,-102,-29,107,47,125,-90,-34,24,69,-39,69,-5,-68,-125,32,118,-104,32,88,-49,-56,-80,-38,4,119,-50,86,91,-4,-34,93,-7,-44,-55,28,55,-125,91,79,50,117,32,54,-79,83,-92,-94,17,100,8,-4,-17,36,-83,83,95,97,115,54,1,-13,-2,44,76,-76,-46,75,22,-69,22,-12,99,3,-27,-78,-125,-100,-31,-11,-97,100,-26,8,54,-120,87,106,-69,30,109,-21,-121,109,5,-128,54,44,31,104,70,117,-4,95,61,-57,-122,34,-86,79,95,-34,-39,-115,-110,-113,-100,12,-6,19,124,-90,-74,81,87,-125,-59,-118,-81,-29,-40,-55,-88,-68,-120,-36,88,118,-109,-117,66,78,-72,30,-13,40,83,98,-22,-124,-84,18,26,-57,-69,61,-96,30,-25,-44,-106,-102,82,-24,-24,14,20,-64,-34,4,-30,104,63,93,107,-12,77,-56,-99,-41,125,50,-121,91,113,20,81,-47,37,-60,122,-92,41,61,-102,-41,116,-35,-93,100,88,117,25,22,14,94,99,118,121,109,62,-109,49,-4,25,6,-60,67,21,90,55,-18,-88,-36,23,-85,-117,112,1,60,126,-96,-57,-59,109,9,100,45,-27,-28,-106,74,-1,-92,-97,-36,-32,-108,104,-99,-125,122,-92,-23,-15,78,-111,-25,-10,66,-3,-104,-82,33,56,-109,-50,27,-82,-118,47,17,-57,51,-66,-5,54,37,-117,64,119,34,-103,-107,-84,-118,120,-122,-5,40,-106,65,-25,-125,-13,27,34,49,-12,34,-88,-57,-69,21,-108,51,-93,79,101,-68,122,-91,120,-73,55,-98,-124,-47,-15,-116,-38,-124,-38,28,43,-31,-31,-83,89,34,120,55,-18,78,91,91,-24,34,101,-94,43,10,62,-106,-64,8,67,18,-58,-16,86,34,-5,-46,-72,23,119,118,66,47,-11,53,-96,-89,-83,6,21,-48,112,-44,57,-21,83,-55,-82,-85,85,24,21,-35,110,-77,3,-18,61,-98,112,12,-29,102,45,33,28,-63,-126,15,57,3,-120,102,68,91,36,17,84,15,111,115,-28,-32,-60,-92,56,122,-101,-29,-61,45,30,-10,-53,125,-49,-90,-32,22,-19,-124,-92,43,-55,-56,-72,42,-26,-120,-8,98,31,78,34,117,-39,46,76,-109,-72,49,-50,17,39,42,111,-110,-21,-37,92,-30,83,-94,-84,-12,26,8,-119,72,16,106,-67,-22,68,-6,-93,11,15,19,38,-95,67,-91,-37,44,64,-71,-28,112,89,52,-51,-53,23,45,-37,-112,0,99,47,-103,-45,102,-2,33,-48,111,-15,-75,67,-108,69,-115,77,31,7,-125,-102,1,14,78,85,89,-25,-75,-108,-124,-81,-88,54,-30,117,-125,71,91,21,-27,-95,-111,-98,-21,-128,-125,-29,104,-41,98,-46,85,-84,-107,2,103,55,121,8,-66,15,-89,59,125,13,84,-74,98,35,116,-117,-65,118,-3,94,-44,33,-29,-66,99,96,-84,84,108,-83,28,-31,101,-20,79,-58,59,-86,4,-22,-38,105,-60,29,81,70,87,47,-13,-116,-3,85,107,60,-40,22,119,-65,-109,-88,-67,-107,-48,118,91,115,-128,40,-79,-33,-47,-69,32,92,-123,101,11,125,121,34,40,108,113,-104,0,52,-99,-85,-50,-65,61,96,-112,-57,87,22,112,120,-103,-21,-79,69,-76,-54,4,112,-81,-101,-106,-110,66,-103,107,123,-55,-57,119,-97,-34,123,-117,43,-19,98,-77,-126,-29,-59,101,-63,8,60,-10,-51,-57,15,-115,13,-82,-63,-62,-97,9,109,-51,11,-128,57,-26,17,-1,3,64,-60,81,-19,28,103,99,47,58,-107,-123,40,-79,119,-13,16,28,10,-35,17,5,24,-126,-97,-81,8,125,120,-123,-3,87,20,-47,55,-54,-117,12,-103,16,121,-121,31,-76,22,-23,61,-106,10,-39,-70,7,42,77,-47,34,-26,40,-128,-90,-34,89,-23,-46,50,-83,-3,65,60,-126,55,-77,-50,102,28,-1,-126,75,23,58,43,-69,-19,-37,-50,-110,-49,-50,-72,108,117,-39,-128,-49,-100,-30,-6,-77,65,-83,9,-18,-10,-48,43,-85,125,-121,-34,-53,80,-125,-126,55,-43,127,87,6,123,4,106,3,-93,-103,86,-15,123,112,18,-22,-126,-11,3,-23,-83,91,-75,-87,-75,-16,53,116,-115,-125,-4,44,-121,94,-3,-40,-117,43,-86,-127,-25,17,-71,106,-122,-28,-23,-63,-100,26,-120,-95,-44,104,89,-73,89,-34,-87,-63,-94,48,126,10,-126,101,-44,64,80,-9,-45,61,-120,98,58,37,18,-65,-96,-28,26,5,-116,-80,-62,-28,27,2,-100,-33,-116,-62,-116,25,-67,43,106,-15,92,94,-9,62,-68,54,-120,-64,14,94,-55,-106,8,38,-106,-88,6,-85,89,-26,-42,114,66,72,95,117,-116,97,64,24,31,-116,-50,-8,-104,80,-117,14,106,-64,-70,-2,-60,44,22,77,21,-103,-52,75,-102,40,-40,79,94,68,-114,-47,121,125,61,-10,125,107,55,42,-53,-38,-121,-41,-17,-10,-94,-21,-100,-20,7,23,5,-116,91,-93,117,66,125,-41,-1,-90,-120,-91,99,61,-92,-80,-86,-24,112,49,-127,-35,82,113,79,-73,-71,24,35,54,24,-22,-99,-59,84,-127,-42,64,75,40,62,-84,11,-56,110,-11,-114,121,96,-43,33,-116,7,-25,49,117,47,-3,19,119,65,-126,53,3,-116,45,-7,74,95,30,-128,83,-64,103,-66,-93,101,-95,100,75,-115,100,55,25,-2,55,-41,-48,-3,-120,30,63,50,-7,-69,-80,31,-81,-122,-9,9,-71,106,97,101,-126,-58,23,-95,-14,112,36,35,-72,88,104,124,-25,-103,-62,56,9,126,73,-18,3,-74,38,81,106,33,12,-123,-81,69,-124,51,0,65,-114,-87,-23,64,-123,-7,-79,-112,41,56,-47,-68,73,-114,-30,-97,94,55,-66,73,113,54,-23,42,53,-8,118,50,-84,42,120,80,-119,-103,-19,93,-126,-110,-30,-53,-45,102,18,47,-48,-124,32,-102,22,-107,17,67,107,4,67,39,39,-2,71,-24,-76,87,-67,-106,-114,27,-74,67,114,102,-95,-75,-47,113,89,72,30,-61,-25,127,-27,121,3,22,110,-105,-100,-89,14,56,21,-121,58,-115,-85,-4,68,65,-81,67,-98,-18,-69,-53,-79,81,26,101,-8,-25,-37,101,-51,-67,24,100,-44,91,59,40,83,-121,94,-7,-116,105,-103,-80,28,-31,-42,-40,56,81,0,8,-64,-119,-128,66,-30,53,11,-125,88,-34,-87,29,123,-114,4,37,-47,-116,-108,108,68,-58,43,-50,113,84,-48,-103,-6,-107,66,88,19,118,-125,-117,41,67,-26,-103,104,-119,67,-64,-64,98,-74,-49,-30,35,123,-118,71,84,-39,-81,-95,115,38,-21,-23,-73,83,44,11,-105,33,-2,-73,55,58,-71,100,-13,-87,-23,41,-36,80,-11,-13,10,-97,40,116,67,-27,-14,44,-87,-30,7,-41,-61,16,51,-77,-126,-3,-90,127,12,-10,5,-47,77,15,-97,-97,-40,52,82,76,26,-32,-21,70,-67,36,-106,-44,72,70,101,-49,111,24,-32,-20,-25,-90,18,-51,-73,-73,81,-59,-20,24,15,30,-89,-56,-88,-34,20,-114,-78,77,-87,-85,-17,23,-87,120,-32,122,-112,67,20,-26,-89,44,-127,95,31,-22,44,84,-73,42,56,43,102,78,-75,71,-4,-85,1,-22,-9,-1,27,-34,-2,-22,-77,-104,77,41,-38,-110,-82,110,73,-54,64,-87,-76,-110,25,127,89,106,115,-77,83,85,74,-31,-84,-55,-41,-60,42,64,-20,111,-47,-28,33,2,50,-22,-112,-45,52,76,111,12,-42,90,-66,23,-52,-55,-27,-92,-47,-60,84,121,27,104,80,-76,-58,101,-52,-124,-106,-109,-122,-19,85,-5,31,74,-52,-120,-106,68,0,-21,26,114,10,98,94,8,112,-87,78,-99,-94,3,20,-46,83,-76,80,127,60,30,28,-124,38,-39,-49,63,-7,-42,23,116,40,65,-6,-89,77,-120,123,48,-19,-35,127,-35,-82,27,91,59,-42,-85,95,-32,70,-22,-79,-55,-14,-71,124,117,-30,-85,-18,-59,-39,74,40,-26,-74,-66,45,14,94,-122,-18,-102,84,-86,-71,125,43,16,-86,89,-79,36,-86,-93,-89,-86,-107,74,-69,4,111,-28,51,104,80,104,-55,-67,-47,-11,46,-38,-76,4,44,40,-21,25,-43,-41,36,17,2,122,16,-45,-48,58,103,49,-43,-5,103,-15,-70,-22,-80,-15,-23,-94,25,-115,10,101,-63,69,-126,-50,107,-106,-73,-20,10,29,-72,-69,79,-120,96,101,26,86,-86,41,17,-40,-1,80,50,15,-27,9,89,-13,54,64,-23,-72,-121,95,102,1,75,-46,-118,58,36,-99,-23,68,-123,104,-51,-85,-10,66,-39,94,-39,71,107,-77,60,21,40,48,105,-19,82,66,63,-2,79,-118,22,17,67,92,-76,-11,-104,24,-80,44,36,-1,34,31,-86,7,-50,79,-71,113,-40,-75,-55,-122,-53,59,-26,-108,-39,-108,-2,125,-98,-64,-10,33,-107,25,52,34,52,-14,118,78,-66,70,-79,-38,-122,21,-88,78,31,90,35,-40,-118,-54,-118,123,100,121,90,-107,5,-84,-106,60,-51,66,-97,-94,19,20,115,48,2,117,49,82,-112,-57,63,-41,9,13,-33,59,-17,-100,52,90,-115,125,-127,109,-102,-96,30,19,-35,-28,103,63,-28,-53,53,99,-14,-72,43,102,-74,122,58,-101,-49,65,18,109,103,33,127,50,115,82,80,15,-62,121,114,52,-41,123,-19,-18,-59,13,-3,7,39,94,68,81,-46,-55,-45,3,29,94,-115,6,-122,96,-125,11,49,-43,90,95,-6,-63,97,-94,34,28,71,-87,-97,89,-120,-19,52,14,-44,-38,-28,-123,73,121,-106,79,-69,-25,98,44,-42,-93,-42,89,-25,-70,38,17,66,4,63,-104,3,46,14,-108,-83,114,-48,96,38,-88,73,-53,60,108,77,45,-11,104,-94,87,103,-3,-107,-7,-43,109,47,94,20,77,84,26,-86,-81,-55,-62,-93,19,-109,-126,-55,8,-75,-52,-37,-104,2,-95,-114,-20,71,-108,119,49,-12,19,-34,117,-126,77,82,-106,124,-104,54,-46,120,-46,-90,-14,-16,-27,91,5,127,-116,-106,-17,59,39,-109,54,58,56,36,61,-2,-68,34,48,-65,-35,-23,-101,43,105,-128,-122,-53,82,35,-107,-55,-51,-21,74,-88,52,82,-55,-80,-25,-90,88,-61,108,-100,-45,-122,69,34,-102,-10,98,51,64,-61,-98,49,22,121,-17,-76,103,102,23,-81,-107,-77,4,83,-73,101,-111,116,102,-118,-100,86,-91,-98,117,-7,-95,-50,-74,-116,76,-59,61,74,2,105,-88,45,112,88,33,-77,-117,29,38,-103,65,-29,-112,25,-102,-101,126,-125,-128,112,-111,103,-98,80,69,-88,-32,41,-70,-63,32,80,18,-15,59,-114,109,87,32,-74,-118,47,-91,-67,57,-105,42,-114,-38,56,-28,43,40,-9,95,79,-101,-1,20,124,-39,88,-97,122,84,8,-95,105,49,36,20,92,-101,125,-28,-66,52,-105,125,15,77,94,-89,-89,-67,-21,-26,-72,46,-128,-22,70,-14,103,-64,54,87,-22,-94,-12,-23,-122,86,108,109,4,16,126,-71,-96,15,113,-104,-97,58,-82,-14,-68,-49,-108,117,-59,20,70,122,-84,8,34,-47,112,-57,43,41,-111,-63,-4,6,96,60,-89,11,-18,-71,4,-18,54,93,86,-83,-35,113,-122,-83,-70,-59,2,-110,-88,-82,-118,-61,78,-22,43,46,51,79,83,10,68,-100,-120,44,-98,51,-66,-8,0,-12,50,-64,-52,59,63,96,9,16,63,-39,-22,-24,84,98,61,94,-59,3,-77,74,-14,117,-31,-18,41,126,-9,-20,-89,-81,117,-4,74,-70,18,81,93,-69,-38,-27,-35,102,-58,-30,-22,53,-57,-93,-76,107,-39,31,5,-58,-101,16,-90,-50,49,80,77,-76,-12,84,101,79,-66,56,44,127,-33,87,22,-102,-29,7,126,92,-112,39,-46,-63,57,91,67,-119,11,63,-127,48,116,110,-11,-89,59,63,-10,4,-100,103,-3,-5,-37,92,35,35,111,96,-101,104,90,18,-10,71,42,-24,43,61,-42,-43,-79,-109,-70,13,-90,-127,-116,-54,3,113,-121,33,-45,-52,-13,64,12,-107,84,125,-77,-53,-4,-65,26,-67,115,101,-95,36,95,21,-87,-117,93,95,43,5,-23,125,-58,97,-106,-33,-86,-127,-81,-96,51,111,24,-75,68,33,17,55,-49,-15,39,-84,-25,101,72,-115,107,53,-15,-70,-44,-117,84,-33,31,-84,-88,-96,-122,-94,-18,38,-66,-19,-107,-112,-9,-22,18,-127,-74,-88,-67,-98,20,-45,-61,-19,-95,-88,76,-24,-18,118,-96,90,66,-86,65,41,-80,-60,-33,-43,84,-114,-3,-37,-74,70,-57,73,-15,-100,-58,108,-69,6,1,-24,78,10,-82,108,79,49,-51,-31,-1,-104,59,-82,48,-124,-59,21,-108,-91,-87,123,16,-20,69,28,16,30,-68,-69,56,102,-52,5,80,106,-21,45,-114,61,-4,63,-125,-94,-126,-25,-10,-30,-128,16,-19,-92,72,-101,56,53,-2,57,120,68,61,-18,116,110,-106,-108,-43,-13,34,-38,95,87,-124,-98,-35,-79,-6,-62,-26,-16,-9,36,-106,-77,31,50,-65,36,-46,72,93,27,-63,45,-56,110,-78,-124,10,-12,87,10,44,-22,30,105,-128,-97,57,-72,-109,18,-8,-119,66,-50,-113,29,-103,89,56,74,15,4,44,-99,62,-55,10,82,-89,-21,57,-3,88,-117,-6,-36,-70,93,-91,-68,-6,65,-4,125,52,-84,-39,51,-121,47,2,95,49,17,-23,-36,-68,80,41,-80,-38,-1,36,-95,-108,116,74,103,-37,69,95,-74,44,50,27,-88,123,28,14,-81,-32,-60,105,-97,45,46,-122,1,-46,73,113,-97,7,-119,69,-128,89,101,-43,-90,119,-49,122,-38,51,61,114,-123,29,-63,115,48,-105,-93,67,113,49,5,31,-86,-75,126,45,111,-112,49,36,24,47,71,41,-119,20,76,71,5,-7,-29,78,15,109,66,92,-63,-63,-126,16,35,9,38,-41,87,38,110,26,100,-33,112,-55,-4,-85,-62,27,-49,25,-119,-40,-77,-80,-32,-83,31,-127,94,91,-33,-33,-90,-29,-99,30,69,98,114,36,23,-70,36,-103,-98,-41,1,-34,65,-95,-45,115,58,33,0,47,-53,-58,8,-52,-38,26,75,-21,125,-46,18,120,53,-104,-62,109,-115,-125,119,84,70,91,-121,124,68,-19,80,0,122,-12,-107,-98,-106,-65,-107,-16,0,113,95,-96,-13,-124,-20,26,-49,54,72,-25,39,40,7,12,79,-31,-40,-14,88,6,-95,93,-99,-24,35,-16,70,-79,10,-46,-31,25,-46,-30,-115,82,-37,49,18,24,-124,-81,87,-116,-58,89,-98,102,0,107,-28,87,-127,-44,-128,50,-99,123,-29,-59,-4,66,87,65,88,121,-30,-97,-100,-123,-81,77,-58,61,93,-57,37,17,73,95,110,-125,4,22,-50,-38,-106,21,33,-6,-22,32,56,-30,-119,-27,12,24,-62,-121,-9,6,89,108,119,44,-24,30,-36,84,123,59,2,88,94,-76,-35,-68,87,-19,96,71,21,-1,112,123,41,-29,26,-4,-49,-120,-22,45,-53,-55,-104,56,-124,114,91,99,80,118,51,-9,-76,-8,-51,-31,-3,29,57,120,-92,102,-35,87,25,32,78,127,-82,87,35,-68,40,113,66,58,-47,63,62,109,103,117,3,1,117,61,36,-8,33,-127,87,29,23,104,27,22,66,-21,102,39,29,-106,-6,-4,-85,11,-11,-87,97,125,16,28,4,-2,-36,24,5,63,101,58,-94,-48,109,78,57,-22,-52,-48,-97,-106,15,17,90,88,-59,-107,-7,-13,-73,-55,-73,-80,55,-3,62,88,102,-70,125,126,-80,72,107,-67,-109,-14,65,-40,57,32,-127,-87,28,96,-4,-6,110,41,9,-88,83,43,-44,-54,-75,74,-49,22,31,41,21,-74,-82,61,-110,-109,-39,90,41,101,45,108,112,43,125,87,-81,-47,28,-126,110,111,-117,-50,-96,-81,80,7,-10,-7,-95,79,-43,31,-5,95,-83,-68,13,-76,-78,82,125,90,-117,-51,93,-69,-56,22,93,58,43,0,93,-115,-85,-82,-95,34,9,44,58,82,5,-3,65,-37,51,108,-114,-114,42,6,-120,16,18,-117,114,-121,114,43,-60,44,90,23,84,112,90,57,-60,-28,5,81,-64,13,-100,22,67,-86,29,61,28,-30,79,-65,2,-28,-49,18,97,121,-19,29,-45,101,14,6,-42,-105,64,74,5,20,29,-30,60,-98,30,-65,-16,100,-48,-2,105,37,-52,18,37,93,-78,78,23,-116,-114,62,119,-126,-109,-29,-2,85,95,-29,110,-19,-32,55,-40,-94,34,44,-5,80,13,50,75,-84,-75,107,-89,-104,-58,-17,120,-53,-31,-118,-84,-35,-60,120,-127,79,75,3,-33,48,-15,-73,-73,17,-14,55,-117,4,115,30,-88,-54,-39,119,74,47,2,-119,-53,-67,-2,-43,-87,52,-97,-51,84,1,52,22,-24,-28,11,-55,91,-63,51,-39,89,1,-109,-10,-122,80,-51,-116,-62,-111,-11,-64,-73,93,-7,119,50,-52,76,-85,15,-101,18,69,-124,50,68,-108,-88,45,6,121,73,106,-63,88,113,-117,49,-49,-52,10,66,43,96,18,-2,115,123,45,-41,51,107,91,-67,106,-71,-9,47,-29,28,-72,37,-93,9,-105,-124,109,30,-22,-100,81,92,-24,-45,27,14,60,50,117,67,99,-98,-106,-58,49,-51,-89,117,-56,89,-112,8,114,121,-32,-20,22,98,91,14,35,-19,-56,25,-79,-33,59,-89,-66,114,-124,-103,41,24,32,-51,14,36,-57,5,-79,-44,9,114,108,-52,94,-95,8,-4,23,-8,41,22,60,-17,23,-63,-56,-39,-51,-54,95,-13,-96,-6,40,89,13,-24,51,-58,-59,40,-86,-59,-97,-30,108,-118,61,-118,-22,-44,-77,16,-73,124,-25,18,-65,123,0,-115,-115,-25,30,61,-123,-7,-1,-21,17,-21,49,46,15,60,35,-17,-63,126,-63,29,-125,-49,-123,84,-125,-66,-67,111,-94,15,59,-48,124,-121,16,-45,58,-95,-44,-116,55,-53,-12,125,-8,86,-106,116,12,29,-37,13,72,-117,39,21,-95,25,-108,63,79,-91,54,112,-79,-92,0,-84,-115,-101,-45,-128,90,87,-50,63,40,-108,14,-82,-54,-113,-51,98,-60,-64,-72,93,75,-71,-109,83,-85,39,7,18,-53,55,-115,17,86,-97,74,-69,27,18,117,-59,6,43,72,84,-70,60,-17,-2,53,110,-35,-103,33,-13,101,-80,109,-46,82,76,-55,-119,20,-39,56,-63,-75,49,52,-128,112,-114,-89,-76,-30,-18,56,-44,45,89,-26,68,-99,-95,96,68,41,-1,-24,58,-18,-2,-30,30,46,84,37,91,-99,105,-13,118,-35,43,-36,39,-33,-36,109,-58,-125,65,20,-17,11,-3,-45,56,72,35,-11,87,-66,60,-115,20,-14,44,124,78,-49,-99,60,-113,-77,55,-64,80,4,112,-63,14,-30,119,50,-101,-59,-39,-24,57,31,91,-50,98,109,-96,-101,-66,82,-72,-123,-5,-83,-87,112,50,51,32,50,25,-111,-103,-70,127,-29,40,27,-120,80,-4,-112,-126,117,29,-126,-106,85,126,-5,-10,-68,91,-122,42,106,1,-96,125,68,-117,-109,-70,16,14,55,-21,120,50,19,-107,-12,-40,85,77,126,-107,-33,-125,17,-23,-24,-96,-47,40,-48,-31,-67,90,-17,-82,-125,36,66,-106,36,-46,45,-70,97,-4,-5,43,-27,-114,72,-93,2,-97,11,29,105,-43,76,-8,-30,46,109,14,116,-127,-22,90,-56,-46,-113,47,-109,-115,121,-124,116,-8,-14,-113,-76,-5,38,9,-114,-45,-112,-19,115,-124,39,-1,-25,-10,-53,-20,0,43,-40,-68,69,20,-128,-116,117,117,-89,-13,-106,37,-42,81,51,-73,105,-66,-14,36,-42,-55,-11,78,-105,39,-113,-40,99,-118,-51,-82,22,-122,22,94,24,124,40,6,109,30,-82,104,-23,-7,104,21,-56,-126,64,114,19,-104,96,14,52,11,-36,106,-126,92,-103,-73,-52,40,1,-33,73,27,-34,-78,-72,-63,-35,-52,-103,-21,-106,35,53,-58,123,115,-86,50,-42,49,-46,-93,-50,33,-112,-123,-50,118,67,68,106,-121,-47,24,-64,-41,-77,-58,-45,55,-45,73,-93,-115,58,73,-71,118,110,-83,118,74,-29,59,3,78,-50,101,51,108,-23,41,70,-122,17,-28,-71,-100,78,-60,-34,-56,-72,56,72,-100,-9,-101,96,12,-126,40,93,-52,84,33,8,-27,49,-35,86,-78,-120,-114,-37,74,-51,-34,-33,81,-26,-41,12,79,-56,-102,-128,7,-102,-93,52,-1,76,-7,98,-75,-22,-31,-102,82,-2,-29,-107,36,121,-7,95,62,-103,-115,-25,27,111,122,-101,-27,-21,69,22,105,-110,-23,63,105,-69,-6,-121,-53,-94,-73,34,31,36,99,68,14,-113,-85,5,-82,35,-96,-110,102,8,-125,-110,30,-71,-98,98,-10,26,28,39,49,-58,50,-40,-76,36,36,80,-53,-111,23,39,-74,-11,-87,20,-33,-65,-126,-62,33,116,-112,114,-55,-2,-126,-124,-15,104,-92,58,94,-71,-105,-119,7,-46,-32,-106,119,-56,-8,-91,-12,9,1,-97,122,-105,83,61,79,8,32,38,-52,-50,58,-36,42,47,42,41,-113,-9,-7,-10,-24,96,16,-98,16,-108,-79,45,-58,8,-116,-44,123,-117,-34,76,35,2,51,-40,-71,63,57,77,-10,36,-13,-63,-57,66,75,-1,-13,98,83,-39,-47,-6,100,-27,-70,-41,-123,47,68,-40,12,-43,81,-11,-38,46,-61,76,-59,77,-42,52,-108,-33,97,-92,-123,-98,-128,-40,98,-128,-7,-59,-1,-88,-17,-107,81,-3,105,-46,-116,-95,-54,-120,76,78,79,85,-126,118,-1,20,-46,10,-110,-2,-32,-114,106,-53,27,44,51,92,75,80,-95,52,6,85,-3,119,-115,63,-121,-106,26,95,52,123,16,119,-104,-45,-113,-41,-98,33,74,59,70,-4,118,71,31,1,91,94,84,108,45,67,-51,11,45,-48,25,81,10,-43,49,-91,4,-78,62,46,-46,15,25,61,-4,96,19,-43,-27,-123,-45,-57,-11,39,-29,19,116,121,32,-69,125,50,71,50,-83,-91,-73,99,-107,74,-54,-32,-62,36,-30,-105,46,82,92,122,-40,-96,-36,87,-126,-114,-28,-12,63,68,38,-89,-65,-116,-78,37,-43,-49,-89,-29,98,-61,-1,-54,-45,67,97,-112,22,-71,76,102,-17,106,-114,-13,-56,-112,-87,-46,110,74,-59,-46,-120,-28,-97,90,-34,-106,-35,69,-52,5,122,127,-121,-19,21,-14,-18,38,-58,35,-42,69,45,37,-34,-4,93,-76,-36,-78,107,29,-84,-118,120,-37,25,74,0,-17,-122,-66,-63,14,-96,-13,-102,-53,110,-40,-117,109,27,-9,46,11,-97,-99,-9,-64,95,39,-83,-120,41,117,96,126,-28,99,79,21,-41,29,-31,-128,67,-51,-80,100,26,45,85,-12,-39,-108,119,-55,-18,-39,86,94,91,-54,26,57,78,-2,34,119,-94,-101,-3,-9,-98,19,75,-62,110,-17,7,69,-101,74,71,22,-96,-71,110,-80,103,-125,-89,109,47,-99,-70,25,-18,10,57,87,85,-101,83,79,-125,-85,-23,-112,53,113,-115,115,-96,-58,-15,2,102,-41,-70,53,125,37,101,-70,111,-63,-99,105,48,42,25,-16,-13,44,-17,60,-29,-20,-74,-74,93,-69,-87,-2,-118,-110,-18,2,35,113,5,44,13,-126,-85,82,84,102,-49,7,72,12,46,3,93,-24,-78,43,-10,-103,-97,-66,99,72,-10,39,-54,-48,21,65,42,-9,-57,-59,124,-14,-73,38,119,43,-31,33,-51,-69,-37,33,33,127,51,81,-88,-106,98,55,-91,108,64,-23,-17,73,122,-4,-117,17,19,-32,-114,-26,52,-65,102,76,31,112,65,-67,-100,29,111,-15,-23,50,71,12,19,65,32,126,51,-8,116,33,47,77,47,127,-5,110,15,101,120,24,-34,-101,109,42,-21,101,-68,42,-89,126,88,-9,58,104,47,-24,40,-101,127,-80,-9,-33,17,-120,-121,-90,77,-28,-60,-31,17,-53,88,77,-24,69,-124,47,87,2,-73,54,-94,-96,-115,-27,91,5,-59,-12,101,-122,-80,7,-101,119,9,80,52,27,79,66,-82,-60,-5,-88,103,126,67,13,57,-74,112,5,70,33,-120,-125,-18,-77,-118,32,62,-84,-125,12,-110,116,83,19,19,29,127,62,74,-60,-114,-122,-26,95,21,-71,-48,-39,-56,-42,70,13,54,91,36,-6,62,-55,-27,-35,-100,-47,-24,105,-52,44,-79,121,-61,50,101,46,74,97,18,90,-104,-35,122,-13,50,115,41,114,73,-7,-121,34,-70,52,-4,6,91,60,12,24,76,7,-4,90,4,-28,-60,-29,-30,-76,92,90,50,92,-105,-88,71,34,-53,50,50,36,-58,-9,-128,34,48,115,-56,78,113,-9,91,71,109,112,-52,-96,-91,32,75,118,-107,-122,41,-77,69,74,79,-106,86,96,9,-127,-111,-110,22,116,91,-118,8,55,-90,113,-32,-100,-33,116,-18,-24,-1,125,49,38,25,-128,-127,123,103,76,65,-105,-59,117,32,-125,-51,16,-55,-60,-32,-63,-125,25,-98,-5,7,124,11,-110,-101,62,104,84,-100,-79,69,31,67,99,29,-101,76,95,-103,-125,-86,126,109,119,81,-34,-105,27,-26,45,-81,61,24,21,100,-97,-65,106,-15,-60,-36,20,-10,65,-104,37,57,-5,44,58,2,-77,91,113,117,-70,-79,-124,-48,-34,-38,13,34,1,116,121,-90,-57,-113,57,40,-92,-116,-82,-91,107,8,-43,-12,104,-43,-17,17,110,17,125,-128,34,8,-6,-60,93,91,56,-22,-116,-60,7,-40,63,86,-101,22,-2,-51,5,-7,59,-127,-124,67,-24,-63,121,-127,76,46,105,83,-3,60,85,108,6,-27,54,-41,-117,-127,114,78,-111,-60,78,60,121,45,32,14,42,-26,-10,13,10,31,15,-95,103,81,36,24,-25,-125,8,66,77,85,24,-31,38,-116,-37,1,4,-46,-7,-41,-21,-17,-49,-26,41,58,15,-73,-49,-12,53,-38,-72,-119,-122,1,106,-97,37,101,73,74,-122,98,32,-90,61,0,-92,-100,12,-45,9,52,-90,125,124,78,52,100,-37,-59,-118,110,50,-12,-2,-28,44,68,-67,-33,-77,75,57,122,12,-71,-75,66,-17,124,-114,2,88,-115,0,32,97,54,-7,88,21,-126,40,-16,65,67,-124,45,107,-107,-57,-118,-2,90,-122,-69,-52,-96,124,-22,-112,-12,101,22,82,-53,119,15,47,-108,-107,-14,-51,114,-77,-100,-78,-118,-13,120,-92,-72,98,105,-106,62,103,-54,0,57,-32,-111,69,71,20,93,-54,-81,-27,-45,-126,-114,82,72,1,34,-11,75,40,-128,87,108,99,1,1,-79,-111,26,93,87,-50,117,23,51,4,-62,-94,5,47,55,-121,96,89,60,-46,94,58,70,32,-30,-84,31,-99,-1,-35,105,115,106,-118,90,117,4,-88,-101,96,-81,20,96,-10,80,-40,114,-93,84,12,43,61,35,-31,107,-45,-91,81,81,34,-73,72,-50,-107,0,-18,40,-115,-63,111,92,121,55,13,12,66,60,-44,99,123,-124,-41,50,93,-81,22,91,-28,-68,-81,10,33,-116,-6,110,64,93,-109,-115,33,26,-39,-95,-62,-80,39,45,0,38,114,-128,6,-70,-78,87,75,-1,-47,-114,-46,7,31,-48,-10,-79,75,87,-81,-4,21,-107,42,90,74,-117,106,-50,109,91,98,-38,-18,-33,123,-66,42,-99,-51,-39,22,27,17,-82,21,101,-21,99,-16,-4,29,-75,50,93,96,62,-81,-79,-1,-57,66,15,-100,-25,69,-91,77,54,12,26,-65,-78,27,5,47,107,-42,-80,-85,-90,-93,-49,108,126,6,-12,70,118,64,-18,1,-74,-125,-93,-116,-75,-55,-96,46,-6,19,105,-68,-15,-10,17,-26,-66,64,90,-46,38,59,55,65,-90,100,107,105,-1,124,-60,-45,-16,-37,-118,33,-90,4,-1,-75,-7,-124,-43,36,10,38,-68,-38,-108,63,-80,51,-68,-87,51,-61,-40,67,-125,-81,-44,-79,89,110,-85,-22,-73,-19,-66,29,-119,-72,119,48,-3,29,87,16,-95,-29,1,-101,-121,-104,-116,-106,-119,-94,-109,89,19,-119,112,-84,-10,-127,-64,-3,-31,-113,43,91,70,71,-17,-75,-12,14,38,-106,14,-19,47,28,74,120,41,30,107,-49,-47,124,-74,9,41,63,-116,58,83,-38,125,-66,21,-24,86,103,-72,29,123,-62,-106,88,-53,-122,73,-29,82,66,-26,-2,68,-67,-93,-22,-28,-80,-65,17,110,-15,9,-74,-30,-31,23,41,-9,-120,57,94,25,-45,85,-82,119,118,-39,-74,13,-87,-38,-68,-25,19,118,121,-31,11,-99,49,-102,-111,-128,76,110,-8,59,-31,-72,-76,-102,-41,34,33,48,-4,114,81,-10,91,97,66,29,76,-41,27,64,-92,75,-90,59,-95,-41,76,70,-76,-114,-83,-38,113,122,-22,121,61,-18,-73,4,-59,-93,66,-80,-71,116,99,-6,-128,121,-2,59,-98,28,51,-56,-125,-101,16,-9,27,-20,38,-104,122,110,23,125,24,21,-86,16,-11,-27,119,115,112,60,96,83,-80,-45,-84,58,10,-125,21,-109,46,24,-73,-37,-116,-74,104,-128,62,91,125,26,47,107,111,103,-64,-43,-25,31,23,-101,-58,-56,74,11,99,60,-76,47,31,-39,84,110,-87,82,-34,57,113,-75,-7,-11,-52,123,-59,45,118,-111,24,-73,56,-39,-37,-108,-2,-85,-98,63,-110,106,97,1,62,45,-72,-7,-63,27,-50,-71,-8,105,-8,99,-111,23,1,102,13,52,-27,94,-119,-24,119,10,-6,118,69,-17,-69,-33,36,115,-28,-124,-60,-52,-31,-76,-88,-66,-55,-89,-119,-46,-127,-27,76,-28,44,41,-48,-115,-16,85,-75,15,104,-25,101,4,-20,-26,-29,-34,121,14,-42,31,45,123,-60,-94,0,22,124,21,-65,113,-39,-100,-117,-78,-111,-103,112,-36,-98,-46,46,-37,52,-52,120,-76,-110,-90,47,-72,-36,-33,-108,1,-62,-79,48,-47,55,69,-21,22,8,99,126,51,41,1,32,-51,-30,-17,-68,-81,102,70,60,-122,-126,-90,27,-24,-43,82,-20,87,47,-19,87,-85,-63,72,127,44,-50,40,79,111,74,-1,-19,-96,-71,101,111,-26,-19,-20,-28,-49,73,32,-14,102,98,-89,120,58,96,56,73,-86,-102,24,-119,-29,-42,10,21,120,28,-27,41,-122,22,-66,-24,-11,94,26,2,-49,58,125,-92,-78,28,84,113,-18,58,-104,-106,20,-61,-88,-104,-96,57,-85,51,75,-47,80,20,-80,111,38,-30,50,-17,-1,-105,45,102,-73,-118,16,-78,-70,-115,-93,-5,77,59,85,-126,-128,-60,42,-62,-125,116,-101,63,-82,49,-94,14,-24,5,-8,-124,63,98,-5,30,49,121,-76,92,113,80,107,23,-24,-21,-67,60,61,-38,-28,-103,107,-14,79,-118,-99,80,-115,94,-30,12,3,19,-83,43,25,84,77,-36,5,-98,-82,-20,-19,71,-72,38,-10,-53,107,28,-91,-117,96,-39,86,107,-96,1,-24,70,-3,14,-6,102,-11,91,35,126,32,81,-55,67,-87,26,-117,-77,105,52,51,-71,48,-19,58,24,-68,-19,-58,65,28,-110,-79,-45,109,96,10,109,-78,48,-2,-4,-114,49,-87,78,13,62,-128,-17,94,64,89,30,94,80,81,27,58,-106,81,109,0,-67,96,-23,3,87,17,-53,97,33,-9,113,-58,-128,-50,31,88,15,1,74,115,56,-74,8,-91,-3,-35,-81,104,10,1,102,-95,99,-51,-56,9,90,-27,81,44,-26,-118,-41,69,50,-20,26,-112,-39,19,-105,60,101,24,-92,95,60,-119,124,57,-78,105,15,-100,-92,-109,-74,95,54,12,-53,55,94,1,-127,0,10,-56,-69,-73,-77,86,-55,-93,6,55,-101,-101,-128,-62,94,-36,18,36,43,127,-54,24,-84,43,90,125,-26,62,-118,-66,-34,12,-43,112,15,15,55,26,-8,-48,-52,44,-57,-35,-121,-94,-70,-54,-10,-69,64,-102,-68,-66,21,116,-53,18,83,66,58,34,-90,-120,-120,-87,-49,-72,-30,-97,65,-37,60,121,57,-121,14,38,79,-102,-9,77,-60,-111,-119,-120,23,-76,-106,-27,63,26,-106,-101,73,104,80,-66,2,-122,42,59,-61,-109,-22,-45,-27,-65,3,22,49,60,82,36,88,101,78,-61,-49,20,-85,118,83,90,75,99,2,101,17,90,-41,-85,15,-67,-21,-106,-64,-65,68,74,86,-77,30,76,94,77,29,-31,107,86,-84,-88,-53,-66,34,112,97,-115,29,19,123,37,119,106,41,-40,-100,-4,-31,13,126,-37,-113,18,-51,-9,5,-4,-76,-31,9,-67,116,-83,46,-16,104,5,87,-75,26,96,12,66,-47,-39,-83,-62,-12,92,-50,-63,-121,-3,37,5,-64,22,-64,101,-70,-79,95,-69,33,-127,-114,-123,-94,-55,-82,-3,61,-20,30,91,40,-72,97,-35,-87,-10,44,-61,-8,-22,122,30,103,-69,110,73,-18,-68,82,75,-46,68,100,-79,-76,50,-1,110,115,38,89,-43,-29,-77,87,-38,90,32,-52,-107,116,57,-67,-31,85,-52,45,101,50,84,-32,79,-67,84,-78,-62,-123,59,-75,-64,-7,35,68,-2,-73,33,-88,34,-93,-11,-3,63,29,-15,-6,120,13,20,-121,17,29,-78,-18,-106,94,-42,-94,12,64,45,-39,49,10,72,-22,70,63,-85,18,91,14,2,-78,-78,-108,-14,4,36,-64,102,-73,1,-13,-1,-108,-54,-107,65,64,4,-117,-40,90,112,36,-1,112,-62,-16,22,73,-88,-112,-30,12,-90,25,108,108,122,59,103,106,80,-53,-100,-44,105,-82,-44,-74,-84,98,-103,115,83,4,-70,-6,-51,-31,20,-10,-42,-27,-93,52,-49,9,-92,-39,65,100,-123,-99,-83,-107,122,77,-47,37,-94,-32,24,-61,-124,-118,122,-52,-14,-55,-92,7,82,34,53,88,61,91,75,-39,-91,47,-47,4,-50,65,8,14,-16,-50,-54,-13,119,-101,-58,-61,118,38,-61,-8,-65,75,-103,105,84,-52,21,58,-12,-32,25,103,-46,61,-18,-5,-58,-27,-85,-22,17,39,9,-33,100,11,36,1,61,51,-112,72,75,73,98,-37,-17,-64,75,-95,85,-63,29,-81,-90,-43,0,-36,-116,81,-118,-127,83,27,33,-76,-127,-105,-102,13,-99,-113,-43,-33,11,-26,127,-60,-88,49,70,10,125,-103,115,-56,-100,98,91,-22,-12,-55,19,106,-121,44,-91,124,-38,-6,83,38,-25,-63,-33,-4,10,-40,-126,-68,-17,63,106,-29,-59,-119,1,0,-2,-42,9,-40,15,-50,79,-100,-21,38,-47,-40,109,81,25,-18,-17,62,4,80,66,-3,-13,-28,-32,-7,10,109,120,56,-108,-34,-45,-3,64,-2,19,-20,118,1,-83,89,-50,93,-89,-120,23,76,116,-10,24,61,127,-30,-50,14,-63,-28,-13,10,-35,57,-21,-46,107,25,43,48,-58,89,-60,23,17,51,67,-80,68,-47,21,113,78,-40,-55,-89,20,62,-102,37,-75,-23,-101,-79,111,-90,-84,-50,-48,-116,44,-117,-7,-103,64,121,109,6,-14,24,21,-38,-109,51,108,91,67,25,-72,-97,-7,-33,-48,75,-39,57,-55,-3,-6,-21,11,-111,119,41,-122,-13,114,-52,32,-105,30,99,22,10,68,122,51,83,111,-69,-12,-63,75,55,65,96,122,62,-45,107,-65,-1,104,-71,-68,-9,-18,33,33,-105,87,-27,60,-19,-70,-37,127,7,-41,89,-100,-40,-84,-114,56,35,-77,-105,74,-9,-54,24,50,-70,-104,-5,110,-27,106,-81,83,16,-57,50,80,45,-75,-103,113,55,-55,53,15,62,39,-41,-109,78,70,-50,-36,41,126,54,67,-5,99,-85,120,100,98,-106,-21,-104,-121,-42,-128,37,-80,-71,125,-12,43,-35,59,4,91,4,122,82,-73,78,-98,-66,57,-107,46,109,-59,4,-62,-33,-4,26,100,-52,-26,-3,118,-40,-33,-38,33,-50,-116,92,-72,53,-101,-5,76,112,-73,3,-27,16,83,-73,-106,-117,-21,-105,-57,106,-97,-116,99,20,98,90,-44,-127,101,-4,-13,93,19,7,5,-110,62,75,-124,-11,-34,113,-25,-48,18,63,18,-105,-87,68,60,-64,29,64,85,24,-15,109,85,-118,25,65,73,40,111,-58,16,-22,-98,8,86,16,-84,-25,31,-5,88,56,-50,12,127,109,57,-104,-69,2,-34,70,-107,19,-94,-38,51,9,-122,-111,-71,110,-79,-54,29,-26,62,-40,67,32,70,23,22,65,122,-74,-76,54,-79,113,-35,120,4,67,54,-5,-99,13,-88,-46,-69,120,123,93,-95,30,-61,-53,65,-123,-101,-55,15,42,57,89,41,-33,-40,-123,-103,-118,-69,6,-117,2,89,-27,-14,-35,-61,59,-15,98,-82,-7,94,79,-85,64,47,14,-32,43,112,108,-39,-87,-82,53,-111,18,-24,123,-6,-94,15,3,-86,-101,-82,48,4,21,-72,-84,-15,-86,113,32,119,24,-51,-23,2,-108,127,111,-33,33,-105,15,-10,24,51,82,65,55,-83,18,115,-49,-8,76,-53,-8,45,-100,93,111,-89,-38,26,-77,-68,6,111,-41,-83,-20,56,-12,105,-73,-53,-67,-112,-115,-43,-115,-128,-36,122,101,-127,-60,63,26,-112,96,-81,51,-21,108,3,65,-95,-114,-25,-17,-113,10,52,116,82,16,-17,-48,110,-72,95,-80,108,98,-105,-39,55,44,5,-40,-15,-45,93,-25,-94,-116,92,42,-43,-76,-83,103,22,-125,94,-48,-125,-13,-14,91,-107,120,84,80,-8,-123,-125,71,73,-4,70,91,16,-47,119,-63,-14,62,99,-4,45,-125,-84,66,-44,92,58,-68,-3,80,36,-42,-56,-83,110,104,-12,107,18,71,9,52,-118,74,-53,102,-127,42,113,-25,124,116,98,83,43,-36,91,-85,17,-42,66,22,-19,-20,-121,-106,3,106,71,3,-20,127,-37,96,38,-9,7,-109,77,41,-128,75,-17,26,5,58,68,122,-87,-83,-88,71,43,-93,112,-48,11,19,74,-52,8,-48,-5,-39,-18,46,-106,116,-127,75,-104,-12,-40,-91,124,-124,-100,-38,-36,-16,-14,-5,37,27,-79,-90,66,-42,26,28,107,-67,105,2,-11,-63,-127,35,90,125,-8,-13,98,14,-48,-55,98,-121,11,43,-123,107,-127,-128,114,-98,32,31,-22,-9,1,125,-49,50,-75,46,119,12,-27,105,-37,36,62,13,120,38,26,41,75,-80,60,-70,-16,12,-40,-54,47,-80,-55,8,123,126,-66,51,-6,102,118,78,62,-105,77,-123,-122,125,88,-80,66,-67,-25,53,-105,-64,-21,121,-121,-35,58,-20,60,63,30,24,87,-123,38,-26,61,-127,117,5,70,-98,-67,-70,-115,71,36,71,-54,1,8,121,3,81,102,-81,117,79,10,-81,-106,-103,-30,65,-49,-106,-91,4,56,22,-11,-4,28,118,-56,-118,27,-119,-108,110,-82,46,121,-64,52,-70,95,95,-63,-121,-59,-56,-81,-23,-31,-93,-122,-96,30,122,41,-76,-79,12,12,106,-122,40,52,31,114,79,43,-121,70,-10,-87,71,-15,93,-73,4,-9,-112,42,-11,74,-120,119,-54,3,110,-100,84,120,-89,-110,-64,88,-48,121,-16,-121,-74,11,-106,71,12,11,87,-15,-62,87,-65,-31,45,91,-94,-29,41,127,50,-32,-2,19,-83,-73,-68,-100,17,-89,-31,108,-12,-57,6,18,84,67,-54,108,-52,13,-65,-62,13,123,-15,-105,75,66,73,-101,98,-98,-126,113,127,-8,116,-62,124,80,54,118,65,43,-73,25,-89,-18,114,60,-87,85,-33,94,107,58,-123,105,3,-43,36,58,-73,-106,79,21,68,52,-117,105,-59,-56,-64,32,115,-108,-53,125,118,-87,-48,83,-70,37,95,100,-51,-34,69,-48,111,103,40,96,-30,-38,-38,-83,-100,112,-110,61,24,2,98,-62,49,-47,-52,59,8,-7,64,-86,-99,31,77,124,-128,7,-124,-81,-127,95,29,-70,113,106,-91,85,98,-49,-35,30,5,-63,-31,-87,23,-116,-98,-29,-2,102,40,-97,-120,84,2,97,62,40,62,-91,124,68,85,-23,71,116,64,87,93,91,-19,-108,-76,67,110,95,37,89,-121,50,78,57,-41,99,-20,127,-67,-68,-13,10,-127,91,108,-47,-45,6,-25,45,-118,50,49,125,6,-60,-17,20,-123,119,31,-48,70,51,97,-47,24,6,-41,-97,32,-49,-109,-98,38,88,18,-64,-74,38,-28,112,-95,124,41,22,14,-33,76,78,107,-109,-15,110,-28,11,40,34,32,-85,-75,-91,-25,120,-107,61,81,-66,-21,-118,-29,-41,63,-26,7,-98,-105,-28,64,37,114,-27,-33,-128,74,99,88,-50,114,-22,20,26,88,-88,-66,36,74,89,-4,89,-76,69,75,-10,-34,-89,102,43,95,108,-76,-110,-20,114,106,-15,-19,106,-93,-104,-114,105,-37,-68,-28,79,-18,-123,10,66,-19,-54,16,-115,-11,-122,-90,-118,49,-73,-31,-54,86,56,96,35,-90,98,72,105,126,113,-3,-40,-89,-58,-85,-8,16,28,66,-20,45,-125,50,39,-40,124,-119,-7,116,-64,42,-100,46,-15,121,-39,53,-71,-89,-7,6,-114,52,-69,-125,51,94,34,-35,68,-90,24,-66,-105,95,6,5,-109,47,17,-7,121,-64,73,70,31,109,-71,-54,-108,-42,-14,-44,11,-71,-41,44,33,-1,21,-103,112,45,28,84,34,14,74,-91,-101,-14,-55,13,-1,-66,-31,23,-106,-31,-49,-119,-32,-75,96,-37,60,-24,-54,-91,-66,85,-70,-114,-45,-40,-121,8,85,57,-71,-87,42,-27,-31,19,13,-76,88,125,102,-17,-79,65,-4,70,-114,95,32,-114,38,-11,-87,80,-74,32,43,66,-123,-65,86,-102,122,-82,-80,5,93,-34,-89,6,63,99,70,-66,114,-8,-13,42,-110,-123,-96,-94,57,-83,41,41,126,-112,76,-72,60,98,28,5,-121,120,-114,3,6,35,-75,85,1,89,57,76,-35,-52,-20,-93,-103,80,-77,-30,-91,-3,-67,59,93,103,127,-18,-33,-25,24,-88,-49,18,59,-22,45,71,-36,23,120,76,69,23,-24,-7,15,111,9,20,-22,-120,-12,75,-36,-53,-125,-26,25,62,-78,116,81,-12,49,72,79,60,49,103,90,19,-63,119,-106,-87,-39,-61,-108,36,-25,14,113,-30,109,-108,-53,67,-106,-116,-94,20,-8,117,4,86,8,79,100,16,-117,86,-74,-24,100,-9,45,38,120,-25,-62,-69,126,-120,-29,-73,97,-37,-29,66,90,-88,80,1,126,30,83,-63,11,-82,35,-93,-102,-126,90,-50,108,-84,33,-57,-123,-67,-124,-126,77,36,-97,-66,-98,-93,-87,66,-42,-54,96,14,127,-54,-56,89,-70,-119,-18,58,71,69,127,-1,-31,-13,65,-54,125,30,15,-79,80,-64,39,-60,49,-34,80,42,116,9,-63,52,52,-1,80,-115,-5,26,-103,73,111,56,37,-113,-42,-72,120,-68,76,57,-60,-68,-100,-7,-106,88,63,83,-56,74,-117,-41,-60,-99,38,-51,-108,-67,69,96,68,-14,-119,-85,63,102,88,40,-100,-13,-23,-38,107,-40,-127,77,68,-18,-110,-121,109,-99,-45,-45,127,6,35,37,-23,-16,-106,74,18,-67,-61,-123,-18,64,-72,113,10,36,-33,24,-13,-10,111,1,55,10,125,55,-62,101,82,-80,-116,12,-62,21,112,19,74,26,20,-67,-19,-104,107,-3,9,93,-12,-12,-4,-97,81,-11,111,-21,-90,-54,-13,86,-117,124,106,-46,-12,67,-99,-52,113,84,-96,93,-15,14,68,-110,97,100,31,20,118,-24,-111,-36,-72,-14,6,27,-79,69,-114,-82,-23,45,-5,-56,78,21,-20,2,-64,-16,-15,125,72,-101,-43,-49,70,-100,-51,-31,19,-19,-115,-36,91,-111,2,44,-34,-11,42,44,-100,78,-97,16,64,5,-71,-94,-17,-109,-68,13,124,112,115,-50,-101,-111,-16,-124,8,7,17,-33,88,-114,54,-8,121,5,-20,-62,82,-79,75,65,77,-75,-4,-117,-15,-122,-128,10,7,-110,-24,-100,63,-98,-126,19,118,7,95,-25,-58,38,70,-64,-53,-59,113,-58,-15,-44,-43,-23,-7,-127,3,-88,-114,46,17,-110,7,113,-116,-70,-38,75,-63,44,93,96,10,17,35,-88,102,15,79,64,-112,85,19,-74,-84,101,-104,42,-50,66,-28,16,-23,-93,113,59,52,-16,-39,34,3,-40,127,73,-113,-76,72,69,-70,94,-12,-17,-79,121,12,-50,12,-71,85,20,-48,127,-104,-113,-35,53,-78,-128,23,-102,-44,-110,100,-94,34,-113,-60,8,91,-58,123,116,-70,112,-40,102,-1,93,29,41,102,39,-104,100,46,76,-27,100,-48,-2,-92,-16,-122,35,-117,-43,65,51,10,-48,114,-32,92,99,-8,-49,69,-19,-2,23,-42,-93,55,-62,74,2,5,52,37,6,-61,96,-21,-105,86,126,-35,73,79,-107,-105,-38,65,-126,38,88,-4,-84,82,-2,23,-78,-26,-122,-85,115,125,107,108,18,-6,-2,44,-5,41,5,-20,33,-103,83,80,48,113,121,-39,-106,-72,-125,-108,119,-20,63,7,94,-20,-18,92,71,-68,11,36,102,-128,6,-32,-48,3,-12,44,71,20,-127,-6,-74,-5,14,-42,-6,118,-64,78,-68,38,-102,-21,100,17,-34,-14,47,-114,88,-84,54,22,4,120,-28,41,36,-126,127,-34,-120,-67,40,-80,79,55,87,101,-23,-99,65,-122,118,116,-85,-122,79,54,-47,112,124,23,1,70,-29,-65,-22,-81,-114,-50,3,30,-128,-16,32,-107,-90,-110,75,49,121,80,16,85,98,53,94,19,22,42,-127,-3,-116,89,125,-96,112,-95,-121,52,-35,14,79,-118,63,29,-125,79,-67,9,104,-99,-95,-34,-6,9,30,119,-67,105,73,-28,24,21,-17,-47,95,56,80,15,67,52,-76,87,-96,90,75,-102,79,73,-63,113,18,-125,64,-99,-24,15,110,5,-93,21,42,90,13,-73,-38,7,-11,18,99,3,-101,-21,-89,-79,-41,114,35,-73,-38,-88,109,-120,66,104,102,-115,-127,-24,-23,120,57,-61,116,99,48,-86,43,-104,-66,-59,55,31,-80,10,84,-48,-113,85,61,-66,52,-26,64,73,-87,86,127,-30,-88,102,22,80,-98,44,-81,45,-37,-56,-58,105,42,14,55,27,-32,72,34,-65,43,27,34,-39,10,-97,31,48,-106,112,77,70,-15,104,-67,73,-56,-11,86,-80,88,-82,-105,117,104,-98,-90,101,75,75,-15,-83,-78,-84,90,1,-105,120,0,-74,28,-63,105,-75,59,55,-14,13,-107,-110,-92,-45,124,-30,-73,124,76,114,83,96,-72,-105,36,-48,109,-4,-19,-120,27,22,43,-107,-48,-42,45,-34,-63,7,50,12,74,-22,82,86,-105,97,-48,-6,58,-99,57,-89,18,41,-34,-45,-26,-42,-49,-2,120,118,89,-66,89,59,46,-118,90,91,-67,15,52,86,65,56,-89,126,27,86,-75,-33,96,107,-69,-74,-70,30,-126,105,32,-121,-54,99,-26,105,-88,101,-12,-31,92,-5,-119,-126,-66,-120,6,-50,49,69,-33,44,64,111,-86,14,28,-60,3,74,-62,40,56,-1,31,9,60,42,44,-126,80,106,-91,-49,44,99,42,60,93,31,126,37,-31,-96,118,-98,53,-61,12,-91,74,-127,72,-22,125,-103,69,21,-47,-16,-52,108,-81,64,-98,-99,-79,-38,73,23,56,126,68,-96,-118,-36,81,-95,95,-86,-51,-19,-79,79,109,-6,11,-29,75,35,-17,-126,100,-125,-29,18,-1,-58,116,-22,-21,93,127,-85,65,-5,-12,14,-100,-5,97,37,-83,-75,76,115,123,-43,-7,-15,-8,1,70,44,18,-119,122,20,-104,-97,-17,-28,-61,-107,-89,24,43,52,47,-116,94,-91,105,70,123,-3,-99,82,-32,62,76,104,-13,-34,104,-32,23,-92,101,-105,-75,-51,104,62,7,-90,-16,-70,16,31,87,-92,50,20,66,0,3,53,-105,-87,122,-112,-31,118,-11,-73,-89,-33,-103,14,18,74,-33,-40,-25,103,-15,-80,98,77,81,28,59,113,21,71,2,81,76,44,-54,18,50,20,119,84,-112,-53,-31,118,57,-101,-8,-20,9,-68,-42,-86,63,-118,109,6,-84,82,-33,-1,-72,2,36,-7,9,23,-112,22,103,-103,-110,-49,25,116,16,109,54,100,0,84,-126,-44,-8,-51,40,44,85,-122,-63,33,34,73,119,-17,101,75,104,122,-109,18,1,-58,-3,47,123,-28,22,3,81,11,81,87,-91,29,-5,-111,-113,31,-48,-62,69,-11,53,-54,37,-127,80,20,0,31,0,-95,100,44,80,-35,-44,118,72,70,-99,95,14,-113,-56,-70,-65,-114,12,51,-74,82,111,-57,104,-99,-11,-77,-96,60,-80,6,69,35,104,-48,-42,34,49,35,-73,-127,-18,-93,27,2,117,-76,-44,-45,-22,61,81,-18,-39,96,-102,19,23,53,-80,4,-108,24,108,-89,45,-52,-21,-97,108,88,-109,-3,126,-10,-58,124,109,118,-72,91,-26,46,106,58,-82,8,-72,106,-104,-66,102,-80,30,-97,-92,126,-9,101,100,-114,-90,50,-108,-77,-48,28,-36,49,101,8,111,-3,89,25,104,122,58,0,19,-69,93,-32,-64,42,99,67,-26,34,0,8,-53,-84,57,69,48,97,28,126,21,-1,86,-85,75,13,14,-115,57,-70,-39,-52,-99,-15,-77,-123,-6,-1,-73,-47,-120,14,75,-55,-17,-8,14,-13,35,-25,126,67,20,-64,-104,-20,113,99,67,-47,91,-121,-30,89,-126,-40,61,-74,53,-80,-83,125,-108,92,-38,-125,30,0,70,120,27,65,-4,-52,-116,23,-86,35,41,-100,35,115,-62,-92,83,-74,-98,105,94,-4,23,58,1,12,57,-27,-51,125,-78,78,-77,51,40,-4,120,-29,127,-76,-11,-76,26,-65,-20,45,5,10,59,-108,105,17,-126,78,125,-97,-101,-62,105,49,44,91,10,125,-125,-12,-63,-98,-124,-86,-20,-47,12,-18,63,-50,-124,-55,-21,52,103,103,91,74,62,58,-125,20,35,72,-59,-1,47,-118,99,85,-40,104,-62,-90,-93,-51,-124,115,-110,-6,14,-124,58,79,-23,-83,57,-97,34,58,3,-2,-109,14,-100,119,39,-21,52,-84,-30,116,-122,-22,-6,3,-108,-16,73,-60,98,34,-17,-64,55,-112,-19,-39,-97,57,48,82,114,122,-1,-123,55,-89,126,-89,-15,71,15,-55,8,-97,-17,55,88,-32,49,44,127,-98,14,86,121,-17,53,72,-116,86,-64,52,-82,-26,71,73,4,126,-49,16,18,30,-32,94,1,9,-83,-72,-84,-78,68,-128,107,84,32,-3,90,-23,28,119,-64,-126,-95,-118,11,-31,-127,-69,-32,99,105,-106,-8,76,97,11,-65,97,28,107,35,-83,111,-57,28,-81,54,102,-78,-12,0,-38,-65,17,-92,-102,-106,88,67,-107,-102,-58,-94,-103,-41,-31,-117,-115,72,127,53,8,-86,42,-99,7,26,-115,-115,116,-90,22,67,-108,88,114,-117,11,29,-35,61,1,75,-95,-54,96,-100,120,-49,-26,-120,4,75,-86,-124,100,-102,125,87,34,-82,-28,43,-30,81,-120,82,-10,-76,76,-120,101,14,9,-92,58,-73,9,61,-101,110,79,94,-37,-95,86,56,1,-114,-3,105,-110,-70,-71,23,16,102,-66,125,26,-35,38,-119,-72,-107,-11,113,2,43,79,81,91,-24,118,-13,88,8,14,21,-30,-85,30,78,16,-79,84,-47,-84,-26,24,-47,124,-127,-8,74,81,43,-23,122,23,-52,109,-115,-54,-20,-106,-3,-108,-51,-16,-20,104,68,-68,-6,22,124,-10,91,127,-52,-110,74,-116,-119,108,-12,5,-31,45,44,-80,94,117,5,-58,29,20,60,-53,-109,-62,7,127,-81,-75,-54,-114,68,0,-81,29,30,74,30,11,-117,-58,-39,76,48,-25,-103,-64,89,19,10,-107,63,92,94,-82,45,17,-37,-18,-29,25,5,68,-94,-57,39,-25,56,3,94,-117,-13,-54,-116,41,-88,67,-28,-117,48,-43,71,94,116,-75,-21,125,-116,-126,-75,-20,-109,62,36,-38,-87,31,38,-100,-5,4,-110,-20,-82,-36,30,-100,27,91,87,-29,-111,-57,11,-91,-112,-43,-15,9,61,-86,-100,13,19,-57,127,-90,-60,30,-8,-104,-67,71,-100,-99,-93,98,-119,-35,-4,14,-52,-25,-86,-114,-36,-77,115,-61,83,49,122,110,4,-12,63,31,32,-52,-105,-72,34,126,-78,103,66,-127,41,120,42,42,-100,-123,-107,77,-32,-93,68,27,-122,76,15,-80,68,-102,46,-21,-93,-125,4,36,110,-98,106,-99,-73,-13,-33,-46,127,-73,24,25,71,-72,92,74,-59,61,-87,-6,82,99,-36,45,58,97,5,113,115,-125,-120,88,-63,97,103,95,-123,88,0,8,84,66,44,103,125,57,-127,-46,51,-111,55,-122,-113,46,68,-121,-74,-46,-128,-105,-56,63,91,84,92,110,39,-26,17,-10,31,-98,62,49,105,7,-22,-12,19,-112,-85,127,-53,20,65,76,2,91,-107,70,93,112,-98,113,64,106,124,113,54,-5,-66,29,-119,-117,77,-121,94,46,-110,30,45,-67,-86,12,-128,-57,111,5,-26,-104,55,73,-120,96,-9,12,-52,53,22,126,-127,-126,0,11,-3,-99,92,-104,10,62,107,-49,99,47,-98,-89,-54,73,26,65,-120,-28,98,-122,98,-80,-32,-35,33,41,41,-39,58,-81,102,127,-119,38,-114,123,-93,-100,34,83,75,-76,76,111,-108,116,62,-86,101,-30,-27,-53,-54,74,46,39,-64,-91,70,-86,7,87,-110,-77,-128,-84,-116,-109,68,-68,-65,50,-43,102,46,-58,109,92,-115,-64,-9,85,-106,117,-19,17,-21,72,-40,62,17,31,77,71,52,-77,124,-17,-34,-67,-77,23,74,-99,-14,-35,-68,-12,-22,16,-101,-65,33,-123,-11,55,45,41,-22,82,-99,-83,12,126,-22,105,-33,95,-30,-34,-39,126,102,126,-106,108,114,-91,-64,94,-110,-25,16,84,-32,-124,-101,-107,-34,23,-54,82,18,-83,99,-46,-103,124,64,117,-87,127,115,42,-105,83,6,-1,-76,-113,-40,89,-3,-96,-111,-71,-19,120,10,-49,8,88,90,36,21,87,-101,-31,-83,-2,23,91,84,25,-101,67,-49,-62,-30,102,-113,-19,6,-80,82,27,-76,-3,82,82,-90,55,91,25,-82,61,-99,23,19,-122,-60,20,-86,92,102,122,45,26,115,-122,-73,-67,-83,22,-8,-8,110,-113,-120,37,103,99,99,-49,-104,66,42,119,49,-127,87,39,13,-97,-48,-36,-5,-20,-58,-86,10,-19,58,8,-110,-86,110,114,41,46,-113,-98,85,120,-117,-12,-35,-51,-87,-21,66,-53,119,7,-72,-81,-9,-92,74,-30,111,-101,-111,47,118,91,-49,-54,-2,-79,49,62,72,-9,116,123,67,66,-70,-29,-59,126,-122,-102,99,-12,6,110,94,97,30,-114,114,105,15,88,-109,121,62,85,81,80,106,-32,-33,9,-104,-114,-72,-34,12,-15,10,52,-72,72,-120,-35,31,-112,124,-78,102,83,-29,-72,-60,-94,-11,73,15,-26,116,110,73,97,-3,78,22,12,-117,-113,-114,-23,2,-71,-102,50,18,95,-121,-48,70,-9,-58,45,37,68,108,-123,-104,77,-101,-99,36,125,40,69,-117,23,-114,27,86,120,116,-69,-15,-38,24,-44,45,88,-28,-119,11,127,-39,110,3,108,-1,19,-105,-44,17,-101,-3,102,-9,107,-61,-113,66,25,19,-37,53,27,-2,113,78,-23,32,-105,31,-49,-120,44,-66,-49,47,-80,88,43,98,9,106,27,121,58,122,117,8,-51,-25,6,3,57,-36,-78,8,-2,-26,97,-9,14,-48,83,46,-114,-80,79,-45,-2,99,-107,21,29,72,-63,63,-101,69,-116,-14,87,-68,46,6,-62,100,57,-38,105,118,38,-76,105,-93,-54,-39,21,-123,4,-106,-88,1,-43,-127,-52,-54,32,9,-77,-60,49,91,-26,72,118,-24,-98,-111,29,52,-59,15,76,32,-39,-116,-68,22,42,-15,-30,95,-24,-35,-32,22,-3,-19,-88,8,-94,19,84,105,104,-92,37,17,-15,73,39,21,5,99,-78,-76,-21,26,40,26,84,104,-60,110,24,44,84,19,119,19,-117,-25,100,-36,108,24,96,-60,108,-76,45,-109,-40,52,-107,-47,11,-57,114,-88,27,-33,11,81,-102,-5,31,29,-100,13,79,-8,-116,111,-66,49,92,-18,106,46,120,-71,-109,59,-81,-77,102,-94,-33,113,-119,60,-104,68,-121,79,-38,-15,-64,13,-77,0,-76,-109,-128,-1,-84,-76,72,-56,-124,-108,56,-101,-122,69,4,-104,-2,-34,-81,18,-110,33,62,7,71,74,-110,-54,68,59,-47,14,-69,-43,20,91,-44,-117,31,58,-50,17,49,-61,33,-10,-64,-110,-28,-69,-73,-57,74,90,105,-35,11,59,57,-10,-120,106,-32,-5,-96,23,-115,46,5,-23,-75,17,86,3,-14,-18,-73,43,-71,19,-64,-78,-81,22,-33,-103,-36,-23,-90,-49,79,23,58,9,-2,-58,-85,29,87,-63,-3,-84,-31,-71,68,-89,9,10,108,-14,125,111,9,0,93,116,-7,-7,69,-105,23,2,-65,-34,38,-53,-97,-18,-27,71,-69,-14,-64,121,32,-29,-15,-67,28,-25,-96,-38,-119,-37,93,73,19,-105,-94,-98,64,-65,0,70,-110,-47,27,-37,-40,-86,39,-23,-32,95,124,-36,38,-102,17,-91,-80,-87,121,51,-8,-111,109,-36,-73,22,44,98,-118,39,57,74,-67,-81,2,93,-79,111,10,79,13,-59,47,-40,-44,91,76,104,116,8,-64,36,117,60,83,50,-117,59,-17,-80,-106,-35,58,-108,-62,-29,-91,-47,-16,-117,58,24,43,-116,126,15,-118,20,-35,-97,-79,126,45,124,-76,-53,52,103,-84,118,-65,-5,-26,10,-117,-13,91,-57,-89,-3,116,76,3,0,-85,29,-17,17,59,-21,29,17,-19,105,93,-93,95,-65,-52,92,12,16,80,103,94,-76,-85,90,9,-124,87,-114,-26,-34,70,36,-108,7,2,38,58,-32,-111,-113,18,-26,77,-123,-82,90,116,-5,62,-90,44,122,-47,13,-100,-107,113,43,103,88,102,59,61,-79,102,28,-95,19,-52,123,81,-94,-127,-13,-105,101,-100,125,-39,-100,17,-92,-128,114,97,105,-92,77,1,84,112,30,126,118,28,-110,34,-107,75,47,-74,79,120,-24,12,45,90,-97,75,-18,89,-112,28,-92,83,-124,96,116,-27,92,-47,-82,13,-119,87,113,-75,-42,-95,98,-98,18,22,46,20,-68,-125,-7,-15,-38,4,3,68,-19,-100,-35,-48,56,-9,77,117,-98,-76,-126,-55,-121,-126,78,36,-1,-101,91,33,80,78,63,-103,-54,-68,13,-93,-89,42,67,-98,-34,-83,66,24,13,114,51,-77,-57,-109,96,-23,112,-6,71,-13,-46,-98,-53,-45,9,-122,17,82,16,-83,-72,121,75,-1,-64,83,83,-4,-51,-73,34,121,-85,110,52,-101,-55,-60,-69,45,-33,83,-73,33,12,-29,23,-86,29,11,-2,34,64,101,120,126,-115,30,-39,93,-56,-29,19,35,-26,-113,-1,-10,-40,-118,-97,47,-65,118,-97,7,96,-126,-127,-108,-46,-57,88,-91,-103,-75,11,-4,-128,-110,28,111,63,83,-82,-46,-39,-98,97,77,55,120,76,123,-10,-37,-101,-22,-84,-111,0,41,40,108,35,-48,-27,89,-115,5,117,127,-104,51,92,-7,-75,-108,22,-103,125,-72,91,-114,-11,22,-22,-1,6,-93,-38,-106,-69,98,32,-65,3,37,-60,-70,-126,-112,83,115,107,15,-102,107,-25,14,15,-108,-122,-39,-88,-123,47,41,21,4,-120,-103,-21,85,-70,-2,84,63,91,-87,-5,-44,-43,-120,115,-76,8,-74,-90,101,31,76,48,22,72,30,36,95,25,34,-41,-72,35,3,-35,11,-6,-10,-20,46,88,-108,41,-76,47,51,-106,-68,124,63,97,-83,42,-110,38,95,-30,-81,15,-84,-122,-112,42,85,-97,90,-114,-55,-51,-95,126,-128,-39,24,-46,-23,54,25,-47,-67,121,-38,-87,-123,-103,-1,-109,-96,-62,46,85,121,2,99,76,-78,10,-29,44,37,-110,-10,-100,126,111,18,58,-95,4,121,-23,-22,-63,64,-21,-85,-25,-55,-55,44,-50,127,96,-79,-114,100,-45,-107,55,-40,-70,-73,74,-55,10,-63,91,-47,-76,-1,-10,-93,4,-116,57,122,-15,118,72,51,51,50,-110,35,-97,122,-10,122,-6,-69,-117,-21,118,-126,126,-2,42,-113,57,42,123,8,-59,-30,107,-103,44,-76,-101,4,-122,-78,111,-19,74,116,0,89,111,-37,-87,-127,-50,12,-123,86,68,-34,119,47,-36,28,124,126,94,-82,-109,106,-116,125,64,112,76,108,-111,-61,-24,126,-49,49,-116,-22,72,117,-75,-3,-5,35,13,24,36,-2,50,-52,111,89,-93,20,-6,-47,60,12,-80,75,-82,62,-101,-85,-40,22,-57,80,-110,-118,-7,-69,-18,-101,38,-38,22,71,-88,67,-13,-115,-81,-38,24,-44,-62,107,-23,55,-102,60,39,-2,-1,24,25,-91,-40,74,-107,-66,-100,18,20,61,60,83,-29,-63,87,49,35,-102,100,20,78,-36,-9,-115,-95,-124,58,-125,-39,95,-4,-83,-31,100,119,-52,28,-119,-89,-58,39,-7,-119,-29,2,127,-115,59,92,-108,30,32,-91,-101,-78,-111,114,13,58,123,35,59,-50,-91,-10,-25,39,28,61,51,41,110,-79,-125,120,20,3,43,56,3,-27,121,-113,-72,-121,-54,38,60,-47,-15,-104,108,120,22,-88,-64,16,-71,30,64,-13,53,79,-5,-5,-104,25,28,4,-116,93,-94,87,16,-107,118,-91,-15,73,25,44,1,46,125,-55,104,-114,82,20,-51,-73,91,71,90,-40,-75,121,90,-1,26,74,-4,73,56,-61,50,-85,57,-85,-96,-101,-41,-47,86,62,-61,-110,31,-83,-51,-119,118,-105,115,31,-58,53,107,-62,-79,5,23,14,-44,56,-103,-113,117,111,67,125,82,-116,107,-13,119,-101,34,-117,-50,57,-87,-1,-58,88,7,9,25,67,-10,72,-77,120,-22,-126,-36,16,-115,86,-98,-70,103,38,54,-29,-87,64,-77,126,-72,-113,-6,122,-9,-97,64,4,119,-35,-104,84,-1,36,-53,106,-68,-39,-115,33,25,111,-60,-34,-20,113,-107,64,-90,5,-29,78,-44,36,-71,22,-92,-28,-125,-115,50,127,-106,78,83,-57,-85,87,18,74,-57,106,-49,-70,91,-42,-8,-53,-80,-115,-128,38,28,2,51,-110,-73,91,127,83,55,-71,-55,-119,-3,40,-19,30,-127,19,-87,65,-61,-19,121,107,-3,91,110,32,55,16,-2,-87,-22,-94,28,-118,-122,-59,-98,-113,-109,27,-69,71,-29,-29,-113,-35,99,50,-88,53,35,-62,-107,-87,-65,-83,-76,-89,-118,48,-74,107,2,27,-95,-11,49,-96,-110,-50,118,100,51,38,122,-69,-20,-86,116,-3,-55,61,-70,-46,-126,33,-37,-29,105,-2,105,29,-101,-25,39,92,35,121,39,82,-113,92,88,83,-121,-123,17,27,22,110,-20,-73,-121,84,-58,102,-10,-114,-71,110,-76,46,-37,97,-24,47,116,-37,29,-36,68,-55,-125,27,-47,-77,17,68,120,-122,81,90,114,-106,-125,-81,4,35,-87,-80,82,104,92,-10,72,-128,22,-56,-41,-71,20,3,55,7,-105,90,-35,34,-12,-114,-27,82,-29,-71,-105,-50,88,-21,-36,-19,-41,19,50,50,-41,-108,-112,121,38,-21,121,100,82,86,-100,78,-15,-22,91,-57,-9,-83,47,83,98,-41,90,-121,-95,20,24,-29,107,61,-76,119,-30,-30,2,-126,-68,-13,-120,93,-62,-11,-100,-22,63,-5,48,-93,11,30,-98,73,-97,-123,-128,-38,112,15,-68,-28,-39,-91,33,-67,-40,28,126,-68,8,-110,9,-53,45,-123,57,-59,-83,51,-72,-58,37,-107,111,-89,-21,-42,45,-38,-121,-21,-80,-76,-28,7,67,107,-11,-114,51,65,-1,13,108,-33,-10,-96,-122,75,-25,2,-5,-41,-12,-42,103,-41,-55,55,-1,-81,60,-91,113,81,-66,-98,-87,75,-125,7,50,107,-112,-23,101,-66,33,-100,1,118,37,19,99,-72,66,-44,-64,-12,62,88,81,0,-118,53,7,82,37,-59,-115,-82,-60,67,-100,-86,65,108,-101,90,7,-28,53,34,112,-26,-119,-11,76,-40,-95,-54,20,122,48,-75,-110,124,-22,29,109,-120,-44,-111,-92,38,127,-50,102,-61,-98,106,-8,68,-110,-65,-121,-58,44,20,-91,-108,68,51,122,95,-7,101,110,-15,-105,-3,123,-26,34,87,-54,49,-69,-39,105,-39,52,43,24,75,-54,-124,-90,-117,103,-91,-127,-94,62,89,125,-24,-106,88,14,-113,0,-27,19,6,-81,38,74,-109,-11,119,110,59,-26,60,-56,14,-36,-102,96,80,-112,90,81,-83,-4,118,88,-52,-6,55,30,97,66,59,-45,64,80,62,-106,115,76,124,40,-44,-67,-95,116,109,15,-19,-78,-15,-71,-1,-125,50,116,-101,88,109,-12,-24,108,81,30,37,-68,47,-83,-25,98,116,-4,52,-3,85,27,88,-58,-7,76,14,7,9,-90,102,-29,103,44,-115,-64,53,-121,-90,-38,-41,88,123,-48,61,42,-30,15,40,127,80,7,-37,-14,126,-84,110,-14,26,93,-46,101,-104,15,5,-88,31,-15,-74,-70,-26,23,-52,-42,121,-119,-34,93,-36,56,-112,-26,-65,74,16,-18,122,-42,-113,47,66,96,102,-70,100,-110,-81,32,49,99,33,78,-106,118,-51,-45,-13,-37,-103,-106,86,25,-34,92,-26,18,-123,93,-31,-99,33,-93,-66,-75,17,15,-45,-18,-19,54,102,62,88,-38,-108,-73,27,35,119,39,86,12,71,-22,89,92,-100,66,-40,-114,-26,-32,-64,-71,82,114,66,38,-56,95,120,110,-14,-78,114,109,52,36,-48,-104,-23,-4,21,67,-110,1,89,54,-97,56,27,-103,32,-78,-119,-25,9,126,51,85,-40,-110,-30,11,-63,107,-14,-66,-113,60,32,11,93,45,69,127,19,-52,61,-118,29,8,-71,62,-6,-29,91,-19,91,73,-30,37,35,-93,-124,70,-3,-10,77,-126,-40,53,-47,99,43,-64,62,-116,116,84,122,-64,80,16,62,95,120,49,101,-27,-33,-48,24,84,99,-52,36,-116,45,-1,-21,106,-85,18,-117,66,32,63,-60,83,122,53,-87,102,127,109,-32,-24,25,-74,0,-89,10,41,35,-55,-96,-10,-121,87,123,-49,-75,-41,-2,114,116,113,-46,-30,91,-119,65,30,-93,-34,38,-112,102,-66,99,62,37,-92,-113,32,-82,60,-98,-26,-46,13,73,42,-103,-16,112,-111,62,16,105,-76,-126,21,21,34,16,-49,-21,70,94,109,80,31,54,61,109,65,14,-28,-28,100,11,0,102,-107,-102,-33,-40,78,-119,28,127,73,-17,99,-101,-108,-60,42,-115,84,-71,-97,50,-51,-14,9,107,102,-116,-41,-126,127,56,-120,80,-44,-2,-25,-45,-11,48,-53,59,-104,82,-120,-35,68,-114,64,-22,-108,-91,-5,-40,-15,-12,56,-112,26,30,69,104,-64,105,40,97,86,-34,-19,8,-128,35,35,47,94,74,-100,68,-108,-102,-1,-20,-62,-99,-98,117,121,15,16,-125,53,114,21,-27,35,-84,32,-48,15,75,115,9,6,27,37,-121,-117,95,-105,-123,-31,37,82,96,2,-83,-128,-8,35,-66,-92,83,-67,-61,100,28,76,110,-72,123,87,-91,-45,114,1,-17,-54,71,-15,-26,-86,40,-63,22,-98,52,-73,-4,91,107,-64,-98,-71,-109,-21,45,-55,9,12,-73,-20,-98,117,30,-55,89,96,-118,-127,-42,78,-101,42,-120,-119,42,19,-18,-70,30,-23,117,-105,18,-91,111,95,-118,-120,-82,-79,-108,0,-3,102,126,96,96,58,61,-59,69,77,-123,-29,-116,32,74,-8,-117,41,-59,-69,60,104,-73,117,28,66,-118,-110,-104,-82,-126,62,-112,66,48,-84,117,124,-127,104,7,127,51,-99,-77,55,-10,-38,-45,17,-115,118,-38,-1,-120,89,60,-60,98,-67,99,-60,9,-98,-6,-37,-115,-55,-126,53,-57,-39,-113,-125,51,50,-90,-63,-73,-112,127,-121,-3,-98,-83,2,122,53,-78,-13,21,12,-111,-39,-99,0,-19,-25,-80,81,44,65,46,80,-112,79,-42,7,-2,-109,-46,55,66,-35,127,-54,-90,34,-11,-66,-86,70,-105,-67,124,-74,-94,-17,44,-72,33,25,-99,-90,-45,-22,109,19,80,43,126,62,-7,4,18,-27,-19,-46,109,18,96,-21,65,-85,-79,85,90,-35,-42,-85,-103,-55,120,34,69,127,-1,7,88,-63,59,-71,79,-58,50,-34,14,85,43,-56,-60,-99,-119,-25,-27,-51,81,103,-74,126,-103,99,19,112,-92,112,-75,-59,-51,-127,11,-116,-39,39,-61,-106,-16,-31,-81,-10,58,70,0,99,81,78,68,78,-52,-81,-28,15,79,27,124,72,82,14,-15,70,-118,-91,-45,110,-109,-122,124,-128,46,44,77,66,-29,9,108,107,-9,-30,122,-96,89,-56,-53,107,118,-124,-59,-74,65,45,-112,-76,43,53,-74,2,-74,87,50,-116,-23,-64,125,-123,91,-112,-57,88,40,42,98,16,-1,-34,95,43,18,62,1,-43,1,127,17,-92,81,-101,30,79,-34,-57,-25,2,-118,-120,79,-3,-45,-51,-118,-12,28,-65,13,28,74,-53,-58,-36,-9,-73,-70,95,-110,36,41,52,-68,-37,52,35,-83,59,47,-119,-7,28,-122,22,26,-77,12,86,-79,87,28,15,1,63,-111,14,-112,-71,-106,123,-79,-127,-4,74,-95,116,-23,-121,-82,32,28,15,-100,103,-21,-122,0,77,85,86,-101,-115,33,-127,-100,-103,-45,-81,-28,74,46,6,15,75,-97,-38,108,-19,-47,-12,-62,-85,-71,16,115,85,-55,-63,66,125,-87,-23,119,53,121,-5,11,-24,31,-102,35,-117,15,-111,127,-29,-87,-79,56,10,53,120,102,-54,-42,25,99,-36,114,-46,-36,75,89,-18,-43,-99,35,33,16,-103,88,90,96,-119,-1,-40,104,0,-35,86,-101,13,48,-46,102,65,-98,-57,95,62,-8,83,117,-4,30,29,13,-26,-24,-89,-99,7,-18,-20,-1,31,-120,-99,45,-63,62,38,114,75,-79,-63,-95,67,4,-78,55,110,68,-79,112,-69,-70,27,-14,73,-71,113,12,30,87,-77,-88,-89,28,-46,86,-125,-36,25,-13,40,-32,-2,-49,-113,-81,116,15,28,22,-35,52,70,-84,-71,118,58,20,-2,111,-73,-81,3,-118,-98,-75,-69,91,-51,73,-8,58,78,30,8,-16,-58,4,26,94,-92,-19,1,-81,110,19,-92,-53,-35,48,-7,97,38,-27,-61,-60,125,32,-104,124,-100,117,-57,-11,-15,87,-112,-81,105,23,-113,124,-56,-43,-115,-13,-80,-70,8,76,-58,70,-68,9,87,59,-69,46,120,-18,19,-38,-124,-108,-109,43,18,-51,-43,-100,-86,-62,-42,-94,-53,-55,22,71,-56,-20,74,-123,113,54,-54,1,-77,-111,-54,-86,-25,35,37,90,-32,123,48,37,46,73,-69,31,119,78,-62,115,21,-120,-59,26,107,-12,-29,-41,39,-65,22,-105,40,-30,101,69,6,44,127,-87,126,73,-101,-48,86,-72,-44,57,26,5,-19,-80,63,17,-12,-4,-74,-36,75,8,62,38,-104,91,71,-61,-71,-99,8,55,-44,37,62,-32,-15,-93,-22,28,65,67,-54,122,-118,-8,80,-86,13,-119,-28,25,46,115,55,47,-36,-80,61,2,-76,40,-78,121,-117,114,-66,-44,-38,84,113,110,-101,-120,49,-101,-63,12,59,24,119,64,93,121,-112,-46,72,119,-61,121,-106,-65,118,-33,-96,80,-53,-37,39,49,42,74,91,-110,6,-30,100,-83,-55,26,-64,80,-87,33,49,-28,-78,0,-84,3,-104,-117,-67,-115,-18,13,-20,87,119,111,77,14,-29,109,94,82,-123,78,-95,-74,9,39,113,115,15,-6,-105,-31,34,-118,-128,-73,-63,-6,45,95,125,16,-74,53,72,45,-9,-68,-45,-67,-100,37,26,-119,34,-119,-108,-31,-11,96,113,82,127,-100,101,13,42,-41,87,-38,-126,-27,-25,-100,119,-55,-43,-24,-57,-9,-82,58,120,66,-90,89,-93,100,28,58,83,64,108,-94,-72,21,58,14,-63,-117,37,-71,-119,-53,95,106,54,-98,-104,-99,-78,-55,8,102,-43,67,33,-70,58,-9,-76,-35,80,58,33,69,-87,65,87,-92,45,-23,110,91,-50,70,-17,-98,-61,-126,102,67,-5,-47,-14,-61,67,46,102,94,115,127,-94,92,-76,-42,-109,73,9,98,30,38,-122,77,22,69,125,-62,53,-99,121,-45,-47,25,103,119,-35,-72,106,125,77,112,68,-83,-58,-114,60,-61,107,-82,-17,55,9,42,39,52,-124,12,-20,98,-81,67,-43,37,66,-70,-40,-119,-81,-44,47,-38,54,-22,0,127,45,-71,47,-94,-69,-7,2,-61,74,89,115,-59,-49,102,17,50,-10,5,106,-128,125,35,-81,-11,39,-88,35,-109,-91,101,-90,-110,-82,114,118,65,-1,-1,38,53,107,-78,-48,75,-36,21,-111,-97,0,-87,-123,-91,-95,39,-121,43,-63,-99,101,9,59,56,-60,-48,48,-90,43,90,57,-62,-18,-31,-19,54,50,-113,49,-79,71,112,-44,47,-59,-92,12,-121,-84,59,-90,-110,-6,-44,-60,-29,36,83,119,-3,30,78,49,69,-64,-36,-121,-42,101,-9,-21,71,53,13,46,89,78,-18,98,2,120,110,63,-114,-108,30,-67,-99,9,46,-61,124,-41,49,10,32,-127,-11,32,118,37,44,-92,-117,-52,13,80,18,37,-116,45,62,5,24,69,15,-4,118,-17,109,23,-123,83,73,-68,-106,18,108,-108,-15,78,-122,-73,-69,-40,-126,-88,81,84,-114,32,56,83,76,-93,-76,-88,51,3,96,78,-57,29,49,-2,-82,-71,112,91,-22,-6,-81,108,0,89,-30,25,-106,93,103,-117,-94,84,-38,-9,104,108,-94,-101,-98,105,-111,-83,-128,-34,53,-95,108,103,91,126,105,1,31,72,53,109,-59,-17,-102,-37,-9,-56,37,-128,64,-120,-2,61,108,93,112,-81,-66,111,-60,-100,-4,-91,98,-56,-96,126,-9,2,112,41,74,83,102,75,46,-67,-32,-18,8,-71,124,-8,69,2,-27,-59,112,-23,-60,86,-47,-69,2,109,58,-12,-80,31,11,-55,-109,-62,-49,-24,-126,37,-49,-24,115,31,-13,127,6,-104,109,-55,-24,28,125,-110,-117,103,-11,75,38,-107,62,116,87,-128,85,-25,113,-29,-35,-62,-55,118,64,-37,2,2,34,-52,-87,33,-60,-90,77,73,-58,-81,-24,-95,12,19,47,93,42,9,38,-94,119,-35,-116,63,63,51,125,-41,-25,124,-117,75,56,-9,-92,-40,-126,61,84,102,-87,-67,23,75,-68,-81,-71,21,-73,-93,-32,-104,30,-121,-16,-62,-12,-51,82,61,-26,-77,-48,-113,-128,2,70,119,-16,-84,-50,-64,80,86,-17,14,-92,94,63,51,57,27,13,19,84,-124,-14,113,-36,-85,-78,-67,52,35,73,6,-17,71,73,-102,77,56,112,25,59,19,44,-36,112,-114,-122,-6,-65,10,-17,-10,-13,-74,29,46,-98,67,-10,59,40,-7,-108,-121,97,21,85,112,42,-36,98,73,-11,67,121,-61,-10,124,-88,125,42,24,55,-114,34,51,123,-69,10,118,-114,86,29,58,119,67,-120,96,-126,-50,74,71,-69,75,123,37,-16,83,78,-57,-40,-88,110,5,-40,83,23,49,79,53,18,123,-108,36,7,-7,-95,-20,-34,123,-8,-10,23,118,1,-35,-113,79,-9,19,89,-34,43,-2,-7,19,-61,-67,-112,123,125,-46,126,-80,121,-25,15,36,-97,88,40,-66,-36,119,66,6,-83,-66,61,-46,43,-8,-77,-122,-11,51,48,100,15,60,81,-27,-70,59,15,35,107,-43,-4,37,-106,-126,-57,-11,62,-113,103,7,104,-47,-70,-26,-40,-87,95,-6,74,85,28,7,-37,59,7,-43,-18,107,-78,33,23,-97,-81,-49,47,-25,-97,104,25,-119,108,33,67,-125,-85,84,-95,116,-67,-34,27,-14,125,97,-38,67,-59,-90,83,0,-3,89,38,111,-112,52,127,6,-102,79,-69,-122,-123,-127,88,115,-123,114,56,19,27,90,-11,-100,-50,-39,56,-18,-75,48,25,117,-84,20,-12,127,36,22,69,-121,-67,54,-78,-32,109,-13,-104,89,64,-39,51,-63,18,76,96,5,89,-25,-62,94,119,-120,93,-20,-105,-85,-73,35,66,-63,5,122,115,110,-53,71,-79,-66,-65,61,-120,119,-69,-125,-88,67,-27,110,93,122,55,-58,-100,-21,113,-31,61,110,-81,-126,101,-65,-48,-116,44,-124,-34,-103,64,89,30,29,-25,18,55,69,125,65,96,124,-53,73,-16,68,13,112,113,109,98,-44,63,96,-29,-107,-64,22,39,88,-20,-1,27,117,-56,27,97,77,70,106,29,-96,-110,-44,57,44,102,-41,50,45,-85,43,8,65,3,-2,-53,-62,-33,-37,82,97,-62,87,104,-125,43,-29,46,119,-20,-100,-97,-55,-19,74,87,51,67,59,36,-72,31,-119,92,-121,-123,2,-24,-56,-44,-68,-121,-73,0,-117,68,117,-67,-7,47,-44,80,-12,-55,-115,112,-1,-60,-110,-23,11,53,76,57,28,-77,102,73,-17,-121,21,8,-4,-75,-101,-47,95,-32,-85,93,77,19,-41,73,-93,-65,81,-20,-112,-14,16,-58,-12,66,66,-88,51,98,108,-53,-37,79,-68,-128,41,-31,82,51,-1,-119,-14,-75,27,-103,-110,15,89,36,-34,-53,-68,-108,-102,-128,19,125,110,60,20,-30,15,64,-126,89,5,-54,-94,-102,46,63,58,-42,39,-5,77,-69,-84,46,-118,-105,-125,-30,-79,-63,-3,-104,92,77,-98,33,-92,54,-88,90,83,125,100,-113,-14,19,-58,100,95,-33,-72,-1,-76,112,63,87,-65,-64,91,92,71,-127,-28,87,-99,-54,-58,-50,-81,44,-19,17,28,9,-49,-61,58,-49,-19,22,-88,126,-114,-67,-59,82,75,94,71,101,-20,78,96,-88,3,-5,39,3,-9,-120,-36,-81,-52,-84,124,57,8,19,-39,-110,-45,125,-18,-116,-25,105,-95,118,-26,15,17,-64,97,89,98,108,3,12,-2,-54,-37,15,-73,-125,56,51,97,81,-39,-74,-78,-86,16,125,-57,-109,86,-11,-102,116,55,42,-20,85,-32,105,-35,-84,-74,91,-119,85,38,79,120,-94,122,-32,-40,14,-13,13,-17,-22,-70,-29,116,53,84,-82,33,27,-121,-120,-112,-81,99,-86,99,35,54,-84,-88,-87,2,34,-51,-50,14,122,61,77,12,-93,-74,-1,-100,22,-20,-31,-79,-55,-43,25,89,-15,-97,-82,-82,38,121,-25,-66,79,79,12,4,-91,-71,-99,-5,65,81,-95,-37,117,17,107,-83,19,23,-112,-119,-127,100,78,101,-48,58,111,76,6,43,106,-98,-21,-83,-52,-46,83,127,76,35,-37,96,6,-90,-119,-86,28,81,-119,84,-61,61,-86,-27,-33,81,54,96,54,-96,-56,-47,127,-40,-27,-60,1,94,-34,-69,-81,-47,-103,14,5,-127,-17,-6,-62,-105,-33,122,-97,-42,72,-15,78,78,-122,-53,-69,107,49,48,17,101,-42,82,-78,18,-81,14,71,-119,82,23,52,-86,-72,-20,121,-33,-9,37,45,48,107,-90,-106,-71,71,85,6,117,-15,-59,-73,-70,-108,58,-77,65,42,-7,-76,-45,96,19,22,-26,-8,8,95,-99,117,-119,-39,-3,-112,107,-68,14,-33,-35,11,-45,127,76,53,-73,123,-18,-118,-68,106,-113,-25,32,-116,118,-92,-39,54,28,-101,-6,40,-88,101,-49,98,18,-102,-51,97,26,23,-16,41,38,97,56,53,9,99,-66,61,100,-46,-64,-108,126,38,84,38,-92,-22,50,-124,-79,-53,-95,70,-33,-126,-48,-121,-82,106,-11,-113,-52,8,84,82,-16,96,-89,-7,61,54,-128,-18,-97,85,23,-34,22,50,96,100,-15,-54,-66,-104,28,-113,56,47,-59,10,-49,-37,-124,-123,-117,-60,-43,-67,-47,-25,-28,90,29,-91,19,-43,-29,-72,126,50,17,97,-11,-25,-71,5,62,-105,-55,25,-97,125,-125,91,105,-63,-86,-58,-11,-113,63,-11,-87,27,-105,-35,17,-65,48,86,-65,87,68,98,-17,-53,80,-53,104,108,73,30,-43,41,-117,75,-127,-23,39,-66,-41,-28,-117,108,110,-61,124,-115,-11,104,74,-96,-11,76,-57,-114,-108,51,-115,9,-56,-96,-30,65,90,14,115,78,91,-47,-85,121,0,-64,-82,62,-27,69,-39,84,-6,70,-100,26,13,-119,-54,59,42,83,108,63,-92,-121,2,-118,-9,78,-108,-103,-97,67,81,-105,75,6,24,73,78,-47,-128,-68,114,61,73,-82,-120,50,-125,-83,57,-70,10,-118,-1,26,113,12,68,18,49,-123,-74,-94,-41,-43,-94,-79,54,-63,-59,40,-18,57,105,23,9,31,-33,117,-122,-74,13,-68,82,19,-99,-127,-118,-75,-64,-79,-74,-125,46,-121,107,127,24,-108,-3,2,-7,99,103,112,14,-67,-107,-78,-82,-81,-9,67,25,-47,116,7,81,28,-61,-107,-115,13,105,-62,99,-60,43,93,-86,40,-91,127,56,-114,113,-98,-112,18,-96,-45,-62,-1,45,4,108,86,44,-61,-7,113,116,104,75,-47,-78,-75,-38,102,13,-19,-38,-29,10,117,75,58,-25,66,92,-84,79,45,-66,43,-49,-96,-87,49,82,-3,67,-128,-42,-94,-50,-113,67,79,-31,113,44,-39,43,13,-51,97,14,85,-61,-114,7,11,-21,54,126,100,-8,95,3,111,4,-128,-84,121,107,-53,17,91,-109,-44,-122,24,12,-106,112,-17,-99,3,41,-55,-92,-125,-56,32,-29,37,-128,123,43,53,47,78,115,21,-51,-21,-56,-16,104,-93,51,-19,121,-58,81,-83,-116,64,83,101,10,12,-33,-87,-47,-119,64,-106,6,52,-103,-63,36,-122,65,5,-56,-36,-55,-105,96,19,-77,53,68,-49,-107,-98,6,-14,73,55,-37,-110,73,32,-15,-94,-114,21,-2,6,71,114,-123,-125,5,126,14,15,114,-8,-109,24,-63,71,-122,99,-19,-118,-91,-45,-112,-117,46,-102,-69,-52,-84,14,44,118,-9,40,-126,20,-50,-108,79,11,14,-108,126,-87,-27,-123,-119,42,63,-27,35,-24,73,-46,123,59,-85,70,51,57,78,-21,-36,57,66,-93,-4,-115,-114,122,-70,-124,57,-48,-3,-14,-69,24,-22,-22,72,-110,-40,-17,56,-93,-104,-110,34,67,-78,-69,41,-125,-96,24,67,114,-107,18,85,3,85,-28,102,-9,106,-111,-111,19,-116,-52,-115,65,-54,-1,-15,22,-21,122,80,-68,3,60,27,76,-57,53,17,125,68,-52,-86,-123,-126,95,56,-98,-72,61,-57,-84,75,95,-56,-61,103,27,59,36,19,-92,47,28,-47,31,64,9,77,-53,33,-29,58,-127,110,18,45,-8,72,82,65,-111,-44,104,-42,89,116,21,-121,79,-57,-21,-14,55,-53,42,-36,35,-76,-113,-14,76,46,-7,-107,-73,83,126,78,-89,52,18,-88,-120,52,-100,-127,-80,68,-25,104,-44,69,-123,119,-97,-84,112,15,-82,20,43,95,-74,-77,-104,-39,-3,5,118,-22,-50,107,125,57,-110,-33,56,-12,-73,-29,32,-102,-128,48,-15,103,-40,112,44,99,20,111,-1,25,-54,-119,-46,-4,-72,-32,29,-54,105,48,-14,13,101,30,94,-96,79,-60,-51,55,-77,95,-106,-51,-98,43,76,16,24,18,-13,83,123,-122,-118,127,-23,-25,-55,49,-21,-54,113,123,-65,-28,-97,67,58,118,80,-1,84,-37,30,92,42,96,-24,-32,-52,109,67,-89,20,53,-91,49,50,-11,-41,6,-36,-123,-35,-48,-33,-118,25,-7,41,35,40,-110,-118,120,7,47,95,-45,-103,50,16,66,53,-20,-8,-42,-41,-36,3,22,115,-61,-8,82,-72,83,83,14,-32,37,-125,-37,-103,-20,-100,34,-21,-105,-112,83,80,-65,-65,-38,-18,-102,-117,70,-41,-2,119,-51,-48,126,-125,58,-109,81,23,77,16,111,-5,12,-112,-91,-108,19,94,-83,-67,-39,18,76,17,12,-84,-76,-80,10,113,-34,66,-118,30,56,-107,-23,-107,-39,57,-16,58,91,-68,104,-49,37,-43,96,-116,-75,34,76,98,12,-106,63,-51,-106,25,17,-9,-128,-106,-116,-49,-128,-64,120,-124,59,-36,0,83,-53,110,98,120,-46,-22,114,60,-105,37,-37,-54,-81,-34,-80,-55,127,42,96,31,-68,-52,66,63,21,-127,77,103,15,-3,-92,-61,-6,-101,12,-14,85,107,112,57,45,-50,-60,122,-36,16,59,82,9,-81,109,56,-47,-2,-65,-30,115,47,56,-62,-30,-63,-104,-110,-2,-28,106,-121,111,89,36,17,86,-2,-89,20,10,-69,49,-22,-102,-127,106,106,42,74,41,-1,-122,22,75,-11,-46,59,53,-33,96,-76,-19,42,-35,-98,-38,-49,-24,42,-33,-78,104,-60,56,49,49,-46,-23,-104,84,-42,101,106,108,-43,-37,-73,-33,-50,99,-110,-23,81,-83,38,74,33,-29,-37,48,-22,-61,-41,-80,-12,65,-51,51,13,-38,105,11,-20,-1,-44,-71,-76,9,94,10,-116,-6,64,54,-90,-81,44,116,-16,-120,-13,72,20,-56,-115,-70,72,41,-33,-19,-70,53,90,-28,-62,105,-86,-75,-7,-53,77,-100,-109,85,-103,-34,41,96,-98,-61,-20,51,-46,-78,-23,-118,-67,-46,126,-37,92,20,31,-61,-75,16,53,-13,72,48,78,7,-118,16,112,35,-7,3,46,100,65,96,-102,35,-78,-74,-63,-83,127,-35,122,122,-26,91,-60,-22,118,-124,-20,-43,88,109,64,-42,-94,-42,112,-84,-122,88,-116,-87,29,-98,-106,-36,17,35,14,-47,-121,117,-13,-43,75,-7,-42,49,10,90,106,84,-102,107,9,-109,-106,-118,-113,37,-85,91,-82,101,10,13,-58,112,-23,118,67,-73,117,-15,87,70,-62,-20,-81,111,8,27,18,-53,122,-89,-46,76,70,-111,84,-48,-69,-36,56,-28,75,-16,-45,56,62,-102,86,-69,-6,67,-29,84,52,70,-53,27,41,52,77,-31,119,85,-98,-76,-85,48,-101,50,2,44,15,33,-79,-97,-123,113,-43,68,109,-11,-8,-68,24,87,-16,-109,111,43,-12,-54,64,85,61,-5,58,0,-43,-42,-121,-37,-33,98,92,-61,95,-52,-43,-97,-44,39,-20,-9,-55,36,-118,79,77,-26,-37,-51,57,-50,-39,81,78,-125,-33,-38,97,-38,85,82,115,-126,-37,-57,-102,-125,78,-38,18,-35,-34,32,-117,62,-38,-39,-125,-50,-83,7,123,-91,59,126,-116,115,-114,-1,-50,105,-67,52,-121,28,54,31,96,64,50,71,-11,-27,-92,35,-37,-11,-87,-121,-113,-33,82,15,124,94,-51,2,-36,13,-61,