{"acc_weights":[0.07359481,0.32780743,-0.7213414,0.50694346,0.8616209,-0.25186634,-0.74013996,-0.43756032,-0.2741742,-0.17233372,-0.8333113,0.23523736,0.84038377,0.9437146,-0.89248085,0.23219085,0.97721887,0.4585681,0.4719367,-0.36965084,0.54273653,0.44131684,0.99867225,0.3150382,0.051265478,-0.30356264,-0.730896,-0.73485374,-0.7097039,0.62777615,-0.07401323,-0.30041647,-0.22125602,0.9485891,0.96762204,-0.98643875,-0.3081627,-0.67480516,-0.5738268,-0.8973298,0.7596903,0.780669,-0.87466764,0.13484526,-0.112389326,0.566473,0.12591505,0.23153019,-0.82847524,-0.09707475,-0.8352184,-0.8741617,0.1533401,0.3693664,0.6840131,0.5708461,-0.7770562,0.15338492,-0.4843912,-0.054065466,0.44696856,-0.52414346,-0.02799964,-0.7272005,-0.22658396,-0.16900587,0.117978334,0.6292517,-0.5754094,0.6507337,-0.8843267,-0.09020424,-0.36069846,-0.9170351,-0.33774042,0.15783215,0.2795434,0.60464764,-0.5520878,-0.060480356,0.1568098,0.85980296,0.35859776,-0.06472492,-0.5367706,-0.8159523,0.831404,0.112374544,-0.17607093,-0.5801301,-0.42106295,-0.23218155,-0.8602891,-0.5627012,0.862298,0.31789064,0.20427442,-0.8079922,0.33205414,-0.79406404,0.95356154,-0.14998698,0.07565498,0.9838779,0.53708506,-0.7576759,0.5925164,-0.24856639,-0.49972725,-0.23960137,0.7783513,-0.2641685,0.5474644,0.2757733,-0.14833236,0.996053,-0.23790765,0.59149384,0.28050828,-0.98281574,0.4149363,-0.94426847,0.9493277,0.37230992,0.7236054,-0.35994124,0.3793373,0.91257286,0.48628426,0.11342955,-0.41709685,-0.06505728,-0.65480494,-0.99343014,-0.22919941,-0.73187375,0.46103954,-0.8104713,0.49638677,-0.4344144,0.4218905,-0.17945814,0.94912314,-0.00008416176,0.3027296,-0.09417415,0.79070497,-0.40881014,-0.70134234,0.48272967,0.78015876,0.7466123,0.66097903,0.85284996,-0.43240047,-0.49300575,0.5721879,0.21585488,0.07248449,0.9879186,0.09329605,0.29473972,-0.103176594,-0.0058562756,-0.35271978,0.12354612,-0.19688106,-0.96156573,0.4795797,-0.39705944,0.9355812,-0.99546814,-0.15582728,-0.132231,0.29695964,-0.9460385,0.26604652,0.19128919,-0.307209,0.3911338,-0.62889767,-0.5359185,-0.6868448,0.5214069,-0.038370848,0.7242975,0.66565204,0.3742528,0.83937645,-0.9568176,0.90693665,-0.44081116,0.5156009,-0.32909274,-0.547102,0.21941042,0.9033294,0.46114898,0.10752106,-0.10620093,-0.62729216,-0.49490714,-0.2319963,0.015042782,0.046107054,0.20730662,-0.833035,0.6842215,-0.4571681,0.16296268,-0.00254488,0.51354814,-0.99578476,-0.34607005,-0.6755042,-0.79868126,-0.5707433,0.05532837,-0.27801728,0.3985331,-0.19829488,0.9831023,-0.59954953,0.65812516,-0.05336809,0.046693563,0.71604776,-0.9478419,-0.3226261,0.8687496,-0.01926279,-0.10042286,0.6184623,0.6172519,-0.66163564,-0.8049071,0.37707925,-0.54422164,0.9024887,-0.22254944,-0.4878111,0.043403387,-0.46558166,0.81322217,-0.011504173,0.13829231,-0.15333104,0.8277271,-0.9936738,-0.70483184,0.60597086,-0.69523597,-0.4663887,-0.7475836,-0.30350518,-0.23099494,-0.9704592,0.34439826,0.056394815,-0.33761454,0.75505495,-0.26473355,-0.9904065,0.51610374,-0.9113171,-0.43051624,0.823751,0.29767656,0.9096074,-0.7261021,-0.43903732,-0.53286767,-0.16342473,-0.8170998,-0.43685436,-0.30227685,-0.9678261,-0.2741711,0.7273667,-0.59132886,-0.7529416,-0.7588639,-0.5110805,-0.66197205,0.61930585,-0.40703154,-0.5681796,0.412385,0.64106727,0.35842204,0.013258934,0.8307495,0.3643086,0.7848985,-0.08382082,-0.6340594,-0.83790326,-0.59706616,0.8769002,-0.5728836,0.8576324,0.22969627,0.52982116,-0.46662188,0.04509163,-0.11295605,-0.6442747,-0.6504915,-0.87919545,-0.38551664,-0.114966154,0.62884045,-0.24706578,0.12253022,0.60657024,0.9499471,-0.5824497,0.35351896,-0.35313606,-0.37441587,0.9890547,0.2969885,0.021961927,-0.15365028,-0.19341373,0.25328016,0.49993896,-0.83238935,-0.12122488,-0.05774975,-0.46654606,0.41184998,0.63378286,0.09310603,-0.057162285,0.44150043,-0.528568,0.71862364,-0.91589475,-0.38269424,-0.15439773,-0.3184898,0.3195355,0.84468675,0.19189525,0.38300014,0.8669934,0.15929008,0.98512316,0.14323616,-0.25209594,-0.77117944,-0.5776632,-0.39028072,-0.64680004,0.93693495,0.12055588,0.5830121,0.7204683,-0.97997046,-0.27072406,-0.004020214,-0.5986202,-0.13169408,-0.26497817,0.120364904,0.6039939,0.63123465,-0.5340209,0.16531253,-0.13473964,-0.83418727,-0.65218306,-0.858448,-0.76746774,-0.28240776,0.7319164,-0.17187,0.8150866,0.194731,-0.21541429,0.9479399,-0.07618022,-0.6867659,0.70715547,0.6228564,0.7974014,0.28828788,-0.67443943,-0.3722043,-0.5966375,-0.20044875,-0.96022105,-0.0968287,-0.5569377,0.6303079,0.66611123,0.8503969,0.36380887,0.962615,0.13886833,-0.74863577,0.9642823,-0.9581747,0.7680273,0.6201434,-0.9051285,0.7501428,0.7461357,0.97729754,0.98074627,-0.22421837,-0.60571384,-0.6731577,0.60017395,-0.7056122,0.834013,-0.61969256,-0.99617934,0.77674246,-0.5574298,0.6763954,0.27280402,0.5431123,-0.07976794,-0.310575,0.35858846,-0.9515102,0.20233703,0.23557568,-0.6831789,0.504235,-0.36866665,-0.97742486,-0.6788001,0.32412744,0.123067856,-0.20863008,0.2257967,-0.68633485,-0.97098684,-0.10873222,-0.5572314,0.70539093,0.05151415,0.6967101,-0.78307605,-0.32117462,-0.5091181,0.4474523,-0.55859494,-0.4911399,-0.39761186,0.5194063,-0.050693512,0.62364936,-0.8798063,-0.84688854,0.9772682,-0.60733294,0.47579432,0.6618216,0.916337,0.049557447,-0.3705039,-0.5438695,-0.0075700283,-0.5025604,0.8075836,0.097453594,0.9860649,0.66532946,0.4343791,0.8199794,-0.25083637,-0.38926673,0.84731555,0.13636923,0.05593443,0.067831755,-0.87435246,-0.7505703,-0.65589905,-0.6092546,0.79284835,0.01936698,0.95294833,-0.60108304,0.7142451,-0.6042948,0.86245394,0.06896448,-0.44929123,-0.7108877,0.97731805,0.0025503635,0.29512477,0.8762591,0.72881866,-0.5329721,-0.31649113,-0.06572223,0.53303313,-0.6042881,-0.9084008,0.03771305,0.8199272,-0.5735519,-0.61247206,0.25790906,-0.22618175,-0.38635325,0.7055471,-0.18486547,-0.6437695,0.8168051,-0.5037465,-0.82483125,-0.27353024,-0.3561275,0.55913997,-0.42572832,-0.4845538,-0.97899723,-0.25776958,-0.93872,0.8006444,0.7339146,0.2503991,0.79818463,-0.22080135,0.7033284,0.35197496,0.77339125,0.26311564,-0.7536559,0.037529945,0.4156487,0.87043,0.84356284,0.50616646,-0.56168103,-0.6488941,0.40423274,-0.8398709,-0.96430683,0.29951024,0.1881864,-0.678036,-0.27703643,-0.13991928,0.10523605,0.96722317,-0.53071165,0.44122267,-0.2574563,-0.039603233,0.41082072,-0.9210057,0.36726427,0.029653788,-0.47101235,0.3365395,-0.8601668,-0.32891154,0.07522702,0.13854933,0.058884144,0.99360967,-0.9398949,0.050315857,0.23039961,-0.43237114,-0.48025465,-0.080197096,-0.4089923,0.61675906,-0.40978694,0.98818254,0.7947264,0.03164053,-0.2897439,-0.02380681,0.22741985,0.17097235,0.52757716,-0.3973937,0.042597532,-0.9746666,0.6912043,0.9894855,-0.90553117,-0.74978924,-0.034955263,-0.2995448,-0.019304752,0.26050115,0.18554926,0.19997,0.84716463,-0.05804825,0.54174805,0.7234359,0.6520419,-0.50904655,0.3802321,0.659744,-0.926744,-0.29213,-0.33662558,0.77540326,-0.5390496,0.34865618,-0.7377372,-0.07695866,0.38211656,0.9415436,-0.5721834,0.090182304,-0.013554335,-0.90101933,-0.70107746,0.25071192,-0.35032678,0.31419587,-0.08133888,0.45756125,0.6375706,0.2029252,-0.3078339,-0.79399085,0.51286054,0.2923901,-0.890167,0.80033827,-0.632452,-0.6034727,-0.71617746,-0.08593845,0.3524766,-0.52163434,-0.9638715,-0.60368896,-0.82331276,0.5006983,0.34263873,-0.040133715,-0.5850134,-0.6032188,0.9278362,-0.9134209,0.07397437,0.49926424,-0.36699152,0.1380539,0.07234478,-0.5899601,-0.98571587,-0.82276726,-0.14114404,0.76480293,-0.4831493,-0.8263142,0.74152064,0.6634884,0.67809296,-0.6135943,0.75501513,0.40979934,0.7556577,0.21152592,0.95156884,-0.9963589,0.8862269,0.38798785,-0.8695624,0.4397788,0.51436806,0.0979836,0.19989157,-0.9433937,0.10126972,0.9296248,-0.26186323,-0.8700743,0.024402618,-0.9401734,-0.88498664,-0.7096853,-0.03192067,0.24922061,-0.06732464,-0.45520902,-0.6361048,-0.4258747,-0.118932486,0.8894601,-0.3421316,-0.5894487,0.82436204,-0.4567306,-0.52252626,0.57701516,-0.7663362,0.2473886,-0.114711046,0.78268623,-0.55281043,-0.31344652,-0.010001898,0.4238057,-0.3838985,-0.2276299,0.3025627,-0.5707462,0.64171576,0.67393875,-0.10137224,0.17098546,0.01952529,-0.21447945,0.46460867,-0.13928914,0.75688696,-0.61146235,-0.98239684,0.8424256,-0.39051318,-0.9409523,0.8245969,-0.27321863,-0.0023825169,0.5950353,-0.3090825,-0.5550041,0.93291545,0.52858424,0.19987011,0.5370717,-0.68672776,0.250808,-0.8490217,-0.24301863,-0.3612411,0.3179829,0.5602119,0.8247075,0.56072044,-0.35073566,0.95499015,0.7170696,0.71701646,-0.783659,0.39105392,-0.06072402,0.4233613,-0.970397,0.9570465,-0.32657504,0.70081043,0.9048159,0.0038843155,0.117037535,-0.60563564,0.06213641,0.52704024,0.94268155,-0.5841167,0.21403718,0.071582556,-0.38424706,-0.31826687,0.46477818,0.63571763,0.2280848,-0.4554963,0.99937797,-0.2684474,-0.31919646,-0.47103357,0.072277546,-0.83306646,0.22913194,-0.1885767,0.7250285,-0.07578826,-0.4223795,0.6412897,0.38772774,0.8114915,-0.83340573,0.8531029,0.15420055,-0.4454596,-0.64638686,-0.3066864,-0.5924256,0.013509989,-0.65601707,-0.37490153,0.90260124,0.9165306,0.15980339,0.92861176,-0.8831215,0.39973092,-0.5556159,-0.47349977,0.37355304,0.899179,0.39453745,0.20222878,-0.5861304,-0.17443943,-0.061685085,-0.37039113,-0.9309492,0.93766046,-0.9494908,-0.8053744,-0.61638117,-0.099999666,0.1627903,0.66050005,0.74190307,0.10465765,0.06239581,0.41525197,-0.40026736,0.5545149,-0.026950598,-0.7500799,-0.961123,-0.8868506,0.6191323,0.4435258,0.9662194,0.13478994,0.19146919,0.4182098,-0.3153062,-0.5168772,-0.24368954,0.7393317,-0.12120032,0.17894244,-0.29296017,-0.13859391,-0.23993611,-0.22928095,0.5807445,-0.19481874,-0.76139235,0.7367997,0.9551749,0.54524326,0.7945602,-0.6243491,-0.51889133,0.88600636,-0.84092546,-0.62181664,-0.18247032,0.8045745,0.808779,0.8906779,0.72179484,0.15617728,0.562026,0.56207323,0.24519753,0.05366826,0.53519464,-0.5691869,-0.88625765,-0.22463441,0.5588803,0.6629214,-0.34035206,-0.45959663,0.044130564,0.7624824,0.0576241,0.9537139,0.6387305,-0.9033339,0.74081254,0.9728229,-0.17608786,0.3041973,0.1981647,-0.089487076,0.77567434,-0.8619518,0.32740498,-0.35753918,-0.4038887,0.3249731,0.52956057,-0.48923922,-0.39924788,-0.28072166,-0.09037328,0.51650167,0.83670115,-0.43733025,0.50909543,0.026399374,-0.21583772,0.37093186,-0.16587877,-0.38700175,0.77105474,-0.82180285,0.09171033,0.61073303,0.1313026,0.25758982,-0.56457496,-0.19127917,0.25667882,-0.44755054,0.5061085,-0.93700814,-0.578887,-0.77980375,0.5300033,0.7559686,0.41293693,0.11188412,-0.8557563,0.31108952,-0.304389,0.63249826,-0.29166937,0.2617619,0.32559538,0.54884124,0.0051658154,-0.6396227,0.53709483,0.44641113,0.94375014,-0.23923302,-0.43445206,0.4957266,0.58610916,-0.40530205,0.059094906,0.16275811,0.16052079,-0.16213346,0.1333499,-0.10703349,-0.67708445,-0.9734423,-0.14778018,-0.3093071,-0.016257048,0.16409731,-0.772948,0.96504164,0.79324937,0.29542542,0.044248104,-0.04205346,0.26442266,-0.83053136,0.2932868,0.34829354,0.6805227,-0.48234773,-0.81160593,-0.20187116,-0.38789082,0.65597606,-0.6482558,-0.40963507,0.15207577,0.6857717,-0.7789626,-0.52876115,0.24988437,0.1255126,-0.12786508,0.3591249,0.6316321,0.96251774,-0.75557613,0.15709877,-0.038957596,0.8918097,-0.9780314,0.32226396,-0.7200148,-0.44647622,-0.119954586,-0.13452673,0.05991292,-0.8969929,-0.15602612,-0.92864823,-0.94747734,-0.97131705,-0.53653526,0.22085524,-0.87594247,0.021949768,0.80879307,0.59776926,0.27746797,0.83429503,0.5206835,-0.57461905,0.6935363,-0.42262745,0.027564764,0.6543708,-0.9498744,-0.7476554,-0.8490319,-0.917073,-0.21620154,-0.6395526,0.14912549,-0.65977955,0.08935263,-0.46470106,-1.2910576,-0.4087704,-0.42247334,-0.36241564,-0.33455867,0.71979505,-0.14061476,-0.34511885,0.51672286,-0.221822,-0.5201364,-0.6271434,-0.22117668,0.15316626,-0.6246934,-0.7338472,-0.36570728,-0.44725844,-0.25186568,-0.36731592,-0.7396675,-0.13437383,-0.11870662,-1.0431161,-0.3702857,-0.27361706,0.19869675,-0.92929,0.0060153278,0.13718526,-0.65661824,-0.25996515,-0.22079323,-0.024603004,0.563277,-0.055586353,-0.23140357,-0.979351,0.12863776,-0.77388954,-0.4272065,-0.74355036,-0.010357837,0.485746,-1.0120733,0.09021033,-0.71118134,0.03579568,-0.21025279,-0.8339472,0.16784157,-0.76809627,0.11389309,-0.013428801,-0.44682467,-0.35779065,-0.28450155,0.10174255,-0.35413665,0.510225,-0.9908622,-1.1264228,-1.0147115,0.104343265,-1.0390642,-0.97271436,-0.40012833,-0.048636984,-0.750935,0.39721116,-0.60538673,-0.27068725,-0.9481579,-0.13669775,-0.63538855,-0.8973798,0.26886886,-0.6982442,0.18190502,0.032942038,-0.12662797,-0.40857142,0.044521227,0.4052863,-0.7469254,-1.0396055,0.68802327,-0.85536224,0.26004967,-0.26524854,0.11692928,0.25158694,-0.37806168,-0.20430349,-1.239423,-0.8086855,-0.47737142,-0.28841797,-1.1019996,0.5606093,-0.87755436,-0.69679683,-0.2380587,-0.2663452,0.27548075,-0.15864083,-0.8080565,-0.34701017,0.3562177,-0.68820477,0.15310927,-0.7340961,-0.37514418,-0.15407652,-0.9762392,0.12336005,-0.592816,0.49135524,-0.1474677,0.59000206,0.49156582,-1.1509274,-0.9818833,0.04078563,-0.16759743,0.09903457,0.0956767,-0.28248432,-0.2237496,-0.72864556,-0.14379044,0.29579207,-0.051332068,-0.26113608,0.10966378,-0.23379856,0.5055583,0.2623001,-1.1777917,-0.99429226,-0.98988926,-0.67734843,-0.7353037,-0.9506077,-0.85610807,-0.30826887,0.62965643,0.16275723,-0.3873698,0.12512086,-1.0680449,-0.9513658,0.21166512,-0.13923557,-0.15252621,-1.0092489,-0.3565554,0.29100725,0.08516255,-0.64817536,-0.987517,0.4004708,0.4282916,-0.58504707,0.0008135357,-0.19277148,-0.5702813,-0.23675981,0.46668985,-0.5617805,-0.28436285,0.5894815,-0.9326998,-0.6195491,-0.75477505,0.31406716,-0.50453365,0.6887952,0.5373423,0.28947374,-0.4095359,0.1798009,-0.39598212,-0.9363614,-0.4149905,0.11823161,-0.46513394,-1.0277069,0.56884766,0.38543183,-0.9306101,-0.19285528,-0.66172856,-0.5497057,-0.29987139,0.4778961,-0.6093485,-0.5221902,-0.1507246,-0.5490706,0.3553775,0.5731592,-0.07655482,0.3988528,-0.3449736,0.21561363,-0.9652923,-0.32100272,-0.032461148,-0.9628082,-0.09925807,-0.7473665,0.4402817,-0.042065587,-1.1186774,0.5066393,-1.0158784,-0.48048198,0.42968544,-0.72729236,-0.15213585,-0.0739634,0.40539712,0.85889775,-0.9856194,-0.16913034,0.20109047,-0.27036032,-0.80551285,-0.29684624,0.007855673,0.038344707,-0.62051505,-0.54221076,0.39760682,-1.1027509,0.10940824,0.044383653,-0.8638004,-0.7884498,-1.1402165,-0.45682696,0.33492157,-0.6560074,0.060248565,-0.4577561,-0.80542463,0.13113946,-0.819015,0.6236596,-0.56210506,-0.3331123,-0.58975756,-0.90045977,0.09348449,-0.90931654,-1.0660625,-0.69948006,0.22972545,0.37485862,-0.6857758,0.091376,-0.22749723,-0.8516614,-0.45075443,-0.023780895,-0.4033788,-0.14672713,-0.50719756,-0.39950383,-0.96806204,-0.8671613,0.15665425,-0.23581865,0.2731909,0.49538508,0.59465146,-0.28417823,0.84275705,-0.22532602,-0.4232788,-0.16850166,0.08110029,0.05124549,-0.791989,-0.013860102,-0.43705893,0.18685599,-0.6070688,-0.40970567,-0.8025973,-0.36151478,-0.22562023,0.8618024,-0.9939732,-0.22032216,-0.85075855,-0.24690768,0.39495662,-0.066984534,0.5297207,0.14237303,0.48855838,-0.15454598,-0.26867244,0.105986565,-0.30030164,-0.7973775,-0.7405646,0.6210518,-0.21717052,-0.75162256,-0.9591607,-0.41819912,0.64990073,-0.3805862,-0.86594206,-0.03463678,-0.62539154,0.083782375,-1.0698582,0.17484397,-0.4143076,0.04428296,0.4295177,-0.8057291,-1.1616966,-0.94877833,-1.0105155,0.38689113,0.10401072,0.011883551,0.71863675,0.19467151,0.4345172,0.39990076,-1.038922,-0.62273353,-0.15248024,-0.5522165,-0.3747951,-0.42373604,-0.3090167,0.6192322,-0.47534662,0.38467166,0.5956442,-0.8532273,0.3499079,0.3323429,-0.24186546,-0.17161873,0.58847594,-0.20552148,-0.18226197,-0.92559016,-0.8433577,-0.17280369,0.65010166,0.41377047,0.27233163,0.5753969,-0.9004879,-0.5465632,-0.39352608,0.13478553,-0.004549938,-0.17528394,-0.91504985,-0.9771897,0.18699725,0.38253304,0.6317121,-0.5142391,-0.6811282,0.53074914,0.01415367,-0.2355518,0.6536185,-1.1028746,0.041900653,0.24791764,0.08724656,-0.00729746,0.29052222,0.45421046,-0.34838855,0.24179183,-0.6130592,0.14108947,0.082655735,0.6225618,0.4585904,-0.944353,-0.84398484,0.73675203,0.78591037,0.04526523,0.13260548,0.47352293,0.8591905,0.25740856,0.6003676,-0.66595316,-0.8572172,-0.76866037,0.32370552,0.07277073,-0.25442484,-0.04738191,0.012325072,0.23619038,0.9645193,-0.23850635,0.31657115,-0.61998636,0.59174246,0.6530272,-0.88569695,0.29771844,0.633382,-0.76588833,-0.83856064,-0.36832634,-0.20897618,0.7699323,0.73985523,0.19980402,0.6460561,-0.6737241,0.6803102,-0.96811044,-0.3082762,-0.7672606,0.06466589,-0.9558915,0.6042353,-0.87674904,-0.50613713,-0.08005105,0.2389178,0.6299872,-0.70473564,-0.9751316,-0.98447317,-0.5330068,0.03165938,-0.10740385,0.8462777,-0.971226,-0.12746806,0.30807465,0.37434173,0.011150669,-0.68422353,0.6182795,-0.60944754,-0.6568344,-0.07418383,0.0751637,-0.6742159,0.06356068,-0.47726187,0.3647456,0.11849057,-0.2061479,0.30125904,0.4767849,0.8721981,-0.8904411,0.70439494,0.40287325,0.051777314,-0.48532438,0.39571127,-0.98238033,-0.45830867,0.6809342,0.74158674,-0.624085,-0.59947157,0.30986336,0.7899576,-0.3834828,0.5050398,-0.7528099,-0.7821353,-0.5966298,0.3778323,0.28318092,0.66719604,0.42806038,-0.89192104,0.43397716,-0.5631305,-0.9067698,-0.8974255,-0.40669325,-0.2819413,0.9260774,0.8894966,0.5339367,-0.7063622,-0.77820516,0.85872114,0.4570138,-0.22843768,0.6534622,0.5417038,-0.9702152,0.083601855,0.09256884,-0.60104287,0.6198315,-0.65106136,0.4436212,0.20931603,0.22827652,0.24764062,-0.40791053,-0.57639366,-0.9147949,-0.49939832,0.34154257,0.19081777,0.31739515,-0.07961378,-0.5100051,0.4579201,0.09257536,-0.8529036,0.79236925,-0.88933915,0.2028174,0.29566446,0.041930646,-0.95279336,-0.27002662,-0.79484934,-0.627428,-0.61870694,-0.027355181,0.013078174,0.33090732,0.7689009,0.37330619,0.95782286,-0.6234744,0.3658397,-0.95833504,-0.24950688,0.07028654,-0.3789978,-0.2750814,-0.41947985,0.38045582,0.2043859,-0.15290374,-0.73817897,0.8373474,-0.9946519,0.7644518,0.059996903,-0.81189424,0.8730942,-0.45578197,0.15453747,-0.7625827,0.09854154,0.3987244,-0.5178847,0.52275944,-0.7330109,0.55306405,-0.24490505,-0.9272137,0.5659237,-0.37164658,0.37725958,0.55069613,0.8173697,-0.8706947,-0.56880325,0.6956563,-0.85677797,0.66564626,-1.0729212,0.26621947,0.8337178,-0.09245649,0.63961655,0.5803563,-0.6593859,-0.5629114,0.44678426,-0.85174805,-0.8135139,0.45596445,0.80976194,-0.7072465,0.56379,-0.2345063,0.7530782,0.78302604,-0.45274577,-0.60571146,-0.26359886,-0.18397348,0.4660612,-0.65655464,0.6912019,-0.64137733,0.85007244,0.23898976,-0.6990874,0.84510493,0.7140373,0.23433788,-0.06453919,0.58683777,0.1073776,0.45172313,0.7685964,0.2796582,0.44298694,-0.11170719,-0.25611052,-0.8236977,0.4477641,0.37859282,0.7215679,0.86470133,-0.86684704,0.006358106,0.15788999,-0.121702395,-0.99054724,-0.2432335,0.10496743,-1.0632929,-0.0010063017,0.38895476,-0.13490526,0.38290045,-1.056404,0.24994127,-0.045862097,-0.7671842,-0.69086736,-0.13344045,0.05036858,-1.0945562,-0.66445166,-0.50804174,-0.54182446,0.36601934,-0.11100345,-0.46315673,-1.0393567,-0.9427069,-1.1177071,-1.4091434,0.2988456,-0.17343251,-0.428354,-0.05596235,-0.36535302,-0.93919504,-0.9432301,0.32244357,-0.6689826,-1.013122,-0.9889302,-0.15060289,-0.45059165,-0.15582897,-0.90056854,-0.17361797,-0.110858366,-0.6305816,-0.7199059,-1.4627631,-0.40696847,0.0923717,0.20782003,0.20579912,-0.59050655,0.09398943,-0.37637538,-0.88033617,-0.752598,-0.35064694,0.29468885,-0.9161066,-0.015708053,-0.6283746,-1.0028901,0.00013662316,-0.8612373,-0.047660332,-1.0729952,-0.22555122,-0.5678836,-0.39571923,-1.0442331,0.051246878,-0.55091506,-0.08131517,0.060395963,-0.2602561,-0.49501616,-0.27246717,-1.0363841,-0.77318,0.20412578,-0.84410965,-1.2066296,-1.1157012,-0.11639586,-0.13707477,-0.9613394,-0.99276245,-0.3760656,0.14091487,-0.46395785,0.23266378,-0.86697614,-0.73791766,-0.8837109,-0.44402,-0.3333671,-0.31527776,-0.4201351,-0.36178935,-0.39841065,-0.34960425,-0.9895907,0.23606202,-0.9398359,-1.0995572,0.52036583,-0.1951747,-0.2629053,-0.08240698,-0.70511746,-0.69320613,0.013163182,-1.174633,-0.5685327,-0.8419049,-0.9372269,-0.6385255,-0.45114294,-1.1958994,-0.9059121,-0.7909026,-1.0917625,-0.46279752,0.28338626,0.24805304,-0.5745257,0.08259288,0.26259422,-1.1337546,0.2818014,-0.262991,0.10770654,-0.0077039767,0.17142624,-0.9933918,0.5079309,-0.15157221,0.046005704,-0.29390383,-0.33244747,-0.7098866,0.18839589,-1.1393902,-0.5228607,-0.65532815,-0.205378,-1.011101,-0.20450751,-0.47921807,-0.7805991,-0.25142777,-0.5623965,0.23316985,-0.61429846,0.6723891,-0.39575952,-0.49275154,0.4978508,-0.14264314,0.24109954,-0.614937,-0.18876559,-0.977878,-0.45717642,-0.43796548,-0.9107506,-0.83156973,0.16013288,-0.62405753,-0.93847406,-0.65889287,-0.12458649,-0.15246047,-0.11437632,-0.885986,-0.52774745,-0.42158732,0.39412794,-1.108502,-0.41452956,-0.090733185,0.32852978,-0.8570098,-0.3560835,-0.3450491,0.25843385,-0.40663943,-0.018131811,-0.842384,0.13707156,0.28678098,-0.052400246,-0.32576194,-0.38687083,-0.17996825,-0.4217763,-0.7857129,0.114443526,0.6034294,0.5053069,0.5713409,-0.20245108,-0.6164883,0.19634004,0.46086675,-0.48929283,-1.1932772,-0.88353175,-0.8416765,0.4865186,-0.23375876,0.3685556,-0.69670415,0.060470246,-0.9827769,0.8443327,-0.07725048,-0.105980426,0.45460123,0.23215689,-0.87714565,0.030440487,-0.64598656,-0.6620524,0.15862381,0.04745333,-0.15500599,-0.7120847,-0.0013560208,0.19141072,0.15193789,-0.1638697,-0.30244294,0.24302429,-0.8010063,0.33008608,-0.7961348,0.19047087,-0.015592171,-0.18698423,-0.3702623,-0.44314203,0.034159657,0.31491274,-0.39888912,-0.30818424,0.07606166,-0.6519233,-0.47353864,-0.12822033,0.58939606,0.3719288,-0.5713233,-0.8400386,0.31541285,-0.5854173,-0.6626433,0.08752751,-0.78726584,0.102296434,-0.8195756,0.0317076,-0.6908452,-0.26535764,-0.74871916,0.24720512,-0.6459568,-0.92037845,-0.95244783,0.36059847,-0.6765849,-0.6460167,-0.61148244,-0.7592915,0.33082893,-0.6330488,-1.0135078,-0.3284698,-0.36072686,0.7170206,-0.6182221,-0.29762492,-0.9742101,-0.63071895,-0.78552973,-0.26362348,-0.11802176,0.29870713,-0.36690125,-0.08731838,-0.34519434,-0.39730284,-0.3628469,-1.4460813,0.3487204,-0.061859183,-0.5558684,-0.5778384,-1.1653353,-1.217507,-0.41438106,-0.013570708,-0.3850837,-0.87266505,-0.922256,0.3561345,-1.0247775,-0.2800108,0.16103321,0.110146254,0.23595376,-0.6901941,-0.6216831,0.10502329,-0.7577299,0.31352517,0.6440619,-1.3286971,-0.06810475,-0.49063736,0.38844272,-0.7464836,-0.37757647,-0.5978064,0.26836583,-0.36227942,-0.9001031,-0.83663034,-0.2663922,0.4359167,0.47308773,-1.4507369,-0.7392406,-0.37131214,-0.98258686,0.43709537,0.14084285,-0.85498554,0.31235546,0.47766876,-0.42721805,-0.5633058,-0.6122226,-0.91423845,-0.17118318,-0.20487441,-0.2814895,-0.12881237,-0.33924657,-0.12394326,0.21402128,-0.5011136,-0.11530618,-0.16744505,-0.21572271,0.38404155,-0.9415057,0.4293177,-1.0353477,-0.4021159,-0.29619935,0.48696077,0.6658174,-1.1227818,-0.5637834,0.14471318,-0.7844795,-0.1886815,-0.085090674,-0.9936639,0.20541395,-0.4605623,0.026386585,-0.8365518,0.20163123,0.07116314,-1.0677956,-1.0297939,-0.24369873,-0.09244745,-0.9446199,0.53150517,0.4150456,-0.94393677,-1.2433101,0.48132333,-0.9043622,0.09105036,0.27201962,-0.38957766,-0.74675983,0.2495327,-0.04876674,-0.021958929,0.047100674,0.21651115,-0.039282132,-0.8324693,-0.4457797,-0.52354515,-0.06978279,0.1321144,-0.4972949,-0.12587382,-0.16153292,0.28808147,-0.3187171,-0.5611056,0.2477674,-0.6158442,0.56345403,0.15988845,-0.55343914,0.4606508,-0.22286156,0.38595995,0.071231686,0.31839472,-0.84087205,0.23762994,-0.18756637,0.08336404,0.2489375,-0.12584877,0.012564506,-0.35686845,-0.3670645,-0.98323375,0.24565437,0.50606626,-0.14688113,0.5224314,-0.72748953,-0.5242603,0.48751926,0.34077215,-0.92240894,0.1737928,-0.5182355,-0.771205,-1.0559506,-0.7049805,0.6590272,0.7525472,-0.82371813,-0.2985873,-0.53898543,0.5348361,-1.0261215,-0.28432417,-0.5938677,-0.946923,-1.0461047,-0.20161393,-0.07885842,-0.57741994,-0.85134536,-0.28558517,-0.006503846,0.13935778,-0.94227,-0.86833614,-1.0232799,0.28174764,0.39021945,-0.9746047,-0.25779176,0.061671738,0.27412605,-0.41891387,0.04496196,0.40589696,-0.6809952,-0.6962124,0.048865248,-0.9511036,0.8701568,-0.2333907,-0.58820444,0.24205226,-0.5392592,-0.27197054,-1.0053903,0.46607295,0.06339419,0.12561685,-0.24495505,-0.19551972,0.39954385,-0.7130989,-0.9181163,-0.6344997,-0.56800073,-0.008204664,0.09947467,0.3816414,-1.0322708,-1.0270904,-0.13040231,-0.011535233,-1.1227901,0.64738506,-0.83983374,-1.1118158,-0.4149365,-0.13771206,-0.49769315,0.44043654,-0.7393816,0.33999348,-0.36508414,-0.9407541,-0.2374652,-0.03715495,-0.7428984,0.088418,-0.32359105,-0.04668266,-0.34709662,0.109693885,-0.8882364,-0.2168049,0.03753173,-0.54495275,-0.1575808,-0.178268,-0.6162418,-0.40763667,-0.3177587,-0.6945409,-0.60834223,-0.71268976,-0.05672406,0.4912906,-0.07377194,0.022229925,-0.59719443,-0.8930734,-0.799528,-0.5786847,-0.46508107,0.08090238,-0.19661747,0.3729586,-0.6021903,-0.7504898,0.5207987,-0.10290967,-0.8843734,-0.9629198,-0.22324224,-0.7333738,0.12619543,-0.33908886,0.6647151,-0.16932125,-0.8799788,0.47150788,-0.9849354,0.6205451,-0.17598078,-0.3171652,0.1672496,0.24685882,0.3849599,-1.0691317,0.11923196,-0.64336234,0.4133192,-1.0088048,0.6470227,-0.19037995,-0.81987756,0.20562743,-0.15584971,0.31761044,0.091937944,-0.66144323,-0.17834657,-0.6057575,0.3169203,0.29779106,0.4866344,-0.6068371,0.5231756,-0.493435,0.29955667,-0.77852046,0.46470186,0.049227875,-0.016862623,-0.65755016,0.47969896,0.24654871,0.34133267,-0.7930948,0.015548968,-0.08692166,-0.36056915,0.1372772,-0.91392195,0.042095143,0.24135977,0.24658783,0.41715187,-0.7539458,-0.80645394,-0.23135887,-0.9874303,0.5068104,-0.22296102,0.5050112,-0.512222,-0.64691544,-0.19690974,-1.001062,-0.99795884,-0.42579353,0.06643924,-0.7607743,0.2489693,-0.85645455,0.53969413,-0.7111913,-0.14173293,-0.1500035,0.19949675,0.3473119,-0.14451548,-0.27720526,0.09062751,0.35275626,-0.97687113,0.55082816,-0.22399764,0.25716603,-0.23890957,-1.0640969,-0.49674067,-0.8021125,-1.146234,-0.33226314,0.41318253,0.08978686,0.5598284,-0.9101579,-0.511291,0.043399405,0.3528203,-0.7055661,0.24760813,0.30106306,-0.10647145,-0.73040265,-1.1113471,0.7296165,-0.8716856,0.41442305,0.31275228,-0.48424113,-0.3801084,-0.93614453,-0.27953058,0.45758632,0.44816527,-0.24452375,0.52943397,-0.054390244,-0.16509688,-1.0044031,-0.23737262,0.43346068,0.69233865,-0.0050486876,-0.18576378,-0.83690786,-0.20624122,-0.11621128,-0.68117255,0.2915691,-0.5966211,-0.60872096,0.19536532,-0.025799653,-0.71250707,0.11491455,-0.8795614,0.10491759,0.25347158,-0.4630224,-0.8726881,0.08465786,-0.6401068,-0.8629744,-0.40007746,0.70126766,0.46282163,0.28658214,0.059770696,0.45233417,0.5523846,-0.8522946,-0.594957,0.025440734,-0.5612199,0.2049491,-0.3230341,0.20908073,0.18778452,-0.638137,0.5523103,0.23405048,0.51121575,-0.8461472,-0.95497423,0.08428609,-0.7077471,-1.0363196,0.20866959,-0.3967438,-0.11770868,0.266813,-0.56943417,0.049848072,-0.8657693,-0.31616473,0.27001458,-0.619396,-1.167363,0.71727294,0.6782142,0.6600451,-0.3672901,0.30969328,-0.23417066,-0.36043432,-0.5962867,0.5292168,0.32221174,0.5587507,-0.17066328,-0.22241144,0.4386351,0.45219305,-0.7629933,-0.41678828,-0.44503736,0.61020035,0.36792865,0.08697193,0.5828823,-0.7128538,-0.8651587,-0.4650808,-1.2699916,0.63447374,0.10729855,-0.74563706,0.28034103,-0.19940928,0.086128846,-0.69660133,0.044369712,0.42434335,0.12655859,-0.8400325,-0.64085555,-0.53490967,-0.9513791,0.022106597,0.60563004,0.10256433,0.24615149,0.3151886,0.24222176,0.73071957,0.3286812,-0.11199473,0.29859704,0.7902989,0.11080389,0.17054586,0.5884512,-0.61764127,-0.6873541,-0.76313806,0.04969245,0.39469174,0.38243407,0.084159195,-0.25019127,0.6865297,0.19264275,-0.12545429,0.6101051,0.012998966,-0.71092314,-1.0168663,-0.17921385,-0.33027834,-0.6738872,0.15312168,0.427412,0.6676637,-0.388403,-0.96616334,0.80480564,-0.7566341,0.58120304,-0.4791621,-0.12685192,-0.41187984,0.2540572,-0.61463743,0.15758772,0.66075206,0.60119605,-0.5032098,0.32591695,-0.07981029,-0.52039695,-0.096834034,-0.466377,-0.015736891,0.72914916,-0.9792469,0.6212664,-0.40818623,-0.82161814,-0.15072267,0.012838824,0.09579715,0.45852363,-0.9839274,-0.28538665,0.18112956,-0.31216982,-0.5429022,0.5233299,-0.72276634,0.57485026,0.7002541,-0.9760208,-0.31801572,-0.78478354,-0.78844917,-0.6643382,0.15285157,-0.46085024,0.49440593,0.38348877,0.5588266,-0.6237903,-1.0127174,-0.4455881,-0.46390837,0.23601708,0.6045817,-0.4065999,0.7409383,-0.7284869,0.24961627,0.66000974,-0.44426066,-0.07283295,-0.25867864,0.51901376,-0.55293167,0.9363477,-0.010074711,-0.7993768,0.68983394,-0.5325454,0.5252213,0.36427784,0.25138995,-0.0118970545,0.38503164,-0.6670366,-0.36516783,-1.0587007,0.5340148,0.55948025,-0.027211329,0.38611165,0.020146048,0.6902882,-0.6907246,-1.0635011,0.855251,0.11020098,-0.6431473,-0.8726038,-0.0067727147,0.32394126,0.6466531,-0.44597873,0.33856547,-0.54287124,0.09676859,-0.1201758,0.5045002,0.23821214,-0.7840015,-0.30200264,-0.38282898,-0.09423558,0.6352921,-0.13902049,-0.72602504,-0.87211597,-0.3404596,0.5020183,0.32600185,0.63741314,-0.7092937,-0.80527186,-0.39577335,-0.0011442575,0.024252163,-0.40522483,-0.49040768,-0.027901776,0.44975972,-0.5326474,-0.63621783,-0.0939658,0.2627977,0.5904974,-0.46739239,0.48165593,0.11370879,-0.62132597,-0.18688998,0.23157494,-0.35418034,0.4823619,-0.34778273,-0.7012845,-0.21283849,-0.115324974,0.32220206,-1.0367283,0.6465734,-0.025907995,0.36113882,-0.18367915,0.16177559,0.07228052,-1.0553122,0.40087077,0.27354276,-0.13579354,0.16971183,-0.82360727,0.49995646,-0.57943994,0.6364181,-0.03344281,0.043137383,-0.60865474,-0.07957784,-0.31773162,-0.05739917,-0.4488182,-0.37577495,-0.1361836,0.47512996,-0.35850334,-0.72629535,-0.68639535,-0.34487376,0.31195942,0.17005034,-0.2590297,0.2980486,0.4612015,-0.44947162,-0.2884613,0.2717008,-0.10697894,-0.5393623,0.36799297,-0.40881172,-0.37535036,0.15878598,-0.015653525,0.5914081,-0.5338587,0.15158369,0.27849567,0.24560896,0.54150355,0.38806173,0.36034063,0.38187426,-0.68703145,-0.7945125,-0.20889588,0.5458685,0.26694065,-0.27919638,0.07921476,0.29690224,-0.23989488,-0.103564106,0.5506124,-0.5374619,-0.40365905,0.4950655,0.54194474,0.44215474,-0.19366923,-0.34787774,-0.048050053,0.10679614,0.26729205,-0.9916197,0.4513537,0.6241989,-0.38335985,-0.33902687,0.314752,0.35040277,0.1707874,-0.17242436,-0.6087442,0.08360549,-0.14387324,-0.79191417,0.13127963,-0.23158999,0.36646447,-0.16437127,0.32221544,-0.059710342,0.44790083,0.10637325,-0.80698925,-0.45083585,-0.011111032,-0.36062008,-0.4424863,0.40174812,0.21383698,0.33334562,-0.5373543,-1.0293789,-0.58069474,-0.5931344,0.48821923,0.11094678,-0.17105211,-0.89512473,-0.24874137,-0.039594736,-0.67101014,-0.32710165,0.4588538,-1.010542,0.3365354,-0.27227208,-0.31045094,-0.5237729,0.47320762,-0.8188201,-0.5448661,0.20570678,-0.28072608,0.44757625,0.06813228,-0.71513903,0.70816,-0.68574554,0.21274537,0.4829355,-0.9786331,0.47420335,-0.60415834,0.3507736,0.09224661,-0.0148864295,0.23512703,0.027103439,-0.69726217,-0.14229839,0.74386775,-0.88362366,0.41370898,0.5571434,-0.57410043,-0.08347528,0.6284944,0.0077603413,-0.71270776,-0.3265996,-1.0564786,-0.3301977,-0.11231335,-0.34115645,0.43685722,0.43175566,-0.45220423,0.074285544,0.6403201,0.05736214,0.21650818,-0.048661105,0.009639322,-1.0449107,-0.63381404,0.18653555,-0.75187176,-0.64449644,-0.8151478,-0.4744035,-0.9046236,-0.7529351,-0.9086499,-0.48531622,-0.9921388,0.35014462,-0.9099264,-1.1691031,0.70274645,0.5256684,-0.5737993,0.30807373,-0.024735203,0.8316165,-0.36697173,0.18296173,0.3163679,0.018844025,-0.8359366,0.16028512,0.034451157,-0.2491247,0.1660355,-0.39003593,-0.053051297,-0.80627966,-0.031992197,0.7094382,-0.764131,0.37735438,-0.40307775,-0.33537546,-0.41729096,-0.38640007,0.11269252,-0.17941225,0.20109993,-0.21354477,-0.7283084,0.10044264,0.1156016,-0.3661265,0.06384636,-0.031434625,-1.0007246,-0.7571916,0.021035364,-1.012428,-0.03979275,-0.6274982,-1.0052266,0.24050477,-0.5612232,-0.17581064,-0.7089265,-0.12735118,-0.068448156,-0.56070185,-0.28665158,-0.6943541,-1.2284439,-0.83663297,-0.6118294,-0.6107872,-0.574979,0.25935715,-0.24249855,0.09152276,-0.38486233,-0.3553828,0.04433555,-0.7838456,-0.6644495,-0.64833343,-1.0013807,0.102974825,0.33011785,0.15924281,0.10343919,-0.44007415,-0.1867141,0.08081057,-0.90748006,-0.8053534,-0.9330987,0.33349392,-0.49614567,-0.49044594,-0.24980861,0.015276591,0.006078579,-0.60328645,-0.03753957,0.47378007,-0.5057706,-1.2182319,-0.5257742,-0.8397265,-0.38698992,-0.9271184,0.022224138,0.42383528,0.13193224,-0.7995373,-0.48967764,-0.4077851,-0.4007524,-0.78617024,-0.009662361,-0.65689117,-0.6166755,-0.46535122,-0.8594442,-0.343169,-0.43313462,-0.65645534,0.040071372,0.16750991,-0.872578,-1.1186583,-0.262791,-0.06174042,-0.7322071,0.26539564,-0.44080862,-0.6394632,-0.7960212,0.3957942,-0.053177364,-0.13655013,-0.16100612,-0.30800164,-0.5640659,0.21040997,0.17029506,0.09819798,0.42939427,0.48662126,0.29111177,0.20059335,-0.48810196,-0.5063493,-0.7074599,0.09702353,-0.16681392,0.4244565,0.34776178,0.034093015,-0.6865001,-0.8277778,-0.9703383,-0.38461035,-0.8424987,-0.45036718,0.40902984,-1.314704,0.22370832,-0.8480705,0.6023528,-0.6324025,-0.9094391,0.5246122,-1.0458087,-0.4703273,-0.12081269,0.14877726,0.44519782,0.09928146,0.25100544,0.18336439,0.14859998,-0.89447945,-0.56308746,0.39473182,0.09009548,-0.41698146,0.13577418,-0.39642072,-0.4237699,-0.63664526,0.20767705,0.04036736,-0.57176894,-0.7310441,-1.1131694,0.27787063,-0.20559269,-0.99673694,-0.95083547,0.24221045,-0.13080452,-0.96751815,0.043134835,-0.08455949,-0.11877891,-0.18414691,-0.87121195,0.5008726,-0.54144466,-0.7076868,-0.5265531,-0.8086167,0.6361149,-0.30251163,-0.11015213,-0.39321297,-0.5805829,0.06660164,-0.40749726,0.15628463,-0.14945245,-0.9233933,0.39634702,-0.6965458,-0.044080324,0.16706236,0.08711698,-0.22383676,0.3516856,0.06827096,-0.71545064,-0.610829,0.09435048,0.20927395,-0.527082,-0.94687194,0.48070398,0.116951674,-0.19787201,-0.18119384,-0.1116343,-0.044431183,-0.9793903,-0.10802869,-0.80833775,-0.3511289,-0.63607126,-0.88203996,-0.5175044,-0.5925601,-0.69681287,0.19281572,-0.0149279665,-0.92904353,-0.31265897,-0.10938697,-0.9520806,0.20217247,-1.2401229,-0.47027424,0.18093798,-0.9514373,-0.063637964,-1.0000727,-0.069481075,-0.37389305,0.08692879,0.101053566,-0.0655747,0.26674548,-0.8861909,-0.011046993,-0.034360424,-0.6387287,-0.8026516,-0.8026834,-0.4826,-0.18053673,0.023168655,0.23360188,-0.16551301,-0.5205475,-0.8947416,-0.1818267,0.38015583,-0.16039224,-0.2591153,0.10181836,0.24533339,-0.14266212,-0.024907976,-1.1090277,0.21464688,-0.107721075,-0.14048028,-0.22993201,-0.2015342,0.123578705,-0.73339695,-0.1273782,-0.76520646,0.43451107,-0.7792163,0.08658856,-0.43286964,0.0852176,-0.914274,-0.09004534,0.33676338,-0.2393991,-0.104858756,-0.1983085,0.15365346,-0.32966226,0.13374013,0.4220195,-0.64710426,-0.892066,-0.37469357,-0.46987787,0.05164427,-0.4960253,0.62568593,0.52029556,-0.21476603,0.5400651,-0.24011673,0.026732903,0.6375427,0.49024346,-0.8456078,-0.056012668,-0.27503052,-0.5405067,0.49489936,-0.7282358,0.31688416,-0.16875358,-0.27889937,-0.9993786,-0.5302327,0.41168264,0.31530982,0.39832753,-0.88797,-0.32348004,-0.30439237,-0.93665564,0.1830715,-0.9768761,-0.14419426,-0.14555736,-0.22969157,-0.85722315,-0.9262432,0.024135886,0.08983189,0.7145633,0.36623633,0.6278485,-0.8431049,0.09425007,-0.45370817,0.2939695,0.0067621646,-0.6394554,-0.41282803,0.5002439,-0.07043443,-0.4717532,0.681498,0.24990562,-0.5193764,-0.04478399,-0.77997446,0.28736213,-1.2212882,0.780198,0.4205737,-0.016339073,-0.3290294,-0.05943826,-1.0063349,-0.15326008,0.35771373,-0.2119996,0.41499862,-0.34249485,-0.7725178,-0.22604741,0.35643774,-0.96430236,0.51218337,0.2645229,-0.49102977,0.06288991,0.39483523,-0.7253226,-0.575795,0.30685914,-0.52958506,-0.24653703,0.58464855,-0.35416314,-0.29211143,0.15063442,0.4753781,0.4162694,-0.41734582,0.4826417,0.38625196,-0.28475398,0.56370103,0.4779938,-0.27466124,0.3752774,-0.06482059,-0.8095999,-1.0185196,-0.6706679,-0.24483936,-0.81076413,-0.18629709,0.0058351737,0.13619043,0.55692875,0.70103365,-0.5021644,-0.046396364,-0.6857218,-0.86027366,0.7009375,0.5221667,0.09440749,-0.28438753,-0.8314484,-0.9036893,-0.7088762,0.69223845,-0.9456512,-0.33362705,-0.98067445,0.03856418,0.81127334,-0.1791944,0.15968604,0.08551581,-0.48848516,-0.6145874,-0.66009736,0.34391677,0.44712827,-0.12009563,0.20589599,0.63759595,-0.1482485,0.6854746,0.18100683,0.26224482,0.41782752,-0.20209493,0.07554701,0.09674763,-0.7030608,0.4118349,-0.18310945,-0.45536754,0.2765075,-0.45542195,-0.70753014,0.122658774,-0.60172945,0.16658525,0.21525185,0.4445856,-0.9820746,-0.82178026,-0.7197701,0.75671864,-0.4219992,-0.19130707,-0.63492996,0.50204915,0.38509065,0.31325802,-0.50450486,-0.96729577,-0.1358262,-0.7970617,-0.19453335,0.5953321,0.5026197,-0.0267105,0.10749331,0.124684125,-0.38934073,-0.58600545,0.1353595,0.5597466,-0.31819707,-0.07611417,-0.4065777,0.6225056,-0.36375642,-0.13660194,0.30395788,0.5486796,-0.7279899,-0.496617,0.01293239,0.3594647,-0.99239254,0.366569,-0.6287939,-0.7328312,0.07154845,-0.43085042,-0.7644251,-0.44031954,0.18219021,-0.83565867,0.5035065,-0.4731431,0.27148426,0.53091747,-0.79166615,0.6081899,0.05944072,-0.46732032,0.27442214,-0.7837431,0.10682896,-0.7107331,0.0030501925,0.20369186,-0.25486982,0.554866,0.7059703,0.2550121,0.56909806,-0.7722275,-0.25763,0.475167,0.00025332277,-0.8005189,-0.42094034,-0.15616004,0.23983856,0.1896948,-0.25556746,-0.734585,0.05751422,0.60345167,-0.46802562,0.6376523,-0.4544198,0.8651972,0.20635794,-0.08841597,-0.8532286,-0.1674519,0.0984761,-0.9063051,0.049159665,-0.8754785,-0.062362336,0.61205107,0.64821094,-0.22077003,0.30106118,0.03564742,0.50255376,-0.2453097,-0.7628824,-0.35247797,-0.771182,0.7445899,-0.67785263,-0.22405855,-0.07684126,-0.13118309,-1.0098169,-0.36390445,-0.67680776,-0.4365482,-0.9787243,-0.94984263,-0.7883152,-0.15107666,-0.85124505,0.13675278,-0.6450204,-0.29096872,0.28943634,0.30065048,0.75992393,-0.4814025,0.15138392,0.70526683,-0.9639437,0.092328176,0.71269417,-0.9716087,0.43825024,-0.04166205,-0.30608374,0.11988932,-1.1522118,-0.4957884,-0.10960105,-0.17911747,0.12674639,-0.49424163,0.25130382,-0.14321075,0.5706212,0.19097005,0.03850573,-0.53491914,0.05623975,-0.79438597,-0.21836326,-0.48953095,-0.13569418,-0.022906322,-1.1607885,0.31101486,-0.27166468,0.6402235,0.282394,-0.9131512,0.16790344,-0.060316883,0.37439492,0.16552183,0.2308554,-0.024482446,-0.19665575,-0.18283832,-0.14067963,-1.0362806,-0.92022985,0.30749083,0.07126423,0.34533405,-0.38084078,-0.30870473,0.4195645,0.80078477,-0.6309902,-0.054073486,0.559597,0.31415364,-0.12866375,0.6017666,0.013676584,0.19457676,-0.9686679,-0.6166545,-1.1146156,-0.33770877,0.36392647,-0.9309097,0.72978264,-0.28005233,-0.61706644,-1.0223823,0.28494716,-0.25640658,-0.5873245,-0.28807643,-1.1366594,-1.1197044,0.5194219,-0.806975,0.65732336,-0.5564097,0.018058077,0.3432182,-0.88869905,-0.14916387,-0.684177,-0.2735521,0.097297564,0.30463117,-0.97704077,0.27778974,-0.58918643,0.026716443,0.10929126,-0.04169759,-1.0534745,0.3942666,-0.7483524,-1.2034391,0.28618348,-0.7230283,-0.13774425,-0.35193732,0.9217758,0.02324382,-0.03216295,-0.45359662,-0.7458322,-0.10510055,-0.324156,0.08540199,-0.96593046,-0.07562156,-0.3798948,-1.0421757,-0.48066893,0.32351297,-0.1072913,-0.3469337,-0.97324675,-0.0019749491,-0.07903401,-0.72668004,-0.69985455,0.4527558,-0.041742723,0.11448148,0.4545679,-0.40776154,0.2495143,0.81986326,-0.44264612,0.19479808,0.51132774,0.3161782,-0.13801377,-0.7297821,0.59932977,-0.23618878,0.55331194,-0.93186617,-0.004596677,0.62090904,-0.70878667,-0.75257397,0.67561203,-0.87255555,-1.0019997,-0.31670806,-0.7920669,-0.39453104,0.07627084,0.49712113,-0.35828316,-0.30436826,-0.2041488,0.21704142,-0.604603,-0.6585659,0.3333903,-0.58043617,0.3718614,-0.32008505,-0.9347587,-0.35073406,0.104011975,-0.722792,-0.959012,-0.74805564,-0.40343648,-0.75456846,-0.02285025,-0.03464586,0.65592384,0.23977292,0.4530065,-0.9040234,-0.69098556,-0.50377536,0.57051164,-0.7092828,-0.8381477,0.26783034,0.14055194,0.7117702,-0.6973095,0.18664758,-0.49998522,-0.023870204,0.37578806,-1.0500748,0.56859374,-0.92780334,0.7432584,-0.5817758,0.2798848,0.7886109,0.61114466,0.18695368,-0.3111746,-1.1147465,-0.42541656,-0.2733036,-0.881326,-0.48714483,-0.775105,-0.97108114,-0.21880971,-0.47966948,0.055668786,-0.4487738,-0.6672434,-0.5574708,-0.93493456,0.2930493,-0.8434484,0.30266044,-0.2965097,-1.1241173,0.30194828,0.53466433,0.10627407,0.39085,-0.3267549,-0.5069812,0.20629789,-0.73809475,-0.15038921,-0.47508395,-0.20416568,-0.8790602,0.18360375,-0.28568318,0.09188323,0.13189068,0.35773844,-0.18336825,0.17851703,0.36787504,0.070759155,0.049342223,-0.30530995,-0.6056273,0.040958818,-0.6636446,0.07881354,-0.49216756,-0.55861616,0.0067089433,0.20698921,-0.8722935,-0.13198498,0.1782347,0.6373594,0.2712974,0.441977,0.42452118,0.40918946,0.6103371,0.01837316,-0.9814665,0.19539641,-0.09416124,0.05892031,0.101514325,0.24479353,0.33796632,0.16909865,-0.8155115,-0.57606137,-0.57214755,0.61291236,0.6727835,-0.5486909,-1.1936872,-0.708549,0.3565826,-0.34730184,0.117385335,-0.9243154,-0.65973467,0.43836984,-0.09680824,-0.64810055,-0.49041042,-0.06342722,-0.12527953,0.5671886,-0.9378032,-0.15722708,0.5426999,-0.6813476,0.08501777,0.567171,0.2654331,-1.0768015,0.09009178,-1.0976497,0.05625346,-0.8994011,-0.042827882,-0.94838136,-0.2811058,0.74992836,-0.21267514,-1.1861755,0.053694323,-0.5026022,-0.23939607,-0.7224986,0.48117912,-0.86393094,0.482944,0.41464967,0.7753837,0.19660667,-0.84181964,-0.4366626,-0.93663955,0.67135864,-0.45177647,-1.0036895,-0.67930484,-0.70253974,-0.84867865,-0.43248928,0.10653716,-0.44954705,-0.48738694,0.13704373,-0.4726041,0.604121,0.5352338,-0.679277,-0.7877148,0.09222896,-0.32883248,-0.5448771,-0.22417255,0.5374309,0.24751832,0.4676879,-0.660733,-0.09758098,0.5697285,-0.72246397,0.5990412,-0.40403226,0.18049008,0.09472715,0.25032687,-0.70283294,0.58972305,-0.7039758,0.025281552,-0.008905477,0.29518747,-0.43716764,-0.29770195,0.29533187,0.3026736,-0.44233856,0.2968407,-0.42958093,0.12143316,-0.92027235,0.19381286,-0.029169053,-0.4308844,0.16587959,-0.3846764,-0.36333013,-0.6215221,0.5490791,-0.011197695,0.39367378,-0.20624733,0.29610705,0.058910556,0.48454797,-1.0526003,-0.29686093,-0.3525252,-0.15625165,-0.5699035,0.28264207,0.25901115,0.20365617,0.61548805,-0.37169054,-0.2438482,-0.6992537,-0.39268658,0.35280448,0.7708127,0.25963157,-0.04403469,0.47422034,0.029989105,0.56974053,0.08628196,0.45445597,-0.24641374,0.6228621,-0.8841332,-0.54283994,-0.4301672,-0.20437396,-0.5721458,0.37246817,0.39684317,-0.71345276,-0.74503255,-1.0707368,-0.32211798,-0.45300466,0.60122955,0.45618293,-0.7771083,-0.14975381,-0.20029342,0.20632552,0.47223476,-0.035413746,-0.2547141,0.46955523,-0.574361,0.75966537,-0.6185267,0.019842746,0.3534671,0.15457731,-0.1062219,-0.12335569,0.13044679,-0.9385946,-0.7004092,-0.07904828,-0.44119778,-0.79086363,-0.06065239,-0.36801752,0.14256565,-0.17981821,-0.5687824,0.09368179,0.81596833,-0.576933,0.11890816,-0.41574487,0.23126549,0.81652766,-0.463915,-0.9211519,-0.6094911,-0.9744002,-1.0541993,0.22661887,-1.0655718,-0.07693966,0.63012064,-0.15286158,-0.65922457,-0.9855135,0.19566211,-0.17775954,-0.7173992,-0.39467093,-0.13612074,0.15842405,-0.46325153,-0.9084892,0.3764277,-0.020050582,-0.7610015,0.4268602,-0.9721237,0.095631495,0.24197827,0.50067526,-0.6466373,0.5703457,0.3560216,0.713394,0.3113632,-0.02357936,-0.017912665,-0.53539747,-0.6309619,0.2743187,-0.5263043,0.49189824,0.48252386,0.49288535,0.43256667,0.35307074,-0.21822166,-0.5734141,-0.88760555,0.56701,0.6082006,-0.744449,-0.07802659,-0.54754853,-0.28785458,0.21843113,0.5656943,-0.38960207,-0.102946766,0.27344257,-0.27861112,0.20912927,-0.25080585,0.005737824,-0.64080113,-0.8412073,-0.10339905,-0.83346397,-0.31416324,-0.0067921993,-0.7369512,-0.9741467,0.47351006,0.039020475,0.006869328,-0.5167028,-0.30171275,-0.34832683,0.20224561,0.43881008,-0.07484712,-0.72657716,-0.3502636,-0.6819809,0.32091454,0.59653044,-0.74085116,-0.91531533,-0.59530884,0.59346473,-0.080017366,-0.2161288,-0.5095155,0.33020476,0.51024896,-0.40918908,0.6642866,-0.16057386,-0.5390262,-0.55478024,0.1499916,-0.55547994,-0.40700355,0.12003528,-0.56286454,-0.06988776,-0.3905774,0.48776126,0.5490243,-0.05313916,-0.95237994,0.6625859,0.37145647,-0.31079817,-0.05535164,-0.55416733,-0.73032576,0.46241423,-0.6121913,-0.16731623,0.13950147,0.09982654,0.22443277,-0.13702628,0.9025369,0.81087273,-1.0373045,0.32528573,-0.17969589,-0.7711928,-0.27000314,-0.85959005,0.049905706,0.77395314,0.48608077,-0.5590584,-0.70439285,0.09344729,-0.85784876,-0.00964227,-0.401726,-0.17199895,-0.37919694,-0.55374295,-0.775296,0.27320364,-0.56906056,0.5392728,-0.15740767,0.28550005,0.022432994,0.6071008,-0.8749109,0.3661986,-0.31522655,0.08783303,-0.05766421,0.1381335,-0.22305298,-0.40068653,0.6740788,0.0348891,-0.53798854,0.10343314,0.5890028,-0.46595904,0.23471309,0.12853009,-0.36889768,0.40585235,-0.16709304,0.46512276,-0.20068435,0.3429283,-0.33139092,0.7337933,-0.89524186,0.6941792,0.4734041,-0.3039282,-0.8774823,-0.07329924,-0.31823495,-0.9032248,0.25870803,0.3369581,0.54554796,0.008677226,-0.40240127,0.44737524,-0.8238846,0.40035918,-0.96134686,0.19029719,-0.6335496,0.0520264,-0.4039943,0.5288603,-0.6529302,0.10474424,-0.18596219,-0.52637386,-0.12579711,-0.15281937,0.3413071,0.4380964,-0.020245537,0.07646583,-0.8394691,-0.42559108,-0.8851698,0.72150415,-0.095693104,0.33122033,-0.4612023,-0.15330693,-0.5360248,0.5393921,-0.2580406,-0.48435315,0.17495658,0.4873901,0.66956484,-0.23775268,-0.8313292,-0.38305336,0.698937,0.24407439,0.45744962,-1.0480517,-0.27537408,0.37211362,-0.5939673,-0.54593366,0.021296445,-0.28544676,-0.7195774,-0.326679,0.1204053,-0.7779096,0.41673085,-0.17118205,-0.41624752,0.583492,0.1363009,0.21216722,-0.5056715,0.0473454,0.49695197,0.77413553,-0.27215308,-0.1314744,-0.86616385,-0.93043137,-0.1042128,-0.34835923,0.3079317,0.33658263,0.276552,0.50687337,0.5762171,-0.36183205,-0.9703977,-0.98616236,-0.81013095,0.11567571,0.41591385,0.34692612,-0.097686835,-0.040878348,-0.005354828,-0.8084834,-0.09824979,0.104368575,0.07624477,-0.2851286,-0.69436264,0.4409326,-0.7325724,0.7241209,-0.3935439,-0.6632771,0.34532568,0.103467196,-0.06869794,0.39869466,0.29286483,-0.8625495,-0.6975951,-0.9762277,0.3095976,0.30168712,0.17208503,-0.3712857,-0.71234596,-1.0480413,-1.0639101,-0.8678649,-0.034048177,0.4698623,-0.004310738,0.8223406,-0.13343523,-0.7092799,-0.80063665,0.3289707,-0.45070964,-0.19884208,-0.9068906,-0.5161126,-0.27434564,0.54597837,0.21033998,-0.07995874,0.78467554,-0.20336251,-0.36548865,-0.9132837,-0.191705,0.76328015,0.79094195,0.2549562,-0.69049263,-0.7287554,-0.56238467,0.7913168,-0.9605749,-0.36982113,0.2887318,-0.8565493,0.38575944,0.7556574,-0.26700795,-0.9703948,0.54421705,0.4162768,-0.74702,-0.112954244,-0.3253813,0.79668885,-0.05613824,0.48664302,0.6138308,0.10701146,0.16645396,0.57691896,-0.7100059,-0.15472779,0.02210053,-0.10357194,0.11136304,0.6571473,0.6570388,0.3375664,-0.75444454,-0.7652889,-0.91258264,-0.17115557,0.57229346,-0.12734254,-0.2818411,0.12188466,0.90478987,0.6411604,-0.5550336,-0.23937967,0.41098297,-0.69125956,0.6654229,-0.4268859,-0.7815345,0.39484847,-0.426818,-0.46613383,0.5581236,-0.52409846,-0.58642596,0.9087505,0.3873581,-0.5644526,-0.014203615,0.5718436,-0.42636684,0.6564172,0.32855964,-0.16852054,0.32528323,-0.7075994,0.71517587,0.29110107,-0.17141853,-0.77951837,-0.034276947,-0.7690146,0.584902,-0.14971812,-0.4922976,0.5685228,0.74979347,0.66407627,0.06535925,-0.10219884,-0.27334023,0.5139525,0.44462967,0.051917404,-0.3482279,-0.88946587,0.48485178,-0.82678026,-1.0067316,0.10699679,0.77833664,-0.74774975,0.35857275,-0.49561387,0.38482684,-0.45483276,-0.8157498,0.50052834,0.52509034,-0.3760886,0.03097707,-0.06023776,0.1849518,-0.9617509,-0.4616051,0.41231236,-0.5146001,-0.16423734,-0.12694941,-0.28396958,0.7046257,0.90968233,-0.44602594,0.32965684,-0.21818636,0.77852833,-0.28318977,0.4929121,-0.16958117,-0.6511615,-0.19458917,0.7343379,-0.39786604,0.73986405,-0.27811828,0.41677162,-0.2446187,0.3363004,-0.53092086,0.14878626,0.2220365,0.41795754,0.100483924,0.08808797,-0.87924266,0.25691336,-0.8522401,0.6167921,-0.31801498,-0.6496825,0.10625071,-0.34997272,-0.42590588,-0.9514088,0.637834,0.3235929,0.3778576,0.5127137,0.6980376,0.18556936,-0.2244756,-0.9833245,0.04219351,0.40833724,-0.8562788,-0.19195119,0.5983327,-0.85958064,-0.6393212,-0.21051975,-0.9499497,0.55500454,-0.83786595,-0.6355424,0.6292805,0.41286713,0.84213054,-0.7252054,-0.6194917,0.34769323,-0.8212851,-0.44712117,-0.38524747,0.5075978,-1.2999742,-0.074515715,0.40219796,-1.0174038,-0.87758166,0.77176726,-0.47668114,-0.74946,-0.025715804,1.0157907,-0.5067488,-0.08289829,0.4807654,0.5799837,-0.38398135,0.3986522,-0.46116805,-0.6504722,-0.67229265,0.609613,0.18384565,-0.30794638,-0.35053566,-0.55114275,0.39485568,-0.9921422,0.6384099,-0.23725766,0.39866418,-0.5352391,0.028147269,-0.24623759,-0.4304397,0.7475374,-0.32331946,-1.1129128,-0.8403293,0.011303118,-0.036551382,0.67985433,0.12742941,0.80556864,-0.97429985,0.10432743,-0.53505033,-0.080681175,-0.24717946,0.2586165,-0.7120721,-0.9383203,-0.13663483,-0.6592221,-0.1873225,0.90638655,-0.7064347,0.34093094,0.24464136,0.20286353,0.7359544,-0.23487383,0.23474637,0.62057424,-0.33975437,-0.9792935,0.27109566,0.42325145,-0.9617904,0.25809327,-0.8539942,-0.33738297,-0.34944496,0.8684027,0.3303762,0.60357416,-0.941793,0.10778253,0.34507903,0.30598333,0.7307967,-0.4186477,0.30439663,0.6439221,-0.9474119,0.051958777,-0.19376405,-1.0292778,0.07496884,0.28676823,0.552595,-0.42351586,0.5837214,0.64157206,0.36166218,-0.41110423,0.366918,0.14719753,-0.12971348,0.63593334,-0.34471807,0.03078027,0.451666,-0.47047827,0.11084161,-0.09245646,-0.46196422,-0.0610646,-0.80633247,-0.1517541,-0.80142844,-0.46419975,-0.2742784,0.6888158,-0.8368052,-0.5590199,-0.6459688,0.7084971,-0.90993327,0.54881626,-0.75316083,0.13532801,0.19611114,0.64286935,0.7292503,0.32877377,0.29516786,-0.46717992,-0.4652932,-0.5500855,0.216459,0.71200216,0.459997,0.5563438,0.6953812,-0.6644253,-1.0328066,-0.9933499,0.32723817,0.7420636,-0.20485224,-0.41074395,0.48960555,-0.20772913,-0.26877016,0.057879917,0.06716553,0.41579592,0.80568504,0.13746764,0.2828194,0.45347983,0.77767915,0.44025204,-0.74391615,0.3943439,0.08729932,0.537235,-0.3181023,-0.8754243,0.4084463,0.46429312,0.016227799,0.1971327,-0.32532862,-0.4435156,-0.21621339,-0.24555822,0.46209252,-0.10603324,0.04545067,0.17178984,-0.2640024,0.11113778,0.41926533,-0.5159754,0.5951678,0.1680755,-0.015576434,-0.5141461,0.69363195,0.41791776,0.13059348,-0.4256695,0.22683986,0.19329932,-0.025016373,0.72364694,0.7363615,-0.6012371,-0.08317165,-0.7911055,-0.6687079,-0.073782235,0.5662051,0.45125344,-0.34424928,0.19249631,-0.35861352,-0.49641052,-0.20500314,0.67290926,-0.12194134,0.5807898,-0.04512708,0.8494542,0.37390885,-0.68123466,0.74553096,-1.0154991,-0.87149256,0.1717386,-0.18009223,-0.12722525,0.1605592,-0.03154105,-0.5028854,0.38368744,0.6133671,-0.15739326,-0.74166876,0.34621677,-0.2833664,-0.77251387,0.2982781,-0.4647348,-0.33925086,-0.021746932,-0.8115351,0.57877827,0.8127893,-0.23531319,0.2411549,0.5274252,-0.4549392,0.24828789,0.24286972,-1.1969265,0.6399135,-0.24872641,-0.009153781,0.21911408,0.58237845,-0.23950948,-0.490889,0.5908636,-0.900787,-0.40756145,-0.7394204,0.26344118,-1.0338202,0.2730757,0.75403607,-0.12943323,-0.42489427,-0.85156953,-0.34615016,-1.063539,0.31431288,-0.2515597,-0.7494336,-0.0919341,0.0735118,0.9071108,0.2896511,-0.9746035,-0.69468516,0.16725597,-0.72933584,-0.51258314,0.5091352,-1.0892606,-0.90022254,-0.67760813,0.44909933,-0.6977379,0.44944125,0.68579805,0.41659614,-0.72103167,-1.0027087,-0.45532724,-0.28947067,-0.24979697,-0.12847841,-0.19389716,-0.34396163,-0.17746678,0.45254004,-1.122458,-0.90678006,0.16275486,-0.4613032,-0.61376864,-1.030805,0.20167197,-0.1525353,-0.5884276,-0.28293958,0.23652495,-0.5354843,0.10821966,0.3580804,-0.25306213,0.16862829,-0.27150384,-0.0014242952,0.35405314,0.2620077,0.1402989,0.5312984,0.7562071,-0.87665385,-0.8069459,0.47681755,-0.7181434,0.099231176,0.39932916,0.20289882,0.100662254,-0.184862,0.61245865,-0.24682511,0.8171135,-0.72584707,0.43277898,-0.20893505,0.46903032,-0.37806597,-0.3826876,-0.9918105,0.017086904,0.44695854,-0.7222088,-0.25376862,0.6526661,0.3344297,-0.6170607,-0.9128403,-0.54117566,-0.2872477,0.4644369,-0.8017247,0.5099271,-0.076579034,-0.6792916,0.51490504,-0.2893723,0.30186895,0.84717125,-0.008076627,0.20588788,-0.7756781,-0.32899228,0.44362003,0.46098426,-0.12435503,-0.19557755,-0.34530184,0.4830596,0.07536993,0.62987566,0.5371834,0.31084302,-0.73176104,0.43139398,-0.9364466,0.43095982,-0.42291996,0.51486623,-0.6786849,-1.0289553,-0.24127132,-0.68749046,-0.39927664,0.56722534,0.19500396,-0.8303757,0.80084294,0.28532758,0.42369297,-0.8631698,-0.34710932,-0.22712179,-0.3143794,0.12037134,-0.32162812,0.09878353,0.1706075,-0.39570263,-0.7274145,0.15933722,-0.4904945,-1.0796567,-0.44394645,0.23339574,-0.19035839,-0.4559596,0.6764645,-0.7360961,0.19901408,0.107876964,0.39078486,0.7791517,0.10125516,-0.56356925,-0.5981984,0.25408584,0.21536414,0.19091922,-0.6987067,0.3882396,-0.40199178,-1.0176914,-0.48664454,0.6461043,-0.6231032,-0.0973108,0.47311062,-0.3219482,-0.9418613,0.5447776,0.77663225,0.15044916,-0.09152074,0.5388136,0.3919959,-0.8244212,0.43460742,0.10069411,0.29853433,-0.19544001,0.67335135,0.2668149,-0.24896236,-0.28503582,-0.55482733,-0.4188419,-0.24906962,-0.5696276,-0.5065143,-0.28465208,0.766822,-0.4913679,0.8772178,-0.9648775,0.85012686,-0.72703856,-0.32110685,0.42526904,-0.3484173,-0.5947129,0.7721939,-0.31072932,-0.85899734,0.088842094,0.020185325,0.8489242,0.31651467,0.37204555,-1.0497471,-0.071275845,-0.27288428,0.5601267,0.66811615,-0.6013368,0.9128369,-0.94409835,0.61331797,-0.5455308,-0.09322217,-0.66154414,0.33379915,-0.46694627,0.09585715,-1.0022973,0.70523775,-0.40601617,-0.52100223,-0.41487306,0.4445528,0.69741684,0.46690896,-0.64654124,-0.14240809,0.036548924,-0.28415322,0.62409645,0.13061735,0.6886548,-0.37699932,0.48944512,-0.81241065,0.108342454,-0.3587882,0.2473216,-0.78631645,-0.9181113,0.33944133,0.33720735,-0.4450343,-0.21509187,0.7578626,0.55012906,0.38665304,0.59443456,0.8532274,-0.47417822,-0.47474936,0.23824283,-0.13776222,-0.077445515,-0.28270656,0.25576997,0.039468393,0.09729748,0.14873108,-0.9851892,0.5939985,0.7232517,0.49616063,-0.8086205,0.49653685,0.83557487,-0.9441426,0.24545622,-0.24352351,-0.304302,0.27621213,0.1462411,-0.9451211,-0.4704949,-0.5776358,0.8908261,-1.0087047,-0.6168544,-0.8983724,0.30026445,0.34983218,0.6619043,0.67984766,0.082114816,0.030462569,-0.18281867,-0.74937207,0.63743985,0.36410764,0.42510048,-0.43576783,-0.8813396,-0.25636712,-0.717386,0.54100645,0.35645103,-0.4946745,0.339372,-0.31534126,0.10546893,-0.6230065,0.760801,-0.0019999032,0.2609352,0.69630283,0.18521246,0.47436538,-0.8650611,-0.012420744,-0.46318766,-0.57975334,-0.87976897,-0.9185396,0.56121075,0.113301076,-0.89620036,-0.05198639,-0.28759584,-0.055314884,0.1371818,0.333174,0.047095217,-1.0778058,0.5481617,-0.62575823,0.293697,-0.2568535,-0.8642601,0.092476,-0.114311196,0.12902053,-0.67060274,-0.23361297,0.33330098,-0.71102655,-0.75506175,-0.25510114,-0.4616115,0.11325991,0.052639384,-0.22853486,0.86623627,0.48420995,-0.25703722,0.7717618,0.06836547,-0.61728865,0.5627693,0.030147173,-0.25763208,-0.7161527,0.14561301,-0.27942362,-0.19654465,-0.25715494,-0.81992996,0.42048678,-0.7139617,-0.63535,0.05156777,-0.60203695,0.30838633,0.50391173,0.2996776,0.2517355,-0.8817574,-0.67872435,-0.12764646,0.3412112,-0.024195595,0.8141887,0.2503204,-0.32132947,-0.78888804,0.7675798,0.22950757,0.29234186,-0.42295614,-0.3812765,0.656722,0.72002083,-0.87655246,-0.5525001,-0.55207926,0.47479886,-0.23112601,0.71502465,-0.35499248,0.7767497,0.13778871,-0.040531598,0.055015143,0.21420068,0.96390253,-0.49625337,0.4037046,0.19696969,0.09475398,-0.9123942,0.16661017,-0.55774385,-0.07140823,0.3946419,0.37202996,-0.51618344,-0.19522506,-0.9405445,0.068345666,-0.8291125,0.5322006,0.48147282,-0.9495058,0.1528717,0.09240177,-0.36034656,-0.05073742,-0.66262454,-0.8496557,-0.48279703,-0.12374792,-0.73949194,-0.45099178,0.0840071,-0.26753086,0.26196712,-0.8892911,0.14948916,0.115144856,0.05625313,0.17624208,-0.11744071,0.76353455,0.0011043845,-0.78486335,-0.6428594,0.12916407,-0.7337431,0.6812564,-0.6985898,0.012975418,-0.07893831,0.365562,-0.61986107,-0.8445093,0.2745242,-0.032657243,-0.17425263,0.07653849,0.2763262,0.07381254,-0.6432961,0.23518695,-0.52225924,0.063189335,-0.23990418,-0.25896156,-0.09620119,0.0033801005,0.018888066,0.6223987,-0.18495442,0.17972073,0.22719991,0.57976174,0.27556697,-0.24263348,-1.0148596,0.5589025,0.19265547,-0.63848543,-1.019798,0.4480487,0.5105288,-0.10860185,0.6836743,0.058173727,-0.67534614,0.5805596,-0.43712837,-0.29086247,-0.3711563,-0.15975882,0.65712315,0.75131613,0.15448485,-0.54778636,-0.6781744,0.37825203,-0.5739403,0.85382307,-0.4742729,0.25130418,-0.15283756,-0.35007575,0.40110058,-0.73596853,-0.34772688,0.22492929,0.21705383,-0.26497525,-0.53551686,-0.6156144,-0.22774947,-0.5095137,0.1133185,0.5080556,0.773492,0.7046416,0.46654284,0.6530148,0.011785696,-0.7314629,0.8186329,-0.40449768,0.07156875,-0.6966752,0.21973921,-0.33691406,0.67702675,0.15490048,-0.3496231,0.2837481,-0.5687153,-0.20536153,-0.68818796,0.28163096,-0.18535917,0.7553657,0.3340818,-0.5131359,0.55088073,0.69432193,0.6546258,0.60193676,-0.44918734,-0.5759365,-0.058732957,-0.07875984,-0.268914,0.31005174,-0.4248068,0.25024164,-0.10877387,0.5165022,-0.28079292,0.41309202,0.6345675,-0.50529873,-0.6922191,-0.193767,0.27256128,0.77440554,-0.56101966,0.2450946,0.68495727,0.147887,-0.41847104,0.28923494,0.058332443,0.62384987,-0.18243258,-0.71590495,0.24346001,0.49352148,0.74107105,-0.588668,-0.5568731,-0.7423597,-0.35773826,0.826719,0.7448702,-0.6389804,-0.32411987,0.52385265,-0.017100165,-0.94904184,-0.592755,-0.37910405,0.8657261,0.7084724,-0.7222508,-0.16508709,-0.5260209,-0.4766582,0.216005,0.6573315,-0.637327,0.026237149,0.0928149,-0.7903486,0.117730044,0.44671816,-0.346691,-0.22676538,0.71582574,0.058623996,0.05344756,-0.8179919,-0.47937524,-0.6763239,0.12654494,0.12634799,0.24914303,0.74424803,0.63912654,0.57613164,0.3848188,-0.52895457,-0.8229616,-0.8060652,-0.50664335,-0.8346243,-0.38029218,0.5263011,-0.73773056,-0.7449401,0.118328355,0.48610651,0.10983815,-1.0353415,0.03361888,-0.10423751,0.9657522,-0.16307433,0.3350951,-0.45572397,-0.88776815,-0.37079275,-0.96306986,-0.047278624,0.5498328,-0.80313927,-0.8986694,0.039110314,0.9604603,-0.81699556,0.9126246,-0.7098075,-0.5264066,-0.78083074,-0.014399865,0.44737992,-0.75159895,-0.9808081,0.12027309,-0.73963296,-0.52822506,-0.45691985,-0.6085385,-0.2523801,-0.15500714,-0.9930404,-0.4696513,0.644666,-0.38153064,-0.5716284,0.25287265,0.17998798,-0.6113004,0.44625592,-0.6934907,-0.5094752,0.6696636,-0.58881414,-0.7680135,-0.20612423,0.4781554,0.5625914,-0.49497423,-0.17522448,-0.6203026,0.74140894,-0.37249908,-0.33654106,0.92034906,0.20723765,-0.8889213,0.8375204,0.66530246,0.023034727,-0.14778587,-0.7707324,-0.786377,0.161448,-0.039213277,-0.67025673,-0.9793893,0.40696734,0.107299075,0.47242165,0.8332236,-0.39730337,0.53097504,-0.0012127414,-0.19086145,0.018162454,0.24948972,0.5256814,0.46609548,-0.2846845,-0.17442307,-0.80236214,0.2650322,-0.7875479,0.349817,0.39746413,-0.19093728,0.3564683,0.40885547,0.67658365,-0.20136826,0.6957477,-0.01905428,0.6746219,0.907722,-0.028398944,-0.09577741,0.5579523,0.76325136,0.9894085,0.3509004,-0.32759395,-0.7353599,-0.3323886,-0.19484492,-0.67691225,-0.5436083,0.07397592,0.9804811,-0.23461619,-0.97431993,-0.7529606,0.99764836,-0.57254755,0.35100266,0.061250284,-0.47648,-0.06279333,0.7953589,-0.038923584,0.069561236,0.91107875,-0.32296512,0.2069314,-0.5578734,-0.85459244,-0.8771878,0.29302168,0.75319,-0.23982793,-0.37345487,0.51021135,-0.14151272,0.37029496,0.13700014,-0.17229423,0.34607044,0.8399195,0.31121236,-0.46814984,0.45255145,0.4460714,0.040813595,0.88182676,0.62128514,-0.7026818,0.42934105,0.7261114,0.08996461,-0.5579048,0.7698674,-0.57609624,1.0386165,-0.6839422,0.40879688,0.2715283,-0.20813751,0.06332167,-0.89852107,0.36872184,-0.20895769,0.44837227,0.48803848,-0.32838097,0.27713093,-0.09024137,0.92186064,0.3722545,-0.8419912,-0.43489328,-0.96644354,0.12471386,-0.3974005,-0.17180963,0.10608487,-0.9940322,0.4102757,-0.5048882,0.17052019,0.3942416,-0.06487817,-0.5413079,0.6865155,-0.5669035,-0.00849632,0.211284,-0.4400033,0.9755517,0.520694,0.24729912,-0.53704816,0.15899618,-0.091854185,0.69436145,0.099285275,-0.1770089,0.13948628,-0.46898377,-0.26413918,0.6436142,0.8256235,0.25152734,0.7895602,0.47806558,0.4042613,-0.3536689,-0.2294861,-0.13780518,-0.5630736,0.23969771,-0.77081674,-0.08790809,-0.93366754,0.13228498,-0.019563936,-0.6591697,0.5403222,0.75733405,-0.45052615,0.42552888,-0.122086845,-1.0121322,-0.7498124,-0.9051808,-0.15579553,-0.8977667,-0.24798289,0.54851305,0.97010183,-0.7366334,-0.18746996,-0.24836057,-0.25940174,-0.77528614,-0.20416386,0.19003089,-0.19515711,-0.0018990072,0.6896803,0.38362482,-0.71615785,0.20771115,0.8926324,0.18525998,-0.48919117,-0.493173,0.43381548,-0.372277,0.75274444,0.5858124,0.3204627,0.7330858,0.119665265,0.8003789,-0.50274104,-0.42689046,-0.96698177,-0.5716157,0.7947861,0.06974721,0.9535521,-0.84811836,-0.989948,0.34233135,0.5393123,-0.19931649,0.40046343,-0.9724989,-0.48432633,0.73235613,0.1628998,0.7888834,-0.95387274,0.01771065,-0.23826292,-0.5711017,-0.35883558,-0.83626384,-0.40648198,0.08692816,0.17474754,-0.49281874,0.4444236,0.682204,0.84161067,0.65551573,-0.9048249,0.37025383,-0.30424482,0.7626369,-0.6490326,-0.2598137,-0.30557168,-0.24139737,0.17578241,-0.39470384,-0.45815435,0.3977744,-0.48323622,0.02560205,0.5670422,0.097081184,0.5545948,0.67734164,0.1089374,-0.7618412,0.26632613,0.85709196,0.75000036,-0.8456656,-0.6357268,-0.48366553,0.7713875,-0.9064298,0.44377723,-0.70254636,-0.5156191,-0.034530155,0.39947772,0.17201638,0.34530756,-0.29807433,-0.45671022,-0.45078728,0.33300024,-0.48918703,-0.13911238,-0.9783702,-0.89739597,-0.4690233,-0.63086075,-0.120689325,0.24156985,-0.69741124,-0.08004371,0.2819237,-0.07062026,0.7844394,-0.18257852,0.26110536,-0.820073,0.44656092,-0.67908645,0.35155705,-0.39714503,0.23301682,0.09720964,0.48981482,-0.2260797,-0.5246167,0.099004686,0.16330324,-1.0009935,0.77071893,-0.13136724,0.24129052,-0.64916867,-0.11656891,0.077595085,0.9163545,-0.34075525,0.96888334,-0.39414102,0.39473593,-0.2025432,-0.8788624,0.0007446358,0.30331886,0.6372309,-0.21063244,-0.11785649,0.29694974,0.2978932,0.024610834,0.6017328,0.38689786,-0.06600067,-0.04529229,0.16117264,-0.98637545,0.40323052,-0.6358234,-0.756914,-0.5683462,-0.7132558,0.12659131,0.44207552,-0.98411024,-0.033116926,-0.11586225,-0.21190903,0.48445603,0.30564183,0.027416756,-0.07527582,-0.4831613,0.5487829,0.5472658,-0.9280154,0.14534345,-0.7648805,0.1399945,-0.4041364,-0.6231994,-0.078994006,-0.3445129,-0.94790214,0.43766198,0.1696972,0.070107326,-0.5839463,-0.24702841,-0.7079967,-0.61711043,-0.76592374,-0.18964142,-0.9460225,-0.66997683,-0.4616119,-0.7365669,0.7796701,-0.3416719,-0.51263785,0.16902678,-0.77085763,-0.16906017,-0.079660155,-0.473068,-0.18433075,-0.86318135,-0.6593677,0.18076904,-0.40018165,-0.79166955,-0.4209262,-0.94084775,-0.5180651,0.88424337,0.3544756,0.7756829,-0.7389029,0.6600532,0.47090062,0.28701437,-0.008078673,-0.5001767,-0.70215726,0.1575931,0.089189984,0.7024998,-0.9789954,0.83854717,0.40132007,-0.5525333,0.30725306,0.29994863,-0.66981804,-0.3255363,-0.8951305,0.8216482,-0.99320734,0.030440575,-0.716225,-0.42932478,0.08593126,0.6657149,-0.7344039,0.4462204,-0.99625546,0.021566933,-0.8219323,0.28939414,-0.5284372,-0.88558567,-0.66031975,0.77999866,-0.008029573,-0.33413208,0.33866945,0.31113845,-0.84860206,-0.22817047,-0.61690027,0.30877405,0.092932224,0.33873597,-0.15028529,-0.34782144,0.6682299,-0.7847472,-0.698712,-0.64775896,0.31803203,0.6944851,-0.73365265,-0.09464937,-0.3868505,0.46943513,0.5277162,0.97043496,-0.7269962,0.8605997,-0.08478747,-0.08071764,0.12123254,0.763438,-0.77040005,-0.32503533,-0.17752953,0.65583694,-0.27527913,0.32743758,0.5398359,-0.56076545,-0.9278388,-0.9271906,0.41196018,-0.0044409167,-0.22034794,0.71986544,0.8129534,0.708386,-0.25105783,-0.8839076,0.61972666,-0.7354195,-0.66746664,0.78145826,0.28451815,0.40168992,-0.846944,-0.4029049,0.8670691,0.43172643,-0.5595684,-0.80620694,0.93528086,0.4760615,-0.895988,-0.0015088214,-0.96474725,-0.5669598,-0.11497188,-0.79963106,-0.24948236,-0.8063864,-0.99519,-0.4180555,0.116205245,0.48795632,0.6401779,0.08506659,0.74626493,-0.11403215,-0.6026238,0.0840805,-0.29643232,0.8980462,0.29606056,0.77095383,-0.14056164,0.71501637,0.2932122,-0.0947393,-0.56547654,0.49905694,0.7040318,-0.6938224,0.8999278,-0.99113613,0.48202986,-0.27011502,-0.9453508,0.42219356,0.56999874,0.15048748,-0.4524312,0.3691242,-0.94859636,0.18825504,-0.25479266,-0.30254358,-0.35933706,-0.2535087,0.1873757,-0.7591595,-0.1858191,0.7954267,0.38653347,0.8450478,0.029162817,0.52603465,-0.06287495,0.84431326,-0.67962205,0.51667047,0.8180384,-0.26448092,-0.30884784,-0.6756505,-0.82169676,-0.6500848,0.32291678,0.45741835,-0.68963486,-0.02297106,0.7816527,0.8922821,-0.4355318,0.25944498,-0.25322944,0.8453547,-0.104652636,-0.7006871,0.19499266,0.018393427,-0.14589883,-0.513902,0.68016654,-0.90940773,0.49007562,-0.81409234,0.55575037,0.29170915,0.51419973,-0.4513614,-0.6151618,-0.91300344,0.18640782,-0.96437633,0.55592203,0.3805032,-0.053163324,0.15015517,0.52279454,-0.9549332,0.5502822,-0.21072464,-0.5016281,-0.82593846,0.7147079,0.15333834,-0.32457587,0.7694054,-0.003649849,-0.6776016,-0.97085845,-0.7459795,-0.10620597,0.7299673,-0.9759624,0.0119699435,0.9023073,-0.8826003,-0.10003622,0.3307136,-0.23488511,-0.5055894,-0.41739655,-0.47793746,-0.64278847,0.05132955,-0.30897668,0.097119085,-0.676838,-0.8155219,0.4596994,-0.09168016,-0.34585324,0.35729617,0.58436036,0.8678104,0.12056088,0.0070811748,-0.95360845,0.6819518,0.91866267,-0.9928153,0.47964272,0.91296625,0.29338017,-0.385292,-0.34876055,0.7650102,0.7726124,-0.01657726,-0.019122995,-0.16966248,-0.6923066,-0.59211236,0.56960326,-0.662723,0.13576224,0.025090378,0.0642965,-0.0019180187,0.06785926,0.015600351,0.21492553,0.1498325,0.023040578,0.12748867,0.76811206,0.1656349,0.467124,0.3426366,-0.109255955,-0.49411845,-0.33539608,-0.0146827875,0.31230247,0.7230843,-0.16585203,0.48875588,-0.89176375,-0.7653394,0.1255094,0.85725826,-0.8674382,-0.12169659,0.22587495,-0.64569527,0.21215813,0.7467626,-0.08096671,-0.13131967,-0.10711069,-0.8165811,0.4334126,1.0282894,-0.36620066,-0.5953437,-0.5466612,0.60447997,0.82695425,0.3076033,0.33867517,0.44320008,0.47683236,-0.66749424,-0.81129986,-0.3969462,0.34931123,0.5484618,-0.9272884,0.101315595,0.24258083,0.14247294,0.51085126,-0.29663846,-0.0694276,0.82960474,0.97899944,0.15766287,-0.21985586,0.9886644,-0.51619774,0.80581194,0.7701808,-0.35975307,0.04636409,-0.44098112,-0.9854213,0.82160425,0.8976694,0.06511989,-0.15816158,0.003033351,-0.8996591,0.08057018,-0.7648065,-0.2691484,0.76141965,-0.43861648,-0.6342489,0.6067345,-0.72086424,-0.9100054,0.29676834,-0.024643099,0.30133536,-0.21593843,0.49192548,1.0407016,0.85809934,-0.19003339,0.37827528,-0.6005601,0.88133013,0.18416144,-0.5806409,-0.5741998,0.29464886,0.5726908,0.62182146,-0.18986027,0.25314608,0.35893613,-0.03214797,-0.0101625975,0.9604753,-0.91129935,0.47386375,0.35878956,0.583551,0.3351389,0.9240301,0.21810606,-0.91327983,0.036246438,0.16465192,-0.5929082,-0.6223114,0.82886064,0.80792123,-0.61129963,-0.24654539,-0.1637043,0.019148603,-0.6292288,0.7427739,-0.4598861,-0.99460334,0.7919984,-0.29266763,0.51488346,0.13282312,-0.61299175,-0.13749003,0.5697177,0.94658256,0.15370855,0.90705836,0.64390147,-0.8393781,-0.19066077,-0.6307717,-0.5920344,-0.11847695,-0.7954458,-0.07696466,0.93966347,-0.8719356,0.4537005,-0.4781559,0.09712227,-0.27728623,-0.17994289,0.14006484,-0.26480383,-0.3716411,-0.19567017,-0.3983241,-0.59280133,0.7179021,-0.28795564,0.59875673,-0.94540846,0.10534814,-0.7673179,0.62085253,0.21135974,0.5229683,0.38237196,-0.36941776,0.65259093,-0.8919473,0.5241823,0.61418146,0.7729889,-0.12153703,0.44812626,-0.67082584,-0.09729107,-0.4470084,0.3454985,0.025184695,0.91774523,-0.5896727,0.3237638,0.6825643,0.14092703,0.022433747,-0.09860652,0.5997208,0.20217896,-0.21547948,0.53731304,-0.77215606,0.3854467,-0.65518796,-0.19408499,-0.3739798,-0.8247207,0.38034695,-0.30297276,0.51900935,0.14647074,-0.05527761,-0.36158594,-0.23047055,-0.23954879,-0.14654061,-0.6648855,-0.3498648,0.08779959,0.26655623,-0.17834935,-0.49448428,0.95404917,-0.99025327,0.32811335,0.7636634,-0.88521653,0.14909878,-0.8789475,-0.36844322,0.35525152,-0.19328909,-0.53757215,0.24707212,-0.39388955,0.28736234,0.5912544,0.53235376,1.0057173,-0.259185,0.81852996,0.2485826,-0.67338187,0.5528075,0.27726206,0.96399254,-0.0046593044,-0.7258115,0.8299095,-0.13386065,0.6748448,0.82662195,-0.20231935,0.075122796,0.17553262,0.15494406,-0.0355749,0.35822794,0.6776816,-0.20764174,-0.10033851,0.10185487,-0.813976,0.23294456,0.15276913,0.20178397,0.58740586,-0.13592501,-0.71068174,0.74610764,0.23188078,-0.120462425,0.23829442,0.26301736,-0.22857454,-0.36020282,-0.014760071,-0.51403725,0.76845545,-0.30393776,0.9172564,0.7644316,0.24653791,0.5918842,0.857377,0.1511988,-0.7966043,-0.5147698,0.6510443,-0.58676714,0.66818357,0.7180886,-0.69105285,-0.28204885,-0.25974217,0.1291117,0.89476323,-0.83406895,0.70008165,-0.7003259,0.19036156,0.13714871,-0.95299006,0.2842491,0.7855357,-0.6265773,-0.23648202,0.9750293,-0.7965311,0.47889754,0.31581274,0.8381733,0.84773237,0.3192292,-0.26331085,0.36258087,-0.42929092,-0.49846935,-0.25716576,-0.9160529,-0.24530369,0.36723703,0.9585343,0.9725377,-0.3918602,-0.24477164,0.39584184,0.40126312,0.10377859,0.88863164,-0.036176823,-0.38784832,0.23432642,-0.1648752,-0.7341415,0.1733962,-0.25461414,-0.13241337,-0.09959997,0.9446555,0.15312378,0.5509365,-0.75590616,0.96102524,0.3466425,0.02002585,0.73346144,-0.2553895,0.07145198,-0.058062922,-0.016791325,-0.64995646,-0.23638295,-0.24200332,-0.9979763,-0.7305091,-0.16929397,0.5805279,-0.53025615,0.37937164,0.22801109,0.80948085,-0.51296705,-0.15274288,0.42942023,0.28316215,0.25673962,0.8111732,-0.814035,-0.31037834,0.70370907,0.5405613,-0.18601641,-0.14993566,0.12002387,0.56032383,0.25893596,0.92315346,-0.84187883,-0.8352165,-0.13762552,-0.77227664,0.070973024,0.6555984,-0.6964165,-0.8229241,-0.9026664,0.82515466,-0.0893678,-0.6228956,0.78386223,0.88412607,0.25369126,0.57666415,-0.97215563,0.3689843,-0.6125584,0.48203567,0.9585169,-0.26249865,0.24276033,0.45866713,-0.5852954,0.981373,0.473671,-0.2913567,-0.5397536,-0.3779053,-0.87409824,-0.8560251,-0.5518624,-0.8984155,-0.772233,0.20066133,-0.6182839,-0.15908143,0.3246695,0.5339946,0.7857111,-0.94751847,0.62952805,-0.32542738,-0.81117046,-0.39463133,0.21342774,0.2808546,-0.15083662,0.3555206,1.063839,-0.43526244,0.6836658,0.35227904,0.9398338,-0.58007026,-0.7943566,-0.81159353,0.43149298,-0.04645018,-0.5707136,-0.5821791,-0.8054492,-0.2653917,-0.8632822,-0.7331266,0.6355112,-0.69656336,0.52269316,0.22165327,0.23063813,-0.22851077,0.15059072,0.44720262,-0.5834376,0.78310275,-0.041625958,0.42579186,-0.4401616,0.076673925,0.01257911,0.1612307,-0.2972328,0.7475799,-0.8378967,0.3801228,-0.26840517,0.29511508,-0.3359788,-0.1334433,0.5936387,0.9119445,-0.93401295,-0.65392214,-0.65696734,-0.37580118,-0.77877575,0.68788177,0.72724634,0.45920214,0.03480477,-0.8896142,-0.7245944,0.812712,0.2965251,-0.82760805,-0.85099316,-0.64790124,-0.24501427,-0.9140209,0.6961373,0.39049858,0.69048715,0.035894122,0.57297593,-0.45002207,-0.114692636,-0.3382615,0.4451003,0.22138746,0.35782114,-0.7819534,-0.97049725,0.66635907,-0.630226,-0.2587974,-0.8432885,-0.94842887,0.95900315,0.15694782,0.072966605,-0.39749724,0.14995107,-0.75733656,-0.14067286,-0.13349661,0.5977254,-0.24664247,0.61901647,-0.623292,-0.7823155,-0.2283386,-0.52249295,0.48808593,-0.6673612,0.6480124,-0.7558414,-0.6394705,0.3156589,0.2560738,0.23965538,0.8120117,-0.4197232,-0.32791618,0.23774974,-0.6365969,-0.08815883,0.6669727,0.03816423,0.45985326,0.16802664,-0.68511206,-0.029987715,-0.92667353,0.3017057,-0.29406154,-0.4571304,-0.7926299,-0.25623047,-0.3775474,-0.58105683,0.3997088,0.29309365,-0.9495391,-0.505654,0.47569144,0.91822255,0.4678927,-0.6482637,0.7247009,0.18169048,-0.249815,-0.5873496,-0.8201126,-0.3237127,-0.70735407,-0.7510482,-0.7100659,-0.76138836,0.6789964,-0.47614837,0.4912436,-0.9476149,-0.2777886,-0.17499776,-0.96313417,-0.61674917,-0.22015487,0.63181263,-0.42094374,-0.16036141,-0.2552988,0.11768063,-0.453836,-0.99267286,-0.52086,-0.34638524,-0.3215853,-0.878666,0.89564824,-0.65305823,0.68895286,0.9908262,0.27921456,0.88740635,0.15873194,-0.6484423,0.36884633,-0.6081478,0.14991432,0.7281167,-0.5912201,-0.83148617,0.6825913,0.13371907,0.89313334,0.5360685,0.19220662,0.6133935,0.76516455,-0.84967774,0.5804907,-0.032695867,-0.9269523,-0.41670668,0.2683776,0.22536318,0.42817503,0.47530365,-0.97477174,0.10434908,-0.5891539,-0.9189977,-0.3525014,0.08191724,0.41420022,0.02818365,-0.6057462,0.2756874,-0.48046362,0.819012,1.0049489,-0.2648375,0.100943685,-0.3254988,0.108407445,0.46442243,0.4142024,0.42406327,-0.5302521,-0.78738153,-0.80272764,0.27252665,-0.9981899,-0.8207279,0.042734012,0.5454211,-0.5404693,0.3223414,0.630218,-0.9515742,0.24795742,-0.9684183,0.60773903,0.8600723,0.73172164,-0.28716537,-0.09324429,0.23567069,-0.27288878,-0.15032986,-0.48263735,-0.48082593,0.3057804,-0.91247046,0.9706804,-0.04726682,0.7642991,1.0164962,-0.13168809,0.5759735,-0.40318346,0.6152763,-0.18041271,-0.4719077,0.1936086,-0.4422705,-0.31600767,0.96297246,0.64522666,0.9877969,-0.7340387,-0.06484924,0.24947429,0.24056983,0.58306414,-0.003514905,-0.26653847,-0.87905204,0.3448828,-0.42397186,-0.8102395,0.90269864,0.34356102,0.4454707,-0.44444934,0.08599917,-0.93568784,-0.27410755,0.11950365,0.6478065,0.7269051,-0.8510761,0.30930665,0.91144174,0.19896898,-0.02985427,-0.61786497,-0.1116823,0.5544042,-0.6748148,-0.4135169,-0.21036673,0.35988688,-0.15604225,-0.13731018,0.8152491,-0.29410094,0.51228774,0.2126197,-0.35394698,-0.58896327,0.49790463,0.28328997,0.4417353,-0.46890995,-0.102653004,0.5715799,0.7712034,-0.95383734,-0.24712934,-0.4555706,-0.77688295,-0.44558915,-0.63414264,-0.9256614,0.29369828,-0.56185645,0.053977735,0.4628112,0.81555766,-0.7488229,0.6830571,0.274887,0.26298583,0.6255701,-0.28207842,0.1989687,0.8107315,-0.25434116,-0.8993809,0.37630802,0.3610879,0.17806725,0.14145969,0.30248696,-0.03580099,-0.8947028,-0.14869344,-0.27551138,0.86135757,0.9405042,-0.0024394125,0.09156098,-0.5491843,0.2751139,-0.37173072,-0.8995795,0.5266894,-0.47064382,-0.62619305,-0.38521668,0.9233591,0.8112283,0.98944694,-0.8539214,0.7408788,0.9477008,-0.57665926,-0.52185607,0.33207545,-0.61405694,-0.18868375,0.05955533,0.2990249,-0.4132799,0.2302605,0.31055108,-0.14059158,0.86436814,0.63920975,0.1888515,-0.2574506,0.55273795,-0.33543095,0.19748873,0.836585,-0.9366741,0.37599117,0.6896,0.90356094,0.7143971,0.50560725,-0.74150175,0.5896995,-0.4435445,-0.85933584,0.3870248,-0.79354596,-0.0025731775,-0.6138221,-1.003811,-0.14892212,0.22422312,-0.7303704,0.8818614,0.76674336,0.9878506,-0.5753567,-0.57796466,-0.7440026,-0.5424368,0.6937302,0.32841548,-0.27397516,-0.71937865,-0.5951185,-0.02646587,0.6523873,-0.078681685,-0.7973261,-0.81663245,0.46165925,0.3489829,0.10104936,-0.65299875,-0.83351755,0.23951374,0.5656091,0.5890464,-0.72905236,-0.9960971,0.8495224,-0.31993833,0.22924085,0.41816112,0.49341848,-0.20404148,0.95986617,-0.8694499,0.83562505,-0.81393826,-0.65662,-0.8540677,-0.88674664,-0.54954237,-0.4961141,0.1843432,-0.13327688,-0.07844339,-0.097559005,0.25810444,-0.55292076,-0.52324826,0.7464511,-0.034964833,-0.71454734,0.19215101,-0.9944134,-0.6298357,0.14965393,0.7432846,-0.95464414,0.08918018,0.46791896,-0.34627733,0.5430236,-0.72103417,-0.8277649,0.08553008,1.0674582,0.8534988,-0.61390114,0.57959336,0.2272867,-0.9375154,-0.7585143,0.5138068,-0.94077855,0.8452719,-0.72333074,-0.6017187,0.5751879,0.07433748,-0.022613045,-0.31397432,0.7254368,-0.3124574,0.73393786,0.78452104,0.96483135,0.31508356,-0.3523869,-0.39069754,-0.9539296,0.38180518,-0.88188356,0.6925204,-0.984143,0.41762865,0.8177948,0.6491571,-0.19999179,-0.16263585,0.24143077,-0.51651883,0.4100191,-0.55643505,-0.14032428,0.43059465,0.32832545,-0.6021545,-0.18995164,-0.97269917,-0.4211081,0.67920935,-0.4158879,0.66351897,-0.5278106,-0.7866348,0.72654694,-0.5423159,-0.7189097,0.65441805,-0.37917492,0.24593969,0.67340916,-0.93526655,0.9732023,-0.4265907,0.37521493,-0.2939573,0.17291288,0.9297341,-0.59529793,-0.12205016,0.7576886,0.8124615,-0.98160946,0.8329059,-0.5644908,-0.77223986,-0.8170587,0.31854516,0.66198665,0.3371995,-0.03180841,0.83756053,0.6058851,0.96013075,-0.4646987,0.36752832,0.61165166,-0.1637998,0.9398179,-0.39498255,0.4168442,0.63741386,-0.20443298,-0.4323393,-0.5077772,-0.079304196,-0.2787089,0.8806555,-0.5498774,-0.8948352,0.41746908,-0.10281933,-0.45598024,-0.38259757,-0.454114,-0.107315145,-0.5716138,-0.07530653,-0.58524054,0.8189258,-0.8491274,-0.096511684,0.53445065,0.6669307,0.41660124,-0.10946656,-0.41812038,-0.59700274,0.15853612,-0.19062142,0.38844612,-0.927286,0.36501235,-0.65861064,-0.83015037,-0.1746588,-0.3267407,0.15351012,-0.24993423,0.81344277,0.11216714,-0.9500415,0.16353005,0.90900695,0.51471263,0.30349562,-0.21006246,0.7682069,0.8199021,-0.94057816,-0.4700574,0.21318083,0.38528085,-0.66621935,0.7037548,0.7561956,-0.006447794,-0.9100979,0.19630647,-0.16883925,-0.59694344,-0.259137,-0.25652337,0.0959479,0.72666717,0.31094265,0.46684912,-0.48855612,0.32783085,0.45346165,-0.20905735,0.18422283,0.19536796,0.8109665,0.95749444,0.7521648,0.23364228,-0.43221197,-0.59465915,-0.5313568,0.7293252,-0.890871,0.5018172,0.556763,-0.625002,0.88342893,0.6636044,0.8664647,0.6334323,0.08836411,-0.7143338,-0.7688111,0.0007741801,-0.18036504,0.65842795,0.3054178,-0.16596079,-0.37601107,0.8359473,0.74709165,-0.17469817,-0.42674413,-0.6397625,-0.7812828,0.09902285,-0.5702127,0.63058907,0.9439641,-0.40892994,-0.13871178,-0.29207104,-0.6793016,0.13015456,-0.16691935,-0.0333859,-0.8362211,-0.16140425,-0.9514762,0.5042511,0.80969685,-0.7942615,-0.6209952,0.34780362,-0.28656667,-0.3743981,-0.7905318,-0.10003096,0.9459133,0.6940859,-0.79237163,0.6118646,0.49783143,0.7329732,0.9414781,0.0693736,0.80521864,-0.6088685,-0.8981411,0.46058694,-0.26856545,-0.54506433,0.6991802,-0.24417278,-0.8687399,0.90510035,0.8708313,-0.31339598,-0.7860631,0.5339581,-0.10894149,-0.4034276,-0.3012126,0.21183674,-0.20339344,0.8303383,-0.31543988,-0.28751552,-0.75725675,-0.43078905,0.63505536,-0.872173,-0.4807973,0.00328857,0.70815533,-0.32300398,-0.14960767,-0.33470714,0.6571727,0.4181637,0.21027052,-0.4587304,0.23254396,-0.00085443904,0.25246048,0.12723987,-0.80839765,0.6291071,-0.12674606,-0.44534808,0.3514471,0.7822492,-0.35171342,-0.43705872,-0.6519853,-0.7074632,-0.5332397,-0.6791411,0.07811359,-1.0002298,-0.47636327,0.68991125,0.040646084,0.75973004,-0.48958582,0.25635725,0.63418186,0.23466142,-0.22236557,0.7889191,0.41609433,-0.44875342,-0.27247667,0.6332724,0.46766928,0.2363672,0.008802204,0.8407078,0.7519801,0.5142673,-0.91720736,-0.41454455,-0.86371917,0.21341668,0.94967985,0.6965184,0.68069834,-0.40648848,-0.41238657,-0.25245777,-0.21741694,0.19989863,0.33881924,0.8125907,-0.42938945,-0.49930918,0.09673936,-0.4061273,-0.52210116,-0.51020086,-0.89106977,-0.99258184,0.057736844,-0.04047021,-0.58333987,-0.8534897,-0.6960764,0.21926679,-0.14346625,0.19406265,0.51520896,-0.47426802,-0.19715364,-0.02862391,-0.23917948,-0.93265975,-0.83988756,0.71827835,-0.8695119,0.23338322,-0.3502345,0.79340947,0.36870992,-0.28605556,-0.6740137,-0.9309778,-0.6393001,-0.32170844,0.12380686,0.057852097,0.66854745,-0.7818006,0.95964515,0.04288922,0.25035253,0.24453846,-0.22566274,0.260602,0.037022457,-0.05230939,0.1264539,0.29442474,-0.21350047,0.101895,-0.713881,0.8760334,0.45954475,0.9323539,0.67446625,-0.07428663,0.34424776,0.9508275,-0.63932246,0.7899675,-0.53619236,0.64540803,0.94548637,-0.12681557,-0.32592517,0.9695601,-0.9128855,0.93046457,-0.25897568,-0.045148917,-0.80205625,0.50301224,-0.41971886,0.46896857,0.07713158,0.6385344,0.18017092,0.5979219,0.026635643,-0.57667255,-0.1792787,-0.52642006,0.49930054,0.12726836,-0.28648463,0.15358928,0.08148072,0.4274278,0.6546176,-0.2893262,-0.1796665,0.45417616,0.032595355,0.13216756,0.31694397,0.6298525,-0.19894956,0.90319574,-0.30734128,0.07774771,0.46934575,0.857826,-0.2708711,0.18423556,0.93339735,0.5897812,-0.59460866,0.2752812,-0.32482576,0.36401963,-0.58457184,0.2537918,-0.3993349,-0.34357476,0.758646,0.83843756,-0.85639334,-0.57358456,0.321661,-0.93762064,0.97522044,0.41280127,0.12112808,0.7405381,-0.22847438,0.81373096,0.122760534,0.42535138,0.992079,0.8376043,-0.015592575,0.078514576,-0.8990786,-0.72930527,0.2670188,0.25807476,-0.3622601,-0.34393668,0.14557886,0.57767415,-0.2999332,0.52485466,-0.59700704,-0.32764816,-0.52975535,0.92657566,0.7195654,0.51105595,-0.46995592,0.8739786,-0.95188046,0.22689652,-0.7309208,0.32471776,-0.64051247,-0.6938307,0.6143637,0.95844364,0.71417665,0.8928349,0.77594924,-0.08690691,0.29838347,0.6285465,-0.08827448,-0.9795368,0.5822034,0.2953043,0.036800623,-0.4136796,0.3337767,-0.75224185,0.96836615,-0.67919517,0.9103663,0.754344,-0.43117738,-0.8786683,-0.86366725,-0.9407611,-0.17965174,-0.33092666,-0.97134423,-0.19845867,0.9602394,0.5700369,0.99122524,-0.026905537,0.12242985,0.736588,-0.89937043,-0.21384692,-0.48039436,-0.25479507,-0.1460104,0.679266,0.5677953,-0.6593442,0.34776497,-0.23681808,0.3517797,-0.9499383,-0.9835491,-0.2654562,-0.69076514,-0.13580203,0.6472173,-0.034261942,-0.6306956,0.862571,0.34308004,0.87938,0.7409756,-0.14464855,-0.79361916,-0.73924565,0.58324456,0.17978835,0.31634545,-0.15608668,0.05810976,0.7040436,-0.5223119,-0.6402724,-0.8427992,0.0862813,0.0059115887,0.98094726,-0.16082478,0.7209306,0.62115693,-0.07613158,-0.21263123,0.20151567,0.39007568,0.47748184,-0.5932827,-0.3497858,0.7451675,-0.8954599,0.6746843,0.12587285,0.50850415,0.08533597,0.88968635,-0.36558223,-0.17148733,0.58558774,-0.5896721,0.28997612,-0.58119774,-0.60307455,-0.084670305,-0.2123549,-0.2651887,-0.9534538,0.43100953,0.04777527,-0.72167087,-0.32427716,-0.858938,-0.26286125,0.7678356,0.45137525,-0.2615862,-0.007860661,0.048947573,0.7372632,0.4316597,0.7399466,0.095398664,-0.61322093,0.43201208,0.26997542,-0.39662623,-0.19331837,-0.68016696,-0.55811834,0.8639059,0.1740017,-0.090973616,0.22954059,0.13872409,0.39761186,0.15173125,-0.22044754,0.23837256,0.7488508,-0.42652988,-0.2506671,-0.20464301,-0.7289586,0.2946694,-0.80225134,0.3126719,-0.51736426,-0.270056,-0.036429882,0.71819377,-0.9647403,0.44824243,0.36396956,-0.57237124,0.4854753,-0.981509,0.3476131,-0.8220811,0.5393989,-0.9831338,-0.55280614,0.3064413,-0.16515923,-0.026445389,0.41180372,-0.9275229,-0.10293484,0.060457945,0.10977507,0.43138385,-0.90805125,-0.60664606,-0.24469638,0.94966745,0.6203835,0.8726618,0.8311813,-0.29353595,-0.34584332,-0.20603085,0.46282125,0.5392401,0.44863105,0.77529454,0.5851784,-0.95482826,-0.55941415,0.7117233,0.31365657,-0.980896,-0.14421344,-0.15032363,0.09785032,-0.7121482,-0.22395515,-0.27162766,-0.27272844,-0.9813733,0.9681246,0.140769,0.75360537,-0.560472,0.018863916,-0.8904841,-0.703459,0.30490828,0.97524524,-0.36748528,-0.7213342,-0.8980932,-0.14228272,0.021754503,0.13324094,0.22364473,-0.78714705,-0.47059226,0.6872475,-0.28652453,0.8242774,0.7041137,-0.545568,0.88168573,0.22306299,0.6576507,-0.40683937,0.0108652115,-0.9934442,0.15428114,-0.23493576,-0.20331955,0.16518259,-0.71477556,-0.10815382,0.5607071,-0.72166514,0.28316283,0.11840463,0.5992856,0.51507926,-0.2795713,-0.55132914,0.42596102,0.75268984,-0.8140209,-0.53073835,0.33789396,0.031076193,0.14870477,0.14326906,0.7524133,0.03548503,-0.16039085,0.97230816,-0.61187553,0.9511483,-0.71010137,-0.31080914,0.6049652,0.8336983,0.10852647,-0.3695445,0.7841327,0.24037671,0.2528832,0.4080398,-0.99434114,0.08358908,-0.0011463165,-0.28380394,0.36487484,-0.445014,0.029924631,-0.6115904,0.73252225,0.31403732,0.053744555,-0.06979728,-0.66936374,0.59502196,0.7588043,-0.7947738,0.69531274,-0.792753,-0.30470943,0.36656642,-0.33250022,0.9159899,0.8764484,0.82096434,0.66779184,0.92719984,-0.7103336,-0.31327868,0.8753853,0.4490316,-0.93560433,0.32472157,0.121309996,-0.17550874,-0.15268946,-0.87077355,-0.71599245,-0.10948658,-0.72091436,-0.4355104,-0.32098985,0.77213216,0.58094764,-0.14659905,-0.36238956,-0.017109156,0.9145062,-0.72179437,-0.0460124,-0.4041617,-0.83065534,0.9454477,0.18626428,0.026411057,-0.7277117,0.39497566,0.5267215,-0.15114903,0.8101611,0.22658825,-0.19921565,-0.42216897,-0.25421143,0.35235596,0.93465614,-0.7584312,-0.07838774,0.556988,-0.5346513,-0.28742957,-0.18639469,-0.875695,0.39813685,-0.57882094,-0.8413956,-0.21329308,-0.50934887,-0.7703314,-0.2792523,-0.48548698,0.7774725,-0.518075,-0.69293547,0.008954287,0.23654747,-0.66116905,-0.52282596,0.0958271,0.8710103,-0.30389833,0.90742326,-0.1266563,-0.5777352,-0.3966987,-0.97163796,0.29717422,-0.13310099,-0.90474963,0.63845754,-0.43017483,-0.68090177,-0.02392459,-0.7370014,0.82510924,0.07519269,-0.26927495,-0.17994905,-0.042125463,0.39077592,0.6052904,-0.066118956,0.5049925,-0.4901445,-0.9563792,0.1352148,-0.790879,0.9681337,-0.39729595,-0.2923951,-0.22100043,0.7970805,0.70364594,0.7062061,-0.016130924,-0.7510133,0.49806213,0.4288485,0.011811256,0.56966066,0.80032563,0.63929677,-0.8194897,0.9415324,0.80480003,-0.6386244,0.043737173,0.955271,-0.31904984,-0.8863578,0.9367118,-0.4451933,-0.86876416,-0.13002038,-0.06120324,0.12532401,0.720891,-0.9957733,-0.99237704,-0.111718655,0.6580088,0.4482727,0.8562112,-0.6934416,0.7751937,0.26590776,0.26328778,-0.7762041,-0.7192936,-0.5138407,-0.3538251,-0.9610834,-0.43105316,-0.8339231,-0.72714543,0.5015609,-0.88042045,-0.06075716,0.22863173,-0.38602042,0.5221839,-0.6715865,0.8871901,0.3011968,0.81848454,0.20322108,0.5309968,-0.5026846,0.53073883,-0.67982554,-0.7980685,-0.8782296,-0.22134256,0.296767,-0.37737727,0.17741323,0.17940569,0.13744235,0.51475906,0.8212552,-0.7624731,0.023497581,0.54065967,0.42594266,-0.268198,-0.63957334,0.5263493,0.60464,0.9928081,-0.5915823,-0.83964705,0.6745553,-0.72747827,-0.27277637,0.9172201,0.936321,-0.47694302,-0.3151424,0.63300776,0.27248478,0.75406885,-0.6821561,-0.33239555,-0.9683001,0.79359055,0.9233098,0.5374675,0.767658,-0.14068294,-0.7419529,-0.080230236,-0.5037105,-0.82687306,0.07450032,-0.4078021,0.6707032,-0.8879812,-0.6124339,-0.71170354,0.45644498,-0.7234988,0.7219393,-0.8013954,-0.042951822,0.526124,-0.9279425,0.20810485,-0.37710166,0.52685905,0.018620014,0.05333829,0.25797963,0.010872602,0.88613963,-0.20246601,0.18295932,0.90688705,-0.9562044,0.2394259,-0.9247558,0.28897762,-0.061538696,-0.12884521,0.36542082,0.044486046,0.80807567,-0.56532,-0.7530155,0.88500047,-0.6187444,-0.5195546,-0.46100855,-0.781281,0.42577958,0.62285113,-0.8120434,-0.5487163,0.11672187,-0.32833433,-0.86253333,-0.9591434,0.7467706,-0.45256925,0.7160883,-0.20088243,0.449553,0.8909929,-0.96066904,0.5099335,0.092029095,-0.016527176,-0.2790928,0.5851562,0.20218658,0.008497953,-0.38139796,-0.07785487,0.8452132,0.28590727,0.875643,0.0076155663,-0.8623071,0.08039141,-0.9661207,-0.111340046,0.3086412,0.7111647,-0.3663485,-0.09090805,-0.78332186,-0.024166107,0.005893469,-0.6280236,0.57594395,-0.28203154,-0.9803827,-0.21101642,0.18588567,0.66557264,-0.9919572,0.67729115,0.9128642,-0.9745691,-0.2960627,-0.8373728,-0.86149335,-0.004541397,-0.84351444,0.69585896,0.56819344,-0.81974363,-0.17021418,0.25353956,-0.29504776,-0.5944612,-0.5457103,-0.8668809,-0.94556713,-0.15903544,-0.938354,0.20543528,-0.049138308,-0.10963607,-0.1160171,-0.068749905,-0.50050545,-0.41649866,0.44545746,-0.23408604,0.5756347,-0.041086912,0.012738943,0.6978512,0.5092974,0.35150242,0.041894674,0.2151258,-0.85042644,0.44185066,0.044112444,0.6198976,0.5868919,0.7794349,-0.51124716,0.7349036,-0.29428697,0.5658386,-0.105805635,-0.8103695,-0.8709781,0.40226293,-0.12883878,0.77774763,-0.53291726,0.91103625,0.43230867,-0.9078696,0.15027642,0.7236829,-0.074026346,-0.49320388,0.8065758,0.07418203,0.15921116,0.4969716,0.565747,-0.09714556,-0.71155524,0.30539536,0.05315733,0.45071864,-0.25667334,-0.5887747,-0.20806599,0.15830421,0.3846252,-0.81352186,0.58431673,-0.44635034,0.8183534,-0.96333146,0.7491789,-0.22854424,-0.5256791,-0.70720315,-0.72754836,-0.20710015,0.049782515,-0.92049074,0.5773554,0.6237216,0.6459749,0.019280195,0.7915888,-0.7000854,-0.60189486,0.13555312,0.0325377,-0.54848504,-0.8419001,-0.44728732,0.88686395,-0.5200896,-0.4496615,-0.6332512,-0.1456232,0.28002524,-0.71220493,-0.16312432,0.9793947,-0.6233909,0.82398796,0.54713416,-0.571393,-0.9892795,0.95304894,-0.088232756,-0.34333014,-0.73288226,0.18880916,0.97866035,-0.94087076,-0.12245369,0.6986742,0.591975,-0.1324296,-0.323987,0.08438945,0.49146652,0.3198037,0.62365556,0.9035721,-0.1488564,0.18889117,-0.58804846,-0.5092871,-0.30422115,-0.5823703,-0.09509015,-0.31372356,0.3411243,0.74893475,-0.13375783,-0.8550396,0.67422986,0.5610504,0.34830117,0.53624964,-0.73327804,-0.6722193,0.7258673,0.67873764,-0.1665051,-0.31934905,-0.2635007,0.26744103,0.56313205,-0.390193,0.53107214,-0.89436555,0.5433481,0.9662621,-0.0974915,-0.17030907,0.4880662,-0.41560864,0.16832519,0.80804634,-0.60369897,-0.66811705,0.8642349,-0.7804539,-0.14708543,0.9725075,0.8459058,0.10972166,0.9771037,-0.48240447,-0.6194732,-0.27138257,0.7999091,-0.7500367,-0.028822184,-0.28738666,0.29557252,0.791065,0.16589403,0.28372502,-0.18572307,0.03507638,0.38157797,0.649261,-0.4946952,0.039820433,0.43128204,0.59296703,-0.32459688,-0.93392754,-0.76997423,0.9401965,0.18268561,0.7862778,-0.08891535,-0.39068294,-0.010573149,-0.30087948,0.89896274,0.12613201,-0.039038897,0.00833869,0.31350422,0.73768425,0.7122538,-0.41941857,-0.5145469,-0.9793911,-0.5895927,-0.03129506,-0.82896686,-0.84594655,0.6387713,-0.9309926,0.7674427,-0.5236447,-0.16730428,-0.78285503,0.8046055,0.08816266,0.97522354,-0.350147,-0.011571884,-0.86808205,0.6156235,-0.056667566,-0.117323875,-0.73013926,0.3561895,0.5638714,0.089235544,0.96112084,0.9592478,-0.78280044,-0.8362105,-0.034594774,-0.46373248,-0.95529723,-0.9921496,-0.6719122,-0.034477234,-0.20542002,0.8370993,0.39408326,0.3759408,-0.71951485,0.6572356,0.42781186,0.8200128,-0.97953916,0.89376116,-0.86630034,-0.6816995,0.95501614,-0.10562873,-0.4145422,-0.8896344,0.60427785,-0.7895651,-0.42105126,0.10147357,0.58230686,-0.22885895,0.4572296,-0.574245,0.34735274,0.68685055,-0.6598134,0.3093772,-0.9451797,0.8313136,-0.21033192,0.93416834,0.22013736,0.4545381,0.2976029,0.9713063,0.48197842,0.57208705,0.4209559,0.13729405,0.9733949,-0.50765014,-0.77718306,0.6688647,0.008043766,0.42466235,0.39487028,-0.2585349,-0.90560436,-0.282439,0.36412215,0.6419625,0.47578907,-0.40086246,0.14483356,0.6941023,0.13789773,-0.24706149,-0.6534786,0.29335213,-0.19192815,-0.4927461,-0.9123068,0.7027106,-0.78869295,-0.5639157,-0.19983578,-0.7071154,-0.97758794,0.75554323,-0.87639856,0.9491689,0.73043346,0.46472788,-0.44703865,0.2816689,-0.36139417,0.17393064,-0.63441896,-0.39705515,-0.29607248,0.24188209,0.013634205,-0.13372326,0.68996334,0.41900206,0.21280217,-0.3756461,0.4660213,-0.58264875,-0.8858352,0.21503997,0.75008225,0.95103145,-0.89537454,0.74916315,-0.93534327,0.92112136,0.18028522,0.6324551,-0.5055666,0.83770156,0.8896551,0.51860785,0.71486735,0.538363,0.07716107,-0.6462221,-0.5644541,-0.63631916,-0.66665745,-0.79875326,-0.9855771,-0.64347625,-0.35856366,-0.88191676,-0.21666408,0.71434,-0.68796253,-0.66555977,0.89389443,0.17977548,0.7974875,0.0849576,0.73925114,-0.6594007,-0.10171175,-0.7307813,-0.35509872,0.04670024,0.63713217,-0.3897941,0.74329185,0.34978056,0.3567896,0.8328779,-0.065951586,-0.8459084,-0.039462328,-0.48066807,0.39382935,0.20805883,0.5524869,0.56745243,-0.8577447,-0.50767136,-0.26051784,0.15781331,0.034409285,-0.7395334,0.62100434,0.7165537,0.49153638,-0.94906425,-0.19083095,0.16980743,0.5441611,-0.7273092,-0.71547675,0.6333171,0.67152494,0.31349367,0.02701588,0.87946194,-0.3998264,-0.16596748,0.89194614,0.055681653,0.19119872,0.008256566,0.2949358,0.9632711,0.19235115,-0.9735695,0.13318379,0.528958,0.042950418,0.7292529,0.31053257,-0.9637842,0.5685712,-0.44023257,-0.5356898,0.79063654,-0.79784113,0.03558986,-0.4404564,0.83597606,0.56951886,-0.40343776,-0.95231247,0.25211537,-0.66029376,0.13580787,0.58340424,-0.780092,0.8637594,-0.19767246,0.1329686,-0.477931,0.9188479,-0.019818265,0.11202223,0.57500815,0.49970633,0.1027841,-0.03362431,-0.07246749,0.6966706,0.23793195,0.782739,0.19921936,-0.18386869,-0.88343763,0.27553567,-0.53770906,0.6542236,0.88523704,0.81181294,0.08653638,0.6188516,0.19550043,-0.06919844,-0.059602465,0.68158585,-0.017654723,0.9511991,0.95685375,0.111924574,0.44793034,-0.9556008,0.68990093,-0.4507241,0.8603406,-0.64829284,0.35321856,0.71173185,0.64198375,-0.07861901,0.045063842,0.17724611,-0.5444163,0.47560912,0.07051721,0.6126246,-0.37084755,-0.94382864,0.7225844,0.39080566,0.3218612,-0.61199903,0.44444197,0.53831226,-0.9848855,-0.16803986,0.8690403,0.861232,-0.52211803,-0.4281634,0.6625817,0.37717304,0.5787122,0.5210232,0.118989356,0.17698163,-0.688111,0.6598719,-0.4362416,0.49324384,0.41184944,0.5775681,0.52071923,-0.21981274,-0.82731336,-0.8470862,0.7336405,0.014011537,0.7370099,0.61704475,0.42819545,0.69192857,-0.7806433,-0.7713221,-0.22328663,-0.72097224,-0.027984615,0.37211403,0.009155072,0.97537416,0.31427088,-0.38475782,0.8157274,0.1549005,0.8726099,0.8776626,-0.22781576,-0.7181336,-0.005764682,0.5230992,-0.4154391,-0.35922492,0.7970931,-0.5172089,0.01455355,-0.47280353,0.7130974,-0.107497826,0.2688601,-0.027267009,-0.79629666,0.6091237,-0.046328213,-0.677855,0.8139698,-0.104340605,0.2564998,-0.42455503,-0.22514334,0.30552846,0.27631056,0.8481852,0.7003512,-0.4848677,0.7156944,0.4421163,-0.38587114,0.019667374,-0.7102124,0.79536504,0.017361682,-0.01818369,-0.37136364,0.24195881,-0.24458092,0.97292924,-0.07559064,0.8674086,0.2996174,0.7896571,-0.008584886,-0.6976562,0.34404647,0.15898652,-0.526799,-0.6569301,-0.8520596,-0.78516966,-1.0072055,0.76415634,0.9002803,0.59386575,0.56629246,0.75857234,-0.31513628,-0.011049744,-0.9425756,0.028393578,0.40623188,-0.29366812,-0.19930367,-0.64338803,0.5374814,-0.54309905,-0.32871944,0.53163415,0.39975864,0.83532727,-0.67905617,0.73962206,0.34951088,-0.25767475,0.030105505,-0.06442368,0.80112606,-0.39229235,-0.9568285,0.6918247,-0.08458054,0.38209075,0.62898296,0.3823858,-0.57674307,0.43550014,-0.05219024,0.61719674,-0.85133094,0.45575956,0.09274334,0.4909625,-0.5072651,0.2715704,-0.9980167,0.14423552,-0.23626402,0.41031915,0.022213155,-0.64234376,-0.08836061,0.5031227,-0.54812855,-0.34855774,-0.28986368,-0.7571626,0.0708182,0.49989828,-0.18584219,0.3632756,-0.35094714,-0.5383482,0.08475322,-0.04698764,0.47818902,-0.14723814,0.15561157,-0.3938786,-0.608195,-0.7395463,0.31676343,0.8294895,-0.5111722,0.32871628,-0.7873597,-0.9004894,0.10985086,-0.7988338,0.25785798,0.5814332,0.35554147,-0.34981206,-0.87106615,-0.24453855,-0.5177415,0.04633739,-0.67094755,-0.22312509,0.30371428,-0.9103226,0.76123196,-0.44752905,0.7976223,-0.563741,0.6479731,0.054156393,-0.39132962,-0.4020988,0.5572129,-0.6442708,1.0029644,1.0131261,0.27678636,-0.009740869,0.53309643,0.14981543,0.4805619,-0.70515215,-0.8787577,0.47291052,-0.69117063,-0.69931424,-0.23719925,0.42483768,-0.980333,0.5207528,0.45122144,0.86265486,0.8117561,0.28622764,-0.46924165,0.6590243,-0.3678477,-0.27913374,0.8607114,0.6029362,-0.63852274,0.5858779,0.91947836,0.3845935,-0.16613133,0.7050751,0.954239,0.29168388,-0.21389179,-0.83758867,-0.768407,-0.7067235,0.70902264,0.30414543,-0.5861399,-0.6097554,-0.394767,0.4394151,0.8832887,0.8762077,0.4018247,-0.34281045,0.5763404,-0.61372757,-0.5925018,-0.3239747,0.50451195,0.7596228,-0.5940438,0.8203456,-0.4483274,-0.42276964,0.99303186,-0.4966815,-0.7490296,-0.5020537,-0.1933374,0.030962994,-0.5971705,0.3468206,-0.11452889,0.083784774,0.8689947,0.52571756,0.5209627,-0.62120813,0.82631105,0.74518687,-0.22456817,0.6317838,-0.49372208,-0.49921444,0.42897952,0.6601921,0.22812614,0.04621492,-0.45773062,0.16818967,-0.1216138,-0.054903433,1.0150185,-0.8141656,0.14879946,-0.15305,-0.7291044,0.4145864,0.32672986,0.7545734,-0.27596223,0.61801285,0.24441566,0.01824561,0.3200347,-0.24681345,0.87930554,-0.95342684,0.124897696,-0.45309734,0.8972192,-0.9634275,0.6288093,-0.9871964,-0.47771668,0.6256584,-0.6254078,0.6451987,-0.8572534,-0.73220694,-0.5371109,0.31818908,-0.82764983,-0.5707107,0.4799227,0.58307076,-0.5333026,0.41425818,0.41959232,-0.5958141,-0.030219886,-0.84104866,-0.8122206,-0.5244548,-0.67492664,-0.31597504,0.78692496,-0.8177465,-0.63442993,0.5626094,0.27128303,0.6407656,-0.958419,0.1750064,-0.87462777,-0.9755262,-0.90602183,0.8603891,-0.23778021,-0.42054507,-0.29585174,-0.89291716,0.85906875,0.8095714,0.50131565,-0.15705633,0.077602446,-0.24001253,-0.56401086,0.59512013,-0.03919586,0.6548479,0.017840907,-0.9987344,-0.7538864,-0.8269764,-0.40606356,-0.9975631,0.3899397,0.4496708,-0.7447397,0.53146744,-0.044094346,-0.7055284,0.78341395,-0.34185216,0.8858839,0.37702763,0.036221724,0.85169005,0.8162435,0.29307568,-0.83650357,0.6076913,0.09138935,-0.6457163,-0.3479575,-0.96512866,0.33422637,-0.27355254,0.88325703,0.71529925,-0.4035645,-0.598155,0.46302056,0.66335285,0.7851977,0.36721173,-0.25679877,0.65053564,0.89516425,-0.7494866,-0.3510467,-0.67599785,0.3035895,0.78453326,0.6681665,-0.6561271,0.701798,0.64980835,0.4831331,-0.9267619,-0.81068015,0.5234615,-0.66628456,-0.8299087,0.8538252,-0.9150545,0.57967263,0.79323703,-0.40926528,0.07806184,0.712491,-0.27832633,-0.81553996,0.63788575,0.21449368,-0.5587848,0.5433318,0.6652749,0.05030135,0.82650006,0.31982535,0.7544376,-0.60518926,-0.20760971,0.21662901,-0.83641243,-0.49589482,0.24274616,-0.45204335,0.3947113,-0.8324618,0.39289254,-0.6923191,0.168316,-0.8377743,0.6793137,-0.80715877,-0.8474014,-0.93792826,-0.023282006,0.45907518,-0.4768697,-0.8608465,-0.53408176,-0.43295345,0.040060855,0.23859425,-0.41722974,-0.6653693,-0.33289543,-0.11490928,-0.012927214,-0.7628826,-0.8131313,0.11962963,-0.98323506,0.18160604,-0.28189716,0.66674954,0.69792,0.86713564,-0.6187914,0.16751562,-0.568335,0.95497686,0.9545367,-0.76148546,-0.23778619,-0.8935429,0.28509358,-0.83279675,0.6506676,-0.7519849,-0.88052434,-0.3124252,0.5606925,0.040203504,-0.5843088,-0.7082658,0.7564112,-0.3797999,-0.73414296,-0.27299693,-0.60293865,-0.9083854,0.45022935,-0.7813218,0.5835877,-0.5588436,-0.43074083,0.014172405,0.0968206,0.8784559,-0.4538567,-0.4696747,-1.0449866,-0.3393096,-0.9468858,-0.23205973,-0.5908841,0.31954116,0.8590343,0.50963485,-0.93983394,-0.4319439,0.7680617,-0.6654766,0.17473644,-0.32728007,-0.52921355,0.14138396,-0.7686902,0.54715234,-0.5190737,-0.86040527,-0.78544956,-1.0001401,-0.46030536,-0.81718427,0.33176923,0.8357961,-0.28405833,0.97306836,-0.61035585,0.95343536,0.925322,-0.4860526,-0.2260593,0.3590154,-0.4638365,0.6260917,0.6620195,-0.48999882,-0.1619694,-0.6589088,-0.23353608,-0.4221911,0.37367076,-0.88881904,-0.9954789,0.52160627,-0.58356744,-0.2410359,-0.32286173,0.5676172,0.93801373,-0.69122,-0.6333238,0.33181083,0.7102405,0.41973355,0.17361411,0.35915932,0.9011739,0.7836319,0.39552715,0.90641385,-0.31776085,-0.94244516,0.39335606,0.59631336,0.12240133,-0.9577091,0.27374485,0.9003686,0.08642812,-0.5769867,0.8219367,0.5445607,-0.14704026,-0.36582428,-0.44946417,-0.3579395,-0.3289818,0.52932703,-0.35031968,0.0001224576,0.91399586,0.68741983,0.9907288,0.10940753,-0.7675905,-0.6398058,0.74758154,-0.13189647,0.7094301,0.72807896,0.72598535,-0.41431352,-0.27061343,-0.6276483,-0.9192172,0.9279455,0.9738577,0.10764393,-0.8370919,0.8605698,-0.6323843,0.6373286,0.3850201,-0.33663458,0.90567666,0.5499665,0.8312178,0.61580175,-0.16132164,0.29857057,0.27188212,-0.22621873,0.30597675,0.21493635,0.25521517,0.91300046,0.0987755,-0.7559648,-0.65312904,0.7754257,0.3070641,-0.28380957,-0.81968117,-0.3051748,-0.7625827,0.73440117,-0.32535103,-0.7655284,0.59316635,0.73988193,-0.8836819,-0.56820714,0.6463997,0.5995598,-0.023628503,-0.7456824,0.85330653,-0.6432239,0.75455105,0.88154495,0.508026,0.83419263,0.822375,0.54265666,-0.04548605,-0.49373502,-0.93348247,0.8403116,-0.43060187,0.60732466,0.028100576,-0.9481338,-0.043958537,0.21572357,0.6926208,0.8175498,